svm_type c_svc
kernel_type rbf
gamma 0.01
nr_class 2
total_sv 302
rho 0.585476 
label 0 1 
nr_sv 130 172 
SV 
2.2337897201277 0:1.8358048 1:4.4989481 2:8.0233278 3:5.1409383 4:3.5821359 5:3.9419982 6:0.7410298 7:2.4052532 8:2.0464365 9:1.7967298 10:3.0131567 11:1.0143789 12:0.65371782 13:1.142444 14:0.20932013 15:2.8159785 16:2.2505002 17:1.9257025 18:1.0547574 19:1.4152927 20:0.64039618 21:0.73404515 22:0.64693934 23:0.46322063 24:0.13839778 25:0.51578385 26:0.35515735 27:0.19475271 28:0.12431332 29:0.21209052 30:1.4844375 31:3.0911255 32:1.5494213 33:1.1280295 34:1.4382759 35:2.1281128 36:0.2737208 37:0.65100121 38:1.488368 39:0.61808282 40:0.57208675 41:0.82250738 42:0.67473996 43:1.9450427 44:0.62021017 45:1.378907 46:1.6941725 47:1.0899512 48:0.45685121 49:0.38473657 50:0.70734042 51:0.32143578 52:0.72238153 53:0.36819404 54:0.19468355 55:0.14194284 56:0.41545153 57:0.28753489 58:0.23516504 59:0.15760824 60:0.46568105 61:1.6743231 62:1.5840745 63:2.7877858 64:0.9570533 65:1.7369627 66:0.62589014 67:1.0180081 68:2.2079146 69:1.2769934 70:0.24792214 71:1.7778001 72:1.475237 73:0.8855859 74:1.1044369 75:1.1511172 76:1.2210836 77:1.0035032 78:0.57235241 79:0.86492008 80:0.36926284 81:0.47371814 82:0.51430905 83:0.65365398 84:0.21345632 85:0.16997376 86:0.39065248 87:0.43809697 88:0.20843719 89:0.2897183 90:1.3705969 91:5.7012219 92:8.4300699 93:5.6982393 94:2.8699427 95:1.6500089 96:1.7611226 97:1.5826977 98:0.65303749 99:2.9414129 100:3.9453325 101:2.0921531 102:2.0789728 103:1.0408757 104:1.9196674 105:0.5896138 106:1.7095059 107:1.0112644 108:0.99917805 109:0.92236918 110:1.3330271 111:0.037642285 112:0.27816314 113:0.53588122 114:0.43592542 115:0.35557222 116:0.3178364 117:0.19751908 118:0.41207516 119:0.37074804 120:0 121:0 122:0 123:0 124:0 125:0 126:0 127:0 128:0 129:0 130:0 131:0 132:0 133:0 134:0 135:0 136:0 137:0 138:0 139:0 140:0 141:0 142:0 143:0 144:0 145:0 146:0 147:0 148:0 149:0 150:1 151:2 152:3 153:4 154:5 155:6 156:7 157:8 158:9 159:10 160:11 161:12 162:13 163:14 164:15 165:16 166:17 167:18 168:19 169:20 170:21 171:22 172:23 173:24 174:25 175:26 176:27 177:28 178:29 179:30 
1.569698317920646 0:5.44629 1:3.2696815 2:20.34642 3:13.611109 4:22.453293 5:15.342113 6:10.447261 7:8.2185011 8:2.173876 9:6.400805 10:6.5278368 11:4.7563496 12:2.0708408 13:1.500966 14:2.1771669 15:3.8949528 16:0.45224467 17:1.9520848 18:1.422713 19:0.57394522 20:0.84220284 21:0.86456156 22:1.0550863 23:1.140028 24:0.50844401 25:0.69433868 26:0.27330324 27:0.60949987 28:0.50279528 29:0.60112423 30:2.8940251 31:5.5514374 32:7.0693488 33:6.68189 34:1.8268628 35:3.5942461 36:2.6722436 37:1.5061439 38:0.81194174 39:0.92388648 40:1.365428 41:0.3170118 42:0.77205986 43:2.3985035 44:0.71593183 45:1.5074717 46:0.58084381 47:0.67569762 48:0.83845127 49:0.83284509 50:0.71117336 51:0.52857149 52:0.49432611 53:0.14816163 54:0.07877434 55:0.280009 56:0.29229143 57:0.15206444 58:0.24724124 59:0.13011135 60:2.0843139 61:2.1182635 62:3.3074279 63:5.4129567 64:4.8710575 65:3.5515373 66:2.9587092 67:0.2408724 68:1.8419609 69:1.2527645 70:1.4124236 71:1.233885 72:2.4547298 73:0.64389342 74:1.0008128 75:1.557934 76:0.82387584 77:0.96415645 78:1.0320463 79:0.3338607 80:0.3784416 81:0.88542223 82:0.55258721 83:0.66027451 84:0.58906978 85:0.17364031 86:0.68652809 87:0.18135186 88:0.1851396 89:0.20226789 90:5.9134116 91:4.0028343 92:20.613625 93:14.590235 94:21.933105 95:16.170206 96:8.5706453 97:7.6831951 98:3.4289348 99:6.8567314 100:6.4230962 101:3.9433763 102:3.9656708 103:2.510736 104:3.2326946 105:4.0417399 106:1.9977214 107:0.6854561 108:1.0391767 109:0.39766386 110:1.3168361 111:1.1304569 112:0.96871543 113:0.55090207 114:0.99307901 115:0.93006963 116:0.49774146 117:0.36851242 118:0.39782509 119:0.40958923 120:0 121:0 122:0 123:0 124:0 125:0 126:0 127:0 128:0 129:0 130:0 131:0 132:0 133:0 134:0 135:0 136:0 137:0 138:0 139:0 140:0 141:0 142:0 143:0 144:0 145:0 146:0 147:0 148:0 149:0 150:1 151:2 152:3 153:4 154:5 155:6 156:7 157:8 158:9 159:10 160:11 161:12 162:13 163:14 164:15 165:16 166:17 167:18 168:19 169:20 170:21 171:22 172:23 173:24 174:25 175:26 176:27 177:28 178:29 179:30 
1.608742479921644 0:6.4714699 1:10.169478 2:25.568468 3:19.085901 4:17.080193 5:13.724147 6:9.9926004 7:8.202096 8:4.2502861 9:5.7305045 10:5.8145657 11:3.7038507 12:3.5554781 13:2.1535978 14:3.9629128 15:2.4852757 16:1.3701394 17:2.0193281 18:1.2785506 19:1.3885262 20:1.3792673 21:0.44683084 22:0.38614362 23:0.78840148 24:0.23533781 25:0.18371767 26:0.5189001 27:0.39372224 28:0.47394368 29:0.39066532 30:2.530612 31:5.2399912 32:12.014462 33:4.931366 34:2.0657382 35:3.0015235 36:1.9058965 37:1.1481187 38:0.3324329 39:0.10160655 40:1.8956358 41:0.28344291 42:0.5074088 43:0.93989807 44:1.4080275 45:0.62825781 46:0.49852523 47:1.3933436 48:0.59502017 49:0.54421049 50:0.43231207 51:0.089607581 52:0.022174312 53:0.17318045 54:0.33609325 55:0.067659348 56:0.035895512 57:0.27800882 58:0.15605792 59:0.15174396 60:1.3194106 61:5.0869284 62:7.8029499 63:3.8002801 64:3.6845694 65:3.4737821 66:0.76309174 67:2.2347693 68:1.193539 69:0.51499349 70:0.60823888 71:1.319319 72:1.1900214 73:1.4505744 74:1.0486817 75:2.0480306 76:0.2753754 77:1.1477146 78:0.95912093 79:0.81755048 80:0.22556403 81:0.3298057 82:0.39049116 83:0.34210622 84:0.25172654 85:0.30904818 86:0.13188092 87:0.30133685 88:0.23428069 89:0.13940978 90:7.6674533 91:12.090926 92:26.335611 93:19.869732 94:17.796961 95:13.051517 96:8.3843546 97:7.6493626 98:6.1771665 99:6.4199071 100:4.5504317 101:2.4649994 102:3.3026075 103:3.5239899 104:3.6878862 105:2.8560221 106:2.8271489 107:0.42958581 108:0.2893593 109:1.4501245 110:0.55846786 111:0.40339419 112:0.49858579 113:0.70244873 114:0.51307482 115:0.078503825 116:0.47752735 117:0.55919129 118:0.46541613 119:0.43129092 120:0 121:0 122:0 123:0 124:0 125:0 126:0 127:0 128:0 129:0 130:0 131:0 132:0 133:0 134:0 135:0 136:0 137:0 138:0 139:0 140:0 141:0 142:0 143:0 144:0 145:0 146:0 147:0 148:0 149:0 150:1 151:2 152:3 153:4 154:5 155:6 156:7 157:8 158:9 159:10 160:11 161:12 162:13 163:14 164:15 165:16 166:17 167:18 168:19 169:20 170:21 171:22 172:23 173:24 174:25 175:26 176:27 177:28 178:29 179:30 
1.659655013451439 0:1.982481 1:17.761332 2:18.552929 3:18.990273 4:14.468831 5:14.009489 6:11.424477 7:7.8032355 8:5.2691936 9:5.2544994 10:6.5175872 11:5.6964746 12:5.1376152 13:2.2002954 14:3.7955952 15:3.0790448 16:1.725515 17:2.7842066 18:1.2779953 19:2.4397235 20:0.69076788 21:0.78671449 22:0.98516822 23:0.67471224 24:0.96985435 25:1.1642442 26:0.35777012 27:0.96226412 28:0.74606651 29:0.98411006 30:1.4852618 31:7.5722437 32:8.4762421 33:3.5273952 34:2.6137984 35:4.0181689 36:1.9638585 37:1.6013966 38:0.27920762 39:0.81332618 40:0.57059497 41:0.78684491 42:0.33568162 43:0.6494174 44:1.8951381 45:0.45554152 46:0.41059855 47:0.98281497 48:1.1471564 49:0.25266674 50:0.36388132 51:0.66611987 52:0.67250061 53:0.47167826 54:0.23991378 55:0.24540226 56:0.20692746 57:0.37218237 58:0.23206343 59:0.1238521 60:1.1731343 61:5.7045126 62:6.8979959 63:4.6139317 64:2.898787 65:3.511961 66:1.7534343 67:1.6906821 68:0.39951384 69:1.2301387 70:0.69473094 71:1.5624512 72:1.4494807 73:1.2344521 74:0.31006414 75:0.83846474 76:0.81500119 77:1.3776755 78:0.67568451 79:0.94654059 80:0.1866819 81:0.46240106 82:0.5673179 83:0.39506936 84:0.38030767 85:0.077813573 86:0.19108272 87:0.14267397 88:0.1974245 89:0.13338944 90:2.3280199 91:20.46122 92:18.792461 93:19.47629 94:14.545014 95:11.890627 96:10.807899 97:8.16154 98:8.5235176 99:7.1537018 100:6.0767884 101:4.4837966 102:4.0220699 103:3.0596602 104:2.9947424 105:2.3578851 106:2.4082484 107:1.6264679 108:1.4860336 109:1.5572152 110:0.9642697 111:0.30796134 112:1.2249153 113:0.40531024 114:1.0994557 115:1.0931751 116:0.39113954 117:0.77013719 118:0.63192135 119:0.87940633 120:0 121:0 122:0 123:0 124:0 125:0 126:0 127:0 128:0 129:0 130:0 131:0 132:0 133:0 134:0 135:0 136:0 137:0 138:0 139:0 140:0 141:0 142:0 143:0 144:0 145:0 146:0 147:0 148:0 149:0 150:1 151:2 152:3 153:4 154:5 155:6 156:7 157:8 158:9 159:10 160:11 161:12 162:13 163:14 164:15 165:16 166:17 167:18 168:19 169:20 170:21 171:22 172:23 173:24 174:25 175:26 176:27 177:28 178:29 179:30 
2.398971106606818 0:5.2924056 1:6.633872 2:2.2834809 3:2.4512026 4:1.0986872 5:1.9939045 6:1.3003695 7:1.3762919 8:0.21477081 9:2.4784355 10:1.3997158 11:1.3042951 12:0.84219486 13:1.7240748 14:0.68410039 15:0.1113286 16:1.0508928 17:1.697952 18:1.1688697 19:1.0353111 20:1.1803122 21:0.82750809 22:0.99698198 23:0.37187269 24:0.91332352 25:0.28630126 26:0.43471956 27:0.56906617 28:0.20623562 29:0.45002329 30:2.1296351 31:1.7237943 32:1.632551 33:2.6046479 34:1.8570303 35:1.0475165 36:0.87572211 37:0.24995773 38:1.1708393 39:0.44801763 40:0.27283868 41:0.71676046 42:0.34273642 43:0.3267068 44:1.4678847 45:0.69677866 46:0.93117964 47:1.1131947 48:0.050391056 49:0.65663677 50:0.705746 51:0.6034717 52:0.71544206 53:0.40708739 54:0.26908207 55:0.19489476 56:0.39178169 57:0.11536496 58:0.14934048 59:0.19382048 60:1.6812695 61:1.4692121 62:2.211189 63:0.83451378 64:1.789813 65:1.7063453 66:0.69247591 67:2.3855126 68:0.57214665 69:0.93004358 70:0.67153758 71:0.61148292 72:1.5340924 73:0.75438017 74:1.8097771 75:1.1427702 76:0.79039878 77:1.0358412 78:0.40605277 79:1.2511384 80:0.26545563 81:0.79385877 82:0.34363303 83:0.32169569 84:0.18495798 85:0.27187535 86:0.12690926 87:0.1569082 88:0.23311804 89:0.052103281 90:6.3018064 91:6.9349203 92:3.4434409 93:2.5071931 94:1.8127619 95:3.1766455 96:3.5894604 97:2.1067135 98:1.7489523 99:0.77914745 100:1.7342747 101:2.5670047 102:2.5724647 103:1.5102395 104:1.5396589 105:1.3437444 106:1.4902036 107:0.22774367 108:0.2334418 109:0.82442105 110:1.0164511 111:0.29368091 112:0.70901191 113:0.24171236 114:0.72778064 115:0.12016259 116:0.21195613 117:0.34486455 118:0.22934347 119:0.5269962 120:0 121:0 122:0 123:0 124:0 125:0 126:0 127:0 128:0 129:0 130:0 131:0 132:0 133:0 134:0 135:0 136:0 137:0 138:0 139:0 140:0 141:0 142:0 143:0 144:0 145:0 146:0 147:0 148:0 149:0 150:1 151:2 152:3 153:4 154:5 155:6 156:7 157:8 158:9 159:10 160:11 161:12 162:13 163:14 164:15 165:16 166:17 167:18 168:19 169:20 170:21 171:22 172:23 173:24 174:25 175:26 176:27 177:28 178:29 179:30 
1.430608933848492 0:0.63947475 1:0.54412997 2:3.2671118 3:3.3452108 4:1.113028 5:0.53928602 6:0.98959476 7:1.8563377 8:0.66334146 9:2.8265731 10:1.6625639 11:1.1376027 12:0.5574854 13:0.88201261 14:0.092547193 15:0.24852145 16:1.0408993 17:1.4171941 18:1.556523 19:0.57655138 20:1.9049263 21:0.96635759 22:0.81830591 23:0.5591079 24:1.0083935 25:0.32383418 26:0.39670873 27:0.49111107 28:0.41803849 29:0.46086732 30:0.86004347 31:1.751574 32:1.4832237 33:2.1137018 34:1.2776434 35:1.323678 36:0.57253677 37:0.10662198 38:1.0915797 39:0.45277137 40:1.1957138 41:1.1239103 42:0.86753839 43:0.66191196 44:0.80777377 45:0.35076404 46:1.3256961 47:0.78476071 48:0.67835033 49:0.1941938 50:0.62215704 51:0.56213593 52:0.42080313 53:0.63264418 54:0.5220589 55:0.09535671 56:0.35250777 57:0.19333746 58:0.11969594 59:0.24409986 60:0.53670639 61:1.2705998 62:1.2671169 63:1.5010662 64:2.2269552 65:1.0879278 66:0.9747172 67:2.2783678 68:1.2855139 69:0.31812221 70:0.44203177 71:0.76384389 72:2.0359695 73:0.38865605 74:1.416219 75:1.1090405 76:0.60273337 77:0.6337449 78:0.50817096 79:1.08315 80:0.72597831 81:0.29541612 82:0.48566222 83:0.2527566 84:0.33835563 85:0.15720645 86:0.40277997 87:0.15971063 88:0.082732201 89:0.18417966 90:1.2246518 91:1.1407057 92:1.7080959 93:2.5814528 94:4.3505011 95:1.8728471 96:2.8545315 97:2.5918176 98:1.5014491 99:2.1253538 100:2.8560915 101:3.3344691 102:2.5683277 103:1.218667 104:0.52855456 105:1.7739372 106:0.71382457 107:1.5966858 108:1.3685422 109:0.99893236 110:1.535534 111:0.3903839 112:1.0066191 113:0.70730728 114:0.33211023 115:0.43975869 116:0.62742698 117:0.36178759 118:0.25491974 119:0.56657177 120:0 121:0 122:0 123:0 124:0 125:0 126:0 127:0 128:0 129:0 130:0 131:0 132:0 133:0 134:0 135:0 136:0 137:0 138:0 139:0 140:0 141:0 142:0 143:0 144:0 145:0 146:0 147:0 148:0 149:0 150:1 151:2 152:3 153:4 154:5 155:6 156:7 157:8 158:9 159:10 160:11 161:12 162:13 163:14 164:15 165:16 166:17 167:18 168:19 169:20 170:21 171:22 172:23 173:24 174:25 175:26 176:27 177:28 178:29 179:30 
0.811207214028838 0:0.63615614 1:0.59866881 2:3.6776974 3:2.2205567 4:1.1403813 5:1.1052165 6:0.50499791 7:1.7603382 8:1.7030283 9:2.5134423 10:2.906009 11:1.2271415 12:0.53582847 13:1.702579 14:1.499226 15:1.2539351 16:0.75877619 17:1.3959461 18:1.2937604 19:1.3919588 20:2.283715 21:0.49200913 22:1.1068461 23:0.55210459 24:0.80839646 25:0.81073016 26:0.38678837 27:0.3709352 28:0.6283263 29:0.29426301 30:0.42131105 31:1.6637427 32:1.8262558 33:2.3843708 34:1.0770057 35:0.3645581 36:1.7308768 37:0.90902996 38:0.93880081 39:0.90760612 40:1.667181 41:1.2325809 42:0.4449456 43:0.73728448 44:1.0339299 45:0.62401611 46:0.71887708 47:0.42370728 48:0.90050876 49:0.38600507 50:0.89576405 51:0.75206804 52:0.29819375 53:0.47971207 54:0.26026678 55:0.357577 56:0.26980954 57:0.23565854 58:0.10966443 59:0.25613025 60:0.25372544 61:1.187278 62:1.6159703 63:0.61148649 64:3.3957791 65:0.78353584 66:0.34105754 67:1.2800883 68:0.83695847 69:1.0936497 70:1.0560454 71:0.96270543 72:1.5306594 73:0.3293491 74:1.1316938 75:0.94868809 76:1.1138406 77:0.44187072 78:1.3319952 79:0.43731892 80:0.8152402 81:0.53590286 82:0.68472219 83:0.33257473 84:0.17401572 85:0.22838688 86:0.081846595 87:0.095410131 88:0.14779897 89:0.16596156 90:0.64061552 91:2.241009 92:2.1594372 93:2.2591128 94:2.7431419 95:3.8753526 96:1.7481165 97:2.197928 98:2.9562407 99:1.2757173 100:5.1817489 101:1.5425494 102:0.63910782 103:0.77552384 104:1.3870991 105:1.6940291 106:0.66866964 107:0.17121054 108:2.3482881 109:1.5641369 110:2.1479394 111:1.9718282 112:0.43467054 113:0.5041917 114:0.47955823 115:0.78383517 116:0.3107973 117:0.58531243 118:0.32166535 119:0.27482399 120:0 121:0 122:0 123:0 124:0 125:0 126:0 127:0 128:0 129:0 130:0 131:0 132:0 133:0 134:0 135:0 136:0 137:0 138:0 139:0 140:0 141:0 142:0 143:0 144:0 145:0 146:0 147:0 148:0 149:0 150:1 151:2 152:3 153:4 154:5 155:6 156:7 157:8 158:9 159:10 160:11 161:12 162:13 163:14 164:15 165:16 166:17 167:18 168:19 169:20 170:21 171:22 172:23 173:24 174:25 175:26 176:27 177:28 178:29 179:30 
1.032215120550769 0:1.456625 1:0.42040119 2:3.5157156 3:0.80820209 4:2.0687041 5:1.2797135 6:0.28848183 7:0.55327797 8:2.1982429 9:3.6411874 10:2.3624654 11:1.0668677 12:0.61588383 13:1.4444295 14:1.366145 15:2.3202939 16:1.8589928 17:0.92581803 18:1.0374328 19:2.0816355 20:1.3347671 21:1.5245711 22:0.57161772 23:0.94717497 24:0.17607003 25:1.0322042 26:0.60103816 27:0.18060796 28:0.43908605 29:0.41290432 30:1.0403049 31:0.63807589 32:0.45990771 33:2.489567 34:1.4488845 35:1.3250881 36:1.0351371 37:1.3122928 38:0.90225077 39:1.3958328 40:0.85744965 41:0.48555529 42:0.73925495 43:0.86067718 44:0.80534816 45:0.44213155 46:0.90728438 47:0.45704621 48:0.23796467 49:0.39761245 50:0.73219931 51:0.39274719 52:0.52555579 53:0.40922597 54:0.22802305 55:0.44350937 56:0.19866221 57:0.26136822 58:0.16279253 59:0.19907014 60:0.85846525 61:0.58667666 62:0.97247463 63:1.5129308 64:1.3360966 65:1.9044542 66:0.19358015 67:2.0507271 68:0.65959692 69:1.6942292 70:1.0770329 71:0.37505338 72:0.28892237 73:1.7481188 74:0.49154529 75:0.58828253 76:0.24747828 77:1.5383962 78:1.0480671 79:0.5503301 80:1.0184124 81:0.47113389 82:0.68996781 83:0.30505148 84:0.2021665 85:0.37520009 86:0.12237331 87:0.11604886 88:0.038856741 89:0.21716802 90:0.60479325 91:2.0597618 92:4.4644589 93:1.6972377 94:3.7063811 95:3.5422468 96:1.5953078 97:0.90836585 98:3.558599 99:4.8763008 100:3.1074574 101:1.0648543 102:0.78569102 103:0.68855071 104:2.600744 105:0.84147525 106:1.3769262 107:1.689514 108:1.4127544 109:1.4660606 110:2.773021 111:0.42198768 112:0.80647504 113:0.067811824 114:0.52990741 115:1.0036781 116:0.74917275 117:0.17835994 118:0.023671711 119:0.27470472 120:0 121:0 122:0 123:0 124:0 125:0 126:0 127:0 128:0 129:0 130:0 131:0 132:0 133:0 134:0 135:0 136:0 137:0 138:0 139:0 140:0 141:0 142:0 143:0 144:0 145:0 146:0 147:0 148:0 149:0 150:1 151:2 152:3 153:4 154:5 155:6 156:7 157:8 158:9 159:10 160:11 161:12 162:13 163:14 164:15 165:16 166:17 167:18 168:19 169:20 170:21 171:22 172:23 173:24 174:25 175:26 176:27 177:28 178:29 179:30 
0.495218743386787 0:0.28240067 1:1.3329751 2:2.7916322 3:1.2551583 4:3.2292502 5:1.2567629 6:0.43255714 7:0.85367465 8:0.954422 9:4.7107067 10:0.94157916 11:0.76419795 12:1.3373843 13:2.3683281 14:2.0242662 15:2.2655971 16:2.2323072 17:1.2106147 18:0.98003948 19:0.85149145 20:0.52398306 21:0.37189856 22:0.62273824 23:0.31944922 24:0.55364352 25:0.94286102 26:0.65828043 27:0.11577994 28:0.078874759 29:0.22673692 30:0.92777276 31:1.0764906 32:1.1128359 33:0.57382691 34:2.538511 35:0.53713638 36:0.46938297 37:0.87267667 38:0.62045401 39:0.59378916 40:0.92417151 41:0.37752545 42:0.50460315 43:1.1362145 44:0.34287381 45:0.52998024 46:1.1895188 47:0.7335611 48:0.27282 49:0.68310243 50:0.6193257 51:0.46790907 52:0.22841974 53:0.17338945 54:0.40899161 55:0.24906485 56:0.20467681 57:0.20602068 58:0.11183523 59:0.17023762 60:0.16191995 61:1.560635 62:0.52908462 63:0.40745127 64:0.94597489 65:1.3271037 66:0.72552365 67:1.7301743 68:0.80816054 69:1.2194639 70:0.7475701 71:1.3962616 72:0.74716812 73:1.5821118 74:0.1657383 75:0.64025909 76:0.71778494 77:0.54395801 78:1.0767839 79:1.0019186 80:0.73055428 81:0.71033323 82:0.59116167 83:0.20806155 84:0.16374658 85:0.1010308 86:0.30623838 87:0.16576409 88:0.053332459 89:0.19240846 90:0.32960936 91:3.0457916 92:1.2225635 93:4.2416759 94:1.6864357 95:3.4945469 96:2.4430866 97:1.2559289 98:1.8902752 99:5.1695461 100:2.431041 101:2.8699133 102:1.6395022 103:1.6060143 104:2.9975109 105:1.0309044 106:0.83748424 107:0.4372445 108:2.9954953 109:1.0938195 110:1.8355186 111:0.4583022 112:0.71847522 113:0.19289611 114:0.28266621 115:0.51251858 116:0.69528788 117:0.22486445 118:0.20674768 119:0.46471468 120:0 121:0 122:0 123:0 124:0 125:0 126:0 127:0 128:0 129:0 130:0 131:0 132:0 133:0 134:0 135:0 136:0 137:0 138:0 139:0 140:0 141:0 142:0 143:0 144:0 145:0 146:0 147:0 148:0 149:0 150:1 151:2 152:3 153:4 154:5 155:6 156:7 157:8 158:9 159:10 160:11 161:12 162:13 163:14 164:15 165:16 166:17 167:18 168:19 169:20 170:21 171:22 172:23 173:24 174:25 175:26 176:27 177:28 178:29 179:30 
2.994091153230709 0:0.55416274 1:2.1033392 2:1.1854161 3:2.581979 4:2.288341 5:0.71181053 6:0.70467615 7:2.210274 8:1.229817 9:2.160979 10:0.4867928 11:1.0257679 12:2.2310674 13:1.1456867 14:1.4515449 15:0.174611 16:1.6478028 17:0.67086881 18:1.1726525 19:1.3891366 20:1.0869279 21:0.28503913 22:0.83274829 23:0.77264404 24:0.21554902 25:1.0080373 26:0.28146291 27:0.26373199 28:0.16799478 29:0.36981261 30:0.50024557 31:0.36723202 32:1.6879799 33:1.3484271 34:0.71622592 35:0.45761478 36:0.77728438 37:0.73232508 38:0.54979551 39:0.48796919 40:0.23447314 41:0.47095832 42:1.6049739 43:1.4492542 44:1.0908687 45:0.37669349 46:1.5668123 47:0.85903621 48:0.53248399 49:0.46981549 50:0.44689634 51:0.10913566 52:0.11056067 53:0.40638345 54:0.12734953 55:0.21841983 56:0.24610485 57:0.20180838 58:0.17023286 59:0.17947407 60:0.5665862 61:0.67269498 62:2.0761237 63:0.40685326 64:1.8664093 65:0.96741629 66:0.38148782 67:1.0593984 68:0.45791629 69:0.72253937 70:0.34719387 71:0.44982976 72:0.64709699 73:1.9851896 74:0.063781239 75:0.77057076 76:1.0240368 77:0.82648265 78:0.71962368 79:0.34977871 80:0.19562976 81:0.34719387 82:0.59364229 83:0.53653991 84:0.18264376 85:0.57671988 86:0.025294038 87:0.30569854 88:0.029325576 89:0.044253953 90:0.84641623 91:2.2579584 92:3.5516245 93:1.1964468 94:4.6887321 95:3.4463151 96:5.3604984 97:3.0028861 98:2.5209653 99:1.7903534 100:0.71234721 101:3.0842996 102:3.2047994 103:4.4537001 104:2.1574447 105:1.3967043 106:1.5776366 107:0.44560459 108:1.847279 109:1.9576502 110:0.64936525 111:0.028143935 112:0.9302513 113:1.1592426 114:0.15353803 115:0.35345769 116:0.055511825 117:0.32328248 118:0.073409773 119:0.12892352 120:0 121:0 122:0 123:0 124:0 125:0 126:0 127:0 128:0 129:0 130:0 131:0 132:0 133:0 134:0 135:0 136:0 137:0 138:0 139:0 140:0 141:0 142:0 143:0 144:0 145:0 146:0 147:0 148:0 149:0 150:1 151:2 152:3 153:4 154:5 155:6 156:7 157:8 158:9 159:10 160:11 161:12 162:13 163:14 164:15 165:16 166:17 167:18 168:19 169:20 170:21 171:22 172:23 173:24 174:25 175:26 176:27 177:28 178:29 179:30 
2.323675756953953 0:0.52845538 1:1.6865853 2:1.8390487 3:2.5686479 4:1.3211381 5:0.605591 6:0.87172276 7:1.5328403 8:2.5423775 9:1.307005 10:1.6528878 11:0.15278643 12:2.1668847 13:1.3995334 14:0.74637872 15:1.734622 16:0.2720269 17:1.4836208 18:2.0184085 19:0.81265694 20:1.850342 21:0.44760606 22:1.0119696 23:0.77648693 24:0.29324144 25:0.64195889 26:0.32265791 27:0.28499627 28:0.30486625 29:0.40566009 30:0.661717 31:0.39724016 32:0.67306381 33:1.6133683 34:1.1924487 35:0.95082974 36:0.34566361 37:1.2986867 38:0.54879993 39:0.676094 40:0.41337916 41:1.3931084 42:0.46031052 43:1.9199796 44:1.4519199 45:0.52379715 46:1.0272099 47:0.91837704 48:0.41903538 49:0.35167736 50:0.019960163 51:0.38362369 52:0.10385632 53:0.30530155 54:0.1592956 55:0.15387775 56:0.10184787 57:0.18498865 58:0.10932138 59:0.048613992 60:0.89067674 61:0.86538839 62:0.59555578 63:1.7584403 64:1.1813605 65:1.819171 66:0.40594023 67:0.77624637 68:0.49555576 69:0.18895088 70:0.98900414 71:0.13897787 72:1.3975929 73:1.3515726 74:0.18123806 75:0.89278561 76:1.4797196 77:0.42007574 78:0.93035102 79:0.44053599 80:0.24192171 81:0.53966951 82:0.45232841 83:0.61399049 84:0.36097136 85:0.69527954 86:0.11079129 87:0.42801782 88:0.11977255 89:0.26425201 90:2.1519938 91:3.9575522 92:2.5983858 93:4.529438 94:2.1077638 95:2.9048307 96:5.3770051 97:5.9629483 98:0.89522928 99:3.0856137 100:1.4695404 101:1.6320652 102:3.1928153 103:3.4912419 104:0.9943133 105:2.1440363 106:1.0554327 107:1.0897435 108:0.81872058 109:0.59764653 110:2.7445498 111:1.767737 112:0.33017486 113:1.6559088 114:0.62176991 115:0.77133298 116:0.54829639 117:0.27264181 118:0.40298274 119:0.60253835 120:0 121:0 122:0 123:0 124:0 125:0 126:0 127:0 128:0 129:0 130:0 131:0 132:0 133:0 134:0 135:0 136:0 137:0 138:0 139:0 140:0 141:0 142:0 143:0 144:0 145:0 146:0 147:0 148:0 149:0 150:1 151:2 152:3 153:4 154:5 155:6 156:7 157:8 158:9 159:10 160:11 161:12 162:13 163:14 164:15 165:16 166:17 167:18 168:19 169:20 170:21 171:22 172:23 173:24 174:25 175:26 176:27 177:28 178:29 179:30 
1.307232028535336 0:0.39466506 1:0.5997588 2:0.76829034 3:0.8214159 4:3.8565235 5:1.8489914 6:2.30988 7:1.294794 8:0.34022254 9:3.4686959 10:2.7372103 11:1.7721469 12:1.2052691 13:1.6752512 14:3.1076055 15:1.8586307 16:0.17739782 17:1.1081555 18:1.1533349 19:3.4191663 20:1.1906408 21:0.91748905 22:0.20147403 23:0.3252497 24:0.25929931 25:0.34942913 26:0.13089141 27:0.26866961 28:0.26674876 29:0.39471579 30:0.67027867 31:1.393278 32:1.2345139 33:1.1373974 34:2.8155456 35:0.71523368 36:0.32914552 37:2.3061268 38:0.90028423 39:0.50531876 40:0.27205378 41:0.79248792 42:1.811974 43:0.90099186 44:0.21583056 45:0.3898766 46:1.0497429 47:0.2272438 48:0.21357116 49:0.81966949 50:0.057686064 51:0.60791367 52:0.33714339 53:0.13434701 54:0.23893012 55:0.19022723 56:0.19107334 57:0.15786549 58:0.052183814 59:0.085603364 60:0.76042211 61:1.0694157 62:0.73038006 63:0.90383512 64:1.9197236 65:2.178508 66:0.8640058 67:0.48236373 68:1.289163 69:1.3221464 70:1.03232 71:0.24740167 72:2.1142225 73:0.80672288 74:0.57633573 75:1.4742017 76:0.42589432 77:0.33257416 78:0.56902939 79:1.0336919 80:0.90869695 81:0.51388568 82:0.071521737 83:0.38277456 84:0.55595255 85:0.36892599 86:0.29578486 87:0.289186 88:0.20055239 89:0.30160055 90:1.1878794 91:3.1754155 92:4.3987556 93:5.1348686 94:1.9125471 95:1.1090848 96:2.342802 97:1.3647571 98:3.4641049 99:1.1168677 100:3.7406867 101:1.6129742 102:3.0476964 103:1.3016036 104:0.69360673 105:3.2343557 106:1.727419 107:0.70182359 108:1.2591628 109:3.1272998 110:2.48892 111:0.55750102 112:0.41765368 113:0.29420739 114:0.43635666 115:0.66688991 116:0.20632601 117:0.38082469 118:0.83550429 119:0.73518348 120:0 121:0 122:0 123:0 124:0 125:0 126:0 127:0 128:0 129:0 130:0 131:0 132:0 133:0 134:0 135:0 136:0 137:0 138:0 139:0 140:0 141:0 142:0 143:0 144:0 145:0 146:0 147:0 148:0 149:0 150:1 151:2 152:3 153:4 154:5 155:6 156:7 157:8 158:9 159:10 160:11 161:12 162:13 163:14 164:15 165:16 166:17 167:18 168:19 169:20 170:21 171:22 172:23 173:24 174:25 175:26 176:27 177:28 178:29 179:30 
0.2888650866044632 0:0.91652954 1:1.785324 2:0.97264743 3:4.3246117 4:2.3675468 5:2.4914451 6:2.6410553 7:0.55690068 8:1.2339686 9:4.402926 10:1.1698554 11:1.7545958 12:0.86583722 13:1.8981824 14:0.5260666 15:0.3877373 16:2.231838 17:1.6834514 18:1.10821 19:0.75709182 20:1.2119137 21:0.99154848 22:0.60183185 23:1.1699524 24:0.52888238 25:0.68242341 26:0.23697177 27:0.2669898 28:0.59669292 29:0.3747966 30:0.5503841 31:1.1777196 32:2.7822063 33:1.7995995 34:1.5289288 35:0.88948661 36:0.25792035 37:1.0986444 38:2.2336891 39:1.0904273 40:0.051427383 41:0.41112956 42:0.6678459 43:0.92761189 44:0.58803219 45:0.68989754 46:0.97441822 47:0.65609246 48:0.28500941 49:0.069859698 50:0.97015417 51:0.062276416 52:0.30726585 53:0.23435953 54:0.37947169 55:0.28048947 56:0.25381798 57:0.22603439 58:0.23637515 59:0.062627599 60:0.39380622 61:0.59512299 62:0.87592089 63:1.8300953 64:0.31773084 65:1.0576546 66:0.7748853 67:0.74461454 68:0.94581211 69:1.9702334 70:1.7433774 71:0.50843459 72:1.243384 73:0.77159524 74:1.2652183 75:0.54301077 76:1.2047063 77:0.41167772 78:0.26381171 79:0.22562717 80:0.25880295 81:0.26768386 82:0.62133861 83:0.1826643 84:0.54639363 85:0.37692186 86:0.22413631 87:0.088741586 88:0.2182413 89:0.19871625 90:1.4263994 91:2.749311 92:1.6996858 93:6.7117233 94:1.0625306 95:3.6219068 96:0.32013696 97:1.5778702 98:2.2723308 99:1.8002379 100:2.4345672 101:1.9559175 102:1.0021112 103:1.9668341 104:2.3192396 105:1.0127096 106:1.1919181 107:0.89047527 108:1.8886956 109:0.90448195 110:0.45970395 111:0.96443236 112:0.65896142 113:1.1255283 114:0.68303066 115:1.3117222 116:0.7056179 117:0.20785932 118:0.45200232 119:0.24997027 120:0 121:0 122:0 123:0 124:0 125:0 126:0 127:0 128:0 129:0 130:0 131:0 132:0 133:0 134:0 135:0 136:0 137:0 138:0 139:0 140:0 141:0 142:0 143:0 144:0 145:0 146:0 147:0 148:0 149:0 150:1 151:2 152:3 153:4 154:5 155:6 156:7 157:8 158:9 159:10 160:11 161:12 162:13 163:14 164:15 165:16 166:17 167:18 168:19 169:20 170:21 171:22 172:23 173:24 174:25 175:26 176:27 177:28 178:29 179:30 
0.4081350156306506 0:1.1117409 1:1.1956189 2:0.89889711 3:1.890631 4:0.65148652 5:0.31624827 6:1.2149073 7:1.2096974 8:0.30476651 9:3.2671456 10:2.2733612 11:0.91458976 12:1.3728813 13:0.63300329 14:1.5794171 15:1.8425555 16:1.0425398 17:0.9293192 18:0.79254115 19:0.63484436 20:1.338088 21:0.31818113 22:0.53955972 23:1.3792913 24:1.3194619 25:0.68584973 26:0.7452504 27:0.52319229 28:0.39500561 29:0.43928105 30:0.44437906 31:1.5281274 32:2.2955234 33:2.3524878 34:1.042035 35:1.8205569 36:0.30876821 37:2.0587049 38:0.42533225 39:0.97846156 40:1.4686255 41:0.53870314 42:0.35555813 43:0.62275565 44:0.7007367 45:0.82122266 46:0.81621516 47:0.86264515 48:0.56608152 49:0.2584292 50:0.41590133 51:0.526981 52:0.12209257 53:0.48167977 54:0.17495346 55:0.45866138 56:0.31932685 57:0.19821434 58:0.13432504 59:0.10695478 60:0.29181457 61:0.44290087 62:0.5654673 63:1.6092225 64:0.5164386 65:0.4508757 66:1.7296486 67:0.84397691 68:0.80989563 69:1.5106845 70:0.96494836 71:0.92951429 72:0.82248646 73:0.19840978 74:0.8610633 75:1.1747799 76:0.64215612 77:0.30737397 78:0.47742793 79:0.25430954 80:0.64523482 81:0.81912071 82:0.47909683 83:0.13940915 84:0.70417875 85:0.34901732 86:0.31291807 87:0.17458107 88:0.095738962 89:0.050592314 90:1.7405026 91:1.4294938 92:0.69950396 93:5.1230316 94:1.3296643 95:3.6084573 96:0.76110893 97:1.7646016 98:2.0065279 99:1.5171328 100:1.6505114 101:1.2977122 102:1.3645587 103:0.5818606 104:0.96341223 105:2.9446025 106:1.1321701 107:1.883796 108:0.33491668 109:1.0761515 110:0.84617567 111:0.84857035 112:0.65661967 113:1.0642279 114:0.78302473 115:1.4706194 116:0.8620919 117:0.31401199 118:0.21015193 119:0.30114612 120:0 121:0 122:0 123:0 124:0 125:0 126:0 127:0 128:0 129:0 130:0 131:0 132:0 133:0 134:0 135:0 136:0 137:0 138:0 139:0 140:0 141:0 142:0 143:0 144:0 145:0 146:0 147:0 148:0 149:0 150:1 151:2 152:3 153:4 154:5 155:6 156:7 157:8 158:9 159:10 160:11 161:12 162:13 163:14 164:15 165:16 166:17 167:18 168:19 169:20 170:21 171:22 172:23 173:24 174:25 175:26 176:27 177:28 178:29 179:30 
2.5684974538432 0:0.18027775 1:1.8453661 2:0.64056051 3:1.6967133 4:0.50533056 5:0.56230694 6:0.73024619 7:2.7007394 8:2.7939985 9:1.2708395 10:4.6102829 11:2.2125678 12:0.96507215 13:0.32650897 14:0.67068374 15:2.1966748 16:2.1534002 17:1.8039736 18:0.75581706 19:1.1868037 20:0.41437241 21:1.0833112 22:0.30126172 23:0.50504476 24:1.4818075 25:0.17986415 26:0.41173744 27:0.67936438 28:0.58802789 29:0.56077212 30:0.60964704 31:0.29408765 32:1.3832716 33:1.4246476 34:1.5654852 35:1.9017043 36:1.9414805 37:0.30082476 38:1.4224217 39:0.54386306 40:2.2975299 41:0.27621675 42:0.92283463 43:0.30169237 44:1.1834608 45:0.93916446 46:0.89247364 47:0.81204224 48:0.3940798 49:0.63430476 50:0.50517637 51:0.53578216 52:0.15696235 53:0.60272247 54:0.14533243 55:0.48817372 56:0.19183427 57:0.29015034 58:0.15982242 59:0.087122984 60:0.15649131 61:1.4087499 62:1.5658101 63:0.65665162 64:1.2413499 65:0.92224628 66:1.573807 67:0.68624043 68:0.38091531 69:1.4003996 70:0.75778693 71:1.6791093 72:0.66660219 73:1.1037526 74:0.54581767 75:1.0577834 76:0.64652115 77:0.082359649 78:0.46737242 79:0.25559959 80:0.94409966 81:0.26711732 82:0.4280746 83:0.71014386 84:0.067391083 85:0.20106104 86:0.51662761 87:0.2291479 88:0.21473457 89:0.11228241 90:1.838163 91:2.6831577 92:4.4484143 93:6.5991092 94:3.5312686 95:7.5608897 96:4.1457143 97:3.7038116 98:2.1837177 99:5.3081141 100:1.3078033 101:1.0302534 102:2.7664027 103:3.2554526 104:2.7875559 105:1.2152989 106:1.5034308 107:2.1365612 108:0.4212231 109:0.54034168 110:1.7595928 111:0.69659185 112:0.89606601 113:0.44445887 114:1.800753 115:0.16306087 116:0.18454069 117:0.33636817 118:0.57882965 119:0.64296716 120:0 121:0 122:0 123:0 124:0 125:0 126:0 127:0 128:0 129:0 130:0 131:0 132:0 133:0 134:0 135:0 136:0 137:0 138:0 139:0 140:0 141:0 142:0 143:0 144:0 145:0 146:0 147:0 148:0 149:0 150:1 151:2 152:3 153:4 154:5 155:6 156:7 157:8 158:9 159:10 160:11 161:12 162:13 163:14 164:15 165:16 166:17 167:18 168:19 169:20 170:21 171:22 172:23 173:24 174:25 175:26 176:27 177:28 178:29 179:30 
2.161137784273276 0:0.54279685 1:0.75845182 2:2.5729754 3:0.80106276 4:1.0087802 5:0.19586352 6:1.1231829 7:0.82619166 8:3.3532491 9:3.4861343 10:0.74466646 11:5.7313776 12:0.84991342 13:0.73209196 14:1.2565646 15:1.5134398 16:1.3251948 17:2.2658076 18:1.1372315 19:0.11107862 20:1.2617031 21:1.5338694 22:0.469567 23:0.34077659 24:1.2941216 25:0.27334166 26:0.38246781 27:0.12431537 28:0.20149848 29:0.14289038 30:0.83848023 31:1.1835911 32:1.7948307 33:1.3711369 34:1.1075118 35:2.029206 36:0.76033944 37:1.1046383 38:2.363873 39:0.32711712 40:1.8147789 41:0.64562351 42:1.7184079 43:0.83197492 44:1.2392746 45:0.99329448 46:0.79467702 47:0.43929824 48:0.039028641 49:0.71148145 50:0.090417646 51:0.10771884 52:0.086618215 53:0.52904856 54:0.22121143 55:0.1908149 56:0.44718266 57:0.082472809 58:0.086390376 59:0.1531864 60:0.52647221 61:1.2259367 62:2.0331266 63:0.98624802 64:0.44013429 65:1.1446698 66:1.6171017 67:0.97154528 68:0.1374587 69:0.70388681 70:0.44793245 71:1.4063802 72:0.64851129 73:0.89713115 74:0.4334527 75:0.89399332 76:0.40377706 77:0.050228275 78:0.27238408 79:0.77101934 80:0.40967435 81:0.57797331 82:0.77516031 83:0.48147607 84:0.11721486 85:0.2701318 86:0.43857184 87:0.018001698 88:0.046785019 89:0.049267765 90:3.2515428 91:5.6499352 92:1.2857924 93:9.8958406 94:8.954401 95:2.8465388 96:6.728425 97:6.4830494 98:4.7363067 99:5.1140184 100:0.64382154 101:3.9990883 102:3.3570065 103:4.0270019 104:2.5117762 105:1.7450051 106:0.82354969 107:1.8065176 108:1.7436094 109:0.75208873 110:0.75276452 111:0.058685023 112:0.80433357 113:0.84089291 114:1.2145194 115:0.75676966 116:0.26090932 117:0.38438973 118:0.53083277 119:0.31699768 120:0 121:0 122:0 123:0 124:0 125:0 126:0 127:0 128:0 129:0 130:0 131:0 132:0 133:0 134:0 135:0 136:0 137:0 138:0 139:0 140:0 141:0 142:0 143:0 144:0 145:0 146:0 147:0 148:0 149:0 150:1 151:2 152:3 153:4 154:5 155:6 156:7 157:8 158:9 159:10 160:11 161:12 162:13 163:14 164:15 165:16 166:17 167:18 168:19 169:20 170:21 171:22 172:23 173:24 174:25 175:26 176:27 177:28 178:29 179:30 
2.220574049967509 0:0.82656783 1:0.6632762 2:2.827626 3:2.8750961 4:1.4221487 5:0.90243477 6:0.71932817 7:1.424001 8:0.55834591 9:3.4644625 10:1.2050509 11:1.5400195 12:2.286592 13:2.7863665 14:0.96920228 15:0.8444981 16:1.7817338 17:1.0309361 18:0.2148691 19:0.38266206 20:2.3693445 21:1.8622432 22:0.55821741 23:0.47401994 24:0.28748271 25:0.41174302 26:0.47365502 27:0.48891199 28:0.65546834 29:0.27208441 30:1.1655115 31:1.074054 32:2.1425791 33:0.87326384 34:1.5656387 35:1.1761589 36:1.363843 37:1.8541052 38:1.7437705 39:0.60552305 40:0.55878013 41:0.49263307 42:0.11693419 43:0.54020333 44:1.0690622 45:0.66301793 46:0.17562625 47:0.55806333 48:0.33482322 49:0.76036108 50:0.4548485 51:0.20803191 52:0.31896186 53:0.47791585 54:0.086841889 55:0.36100793 56:0.11700757 57:0.10630018 58:0.3010737 59:0.1279577 60:0.11924557 61:0.99257714 62:2.1123459 63:2.4791999 64:0.69492823 65:1.0695114 66:0.61143106 67:0.53592777 68:1.0920464 69:0.77206707 70:1.305866 71:0.3622615 72:0.48261276 73:0.39194179 74:0.59377956 75:0.17288779 76:0.90938151 77:1.7324646 78:0.058970653 79:0.54330683 80:0.19602989 81:0.38771653 82:0.31152329 83:0.20471805 84:0.43552503 85:0.24292913 86:0.41587222 87:0.42936087 88:0.38481525 89:0.17346901 90:1.6999916 91:1.8322815 92:13.72464 93:11.418503 94:6.3825159 95:6.6711631 96:2.9798753 97:3.863071 98:2.5016811 99:5.0965858 100:3.0418742 101:1.6411946 102:1.678773 103:0.5944261 104:0.67938823 105:2.7378461 106:0.52994782 107:0.7111038 108:1.4366434 109:2.0396762 110:1.4328712 111:0.3838928 112:0.31515765 113:0.64905292 114:0.22028139 115:0.25869149 116:0.56325233 117:0.34590191 118:0.45528692 119:0.35495019 120:0 121:0 122:0 123:0 124:0 125:0 126:0 127:0 128:0 129:0 130:0 131:0 132:0 133:0 134:0 135:0 136:0 137:0 138:0 139:0 140:0 141:0 142:0 143:0 144:0 145:0 146:0 147:0 148:0 149:0 150:1 151:2 152:3 153:4 154:5 155:6 156:7 157:8 158:9 159:10 160:11 161:12 162:13 163:14 164:15 165:16 166:17 167:18 168:19 169:20 170:21 171:22 172:23 173:24 174:25 175:26 176:27 177:28 178:29 179:30 
3.979075617615159 0:0.30560759 1:1.7658334 2:2.0880992 3:2.2179303 4:2.377156 5:0.91746235 6:0.98156404 7:1.7714498 8:1.4656268 9:2.4548666 10:1.8030655 11:1.8461449 12:2.3590043 13:1.3721966 14:2.2157903 15:0.81969655 16:0.85053921 17:1.4403197 18:0.33570236 19:0.80054277 20:0.40061545 21:0.52401036 22:1.1277697 23:0.22803788 24:0.28013536 25:0.40508696 26:0.1135683 27:0.57707918 28:0.29117733 29:0.51833522 30:0.74832743 31:0.58798099 32:2.1740525 33:1.5990229 34:1.0257088 35:1.1951829 36:1.0392622 37:1.224624 38:1.1580828 39:0.960675 40:0.63345897 41:1.0679991 42:0.81714183 43:0.52321893 44:0.8197819 45:0.68332952 46:0.64791644 47:0.44460967 48:0.79740387 49:0.47956938 50:0.27374661 51:0.4718684 52:0.058557682 53:0.35414672 54:0.059170183 55:0.35274228 56:0.19541633 57:0.06908226 58:0.24668509 59:0.14020514 60:0.95970339 61:0.49054846 62:1.2359309 63:1.7645862 64:1.430993 65:2.1655388 66:1.2599421 67:0.58989173 68:1.4448892 69:0.15000796 70:0.52967077 71:0.64921898 72:0.26682711 73:0.28406763 74:0.48564735 75:0.3325229 76:1.0402772 77:1.2162501 78:0.76437831 79:0.90682685 80:0.87267137 81:0.34077007 82:0.24970324 83:0.44415355 84:0.45035073 85:0.18483467 86:0.32808384 87:0.25900149 88:0.19081365 89:0.17212743 90:3.2949815 91:6.155129 92:5.611361 93:7.9411373 94:7.6937509 95:8.3856955 96:5.8557091 97:4.2221193 98:1.4492753 99:3.9805741 100:4.098063 101:2.9194152 102:1.4282223 103:1.1971226 104:1.3898365 105:1.4047536 106:0.87796456 107:1.8637606 108:0.71002251 109:0.34008586 110:0.49880764 111:1.0200365 112:0.40611464 113:1.056187 114:1.1245542 115:0.60103494 116:0.23644163 117:0.82687604 118:0.18245846 119:0.56550246 120:0 121:0 122:0 123:0 124:0 125:0 126:0 127:0 128:0 129:0 130:0 131:0 132:0 133:0 134:0 135:0 136:0 137:0 138:0 139:0 140:0 141:0 142:0 143:0 144:0 145:0 146:0 147:0 148:0 149:0 150:1 151:2 152:3 153:4 154:5 155:6 156:7 157:8 158:9 159:10 160:11 161:12 162:13 163:14 164:15 165:16 166:17 167:18 168:19 169:20 170:21 171:22 172:23 173:24 174:25 175:26 176:27 177:28 178:29 179:30 
2.801817340717269 0:0.56180912 1:1.1397543 2:1.6325784 3:2.0793328 4:0.51000148 5:2.3708308 6:3.5750411 7:2.4602454 8:0.8646788 9:2.3335786 10:2.2665191 11:0.3110266 12:2.161799 13:2.1003754 14:0.90136343 15:1.228181 16:1.0701792 17:0.70315778 18:1.2942952 19:1.3554252 20:0.5391326 21:0.72086602 22:0.65934455 23:0.91575795 24:0.58480549 25:0.25142291 26:0.29913345 27:0.35682485 28:0.47209272 29:0.27242297 30:0.49483073 31:1.5126178 32:0.51923609 33:2.6301341 34:1.6331391 35:0.032960318 36:1.1450946 37:1.72041 38:1.0164332 39:1.3809979 40:1.1783838 41:0.8576591 42:1.3885447 43:1.2465279 44:1.5683411 45:0.42653778 46:0.68601263 47:0.7432757 48:0.63870603 49:0.087066762 50:0.34109294 51:0.79590917 52:0.31744841 53:0.20900404 54:0.25024942 55:0.26363477 56:0.22082077 57:0.15848769 58:0.062017761 59:0.17284079 60:0.17425695 61:1.7746054 62:1.2002418 63:1.0193422 64:1.5592198 65:1.4130054 66:1.5807739 67:0.74728131 68:1.1089493 69:0.70868367 70:0.65686661 71:0.95840311 72:0.51188344 73:0.64130527 74:0.19797161 75:0.62917215 76:0.92689544 77:0.82114303 78:1.2000902 79:0.59249049 80:0.61368018 81:0.29189071 82:0.67945349 83:0.15671797 84:0.17237341 85:0.37808439 86:0.22590895 87:0.091609411 88:0.07790073 89:0.15439475 90:1.0285619 91:5.0735822 92:4.7651505 93:2.9710906 94:6.1638398 95:5.3562479 96:0.89094931 97:6.6013942 98:1.1374003 99:1.5933012 100:2.8085325 101:2.9217596 102:0.81245488 103:2.4427898 104:1.0324055 105:0.42401433 106:1.0797127 107:3.3157468 108:0.50497109 109:1.166311 110:0.76234818 111:0.88684505 112:0.30323166 113:1.1120489 114:0.95462865 115:0.41956148 116:0.20307541 117:0.54240167 118:0.48685893 119:0.12316793 120:0 121:0 122:0 123:0 124:0 125:0 126:0 127:0 128:0 129:0 130:0 131:0 132:0 133:0 134:0 135:0 136:0 137:0 138:0 139:0 140:0 141:0 142:0 143:0 144:0 145:0 146:0 147:0 148:0 149:0 150:1 151:2 152:3 153:4 154:5 155:6 156:7 157:8 158:9 159:10 160:11 161:12 162:13 163:14 164:15 165:16 166:17 167:18 168:19 169:20 170:21 171:22 172:23 173:24 174:25 175:26 176:27 177:28 178:29 179:30 
2.501168704693086 0:0.38491714 1:2.1209478 2:1.4022691 3:1.2060174 4:1.7703581 5:2.5815501 6:3.4682608 7:2.5527503 8:1.055427 9:2.4237559 10:1.5033838 11:3.2100151 12:0.57618785 13:1.5893668 14:1.1018597 15:1.127089 16:1.0737282 17:0.99349791 18:0.8422116 19:1.9258251 20:0.43274119 21:0.33000585 22:0.4842743 23:0.74194342 24:0.43330631 25:0.52868825 26:0.11692971 27:0.057491999 28:0.21675673 29:0.27265963 30:0.42381904 31:0.41468477 32:1.6231767 33:1.8075205 34:2.073107 35:0.88293523 36:1.5844911 37:0.43887872 38:0.33168554 39:1.1560616 40:1.5578713 41:0.75207853 42:0.89554089 43:1.16947 44:1.5497684 45:0.50686914 46:0.37764147 47:0.74128658 48:0.27408743 49:0.58586287 50:0.90800864 51:0.44338012 52:0.28326362 53:0.33519492 54:0.14437789 55:0.13772722 56:0.32499546 57:0.076201089 58:0.17367697 59:0.050090171 60:0.43125859 61:0.91860449 62:2.1820543 63:1.2609162 64:0.95080405 65:1.232757 66:1.2195851 67:1.226162 68:0.73377562 69:0.38188297 70:0.96126008 71:0.66434336 72:0.87671441 73:1.2987466 74:0.98023963 75:0.46683943 76:0.87272328 77:0.46186301 78:1.0372556 79:1.1900609 80:0.24863297 81:0.49419323 82:0.33583888 83:0.58280796 84:0.51369917 85:0.23345417 86:0.18473919 87:0.27134609 88:0.13660525 89:0.048797268 90:1.1293126 91:2.9511499 92:4.6609421 93:4.5051241 94:3.2623494 95:4.5245967 96:1.9535196 97:4.9237838 98:2.9294555 99:1.3965304 100:1.5919689 101:2.2603478 102:0.94499725 103:2.2994893 104:1.7221851 105:0.97279459 106:1.609495 107:1.8921349 108:1.6396428 109:2.2045336 110:0.62655473 111:0.89877427 112:0.23962986 113:1.0010204 114:0.60358727 115:0.83267885 116:0.53856236 117:0.40413231 118:0.23362003 119:0.20365934 120:0 121:0 122:0 123:0 124:0 125:0 126:0 127:0 128:0 129:0 130:0 131:0 132:0 133:0 134:0 135:0 136:0 137:0 138:0 139:0 140:0 141:0 142:0 143:0 144:0 145:0 146:0 147:0 148:0 149:0 150:1 151:2 152:3 153:4 154:5 155:6 156:7 157:8 158:9 159:10 160:11 161:12 162:13 163:14 164:15 165:16 166:17 167:18 168:19 169:20 170:21 171:22 172:23 173:24 174:25 175:26 176:27 177:28 178:29 179:30 
0.9900324756888637 0:0.27807385 1:1.7440919 2:1.2728541 3:1.748559 4:3.9208708 5:1.6546767 6:1.7627238 7:0.56512731 8:0.82098562 9:4.2816277 10:3.1356127 11:3.5312648 12:0.80939329 13:1.7471173 14:0.86826974 15:1.4106487 16:1.0256255 17:0.70393878 18:0.15515359 19:1.9312339 20:0.72787511 21:1.4139373 22:0.90934002 23:0.71630317 24:0.86055261 25:0.31331721 26:0.23595801 27:0.37788913 28:0.43059564 29:0.15914534 30:0.078634441 31:1.4833978 32:2.0738792 33:1.084711 34:1.9218825 35:1.5346222 36:0.9788543 37:0.9051832 38:0.99928319 39:1.2743747 40:0.70100069 41:0.43477261 42:0.88800132 43:0.52936554 44:1.0998732 45:0.58729875 46:0.57418233 47:0.48010308 48:0.48873278 49:0.58378607 50:0.79345542 51:0.2791827 52:0.44829983 53:0.47873792 54:0.22475925 55:0.171546 56:0.16379312 57:0.19676605 58:0.13943942 59:0.078936383 60:0.45424941 61:0.63008243 62:2.2705305 63:1.6513628 64:2.5511887 65:0.44211605 66:0.60714614 67:1.2454238 68:0.95541352 69:0.38301876 70:1.0869601 71:1.5434431 72:0.23724017 73:1.2652482 74:2.1101291 75:1.0919961 76:1.1623123 77:0.91785955 78:0.38294634 79:0.94607669 80:0.36017942 81:0.37267292 82:0.35302487 83:0.0831903 84:0.56225193 85:0.40109715 86:0.25554594 87:0.25595254 88:0.20457669 89:0.03965826 90:1.2990074 91:2.5723114 92:2.2603354 93:4.1022568 94:4.4868345 95:4.6488085 96:4.5440574 97:2.059103 98:2.9751964 99:5.3729653 100:5.7245822 101:1.9095576 102:1.2317779 103:2.1030021 104:1.5671961 105:1.6702082 106:1.8968176 107:2.9543209 108:0.79680884 109:2.5667441 110:0.39208862 111:1.1158032 112:1.7084477 113:1.269537 114:1.01991 115:0.22487192 116:0.36806199 117:0.73628592 118:0.13011619 119:0.10379158 120:0 121:0 122:0 123:0 124:0 125:0 126:0 127:0 128:0 129:0 130:0 131:0 132:0 133:0 134:0 135:0 136:0 137:0 138:0 139:0 140:0 141:0 142:0 143:0 144:0 145:0 146:0 147:0 148:0 149:0 150:1 151:2 152:3 153:4 154:5 155:6 156:7 157:8 158:9 159:10 160:11 161:12 162:13 163:14 164:15 165:16 166:17 167:18 168:19 169:20 170:21 171:22 172:23 173:24 174:25 175:26 176:27 177:28 178:29 179:30 
0.5176388372069073 0:0.39401981 1:1.6622868 2:0.50395232 3:0.54189587 4:2.6956794 5:2.33444 6:1.8037099 7:1.306022 8:0.52194285 9:3.3335912 10:1.12169 11:1.9223617 12:2.2083576 13:1.9356673 14:0.71410424 15:0.80330795 16:1.6381929 17:1.2553264 18:1.4319788 19:1.3711399 20:0.83888477 21:0.88884056 22:1.231171 23:0.42581877 24:0.85079092 25:0.27906966 26:0.44961226 27:0.80121708 28:0.081985295 29:0.20388733 30:0.13300319 31:1.3138951 32:1.241658 33:0.75047666 34:0.13344544 35:0.84316421 36:0.94334674 37:0.25214121 38:0.3888604 39:0.64119631 40:0.11409329 41:0.77956784 42:1.022836 43:0.4045462 44:0.07265611 45:1.232854 46:0.36896095 47:0.45983335 48:0.080313697 49:0.51885855 50:0.49872467 51:0.26998472 52:0.58523822 53:0.62676471 54:0.3896955 55:0.30781901 56:0.35224503 57:0.3148407 58:0.107234 59:0.16238214 60:0.72118443 61:0.21103203 62:1.3529388 63:1.365075 64:1.7026272 65:0.62323278 66:1.0104976 67:1.175915 68:0.77955985 69:0.30786073 70:0.56157786 71:2.2270777 72:0.56040084 73:1.1970397 74:1.5913322 75:0.70177281 76:1.3202088 77:0.63499528 78:0.71990991 79:0.30959764 80:0.50134897 81:0.141652 82:0.034088001 83:0.09290956 84:0.11274246 85:0.6723429 86:0.26414207 87:0.20795876 88:0.21137682 89:0.31256598 90:1.6982476 91:3.9777663 92:0.88355327 93:2.0262568 94:6.1707177 95:3.7163689 96:4.5607367 97:3.8971281 98:2.1617365 99:4.9905448 100:4.3533854 101:1.2918277 102:2.8588886 103:2.3144059 104:1.6227601 105:0.82485229 106:1.9326203 107:2.6868291 108:0.61111754 109:1.9994247 110:0.91823334 111:0.54405177 112:1.6223611 113:1.6248192 114:1.506783 115:0.59010637 116:0.85314435 117:0.61422247 118:0.12498261 119:0.027391877 120:0 121:0 122:0 123:0 124:0 125:0 126:0 127:0 128:0 129:0 130:0 131:0 132:0 133:0 134:0 135:0 136:0 137:0 138:0 139:0 140:0 141:0 142:0 143:0 144:0 145:0 146:0 147:0 148:0 149:0 150:1 151:2 152:3 153:4 154:5 155:6 156:7 157:8 158:9 159:10 160:11 161:12 162:13 163:14 164:15 165:16 166:17 167:18 168:19 169:20 170:21 171:22 172:23 173:24 174:25 175:26 176:27 177:28 178:29 179:30 
2.107077690219605 0:0.97953397 1:1.2683666 2:1.4901043 3:2.5639858 4:1.6433798 5:3.0078638 6:1.2020919 7:3.0970881 8:2.3799112 9:1.3155642 10:3.4854374 11:1.7268084 12:2.5979111 13:1.6230102 14:0.77111483 15:0.33843228 16:0.74762493 17:1.1037337 18:0.79843599 19:0.19520004 20:1.6497953 21:1.1530565 22:0.24273711 23:0.29206961 24:1.0891328 25:0.28354955 26:0.35858223 27:0.54011548 28:0.66273087 29:0.27994451 30:0.22664334 31:0.73470306 32:2.5506082 33:3.0129828 34:0.14545217 35:0.59081107 36:0.86762679 37:1.5160799 38:0.5226447 39:0.8406719 40:0.20217425 41:1.5227377 42:0.38311529 43:2.0024583 44:0.77582228 45:0.74830347 46:1.8136299 47:1.1373018 48:0.35804752 49:0.3181026 50:0.099729732 51:0.60280639 52:0.43217927 53:0.14758703 54:0.12551038 55:0.29213017 56:0.23164 57:0.059928987 58:0.17633905 59:0.34862763 60:0.11258785 61:0.60457617 62:3.2105756 63:1.0001857 64:0.97027963 65:0.91437638 66:1.3308523 67:0.39504364 68:0.87318647 69:1.091434 70:0.4175922 71:0.26695073 72:2.1935194 73:1.3291949 74:0.842848 75:0.23342818 76:0.7426039 77:0.97099531 78:0.58573884 79:1.2517934 80:1.2522866 81:1.0416348 82:0.5116806 83:0.60805291 84:0.77199322 85:0.12843305 86:0.34593984 87:0.033788808 88:0.31652418 89:0.23210834 90:1.2978861 91:5.4028444 92:6.4372878 93:4.2161541 94:4.511446 95:2.1829882 96:0.21659832 97:4.9094582 98:1.2192981 99:4.0307112 100:0.90456259 101:3.7232869 102:0.89837688 103:4.5956583 104:1.1176618 105:2.0422781 106:1.4040134 107:0.82364923 108:2.4016461 109:0.2245411 110:1.4571198 111:1.9516286 112:1.1057909 113:0.14440951 114:0.54772985 115:0.16225217 116:0.41447222 117:0.51985633 118:0.78828788 119:0.38636109 120:0 121:0 122:0 123:0 124:0 125:0 126:0 127:0 128:0 129:0 130:0 131:0 132:0 133:0 134:0 135:0 136:0 137:0 138:0 139:0 140:0 141:0 142:0 143:0 144:0 145:0 146:0 147:0 148:0 149:0 150:1 151:2 152:3 153:4 154:5 155:6 156:7 157:8 158:9 159:10 160:11 161:12 162:13 163:14 164:15 165:16 166:17 167:18 168:19 169:20 170:21 171:22 172:23 173:24 174:25 175:26 176:27 177:28 178:29 179:30 
2.747718061944336 0:0.72523147 1:0.95424831 2:1.8205482 3:2.1287026 4:1.6832314 5:4.2072845 6:1.7617131 7:0.92143351 8:0.54477048 9:2.4803317 10:2.30111 11:3.2234466 12:0.49076846 13:1.1432327 14:1.9893183 15:0.44857785 16:1.3165497 17:0.46581948 18:1.7483954 19:2.0186236 20:0.22603953 21:0.74611282 22:0.38916859 23:1.0650389 24:0.81951487 25:0.26867893 26:0.12274617 27:0.82778764 28:0.78856373 29:0.12609108 30:0.30046698 31:1.5329604 32:2.8444898 33:1.8394924 34:0.74211842 35:0.88750488 36:1.8255074 37:0.98896259 38:1.1682448 39:0.67340094 40:1.3582368 41:0.52819347 42:0.26151162 43:1.0517157 44:2.2409821 45:1.0101237 46:0.46459594 47:0.60627073 48:0.35561946 49:0.53505421 50:0.21669714 51:0.55311054 52:0.318073 53:0.26361117 54:0.10289844 55:0.24071954 56:0.24398731 57:0.14711133 58:0.053544458 59:0.16112496 60:0.37636542 61:1.3903742 62:2.7541554 63:1.1697136 64:0.71640885 65:1.084903 66:1.5201277 67:0.95541972 68:1.5009999 69:0.5605697 70:0.73923457 71:1.77886 72:1.0015273 73:0.40932775 74:1.7618107 75:0.86106509 76:1.1537539 77:1.5661095 78:0.50295943 79:0.76440907 80:0.59328711 81:1.419996 82:0.67755783 83:0.39074704 84:0.77878517 85:0.26824817 86:0.23999298 87:0.07675489 88:0.18240798 89:0.16468993 90:1.1384276 91:5.5524926 92:6.6242628 93:5.1054101 94:4.429935 95:1.3129045 96:1.4097366 97:4.6056919 98:5.0784297 99:1.7854199 100:0.61599308 101:2.2142756 102:2.3048432 103:4.9463592 104:2.2276189 105:1.6873308 106:2.6816344 107:1.3646687 108:1.3905338 109:1.3207872 110:0.91181916 111:1.2067178 112:0.62851936 113:1.3548616 114:0.95287734 115:0.47441244 116:0.79685265 117:1.0725255 118:1.0207251 119:0.16948211 120:0 121:0 122:0 123:0 124:0 125:0 126:0 127:0 128:0 129:0 130:0 131:0 132:0 133:0 134:0 135:0 136:0 137:0 138:0 139:0 140:0 141:0 142:0 143:0 144:0 145:0 146:0 147:0 148:0 149:0 150:1 151:2 152:3 153:4 154:5 155:6 156:7 157:8 158:9 159:10 160:11 161:12 162:13 163:14 164:15 165:16 166:17 167:18 168:19 169:20 170:21 171:22 172:23 173:24 174:25 175:26 176:27 177:28 178:29 179:30 
1.15311696034056 0:0.99199355 1:0.68945318 2:2.5769656 3:1.4741082 4:1.1123298 5:2.7356546 6:2.3515317 7:0.59791023 8:2.9647305 9:4.0442624 10:2.1308143 11:4.0934167 12:0.95424217 13:2.5368195 14:0.89845455 15:1.3008655 16:1.5093398 17:0.42749432 18:1.2782956 19:1.2881008 20:1.2805697 21:1.1603045 22:1.5611217 23:0.11970543 24:0.70170265 25:0.71506786 26:0.3194744 27:0.64708173 28:0.58736783 29:0.63696557 30:0.45096788 31:1.7142988 32:3.5313835 33:2.0304825 34:2.1327736 35:0.40038615 36:1.767785 37:0.81072372 38:1.3032938 39:0.99744403 40:0.7244873 41:0.34043163 42:0.50881469 43:0.71261007 44:2.3015511 45:1.077929 46:1.0969266 47:0.65883833 48:0.89783829 49:0.37559834 50:0.27692559 51:0.58461052 52:0.27071458 53:0.19234593 54:0.23710416 55:0.29527909 56:0.15009862 57:0.27812114 58:0.13880982 59:0.026168408 60:0.47702608 61:1.6440446 62:1.780607 63:0.19626483 64:0.63457906 65:0.18547308 66:1.2513398 67:0.79290229 68:1.8714887 69:1.1764688 70:0.81734037 71:2.2733836 72:1.4402617 73:0.99783707 74:1.2254306 75:1.4704343 76:1.5021712 77:1.0140479 78:0.66946578 79:0.61857253 80:0.51793134 81:0.81365764 82:0.90814513 83:0.58657837 84:0.77677506 85:0.33927658 86:0.02524185 87:0.10737658 88:0.1812288 89:0.20953578 90:1.4652033 91:2.2902369 92:4.1038198 93:2.0893784 94:1.9045291 95:2.7150168 96:3.153538 97:1.4414384 98:3.3694103 99:4.5638709 100:1.5065567 101:1.2575296 102:2.5596097 103:2.1872098 104:3.0594287 105:2.0163789 106:2.8678217 107:0.65686649 108:0.15805733 109:0.35513547 110:1.1805457 111:1.4924223 112:1.5184953 113:0.11742628 114:0.92078424 115:0.34812841 116:0.64964736 117:0.99501634 118:0.83747381 119:0.70427042 120:0 121:0 122:0 123:0 124:0 125:0 126:0 127:0 128:0 129:0 130:0 131:0 132:0 133:0 134:0 135:0 136:0 137:0 138:0 139:0 140:0 141:0 142:0 143:0 144:0 145:0 146:0 147:0 148:0 149:0 150:1 151:2 152:3 153:4 154:5 155:6 156:7 157:8 158:9 159:10 160:11 161:12 162:13 163:14 164:15 165:16 166:17 167:18 168:19 169:20 170:21 171:22 172:23 173:24 174:25 175:26 176:27 177:28 178:29 179:30 
1.014239983968658 0:0.32619071 1:2.1228707 2:3.21065 3:1.3531862 4:1.1929718 5:1.1503197 6:1.6999063 7:1.7428279 8:2.8516924 9:3.5952272 10:1.1729537 11:1.0180767 12:0.19663756 13:1.1715401 14:1.2249444 15:2.5567143 16:1.6530553 17:1.8429925 18:0.51056594 19:2.6364028 20:0.53770334 21:0.32833114 22:1.1415981 23:0.5121485 24:0.33042023 25:0.041096505 26:0.28513637 27:0.95335239 28:0.29525754 29:0.20594932 30:1.0234706 31:2.1752603 32:1.3494445 33:0.9217186 34:1.4487565 35:0.27860963 36:0.47268197 37:1.268043 38:0.81452131 39:1.6304058 40:1.1158124 41:0.89171696 42:1.6075037 43:0.85572976 44:0.28961217 45:0.68504256 46:0.57968777 47:0.41795233 48:0.53957701 49:0.47146675 50:1.015998 51:0.37662387 52:0.4776985 53:0.16937627 54:0.32947075 55:0.10513251 56:0.056022551 57:0.23789144 58:0.14064664 59:0.049104072 60:0.036036372 61:1.1264665 62:1.0663173 63:0.86912334 64:0.75489461 65:1.2909584 66:1.3615776 67:1.5394827 68:0.33651817 69:1.4914892 70:0.69211149 71:1.3106701 72:0.875521 73:1.2422944 74:2.2180254 75:0.70424533 76:0.80847001 77:0.23921537 78:0.33513218 79:0.7822088 80:0.58602142 81:0.38722432 82:0.26073164 83:0.4245573 84:0.17012352 85:0.4455353 86:0.22589523 87:0.16272262 88:0.17074794 89:0.10778071 90:1.1922984 91:3.5281403 92:1.8049241 93:4.9358616 94:2.2954102 95:1.0899292 96:3.747997 97:1.5215445 98:2.7216556 99:2.9024775 100:2.3026123 101:0.99820089 102:1.6096063 103:1.1223842 104:1.538368 105:3.9742312 106:0.78217375 107:1.6667137 108:0.90718561 109:2.5597458 110:2.130199 111:0.29625377 112:0.74778295 113:0.51441288 114:1.0005382 115:0.50500077 116:0.46395436 117:0.6862101 118:0.48842818 119:0.41771057 120:0 121:0 122:0 123:0 124:0 125:0 126:0 127:0 128:0 129:0 130:0 131:0 132:0 133:0 134:0 135:0 136:0 137:0 138:0 139:0 140:0 141:0 142:0 143:0 144:0 145:0 146:0 147:0 148:0 149:0 150:1 151:2 152:3 153:4 154:5 155:6 156:7 157:8 158:9 159:10 160:11 161:12 162:13 163:14 164:15 165:16 166:17 167:18 168:19 169:20 170:21 171:22 172:23 173:24 174:25 175:26 176:27 177:28 178:29 179:30 
0.8852162783165359 0:0.76621109 1:1.9837922 2:2.3108506 3:1.81923 4:1.631974 5:1.4867504 6:1.4745748 7:1.2457421 8:0.85964382 9:5.850944 10:1.67795 11:1.1516924 12:1.0801995 13:1.9636273 14:1.0450947 15:3.373554 16:0.31022036 17:1.0941714 18:1.6342547 19:1.8496808 20:0.91176635 21:1.1780548 22:0.5573383 23:0.39330786 24:0.36637697 25:0.33768952 26:0.13261014 27:0.53473037 28:0.27753508 29:0.35103136 30:0.5498578 31:0.90013653 32:0.82203716 33:1.7694951 34:0.50342077 35:0.72562164 36:0.77657884 37:1.3901085 38:1.2056807 39:1.3625444 40:0.95548004 41:0.72560221 42:1.9168857 43:0.80340308 44:0.59528178 45:1.0922035 46:0.27760035 47:0.66983008 48:0.67962903 49:0.82031667 50:0.64636874 51:0.096745424 52:0.52706504 53:0.39804325 54:0.075285956 55:0.35786283 56:0.33166468 57:0.18446189 58:0.19281864 59:0.069830805 60:0.17879388 61:1.1305068 62:1.0767151 63:0.93293661 64:1.4669967 65:1.0191534 66:1.3192034 67:1.378584 68:0.48832995 69:1.6399561 70:0.2716724 71:0.91020715 72:1.4131671 73:1.5957276 74:1.358349 75:1.0702841 76:1.3117075 77:1.3147646 78:0.513605 79:1.191363 80:0.58991736 81:0.45474514 82:0.40337726 83:0.33980718 84:0.25523135 85:0.50632834 86:0.14008825 87:0.16130248 88:0.13304175 89:0.018142859 90:0.55462217 91:4.5734196 92:1.1918281 93:1.4850975 94:1.323786 95:0.73646998 96:3.0801687 97:1.3560019 98:1.4342877 99:6.9571342 100:1.5254511 101:1.453719 102:1.840434 103:1.3057711 104:2.2949874 105:3.6200638 106:0.95402062 107:2.0070825 108:1.7426336 109:2.849766 110:0.41541052 111:1.8912458 112:2.2301219 113:0.4085404 114:0.79923874 115:0.51345837 116:0.28151318 117:0.35423276 118:0.37310866 119:0.25487354 120:0 121:0 122:0 123:0 124:0 125:0 126:0 127:0 128:0 129:0 130:0 131:0 132:0 133:0 134:0 135:0 136:0 137:0 138:0 139:0 140:0 141:0 142:0 143:0 144:0 145:0 146:0 147:0 148:0 149:0 150:1 151:2 152:3 153:4 154:5 155:6 156:7 157:8 158:9 159:10 160:11 161:12 162:13 163:14 164:15 165:16 166:17 167:18 168:19 169:20 170:21 171:22 172:23 173:24 174:25 175:26 176:27 177:28 178:29 179:30 
0.03872195565654597 0:0.39040548 1:0.50997376 2:2.4571378 3:3.6571343 4:1.4264618 5:1.431414 6:2.4672196 7:2.123292 8:1.4728857 9:4.7064767 10:2.9808905 11:0.42937338 12:0.41921028 13:2.4075744 14:1.7950902 15:2.6737115 16:0.26064387 17:0.74371147 18:0.44157594 19:0.45867088 20:1.92031 21:0.88078707 22:0.61395741 23:0.25007164 24:0.76405972 25:0.46119681 26:0.20331486 27:0.2455612 28:0.43590227 29:0.32430643 30:0.25922945 31:0.1725674 32:1.8268868 33:0.73764223 34:0.934187 35:0.84069473 36:2.0212755 37:1.3389815 38:1.1467965 39:0.68958676 40:1.053122 41:0.28032455 42:0.89367944 43:0.40474609 44:0.70445913 45:1.2789497 46:0.54188776 47:0.36398053 48:0.48474556 49:0.82940549 50:0.90690053 51:0.67996347 52:0.059468757 53:0.19541374 54:0.40042394 55:0.32371432 56:0.10482389 57:0.11249886 58:0.093454935 59:0.066551432 60:0.38772121 61:1.1184508 62:0.88934827 63:0.74895871 64:1.562677 65:1.0774372 66:1.8383281 67:1.4344356 68:0.31840724 69:1.5545038 70:1.1404563 71:1.342054 72:0.53350139 73:0.83057171 74:0.44006673 75:1.0666281 76:1.7016214 77:1.1261117 78:0.50379843 79:1.2682343 80:0.66591221 81:0.33239245 82:0.2728557 83:0.087757491 84:0.098017976 85:0.35147926 86:0.054723766 87:0.07555002 88:0.098961219 89:0.053412203 90:0.4521881 91:4.2980075 92:2.6974449 93:2.5063205 94:1.1029227 95:0.75437117 96:4.3345261 97:1.8819922 98:2.2964957 99:6.1705275 100:1.8739556 101:1.8767183 102:1.260653 103:1.9146665 104:1.6655177 105:3.1740625 106:1.2328531 107:0.79106176 108:0.31202692 109:0.46747133 110:1.8791857 111:1.8120683 112:1.5160248 113:0.86709028 114:0.46339947 115:0.72775245 116:0.52028954 117:0.25081456 118:0.48783967 119:0.40790361 120:0 121:0 122:0 123:0 124:0 125:0 126:0 127:0 128:0 129:0 130:0 131:0 132:0 133:0 134:0 135:0 136:0 137:0 138:0 139:0 140:0 141:0 142:0 143:0 144:0 145:0 146:0 147:0 148:0 149:0 150:1 151:2 152:3 153:4 154:5 155:6 156:7 157:8 158:9 159:10 160:11 161:12 162:13 163:14 164:15 165:16 166:17 167:18 168:19 169:20 170:21 171:22 172:23 173:24 174:25 175:26 176:27 177:28 178:29 179:30 
1.527043076812449 0:0.33151767 1:1.1916581 2:1.6221423 3:0.12084122 4:1.6213666 5:1.5887341 6:4.0058784 7:0.90181893 8:1.090856 9:1.2023315 10:2.7602882 11:1.338153 12:3.6621912 13:1.187924 14:1.0362015 15:0.26863837 16:0.27324969 17:0.71114767 18:1.6462469 19:0.44062695 20:1.051837 21:0.8326205 22:0.4329325 23:1.0678045 24:0.23575608 25:0.21989906 26:0.50487775 27:0.57380408 28:0.062595077 29:0.24450459 30:0.59019578 31:1.0313385 32:2.094959 33:1.0110997 34:0.26118124 35:0.72794747 36:2.3802152 37:0.7695089 38:0.84930921 39:1.1033769 40:1.1413175 41:1.0060068 42:1.6679009 43:1.3002565 44:0.53028578 45:1.421649 46:0.76126355 47:0.65820384 48:0.75488609 49:0.36533535 50:0.19985324 51:0.4180772 52:0.4164221 53:0.55678308 54:0.32576308 55:0.27438688 56:0.27716202 57:0.20197354 58:0.18904479 59:0.13361579 60:0.25568143 61:0.74723792 62:1.652729 63:2.3511937 64:1.1789992 65:1.2905053 66:1.0580329 67:0.82754439 68:0.88281822 69:1.5764511 70:1.0629745 71:1.1166342 72:1.1508864 73:0.33395356 74:1.1879174 75:0.94456929 76:0.55463392 77:0.9743818 78:0.86245424 79:0.77079117 80:0.36132652 81:0.3404358 82:0.547369 83:0.14202675 84:0.36066553 85:0.20221274 86:0.333276 87:0.13200273 88:0.1400031 89:0.21602419 90:0.32472816 91:0.8007921 92:7.0724998 93:2.0474398 94:3.0762675 95:1.5964367 96:4.0749831 97:3.8429258 98:8.8253574 99:1.8005831 100:1.6591177 101:3.1531181 102:1.8601341 103:2.0313849 104:1.2427151 105:3.4683468 106:1.5707759 107:0.47148147 108:2.6015947 109:0.52285248 110:1.5747501 111:0.34804434 112:0.70341516 113:0.23129278 114:0.77177775 115:0.63368785 116:0.36799595 117:0.29173213 118:0.22520205 119:0.58652204 120:0 121:0 122:0 123:0 124:0 125:0 126:0 127:0 128:0 129:0 130:0 131:0 132:0 133:0 134:0 135:0 136:0 137:0 138:0 139:0 140:0 141:0 142:0 143:0 144:0 145:0 146:0 147:0 148:0 149:0 150:1 151:2 152:3 153:4 154:5 155:6 156:7 157:8 158:9 159:10 160:11 161:12 162:13 163:14 164:15 165:16 166:17 167:18 168:19 169:20 170:21 171:22 172:23 173:24 174:25 175:26 176:27 177:28 178:29 179:30 
0.264009887520909 0:0.30912042 1:1.84926 2:2.1830993 3:2.0913959 4:3.3177507 5:0.8252362 6:3.0121105 7:1.1495516 8:0.68662995 9:0.73688263 10:2.4769135 11:0.27819014 12:3.5763535 13:0.59315413 14:1.5342116 15:0.10118178 16:0.73398519 17:2.1760495 18:1.0066326 19:0.58969265 20:0.5235182 21:1.3743699 22:0.20316459 23:0.95821267 24:0.23545091 25:0.31935212 26:0.8700977 27:0.5736711 28:0.32648101 29:0.31256309 30:0.67130619 31:0.72794199 32:1.2340573 33:0.90396482 34:0.88972116 35:0.77770793 36:2.1917171 37:0.61042553 38:0.72113234 39:0.7051757 40:1.0969801 41:1.2166953 42:1.5125487 43:1.7321314 44:0.51330322 45:1.4928758 46:0.84922999 47:0.76518118 48:0.25597641 49:0.39186832 50:0.60355204 51:0.57496411 52:0.16168816 53:0.29672867 54:0.034848485 55:0.17326771 56:0.25857943 57:0.11237366 58:0.19568296 59:0.017706756 60:0.38166267 61:0.6839636 62:3.2578826 63:1.8494446 64:1.1351966 65:0.41100797 66:0.11388185 67:0.9207595 68:0.87162745 69:0.67363417 70:0.6040675 71:0.63540542 72:0.39799538 73:0.35467878 74:1.6955535 75:0.44234088 76:0.19773793 77:0.56209159 78:0.56844664 79:0.88158518 80:0.16837184 81:0.63668847 82:0.56893682 83:0.21998826 84:0.21445929 85:0.024351977 86:0.33124343 87:0.23851524 88:0.16362064 89:0.042248733 90:0.29678592 91:0.32837322 92:6.5244493 93:2.1630061 94:2.8840361 95:1.3691201 96:3.2989571 97:3.3313732 98:9.0029945 99:2.3637242 100:1.705713 101:1.7365 102:0.46694946 103:0.61786395 104:1.7197579 105:2.3526008 106:0.58901542 107:2.7621698 108:0.39613762 109:0.97986501 110:0.8526777 111:0.33949965 112:0.60803062 113:0.53320307 114:0.46755224 115:0.27633849 116:0.80274773 117:0.27232909 118:0.19967581 119:0.41554698 120:0 121:0 122:0 123:0 124:0 125:0 126:0 127:0 128:0 129:0 130:0 131:0 132:0 133:0 134:0 135:0 136:0 137:0 138:0 139:0 140:0 141:0 142:0 143:0 144:0 145:0 146:0 147:0 148:0 149:0 150:1 151:2 152:3 153:4 154:5 155:6 156:7 157:8 158:9 159:10 160:11 161:12 162:13 163:14 164:15 165:16 166:17 167:18 168:19 169:20 170:21 171:22 172:23 173:24 174:25 175:26 176:27 177:28 178:29 179:30 
0.1735854666691505 0:0.93813258 1:1.6211294 2:2.274334 3:2.3199172 4:3.4980533 5:1.3359469 6:0.60862017 7:1.229054 8:3.7242963 9:2.0534194 10:2.5145862 11:2.4013369 12:3.5501115 13:0.97271317 14:0.54319745 15:0.60070682 16:0.70341796 17:2.5362155 18:1.0034275 19:0.60052419 20:0.78488886 21:1.1750073 22:0.72609007 23:0.49762371 24:0.51008016 25:0.21027206 26:0.21270816 27:0.054534011 28:0.33170593 29:0.23579173 30:0.60925424 31:1.6142561 32:1.0575833 33:0.5820297 34:1.5113058 35:1.2731836 36:0.9557358 37:1.0477877 38:0.19944912 39:0.439751 40:1.203041 41:0.66080469 42:0.74252373 43:0.83144361 44:0.020951064 45:0.8923856 46:0.24410044 47:0.66630191 48:0.27026615 49:0.22956528 50:0.45883632 51:0.12677415 52:0.044028539 53:0.025878161 54:0.34175915 55:0.13345855 56:0.32453832 57:0.15404488 58:0.13817325 59:0.11200508 60:0.16874309 61:0.49093217 62:0.67727202 63:0.81563306 64:2.0619366 65:0.81050271 66:1.5880564 67:0.77812344 68:0.46461472 69:0.46971807 70:0.54910558 71:0.92973828 72:0.62302989 73:0.98959142 74:2.0162239 75:0.87148267 76:1.0395968 77:0.67338991 78:0.23855481 79:1.013684 80:0.23474303 81:0.22225174 82:0.80759931 83:0.34156626 84:0.32550982 85:0.30492634 86:0.22032063 87:0.21946801 88:0.12256049 89:0.085775353 90:0.54936928 91:1.6975862 92:3.2281752 93:2.9158552 94:5.9707317 95:0.54534972 96:1.3610301 97:1.9467295 98:2.7062757 99:1.377876 100:2.963949 101:1.3045574 102:0.48578325 103:1.6483769 104:0.86440796 105:1.1287942 106:1.9283729 107:0.56907755 108:0.73929346 109:1.5044298 110:1.504864 111:1.3573352 112:0.88042301 113:0.82384926 114:0.42870495 115:0.30869159 116:0.064513341 117:0.0064186598 118:0.28490475 119:0.15005702 120:0 121:0 122:0 123:0 124:0 125:0 126:0 127:0 128:0 129:0 130:0 131:0 132:0 133:0 134:0 135:0 136:0 137:0 138:0 139:0 140:0 141:0 142:0 143:0 144:0 145:0 146:0 147:0 148:0 149:0 150:1 151:2 152:3 153:4 154:5 155:6 156:7 157:8 158:9 159:10 160:11 161:12 162:13 163:14 164:15 165:16 166:17 167:18 168:19 169:20 170:21 171:22 172:23 173:24 174:25 175:26 176:27 177:28 178:29 179:30 
0.3576669350945608 0:0.88422424 1:1.2704247 2:1.0927809 3:3.1028321 4:2.7162976 5:1.7125945 6:1.3076215 7:1.6339198 8:3.3050478 9:0.66541004 10:2.0720351 11:0.5395627 12:3.0452135 13:1.2237144 14:1.1266208 15:1.6451619 16:0.084455669 17:1.3182939 18:0.2855286 19:1.5450598 20:2.2077639 21:0.65034384 22:0.9867084 23:0.2572332 24:0.53338647 25:0.37244716 26:0.2256501 27:0.57087404 28:0.24331102 29:0.3353368 30:0.28485954 31:0.080232784 32:1.4752824 33:2.027966 34:0.52063805 35:1.5272744 36:1.0108881 37:0.2476666 38:1.0722691 39:0.51961261 40:0.63978177 41:1.033787 42:0.92263448 43:0.25414795 44:0.85683304 45:0.65235132 46:0.42861342 47:0.52299666 48:0.67277706 49:0.51948118 50:0.24861605 51:0.54582995 52:0.48998028 53:0.4679653 54:0.20043245 55:0.3826251 56:0.09123823 57:0.16691959 58:0.18793207 59:0.071595773 60:0.051080931 61:0.32980675 62:0.90977973 63:0.90573031 64:0.066668466 65:1.1946459 66:0.89564753 67:1.6133757 68:0.56640613 69:1.1104468 70:0.3327097 71:0.51753837 72:0.99825841 73:0.4484984 74:1.6988325 75:0.39188042 76:0.89267951 77:1.6514925 78:0.50726956 79:0.85530984 80:0.59946686 81:0.36879048 82:0.62146056 83:0.060767099 84:0.44190663 85:0.14345621 86:0.032011583 87:0.23201296 88:0.25116462 89:0.17527771 90:1.4640082 91:2.6910105 92:3.0259199 93:6.1584482 94:4.5409117 95:1.117295 96:2.9232881 97:1.6049031 98:1.2821826 99:3.5340228 100:2.5680161 101:1.4200475 102:3.4708889 103:1.4978209 104:2.0842977 105:1.9209609 106:1.7124678 107:1.6512011 108:0.90503889 109:1.7307549 110:2.6206858 111:0.56534725 112:1.7872405 113:0.22133428 114:0.89518642 115:1.048208 116:0.57634497 117:0.26517078 118:0.49035993 119:0.3992179 120:0 121:0 122:0 123:0 124:0 125:0 126:0 127:0 128:0 129:0 130:0 131:0 132:0 133:0 134:0 135:0 136:0 137:0 138:0 139:0 140:0 141:0 142:0 143:0 144:0 145:0 146:0 147:0 148:0 149:0 150:1 151:2 152:3 153:4 154:5 155:6 156:7 157:8 158:9 159:10 160:11 161:12 162:13 163:14 164:15 165:16 166:17 167:18 168:19 169:20 170:21 171:22 172:23 173:24 174:25 175:26 176:27 177:28 178:29 179:30 
2.996232707160216 0:0.77891791 1:0.88881493 2:0.16060883 3:2.8914335 4:3.4272721 5:0.49584109 6:1.5272697 7:2.4612913 8:2.3545198 9:0.59776777 10:0.45232567 11:2.0308118 12:0.87349856 13:1.541723 14:2.1110086 15:1.0274442 16:0.15169048 17:1.3751447 18:1.3290478 19:0.6596306 20:1.2961149 21:1.6465452 22:0.39221111 23:0.42808738 24:0.32555997 25:0.26703948 26:0.86433142 27:0.16130359 28:0.20912577 29:0.19670349 30:0.28977278 31:0.97335172 32:0.63533741 33:2.101578 34:0.53341144 35:0.99375695 36:0.43851486 37:0.42683399 38:0.94079691 39:0.90636522 40:0.78461236 41:0.95230407 42:0.27465758 43:0.87905663 44:1.1022152 45:0.5363732 46:0.92502546 47:0.15895839 48:0.48034757 49:0.79459333 50:1.0966226 51:0.81029457 52:0.6344974 53:0.27848127 54:0.32564396 55:0.22337613 56:0.089199834 57:0.052030239 58:0.080650605 59:0.069268972 60:0.42941728 61:1.3338518 62:1.3558185 63:0.9997586 64:1.3523245 65:1.6008133 66:0.55580986 67:1.3664243 68:0.3933014 69:1.3176987 70:0.40276796 71:0.7065748 72:0.30510649 73:1.7684455 74:0.78022754 75:0.52900571 76:0.62186915 77:1.2827375 78:0.68343645 79:0.48746935 80:0.80630159 81:0.4812209 82:0.38638803 83:0.42131814 84:0.44668072 85:0.1211503 86:0.052852105 87:0.22970492 88:0.12135025 89:0.05603677 90:0.5003894 91:3.6093087 92:8.0523653 93:5.2021852 94:2.629138 95:3.4017251 96:2.4981725 97:3.2715371 98:1.4001796 99:3.0200236 100:2.4336822 101:1.8335385 102:5.7397442 103:0.65956843 104:1.8990018 105:2.7138643 106:0.95842761 107:1.8363416 108:0.91111791 109:0.84264839 110:0.88486481 111:2.2216778 112:1.0874698 113:0.74220717 114:0.34940773 115:0.28049573 116:1.3105985 117:0.45065191 118:0.032285035 119:0.075545706 120:0 121:0 122:0 123:0 124:0 125:0 126:0 127:0 128:0 129:0 130:0 131:0 132:0 133:0 134:0 135:0 136:0 137:0 138:0 139:0 140:0 141:0 142:0 143:0 144:0 145:0 146:0 147:0 148:0 149:0 150:1 151:2 152:3 153:4 154:5 155:6 156:7 157:8 158:9 159:10 160:11 161:12 162:13 163:14 164:15 165:16 166:17 167:18 168:19 169:20 170:21 171:22 172:23 173:24 174:25 175:26 176:27 177:28 178:29 179:30 
1.678751075168925 0:0.30942333 1:1.5740194 2:0.38047981 3:1.9553362 4:2.0205336 5:2.4634643 6:1.9013528 7:3.0267963 8:2.3026173 9:1.789124 10:1.4203329 11:0.42787766 12:0.83921415 13:1.6683663 14:1.4486854 15:0.76747417 16:1.8812444 17:0.64977735 18:1.4762926 19:0.79856467 20:1.2406682 21:1.8672818 22:0.85367298 23:0.60405833 24:0.79042065 25:0.48687354 26:0.56628031 27:0.59821421 28:0.2240258 29:0.23126929 30:0.40619639 31:0.23185249 32:1.4969233 33:0.29346365 34:2.1277578 35:1.7484052 36:0.59637308 37:0.59097713 38:1.5361431 39:1.251937 40:1.0078665 41:0.26458952 42:0.31331217 43:0.69786537 44:0.76404369 45:0.43736434 46:0.18145393 47:0.64814764 48:0.51555932 49:0.82357574 50:0.83172417 51:1.1436967 52:0.2486214 53:0.29084715 54:0.706837 55:0.21703519 56:0.16392669 57:0.18228494 58:0.19604628 59:0.08522851 60:0.05771175 61:0.90155643 62:1.7319634 63:1.311471 64:1.4833529 65:1.5831503 66:0.23592108 67:1.1601613 68:1.1274521 69:0.30116385 70:0.47972602 71:0.53658861 72:0.71372068 73:0.94790316 74:0.80860054 75:0.30709863 76:0.45461726 77:0.61026323 78:1.0827322 79:0.29045877 80:0.66386616 81:0.4716987 82:0.056436345 83:0.38967025 84:0.3814514 85:0.10998242 86:0.11411677 87:0.15204924 88:0.068849973 89:0.081491195 90:0.58565933 91:3.7838714 92:7.0185738 93:5.715692 94:3.3280919 95:1.8481958 96:4.1345959 97:2.3263872 98:1.7421396 99:3.0231292 100:3.2400298 101:3.8377948 102:4.6638093 103:1.1141599 104:1.2166331 105:0.72107416 106:1.2437823 107:1.9292141 108:0.43963766 109:0.30325785 110:0.77806699 111:1.9955627 112:1.0524836 113:1.0128714 114:0.23676446 115:0.50089079 116:0.87059063 117:0.47903332 118:0.22695807 119:0.31672838 120:0 121:0 122:0 123:0 124:0 125:0 126:0 127:0 128:0 129:0 130:0 131:0 132:0 133:0 134:0 135:0 136:0 137:0 138:0 139:0 140:0 141:0 142:0 143:0 144:0 145:0 146:0 147:0 148:0 149:0 150:1 151:2 152:3 153:4 154:5 155:6 156:7 157:8 158:9 159:10 160:11 161:12 162:13 163:14 164:15 165:16 166:17 167:18 168:19 169:20 170:21 171:22 172:23 173:24 174:25 175:26 176:27 177:28 178:29 179:30 
0.2344112349442838 0:0.58644211 1:0.1265922 2:1.6814414 3:1.3307548 4:0.8951965 5:2.6788635 6:0.6608125 7:1.3440812 8:2.5376599 9:2.1193788 10:1.3180833 11:1.0087434 12:0.64776498 13:1.2452961 14:2.4882436 15:3.1139119 16:2.1965094 17:0.73172885 18:1.672745 19:0.85569602 20:0.82145554 21:0.65706849 22:0.75750834 23:0.52743858 24:0.15972763 25:0.36853844 26:0.37725887 27:0.29651043 28:0.39422679 29:0.17577773 30:0.30594656 31:1.1447241 32:1.4356083 33:1.1945087 34:1.0890975 35:1.9519942 36:1.7620769 37:1.3030274 38:0.5262534 39:1.1807905 40:1.1358114 41:0.5070408 42:0.68084127 43:0.25222656 44:1.0764908 45:1.0698351 46:0.77775437 47:1.1284418 48:0.60500979 49:0.3150509 50:0.064602777 51:0.3515102 52:0.53815341 53:0.50907379 54:0.16768153 55:0.023222666 56:0.23793294 57:0.066222854 58:0.10234304 59:0.11297844 60:0.27550727 61:0.27579063 62:0.53554785 63:0.89222628 64:2.2796154 65:0.96531016 66:2.1873205 67:0.61962241 68:1.5528502 69:1.2668086 70:0.34801894 71:0.79505706 72:0.043998931 73:0.95781434 74:0.99544942 75:0.58921254 76:1.1335633 77:0.87288535 78:0.46395746 79:0.87049103 80:0.61719227 81:0.65698689 82:0.3297902 83:0.39934063 84:0.20964532 85:0.17307363 86:0.2707009 87:0.062297918 88:0.21552216 89:0.078279518 90:0.97832054 91:0.99918211 92:1.7462369 93:1.7515171 94:4.9686203 95:2.7074304 96:2.0709774 97:1.0523913 98:1.7916435 99:1.6947286 100:2.3630483 101:2.4935622 102:1.66614 103:0.44425052 104:0.24462815 105:3.7136655 106:0.76282191 107:1.9446877 108:0.83625263 109:1.4487786 110:0.84724301 111:0.12370758 112:1.071161 113:0.85962617 114:0.37351489 115:0.29796731 116:0.52355349 117:0.41908899 118:0.30563185 119:0.23644543 120:0 121:0 122:0 123:0 124:0 125:0 126:0 127:0 128:0 129:0 130:0 131:0 132:0 133:0 134:0 135:0 136:0 137:0 138:0 139:0 140:0 141:0 142:0 143:0 144:0 145:0 146:0 147:0 148:0 149:0 150:1 151:2 152:3 153:4 154:5 155:6 156:7 157:8 158:9 159:10 160:11 161:12 162:13 163:14 164:15 165:16 166:17 167:18 168:19 169:20 170:21 171:22 172:23 173:24 174:25 175:26 176:27 177:28 178:29 179:30 
1.267777434316345 0:0.84049094 1:0.80801219 2:1.7081423 3:2.4505208 4:1.0711303 5:1.5256087 6:1.3172035 7:1.675281 8:0.40127471 9:1.5649672 10:0.87846589 11:2.473099 12:1.4500722 13:0.71549898 14:1.7529835 15:3.2137628 16:0.93346465 17:0.36676237 18:0.99657863 19:0.83110189 20:0.71282154 21:0.69112158 22:1.2324351 23:0.94673097 24:0.69578093 25:0.28132612 26:0.38289997 27:0.37473339 28:0.36988258 29:0.50009197 30:0.1555116 31:1.6378363 32:0.77519113 33:1.3550326 34:0.50628817 35:1.6322169 36:0.78880793 37:1.8887869 38:0.20112744 39:1.0943784 40:0.67711782 41:0.84660983 42:0.34176639 43:0.68223172 44:0.60057497 45:1.904177 46:0.19023541 47:0.59755093 48:1.0290861 49:0.0241886 50:0.14680669 51:0.2647351 52:0.26800027 53:0.61810076 54:0.24803637 55:0.1362929 56:0.25648704 57:0.095302634 58:0.21801633 59:0.076418258 60:0.45539248 61:0.22021118 62:0.31256279 63:1.1780851 64:1.0345525 65:0.83836639 66:0.75175053 67:1.0222723 68:0.92658257 69:1.1179693 70:0.35336098 71:0.21244982 72:0.48142174 73:1.1103743 74:0.57336599 75:0.70824993 76:0.63856053 77:1.0005882 78:1.5966125 79:0.23737596 80:0.53800082 81:0.47354123 82:0.39462933 83:0.22040792 84:0.29850861 85:0.24737824 86:0.41521439 87:0.17740318 88:0.077077456 89:0.14974701 90:0.13643581 91:1.9304864 92:4.3230577 93:3.4469306 94:2.8041573 95:2.9517748 96:1.8279847 97:1.7646544 98:0.94870412 99:1.8975953 100:2.2263458 101:1.982983 102:1.7627048 103:1.1035305 104:1.0909895 105:2.9511793 106:1.6974101 107:0.44753221 108:2.0006354 109:0.94332832 110:1.4080756 111:0.63308972 112:1.0624745 113:1.0594264 114:0.47753626 115:0.34650093 116:0.47074291 117:0.24323578 118:0.57529825 119:0.32307437 120:0 121:0 122:0 123:0 124:0 125:0 126:0 127:0 128:0 129:0 130:0 131:0 132:0 133:0 134:0 135:0 136:0 137:0 138:0 139:0 140:0 141:0 142:0 143:0 144:0 145:0 146:0 147:0 148:0 149:0 150:1 151:2 152:3 153:4 154:5 155:6 156:7 157:8 158:9 159:10 160:11 161:12 162:13 163:14 164:15 165:16 166:17 167:18 168:19 169:20 170:21 171:22 172:23 173:24 174:25 175:26 176:27 177:28 178:29 179:30 
0.3278080113825922 0:0.5055632 1:2.9737837 2:3.1406205 3:2.4035292 4:1.1632034 5:1.4048936 6:2.6069713 7:0.9014439 8:1.0209706 9:1.2708814 10:0.16927589 11:0.33364117 12:1.9243468 13:0.74147552 14:1.1799108 15:0.89043778 16:1.1412071 17:1.0881363 18:0.92163992 19:0.61872995 20:1.0388606 21:0.90230972 22:1.1885028 23:1.0809495 24:1.2520808 25:0.25734669 26:0.45303136 27:0.36346254 28:0.2068588 29:0.27836761 30:0.38123152 31:0.82702392 32:2.1422915 33:1.0311561 34:1.4240165 35:1.1146221 36:1.3113378 37:0.30477273 38:0.62053835 39:1.4229269 40:0.40934262 41:0.84915823 42:0.75934374 43:0.60045117 44:0.35185963 45:0.39139581 46:1.0711343 47:0.60694647 48:0.89356005 49:0.53552562 50:0.15553212 51:0.35530397 52:0.34667751 53:0.11340623 54:0.24028656 55:0.24777199 56:0.22707401 57:0.20594633 58:0.054588739 59:0.15363657 60:0.39992359 61:0.33663833 62:1.3592753 63:2.1576264 64:1.6594735 65:1.1109571 66:0.80767459 67:1.476104 68:0.40647361 69:1.0438541 70:1.3100512 71:1.8864028 72:0.088271499 73:1.4785224 74:0.97401446 75:0.98865443 76:0.45638368 77:0.94705248 78:0.66547126 79:0.38786471 80:0.5662443 81:0.56916416 82:0.013759128 83:0.20225914 84:0.24426302 85:0.11548395 86:0.069019049 87:0.4215425 88:0.2315833 89:0.082990214 90:1.8019682 91:1.4050288 92:0.81164575 93:2.4246063 94:3.153528 95:2.258399 96:2.508683 97:1.3438748 98:1.9557116 99:2.7933633 100:2.1124525 101:2.6445427 102:1.3752526 103:0.85110664 104:2.7769403 105:2.3467565 106:3.4516461 107:0.71769416 108:1.4465394 109:0.59410089 110:0.94729853 111:0.73757315 112:0.79364878 113:1.2757076 114:0.60470617 115:0.48078087 116:0.23112816 117:0.18988465 118:0.091386296 119:0.30026489 120:0 121:0 122:0 123:0 124:0 125:0 126:0 127:0 128:0 129:0 130:0 131:0 132:0 133:0 134:0 135:0 136:0 137:0 138:0 139:0 140:0 141:0 142:0 143:0 144:0 145:0 146:0 147:0 148:0 149:0 150:1 151:2 152:3 153:4 154:5 155:6 156:7 157:8 158:9 159:10 160:11 161:12 162:13 163:14 164:15 165:16 166:17 167:18 168:19 169:20 170:21 171:22 172:23 173:24 174:25 175:26 176:27 177:28 178:29 179:30 
0.007301490819086862 0:0.79713017 1:2.6589324 2:1.910048 3:1.507687 4:2.0354609 5:1.262154 6:1.9710021 7:2.0077646 8:1.9514996 9:0.76798552 10:1.1526572 11:0.94425279 12:1.7800044 13:0.86058497 14:2.9865894 15:1.2177081 16:1.6789919 17:1.5627769 18:0.93513799 19:0.52063674 20:1.3187696 21:0.53668141 22:1.2570611 23:0.94843024 24:0.92603856 25:0.22800392 26:0.57214254 27:0.20929031 28:0.43436447 29:0.52097535 30:0.29323277 31:0.81127954 32:1.7268867 33:0.91644394 34:0.87805068 35:1.2293992 36:0.72648263 37:0.22484818 38:0.71711701 39:0.68076956 40:0.66285157 41:0.45125338 42:1.5561852 43:0.38696098 44:0.57168525 45:0.23876037 46:1.0707972 47:0.29958859 48:0.78512621 49:0.28962594 50:0.62779081 51:0.44788054 52:0.14930159 53:0.14738278 54:0.32754147 55:0.45677331 56:0.1986499 57:0.18280356 58:0.076942489 59:0.04099552 60:0.38811699 61:0.82073218 62:0.92778546 63:2.56584 64:1.8106762 65:2.0806248 66:1.026773 67:1.427961 68:0.63630611 69:0.91880465 70:1.0693926 71:1.2335644 72:0.67687333 73:1.2412553 74:0.86918694 75:1.5581601 76:0.42156383 77:0.77428669 78:0.4386602 79:0.71091837 80:0.70084453 81:0.96202081 82:0.27577096 83:0.088427462 84:0.35511684 85:0.051406983 86:0.23438796 87:0.11321749 88:0.15366118 89:0.13827774 90:0.82733911 91:0.42096037 92:2.6055956 93:4.8712168 94:2.4585435 95:0.87129354 96:5.6546874 97:1.5684044 98:3.3006787 99:1.6874702 100:5.4395375 101:1.7182173 102:1.1530893 103:2.0517974 104:1.7870231 105:1.6418742 106:2.8929548 107:2.6795948 108:0.46776497 109:1.1063247 110:1.6301764 111:0.19090417 112:0.672014 113:0.50419772 114:0.57013369 115:0.43650433 116:0.75604427 117:0.31269145 118:0.36180389 119:0.25379068 120:0 121:0 122:0 123:0 124:0 125:0 126:0 127:0 128:0 129:0 130:0 131:0 132:0 133:0 134:0 135:0 136:0 137:0 138:0 139:0 140:0 141:0 142:0 143:0 144:0 145:0 146:0 147:0 148:0 149:0 150:1 151:2 152:3 153:4 154:5 155:6 156:7 157:8 158:9 159:10 160:11 161:12 162:13 163:14 164:15 165:16 166:17 167:18 168:19 169:20 170:21 171:22 172:23 173:24 174:25 175:26 176:27 177:28 178:29 179:30 
0.7310818996969373 0:0.78725004 1:0.36484149 2:2.2090311 3:2.4725869 4:2.1743236 5:1.0681854 6:2.2195992 7:3.1014869 8:1.1665624 9:1.6304802 10:1.8223307 11:1.2026707 12:2.8725567 13:3.675241 14:2.7152023 15:1.6018825 16:2.1629281 17:0.77740675 18:1.8657464 19:1.1908952 20:1.3336669 21:0.20012183 22:0.5864656 23:0.69655633 24:0.32333404 25:0.70114094 26:0.39176321 27:0.20596878 28:0.41577879 29:0.12361283 30:0.53960562 31:0.31020263 32:2.1289096 33:0.5682593 34:1.4811835 35:1.5734078 36:1.236478 37:0.50706989 38:0.60204679 39:1.0123109 40:0.20701928 41:0.77571666 42:1.279067 43:0.6306206 44:0.27013031 45:0.67988902 46:0.67879266 47:0.47289017 48:0.69378126 49:0.31113318 50:0.33397013 51:0.70628566 52:0.099334911 53:0.21104421 54:0.1490885 55:0.27570131 56:0.10896148 57:0.0931319 58:0.087852359 59:0.076185226 60:0.57224655 61:0.34314033 62:1.1896591 63:2.7471573 64:3.0080092 65:0.45657629 66:1.3237253 67:2.0656135 68:2.1187913 69:0.73980558 70:1.9644464 71:1.7211069 72:1.1067607 73:1.1018962 74:0.90198058 75:2.3533931 76:0.25594723 77:0.2537975 78:1.124472 79:0.60603136 80:0.72252196 81:0.73136717 82:0.43100843 83:0.10472482 84:0.24085413 85:0.2762467 86:0.11624505 87:0.19902821 88:0.083720669 89:0.046517093 90:0.15357621 91:1.1788563 92:2.571857 93:5.556107 94:2.8899426 95:3.2015288 96:1.1820855 97:7.3295355 98:3.9912009 99:3.2570584 100:6.8555326 101:1.1739855 102:3.1406064 103:2.2630897 104:1.5107346 105:0.9718374 106:2.9454181 107:2.6561501 108:1.9913659 109:1.3782042 110:1.4719514 111:0.44799331 112:0.38978013 113:0.36663222 114:0.10927776 115:0.876477 116:0.082134932 117:0.13179478 118:0.37163737 119:0.077793226 120:0 121:0 122:0 123:0 124:0 125:0 126:0 127:0 128:0 129:0 130:0 131:0 132:0 133:0 134:0 135:0 136:0 137:0 138:0 139:0 140:0 141:0 142:0 143:0 144:0 145:0 146:0 147:0 148:0 149:0 150:1 151:2 152:3 153:4 154:5 155:6 156:7 157:8 158:9 159:10 160:11 161:12 162:13 163:14 164:15 165:16 166:17 167:18 168:19 169:20 170:21 171:22 172:23 173:24 174:25 175:26 176:27 177:28 178:29 179:30 
1.107591736120093 0:0.83563823 1:1.2300509 2:3.3298178 3:2.1595199 4:2.0755725 5:1.357428 6:1.9941789 7:1.6336633 8:1.6939427 9:1.0105813 10:1.9687608 11:3.0127158 12:3.6393492 13:4.3960609 14:1.5269783 15:3.1583343 16:1.4306483 17:1.3499445 18:0.75593859 19:1.0147957 20:1.4537221 21:1.3057063 22:0.76555318 23:0.25242606 24:0.028209852 25:0.30118322 26:0.073575884 27:0.10702393 28:0.50645787 29:0.41796741 30:0.54209691 31:0.6659919 32:2.9575765 33:0.46269515 34:1.4506789 35:1.5145317 36:2.3370273 37:0.73275113 38:1.2408911 39:1.0301086 40:1.0255915 41:0.94920576 42:2.3306255 43:0.30774817 44:0.80599099 45:0.59723383 46:1.030593 47:0.58174425 48:0.66019303 49:0.32322553 50:0.097239733 51:0.42671424 52:0.43067804 53:0.54282153 54:0.21949343 55:0.18367217 56:0.18959242 57:0.036896989 58:0.1860127 59:0.034165379 60:0.4664157 61:0.60652596 62:0.43940762 63:2.6667738 64:3.0895109 65:0.1399848 66:1.3878382 67:2.1195965 68:2.0354404 69:0.84021097 70:1.1570936 71:1.9753009 72:0.80226332 73:1.3040953 74:0.93061417 75:1.4868557 76:0.905891 77:0.93243444 78:0.3845717 79:0.45610434 80:0.72620463 81:0.44073904 82:0.31289309 83:0.22594887 84:0.42207283 85:0.17649056 86:0.031482119 87:0.28340951 88:0.042252503 89:0.11477163 90:0.49461764 91:0.68900633 92:3.0907712 93:3.2419145 94:4.2410955 95:2.0560973 96:1.2155646 97:7.479681 98:1.7511016 99:5.3363881 100:2.6222599 101:4.598814 102:2.7507749 103:3.1943302 104:1.5927674 105:0.89846015 106:1.7117763 107:1.478938 108:0.39023715 109:1.7953503 110:1.5427026 111:1.0200624 112:0.66604388 113:0.74538827 114:0.39547348 115:0.81244463 116:0.19663985 117:0.18833569 118:0.25338846 119:0.26248708 120:0 121:0 122:0 123:0 124:0 125:0 126:0 127:0 128:0 129:0 130:0 131:0 132:0 133:0 134:0 135:0 136:0 137:0 138:0 139:0 140:0 141:0 142:0 143:0 144:0 145:0 146:0 147:0 148:0 149:0 150:1 151:2 152:3 153:4 154:5 155:6 156:7 157:8 158:9 159:10 160:11 161:12 162:13 163:14 164:15 165:16 166:17 167:18 168:19 169:20 170:21 171:22 172:23 173:24 174:25 175:26 176:27 177:28 178:29 179:30 
0.03440292049564014 0:0.29860529 1:1.5339512 2:0.49725935 3:4.4415441 4:0.90117306 5:2.4492528 6:1.1491379 7:3.8691635 8:2.2567711 9:0.66306305 10:0.85462993 11:3.3957849 12:1.6995047 13:0.63904917 14:0.58809853 15:0.37020317 16:0.68728584 17:1.6213801 18:2.5669086 19:0.69701952 20:0.92296445 21:1.4693009 22:0.56829256 23:1.483573 24:0.45697957 25:0.069476932 26:0.11514303 27:0.5051226 28:0.27544481 29:0.16781701 30:0.21143767 31:0.20621338 32:1.9133823 33:0.43671846 34:1.2347192 35:0.47624302 36:1.1033654 37:0.63553208 38:1.3400258 39:0.45649683 40:0.67047805 41:2.1251667 42:1.4629691 43:0.11184407 44:0.71649778 45:0.54592609 46:0.42994457 47:0.17037201 48:0.25426066 49:0.24045512 50:0.58439231 51:0.27906677 52:0.24183704 53:0.30459121 54:0.34190282 55:0.2520172 56:0.13887146 57:0.10753466 58:0.147642 59:0.11012175 60:0.44320479 61:1.4309102 62:0.68083233 63:0.51707417 64:0.93106115 65:0.43174589 66:0.95851165 67:0.73631275 68:1.0050322 69:0.20769601 70:0.52304494 71:0.61855882 72:0.34950972 73:0.18439825 74:2.2744305 75:1.4652697 76:2.1994343 77:1.0426954 78:0.82527751 79:0.86794275 80:0.19584958 81:0.81314778 82:0.45250696 83:0.18394484 84:0.34008154 85:0.52575827 86:0.3888948 87:0.35615122 88:0.1872635 89:0.17306994 90:1.1764326 91:1.9759543 92:2.3085256 93:1.7734627 94:1.5210295 95:0.70488334 96:0.82408875 97:1.5970715 98:2.9323015 99:4.127696 100:3.2846625 101:0.68146944 102:1.1913878 103:1.3827596 104:1.0438308 105:1.8578105 106:1.8122061 107:2.1431525 108:3.5196021 109:1.0977892 110:0.68571049 111:1.6476201 112:0.74466908 113:1.6371672 114:0.4620406 115:0.09188281 116:0.22401693 117:0.35764962 118:0.33515963 119:0.37442911 120:0 121:0 122:0 123:0 124:0 125:0 126:0 127:0 128:0 129:0 130:0 131:0 132:0 133:0 134:0 135:0 136:0 137:0 138:0 139:0 140:0 141:0 142:0 143:0 144:0 145:0 146:0 147:0 148:0 149:0 150:1 151:2 152:3 153:4 154:5 155:6 156:7 157:8 158:9 159:10 160:11 161:12 162:13 163:14 164:15 165:16 166:17 167:18 168:19 169:20 170:21 171:22 172:23 173:24 174:25 175:26 176:27 177:28 178:29 179:30 
1.442250409624962 0:0.70340294 1:0.76904005 2:2.8200355 3:1.7096934 4:2.2538986 5:2.5775847 6:2.4565513 7:1.8898286 8:1.2038912 9:0.37508202 10:0.80771822 11:1.6481259 12:1.0222163 13:0.78235507 14:0.48330298 15:0.5127396 16:1.4608268 17:0.74916971 18:0.82963979 19:0.38573405 20:1.0787798 21:1.5424405 22:0.57352042 23:0.34473938 24:0.83347684 25:0.89111674 26:0.61558747 27:0.022784632 28:0.27762583 29:0.063872717 30:0.35168073 31:0.49759316 32:0.99057919 33:0.75271463 34:1.0658267 35:1.0542742 36:1.5715456 37:1.1081926 38:1.3695155 39:0.68754447 40:0.19740185 41:1.2305998 42:0.61833215 43:0.67534953 44:0.56067163 45:0.79515398 46:0.48432237 47:0.61448342 48:0.37664652 49:0.69189018 50:0.61682105 51:0.85794264 52:0.7496255 53:0.38297227 54:0.4259389 55:0.2530852 56:0.26170051 57:0.13616036 58:0.13524169 59:0.0078648971 60:0.42309535 61:0.95747864 62:1.7686467 63:1.1369498 64:0.54398322 65:0.27114034 66:1.3025061 67:1.1301126 68:1.7080876 69:1.2086169 70:0.86811817 71:0.66329223 72:0.86139888 73:0.28963843 74:0.89725453 75:0.88764858 76:1.0261273 77:0.67979187 78:0.75624824 79:0.48293617 80:0.86376941 81:0.37983954 82:0.24574836 83:0.24323094 84:0.039117645 85:0.40649548 86:0.46334419 87:0.29488975 88:0.088187128 89:0.14270203 90:1.2419516 91:2.6984491 92:0.92970741 93:4.9313669 94:2.4573908 95:1.083997 96:0.6485666 97:1.1611297 98:2.782515 99:2.8556316 100:0.92913294 101:0.88783246 102:1.1234841 103:0.72924376 104:1.2946539 105:0.74116874 106:0.76681292 107:0.96626645 108:1.0526611 109:1.0671967 110:1.0960964 111:1.2336949 112:1.4620367 113:1.2602266 114:1.1987683 115:0.52576005 116:0.75832349 117:0.22168316 118:0.30891052 119:0.043731079 120:0 121:0 122:0 123:0 124:0 125:0 126:0 127:0 128:0 129:0 130:0 131:0 132:0 133:0 134:0 135:0 136:0 137:0 138:0 139:0 140:0 141:0 142:0 143:0 144:0 145:0 146:0 147:0 148:0 149:0 150:1 151:2 152:3 153:4 154:5 155:6 156:7 157:8 158:9 159:10 160:11 161:12 162:13 163:14 164:15 165:16 166:17 167:18 168:19 169:20 170:21 171:22 172:23 173:24 174:25 175:26 176:27 177:28 178:29 179:30 
0.770410290063546 0:0.79787797 1:1.5923272 2:0.31479746 3:0.34668106 4:0.66717368 5:2.0338557 6:3.4065042 7:1.3061008 8:0.61539292 9:2.4188037 10:1.0196266 11:1.2090453 12:2.1691773 13:0.74818134 14:0.74508023 15:2.6487663 16:1.6520745 17:0.43045878 18:0.67719042 19:0.85873306 20:0.72719008 21:0.31113774 22:0.66565204 23:0.11217766 24:0.81590539 25:0.18565097 26:0.34093761 27:0.35557383 28:0.25631163 29:0.030504635 30:0.24881081 31:0.56199062 32:0.75780988 33:1.7155329 34:1.5656095 35:1.2094207 36:1.3873836 37:1.6116526 38:0.91776752 39:1.2094401 40:0.72855812 41:0.17685352 42:1.8291644 43:0.94730794 44:1.3729111 45:0.37377006 46:1.1973817 47:0.55047184 48:0.59314656 49:0.5216071 50:0.39852726 51:0.35935429 52:0.66664892 53:0.10918409 54:0.31224129 55:0.25694656 56:0.11522281 57:0.054919884 58:0.12317098 59:0.087556891 60:0.4432922 61:1.0743173 62:1.4732196 63:1.3955892 64:0.69242007 65:0.93303871 66:1.1645917 67:0.41920209 68:1.0685896 69:1.030427 70:2.144094 71:0.8258509 72:0.17742887 73:1.5742184 74:1.2463989 75:0.42798144 76:0.50739229 77:0.47708556 78:0.46842995 79:0.71254742 80:0.93367374 81:0.34632528 82:0.16795784 83:0.25708041 84:0.28065741 85:0.15665746 86:0.19137678 87:0.18926121 88:0.1047227 89:0.1570601 90:0.50768626 91:2.958252 92:4.0341806 93:3.4057951 94:3.4239922 95:3.5010569 96:3.1848698 97:2.1148281 98:1.8811871 99:2.5797415 100:0.87127101 101:3.156141 102:2.3313231 103:0.69701517 104:0.82419616 105:2.1789236 106:0.64163446 107:0.4637796 108:0.66914809 109:1.0196397 110:0.175008 111:0.64014018 112:0.35574231 113:0.18639681 114:0.17694072 115:0.070784166 116:0.59120667 117:0.27699676 118:0.098569624 119:0.20491026 120:0 121:0 122:0 123:0 124:0 125:0 126:0 127:0 128:0 129:0 130:0 131:0 132:0 133:0 134:0 135:0 136:0 137:0 138:0 139:0 140:0 141:0 142:0 143:0 144:0 145:0 146:0 147:0 148:0 149:0 150:1 151:2 152:3 153:4 154:5 155:6 156:7 157:8 158:9 159:10 160:11 161:12 162:13 163:14 164:15 165:16 166:17 167:18 168:19 169:20 170:21 171:22 172:23 173:24 174:25 175:26 176:27 177:28 178:29 179:30 
1.082883695437658 0:0.85034651 1:0.944502 2:1.8373202 3:1.5982455 4:2.0093355 5:0.38356355 6:4.8447533 7:1.6148609 8:1.948586 9:1.6687224 10:1.0833683 11:0.3387334 12:1.6010472 13:1.8229789 14:1.0653886 15:1.6322669 16:3.5182559 17:1.6065158 18:0.88224554 19:0.34519127 20:1.1235652 21:0.16544698 22:0.29027715 23:0.57323933 24:0.34281334 25:0.10542937 26:0.39342526 27:0.37981537 28:0.26575524 29:0.21615706 30:0.20097421 31:0.48111972 32:0.44619659 33:0.98496747 34:0.48773244 35:0.23734131 36:1.1316192 37:0.99825424 38:0.26027897 39:0.91382015 40:0.85000467 41:0.48862949 42:1.2825143 43:0.7530418 44:0.66287255 45:0.76249242 46:1.0712698 47:0.1358005 48:0.68828201 49:0.59831578 50:0.22834785 51:0.15109256 52:0.3309857 53:0.45083219 54:0.38505238 55:0.1149621 56:0.1434291 57:0.11505261 58:0.28376779 59:0.15254466 60:0.66013998 61:1.0450975 62:0.54400146 63:2.0607395 64:1.5270798 65:0.93719053 66:1.8340249 67:0.38305017 68:1.3832864 69:1.22631 70:0.15799987 71:1.0928483 72:0.35905123 73:1.6281058 74:1.0909065 75:0.4181076 76:1.0332218 77:0.82376522 78:0.044691816 79:0.72575492 80:0.69059718 81:0.24493466 82:0.42933902 83:0.37050161 84:0.51339233 85:0.36718714 86:0.28349584 87:0.17338924 88:0.08045467 89:0.16965249 90:0.66953218 91:0.69668281 92:1.8991115 93:5.781363 94:3.8446407 95:2.3229482 96:4.4519444 97:1.8699249 98:1.6392307 99:2.3172038 100:2.548939 101:0.78005821 102:0.51022571 103:1.3803998 104:0.76869833 105:2.9290974 106:1.2610658 107:1.5569004 108:1.2065691 109:0.79276234 110:0.36680081 111:1.2596457 112:0.22365822 113:0.30582088 114:0.18135144 115:0.11707094 116:0.41645458 117:0.35365158 118:0.10488748 119:0.35002726 120:0 121:0 122:0 123:0 124:0 125:0 126:0 127:0 128:0 129:0 130:0 131:0 132:0 133:0 134:0 135:0 136:0 137:0 138:0 139:0 140:0 141:0 142:0 143:0 144:0 145:0 146:0 147:0 148:0 149:0 150:1 151:2 152:3 153:4 154:5 155:6 156:7 157:8 158:9 159:10 160:11 161:12 162:13 163:14 164:15 165:16 166:17 167:18 168:19 169:20 170:21 171:22 172:23 173:24 174:25 175:26 176:27 177:28 178:29 179:30 
0.1013473573399065 0:1.0810499 1:0.8644675 2:2.654326 3:1.4412504 4:0.095559992 5:3.5164025 6:3.5053566 7:3.8683217 8:1.6238559 9:0.11665359 10:1.9509246 11:2.087935 12:1.4723542 13:1.4296969 14:2.2874315 15:2.2606175 16:3.4885819 17:1.8699178 18:0.75593132 19:0.79913813 20:0.24342559 21:0.97864413 22:0.4527553 23:0.78060228 24:0.45744774 25:0.59114587 26:0.17827109 27:0.079662353 28:0.12633301 29:0.27056322 30:0.55381292 31:0.55340278 32:0.86542624 33:1.4740349 34:0.86363941 35:1.1281555 36:0.4527213 37:1.1525023 38:0.37441596 39:1.1475354 40:0.5291236 41:0.10423896 42:0.59571308 43:0.99596655 44:1.3419878 45:0.26213142 46:0.92172909 47:0.43054149 48:0.20969048 49:0.40781391 50:0.2733272 51:0.18822056 52:0.10712737 53:0.4943248 54:0.43755797 55:0.13927379 56:0.35798201 57:0.14268607 58:0.26495376 59:0.08176145 60:0.39161903 61:0.052862782 62:1.6118891 63:1.3959341 64:1.2997218 65:1.5817488 66:1.0348798 67:0.35730448 68:1.4394686 69:0.61167252 70:0.83815461 71:0.67367953 72:1.3006045 73:1.3749614 74:0.94119036 75:0.60629684 76:1.1262927 77:0.42625427 78:0.66110039 79:0.25782207 80:0.50176769 81:0.34561148 82:0.57645053 83:0.1896823 84:0.22218984 85:0.27239254 86:0.041800246 87:0.37884593 88:0.035167746 89:0.045408979 90:1.344466 91:1.9250653 92:2.9906149 93:6.1982012 94:3.3846998 95:3.4294229 96:1.2788354 97:3.6308417 98:0.53592616 99:1.9943626 100:2.7933168 101:2.1949139 102:1.7907382 103:1.7304685 104:1.5828915 105:2.0819242 106:1.3766508 107:1.5656639 108:0.75222707 109:0.18439741 110:0.15933804 111:0.9767862 112:0.75650251 113:0.65097612 114:0.63150626 115:0.62120265 116:0.16464745 117:0.35844487 118:0.14495501 119:0.46456134 120:0 121:0 122:0 123:0 124:0 125:0 126:0 127:0 128:0 129:0 130:0 131:0 132:0 133:0 134:0 135:0 136:0 137:0 138:0 139:0 140:0 141:0 142:0 143:0 144:0 145:0 146:0 147:0 148:0 149:0 150:1 151:2 152:3 153:4 154:5 155:6 156:7 157:8 158:9 159:10 160:11 161:12 162:13 163:14 164:15 165:16 166:17 167:18 168:19 169:20 170:21 171:22 172:23 173:24 174:25 175:26 176:27 177:28 178:29 179:30 
0.8694026302100455 0:0.57797635 1:0.98887098 2:1.3046355 3:1.0360332 4:0.49526155 5:4.6767702 6:1.8283436 7:2.0423357 8:1.7805444 9:0.83564168 10:2.2995806 11:2.6303399 12:0.50308251 13:0.44562224 14:3.0044644 15:0.97521836 16:2.2527223 17:1.2582434 18:0.6480369 19:0.14186418 20:0.22349821 21:1.1418825 22:0.95562363 23:0.49849281 24:0.12236513 25:0.59183621 26:0.17149834 27:0.090079241 28:0.13599619 29:0.28484741 30:0.14663211 31:0.39294517 32:1.2004853 33:1.4767555 34:0.47757861 35:1.6091213 36:1.04878 37:1.1849564 38:0.96592355 39:0.37835699 40:0.7317667 41:1.351928 42:1.0261419 43:0.86750525 44:1.1035913 45:0.59435809 46:0.22971886 47:0.21263869 48:0.57998824 49:0.52330339 50:0.37425742 51:0.36526778 52:0.083555959 53:0.26399595 54:0.2951833 55:0.15922201 56:0.31164765 57:0.19645052 58:0.093192108 59:0.077137671 60:0.035082661 61:0.35332736 62:1.5438229 63:0.27574947 64:0.27671659 65:0.70590669 66:1.0874078 67:1.294883 68:0.55440056 69:0.79595482 70:0.80381626 71:1.5801477 72:0.84711343 73:0.91201848 74:0.81714654 75:1.1615444 76:0.60394174 77:0.34430233 78:0.9918741 79:0.15611729 80:0.64210463 81:0.3871308 82:0.61651158 83:0.030572794 84:0.2272709 85:0.016018886 86:0.088763461 87:0.44154531 88:0.085938901 89:0.081066899 90:1.2858113 91:1.7183411 92:3.8104637 93:4.1376371 94:4.9482088 95:2.0737336 96:2.8708069 97:2.1852136 98:0.58537638 99:1.5911392 100:2.7915714 101:1.8304653 102:2.4518466 103:1.2367229 104:1.444267 105:1.2425902 106:0.84645092 107:0.36129057 108:0.61481404 109:0.75008339 110:0.1999734 111:0.77564144 112:1.0092385 113:0.32802463 114:0.60129142 115:0.40593088 116:0.1142462 117:0.44384223 118:0.25055844 119:0.14069536 120:0 121:0 122:0 123:0 124:0 125:0 126:0 127:0 128:0 129:0 130:0 131:0 132:0 133:0 134:0 135:0 136:0 137:0 138:0 139:0 140:0 141:0 142:0 143:0 144:0 145:0 146:0 147:0 148:0 149:0 150:1 151:2 152:3 153:4 154:5 155:6 156:7 157:8 158:9 159:10 160:11 161:12 162:13 163:14 164:15 165:16 166:17 167:18 168:19 169:20 170:21 171:22 172:23 173:24 174:25 175:26 176:27 177:28 178:29 179:30 
0.5781409801981222 0:0.074716032 1:1.211627 2:1.460899 3:1.2086231 4:0.42079061 5:3.8358786 6:4.2575464 7:1.8708962 8:4.770576 9:2.2545536 10:1.2085903 11:2.4715645 12:3.1750414 13:0.91797912 14:1.6453331 15:3.0465422 16:1.3406699 17:0.26146969 18:0.82108533 19:1.2043679 20:0.43236795 21:0.96725762 22:0.13289993 23:0.74866647 24:0.054257683 25:0.30886298 26:0.38043356 27:0.4280875 28:0.25538793 29:0.24484974 30:0.35968381 31:1.3663808 32:1.1142828 33:0.568443 34:1.7750925 35:0.69303113 36:1.1994833 37:0.83659256 38:2.7868912 39:1.4168278 40:0.97735047 41:0.85407692 42:0.67495352 43:1.0598664 44:0.88012654 45:0.65951139 46:0.87299436 47:0.8065294 48:0.6023671 49:0.63363832 50:0.53677791 51:0.2180059 52:0.15343422 53:0.39366511 54:0.23575033 55:0.23686807 56:0.10525105 57:0.14345442 58:0.12569368 59:0.076057404 60:0.262171 61:1.0159498 62:2.4582434 63:0.92634022 64:1.6895729 65:1.640783 66:1.9654219 67:0.84960032 68:1.1428583 69:1.2358739 70:0.6163106 71:1.4742606 72:0.21078573 73:1.7153437 74:0.57701278 75:0.35076216 76:0.92657554 77:0.45772022 78:0.32932627 79:0.31875366 80:0.84451926 81:0.32589611 82:0.27025089 83:0.33913282 84:0.40044311 85:0.40862119 86:0.35000452 87:0.055267986 88:0.17690092 89:0.17199807 90:1.0496256 91:2.2928042 92:1.5531527 93:3.2840767 94:1.0020276 95:3.5697 96:0.34482384 97:0.96301556 98:1.4214052 99:2.8485515 100:1.1033294 101:2.4049661 102:0.35828 103:1.642946 104:1.3414158 105:2.3272567 106:0.77043968 107:0.56744504 108:2.8671618 109:0.45801592 110:0.60577178 111:1.4405789 112:0.53244925 113:0.70641071 114:0.1742446 115:0.31833652 116:0.47539231 117:0.1151925 118:0.21317656 119:0.53756285 120:0 121:0 122:0 123:0 124:0 125:0 126:0 127:0 128:0 129:0 130:0 131:0 132:0 133:0 134:0 135:0 136:0 137:0 138:0 139:0 140:0 141:0 142:0 143:0 144:0 145:0 146:0 147:0 148:0 149:0 150:1 151:2 152:3 153:4 154:5 155:6 156:7 157:8 158:9 159:10 160:11 161:12 162:13 163:14 164:15 165:16 166:17 167:18 168:19 169:20 170:21 171:22 172:23 173:24 174:25 175:26 176:27 177:28 178:29 179:30 
0.7862608153064368 0:0.092902236 1:0.98867053 2:0.63901293 3:0.98593479 4:0.56591612 5:1.7747704 6:0.26851103 7:3.2097805 8:2.5073485 9:1.1540573 10:0.71513522 11:0.93675804 12:0.45304275 13:2.6284556 14:2.4185145 15:3.86216 16:2.0420341 17:0.85210168 18:2.0191338 19:0.33099973 20:0.42237574 21:0.2722483 22:0.77703971 23:0.59639311 24:1.0254897 25:0.34643966 26:0.43679249 27:0.19656749 28:0.23589097 29:0.20350477 30:0.30159226 31:0.97293741 32:0.44375011 33:0.53516531 34:0.45551899 35:1.4526581 36:2.0767212 37:0.31598485 38:1.2578228 39:0.58809227 40:1.1045023 41:1.0972928 42:1.0961611 43:0.43259776 44:0.28811139 45:0.75512058 46:0.43505672 47:0.085043594 48:0.63953131 49:0.27353701 50:0.19996299 51:0.25391176 52:0.26713324 53:0.50032026 54:0.29705229 55:0.35784489 56:0.090521507 57:0.17046212 58:0.13119903 59:0.068562612 60:0.46665588 61:0.46178842 62:1.3282624 63:1.522092 64:1.3363073 65:1.6018429 66:2.9358954 67:1.6283084 68:0.92594886 69:0.83225459 70:1.1115813 71:0.18401928 72:1.112022 73:1.4636095 74:0.77245849 75:0.55453992 76:0.21493275 77:0.19507858 78:1.1224104 79:0.67879885 80:0.25425723 81:0.3386721 82:0.30418333 83:0.33801973 84:0.27122629 85:0.18437912 86:0.22809617 87:0.18147421 88:0.16907163 89:0.056013808 90:0.8429684 91:3.4140651 92:3.5638065 93:5.3935704 94:0.4411284 95:3.3942888 96:4.0095992 97:1.1561711 98:1.9621454 99:0.86371499 100:0.88121921 101:0.059898056 102:1.3336458 103:2.1024239 104:1.9924132 105:0.89946228 106:2.2406874 107:1.2948304 108:1.1900609 109:0.38744879 110:0.69944799 111:0.60027492 112:0.37607774 113:0.42223895 114:0.62163007 115:0.76293665 116:0.45050183 117:0.029771773 118:0.14589782 119:0.16146481 120:0 121:0 122:0 123:0 124:0 125:0 126:0 127:0 128:0 129:0 130:0 131:0 132:0 133:0 134:0 135:0 136:0 137:0 138:0 139:0 140:0 141:0 142:0 143:0 144:0 145:0 146:0 147:0 148:0 149:0 150:1 151:2 152:3 153:4 154:5 155:6 156:7 157:8 158:9 159:10 160:11 161:12 162:13 163:14 164:15 165:16 166:17 167:18 168:19 169:20 170:21 171:22 172:23 173:24 174:25 175:26 176:27 177:28 178:29 179:30 
0.3344729910621255 0:0.25208804 1:1.0621493 2:2.1816859 3:2.7504585 4:1.0375614 5:1.7724794 6:0.20446075 7:2.7169237 8:1.2814308 9:2.5255892 10:1.4568541 11:0.81716597 12:0.97661299 13:2.4122043 14:2.2948887 15:2.8913648 16:0.96038163 17:0.76707828 18:2.4884527 19:0.31449652 20:0.30670792 21:0.36475152 22:0.51520759 23:0.579063 24:0.63327163 25:0.47427511 26:0.50492322 27:0.22169302 28:0.34379938 29:0.052255817 30:0.60054743 31:0.57056111 32:1.2727207 33:1.0883732 34:1.1349998 35:1.8038538 36:0.3031157 37:1.1906596 38:0.40597463 39:1.1685001 40:0.2319447 41:1.060374 42:1.1188066 43:0.80862719 44:1.0408238 45:0.43889925 46:0.35925177 47:0.29940522 48:0.52182001 49:0.83322996 50:0.41923332 51:0.18627544 52:0.49538282 53:0.2155169 54:0.34280404 55:0.33211994 56:0.14405888 57:0.2402323 58:0.24185851 59:0.043619156 60:0.15647613 61:0.95974922 62:1.4226799 63:0.7704469 64:0.94335192 65:2.8698456 66:1.1365833 67:1.5748523 68:0.68906599 69:0.80894417 70:0.54063076 71:0.60619909 72:0.90860718 73:0.81137908 74:0.15024583 75:0.58195984 76:0.41327354 77:0.60737765 78:0.65871114 79:1.2354409 80:0.37223101 81:0.25252497 82:0.19915845 83:0.13431366 84:0.52305567 85:0.164226 86:0.28339115 87:0.16646048 88:0.11456641 89:0.10905905 90:0.35135436 91:4.2442255 92:4.2198911 93:3.7705266 94:2.1545069 95:5.1634274 96:1.5368061 97:3.080647 98:0.49486715 99:1.2998915 100:0.41528633 101:1.0811548 102:0.16428433 103:2.6208189 104:1.0557373 105:0.76291782 106:1.5859748 107:1.4465925 108:1.7416718 109:1.7899773 110:0.64946574 111:0.24603055 112:0.062123582 113:0.17043099 114:0.40320683 115:0.7067737 116:0.41152561 117:0.12905604 118:0.18833111 119:0.22699751 120:0 121:0 122:0 123:0 124:0 125:0 126:0 127:0 128:0 129:0 130:0 131:0 132:0 133:0 134:0 135:0 136:0 137:0 138:0 139:0 140:0 141:0 142:0 143:0 144:0 145:0 146:0 147:0 148:0 149:0 150:1 151:2 152:3 153:4 154:5 155:6 156:7 157:8 158:9 159:10 160:11 161:12 162:13 163:14 164:15 165:16 166:17 167:18 168:19 169:20 170:21 171:22 172:23 173:24 174:25 175:26 176:27 177:28 178:29 179:30 
