svm_type c_svc
kernel_type rbf
gamma 0.01
nr_class 2
total_sv 1587
rho -0.363186 
label 0 1 
nr_sv 928 659 
SV 
0.8007186000001746 0:0.65589404 1:1.4489847 2:2.9722898 3:2.4969413 4:2.0045123 5:1.5417572 6:4.5650959 7:6.1063056 8:2.804441 9:2.7262235 10:2.1969469 11:2.7398915 12:3.0340629 13:1.7547204 14:1.7843682 15:2.5609341 16:1.9680409 17:2.2652581 18:2.4317243 19:1.422217 20:1.534471 21:1.3545594 22:1.4412794 23:2.0441101 24:1.2411132 25:1.3479807 26:0.81970698 27:1.3529509 28:0.62154347 29:0.8731727 30:0.55935615 31:2.5096893 32:2.2417533 33:1.429572 34:0.91022497 35:1.3845229 36:1.3045908 37:0.25863308 38:0.51691663 39:0.43913347 40:0.72991568 41:0.73974609 42:0.7599659 43:0.77063006 44:0.40659133 45:0.95513481 46:0.58888227 47:0.56817269 48:0.74459249 49:0.85124916 50:0.67362499 51:0.48469666 52:0.40455869 53:0.63078678 54:0.41497025 55:0.28399283 56:0.14164707 57:0.29927546 58:0.23314323 59:0.21328501 60:2.3596785 61:0.79818255 62:2.1750715 63:3.9359498 64:2.1868718 65:4.3021345 66:1.5201375 67:2.3293803 68:2.0001879 69:1.7736382 70:0.70645964 71:0.97378242 72:1.2282103 73:1.3452773 74:0.98680478 75:1.9299041 76:1.1058745 77:1.5527538 78:1.2559128 79:1.751918 80:1.361591 81:1.3888698 82:1.1040251 83:1.3376694 84:1.1085697 85:0.89798516 86:0.88355148 87:1.0593599 88:0.99855524 89:0.86356801 90:0.29653198 91:1.1753107 92:0.93651855 93:1.9943482 94:1.4429325 95:1.1541889 96:5.3171344 97:4.9520206 98:1.5256931 99:3.1069486 100:2.6481907 101:3.1616211 102:2.9273372 103:1.9295014 104:1.1165059 105:1.9155679 106:0.9521414 107:1.7045262 108:1.2678772 109:2.154388 110:0.64155293 111:0.89891982 112:1.0301882 113:0.6735658 114:0.53341496 115:0.63689953 116:0.63454854 117:0.47540289 118:0.040674601 119:0.28843033 
0.6265271478986649 0:3.4146767 1:10.946919 2:19.112741 3:20.80061 4:16.835733 5:15.98306 6:14.434686 7:9.6809216 8:6.8183551 9:4.7559376 10:1.8922396 11:5.0133471 12:2.4023428 13:1.6317892 14:0.98308623 15:1.5530143 16:1.9415431 17:1.3444644 18:1.0476253 19:1.0935391 20:0.09579666 21:0.74198115 22:0.83526719 23:0.63209736 24:0.1953795 25:0.33083338 26:0.27486783 27:0.26665443 28:0.42805767 29:0.30395111 30:2.8557553 31:7.646842 32:10.808068 33:11.917789 34:7.428298 35:3.866184 36:5.4103045 37:2.212527 38:1.2421427 39:1.3019612 40:0.41800788 41:0.62708598 42:1.4455369 43:1.6583709 44:1.1318772 45:1.0118361 46:0.60400444 47:0.59870148 48:0.088635311 49:0.2978619 50:0.46201164 51:0.41832194 52:0.48871267 53:0.58152217 54:0.3178539 55:0.17151344 56:0.24731414 57:0.19538733 58:0.042339329 59:0.19184533 60:5.6715889 61:15.070679 62:19.845051 63:23.461794 64:15.315386 65:13.099775 66:9.6212797 67:8.3927097 68:4.605083 69:4.1250153 70:3.2073791 71:2.2276137 72:1.6179786 73:1.5280831 74:2.1627357 75:0.78736126 76:1.1164789 77:1.4761285 78:0.52179617 79:0.68878132 80:0.50741196 81:0.53879583 82:0.29502434 83:0.77215421 84:0.40507141 85:0.28538811 86:0.25399134 87:0.19632131 88:0.30689991 89:0.16955927 90:2.5935287 91:9.7585907 92:16.451088 93:18.642099 94:15.141972 95:13.817139 96:11.642875 97:6.9947777 98:6.6486588 99:6.5016584 100:0.6621033 101:4.079041 102:1.6089871 103:0.6973595 104:0.46821088 105:1.1789073 106:0.17365173 107:0.55681443 108:2.1248679 109:1.911286 110:0.55572373 111:0.68040049 112:1.0366653 113:0.24568805 114:0.31375617 115:0.56721872 116:0.5231865 117:0.36247358 118:0.48027545 119:0.37838292 
0.6302426068212231 0:3.5583842 1:19.054697 2:14.742286 3:24.641483 4:12.082465 5:20.554974 6:12.273976 7:12.569768 8:7.5663733 9:4.4368463 10:1.9299128 11:4.797647 12:3.6042681 13:3.4968183 14:4.1863718 15:3.3269916 16:2.1971688 17:2.0420668 18:1.7299877 19:2.3377078 20:1.1424067 21:1.2188656 22:0.45611128 23:0.60997355 24:0.68191707 25:0.32647747 26:0.19560468 27:0.42210737 28:0.17942716 29:0.42304292 30:2.0152452 31:7.6518731 32:12.067707 33:11.604698 34:6.4784837 35:5.7994204 36:3.2190776 37:3.6478968 38:0.91269422 39:1.6460994 40:2.1085758 41:0.39099118 42:1.9606941 43:1.45728 44:1.1031249 45:0.42416698 46:0.87869102 47:0.4290376 48:0.36304116 49:0.46689519 50:0.73616028 51:0.39395779 52:0.33182922 53:0.62012821 54:0.59401524 55:0.39522406 56:0.17714182 57:0.11327302 58:0.026604183 59:0.10232982 60:1.8099543 61:17.45993 62:24.309765 63:19.500687 64:17.459032 65:11.677619 66:10.635424 67:7.6417084 68:5.1794982 69:3.246733 70:4.4082265 71:1.5488294 72:1.6553657 73:1.8929929 74:1.7088925 75:0.79578882 76:1.7074662 77:0.91166085 78:0.62297231 79:0.24775338 80:0.71430874 81:0.26040399 82:0.052573539 83:0.67357969 84:0.31723294 85:0.083712108 86:0.1165859 87:0.14569508 88:0.17287807 89:0.14803554 90:3.499136 91:16.25511 92:11.79094 93:23.138454 94:9.9943256 95:19.181414 96:8.9671898 97:10.104218 98:7.6252694 99:5.5615201 100:3.4155886 101:5.2511063 102:4.3998308 103:3.4336054 104:2.7207985 105:2.0982745 106:1.8422134 107:2.3106301 108:0.48673883 109:2.8523066 110:0.85440451 111:0.4022533 112:0.4197382 113:0.87155378 114:0.84081244 115:0.18787783 116:0.09530513 117:0.6207571 118:0.32324517 119:0.33857062 
0.6145419580727597 0:5.882019 1:20.804399 2:4.4447579 3:10.633356 4:6.4016137 5:3.429451 6:9.2719145 7:6.8070354 8:2.0819156 9:4.3932452 10:1.1069348 11:2.4136169 12:5.205348 13:4.6708779 14:2.9407926 15:3.4567835 16:3.3652101 17:0.97156805 18:2.5461361 19:3.4297309 20:0.30111372 21:1.6030643 22:1.2806547 23:1.4933378 24:1.0161959 25:1.2326814 26:1.0367581 27:0.79283893 28:0.84463739 29:1.2033416 30:4.4540181 31:5.4435453 32:6.3428464 33:5.4918118 34:2.7017918 35:2.5224769 36:2.5623262 37:0.84178036 38:1.0183601 39:2.6896489 40:1.2501829 41:0.36596122 42:1.8777565 43:1.6503434 44:1.2670995 45:1.183212 46:0.80961406 47:0.59055471 48:0.67644387 49:1.0550803 50:0.39307249 51:0.55194587 52:0.50976223 53:0.8257376 54:0.41483548 55:0.50950569 56:0.24468733 57:0.58337468 58:0.37952837 59:0.31310284 60:9.425374 61:17.316317 62:11.27467 63:6.1306748 64:4.6111317 65:3.0642521 66:1.3090019 67:1.7095095 68:1.9589355 69:0.54754281 70:3.1039085 71:1.5462158 72:0.67875457 73:0.66805816 74:0.78291529 75:0.11730628 76:1.303236 77:0.58643717 78:0.75078666 79:0.43948713 80:0.9867242 81:0.37311086 82:0.70556766 83:0.12188459 84:0.32032952 85:0.23869877 86:0.39811006 87:0.22531344 88:0.34850848 89:0.31476769 90:4.2365456 91:17.745131 92:5.3592348 93:11.277719 94:7.0815649 95:5.1227379 96:9.1468678 97:7.5554142 98:0.32416144 99:5.3141375 100:3.0757916 101:2.2691457 102:6.6904655 103:3.958606 104:1.3750173 105:3.2235289 106:2.8452315 107:2.1284556 108:1.6857986 109:2.8646693 110:0.43660679 111:0.88015264 112:1.0882267 113:1.3309022 114:0.45440921 115:1.0050017 116:0.82629162 117:0.62353611 118:0.9264515 119:0.8434149 
1.477267941000345 0:5.6057339 1:6.8388319 2:8.0673246 3:4.8191867 4:5.1470366 5:0.92438334 6:2.3312149 7:1.7019083 8:1.5678674 9:3.6262755 10:2.2471464 11:0.70649761 12:0.98001432 13:2.1850111 14:2.6314194 15:0.54747611 16:1.1183814 17:1.4731182 18:1.7853823 19:1.1509316 20:0.97536117 21:0.75037968 22:1.1598406 23:0.28548783 24:0.46479064 25:0.2915957 26:0.43633375 27:0.46895772 28:0.27739117 29:0.20053943 30:1.22949 31:1.1940022 32:0.54456234 33:1.6532594 34:1.1427503 35:0.73732108 36:0.17456207 37:0.4704724 38:0.63082677 39:0.24234502 40:1.2864915 41:0.2341152 42:0.8175267 43:0.52427989 44:0.14978579 45:0.10941045 46:0.23482561 47:0.72181231 48:0.94662464 49:0.57158637 50:0.26623648 51:0.38152528 52:0.22426043 53:0.56455147 54:0.31421235 55:0.20961709 56:0.20308773 57:0.40864238 58:0.10383905 59:0.079760551 60:1.5050457 61:3.25225 62:1.0942501 63:0.76926267 64:1.6782591 65:0.62584358 66:0.59437597 67:1.3499925 68:0.7185753 69:0.40194616 70:1.1808548 71:0.090406887 72:0.4810324 73:0.63421619 74:0.64718997 75:0.33451763 76:0.60774684 77:0.6080038 78:0.59361529 79:0.37885183 80:0.55394667 81:0.51209319 82:0.2546263 83:0.34309688 84:0.014579137 85:0.10259062 86:0.17041969 87:0.17109795 88:0.049374253 89:0.068244845 90:5.8295965 91:6.3220377 92:7.0233698 93:4.0227842 94:4.125339 95:2.8255715 96:3.1123135 97:1.9413698 98:3.0247986 99:2.9425631 100:2.3379364 101:0.89085054 102:2.0912821 103:1.62097 104:0.48213971 105:0.92847294 106:0.37007499 107:1.5313462 108:1.1325729 109:1.3901348 110:1.1205393 111:1.0196308 112:0.24596052 113:0.56745726 114:0.18357134 115:0.18942949 116:0.47730812 117:0.50013453 118:0.23591632 119:0.13912 
0.5446252802083005 0:3.922919 1:5.9619474 2:5.4252586 3:11.858836 4:11.910406 5:15.589547 6:12.998351 7:6.0933747 8:5.979691 9:3.7059524 10:4.2486305 11:4.0454698 12:3.6146309 13:1.8295519 14:2.5478797 15:1.6347933 16:1.1232532 17:1.8337716 18:1.1829437 19:0.31946716 20:1.560019 21:1.0709817 22:1.4640664 23:0.33776927 24:0.90501744 25:0.60930783 26:0.31945357 27:0.57446837 28:0.63303423 29:0.732108 30:4.4538517 31:5.0929184 32:7.9097672 33:12.041976 34:9.9036493 35:9.4598951 36:7.5858374 37:4.9545727 38:2.9724174 39:1.9658567 40:2.3925064 41:2.2512693 42:0.71256363 43:0.61014146 44:1.2354082 45:1.2536681 46:1.0548658 47:1.4070733 48:0.74108618 49:1.0746746 50:1.3297948 51:0.44977239 52:0.42733797 53:0.45919707 54:0.54931748 55:0.58786535 56:0.22883116 57:0.15362591 58:0.45328331 59:0.37051678 60:4.2437649 61:4.1206336 62:7.3913774 63:8.0714684 64:6.7946019 65:7.5085411 66:5.3497515 67:3.1715162 68:1.7022725 69:0.97092915 70:1.324147 71:0.5762099 72:0.12983717 73:0.54628772 74:1.4377235 75:0.4953053 76:0.88009024 77:0.66028088 78:0.13190022 79:0.57344925 80:0.72475761 81:0.36797556 82:0.4365454 83:0.12963991 84:0.39501798 85:0.28812435 86:0.10839203 87:0.098600164 88:0.2470129 89:0.21460801 90:5.2487149 91:6.1638169 92:9.8958368 93:16.595091 94:16.456882 95:17.031727 96:14.196644 97:7.1277833 98:8.3726091 99:4.3064632 100:5.3657055 101:6.0291252 102:2.8209176 103:1.6015866 104:2.1560161 105:1.773802 106:1.7861899 107:2.1787667 108:1.4384087 109:2.0624266 110:2.4557669 111:1.4456755 112:1.4318774 113:0.38222313 114:0.93838686 115:1.1848102 116:0.18079735 117:0.58103526 118:0.8546983 119:0.81659359 
0.384025419323042 0:0.99351549 1:9.1793051 2:12.078443 3:17.029478 4:9.4477234 5:12.308857 6:11.589313 7:6.3862982 8:6.8946819 9:2.7347538 10:3.6796062 11:3.5748129 12:1.5512218 13:2.7754502 14:2.114594 15:1.4244195 16:1.1783429 17:2.4749901 18:1.2599339 19:0.97523636 20:1.1894602 21:0.13606487 22:1.4229648 23:0.38663125 24:0.36834455 25:0.35907751 26:0.45604828 27:0.037703317 28:0.39026695 29:0.40270066 30:2.8047929 31:10.388482 32:14.586486 33:12.099425 34:9.4105921 35:9.0812626 36:5.9541993 37:4.4444132 38:4.1646791 39:2.2949123 40:1.5212808 41:2.4883015 42:1.216246 43:1.4197371 44:0.93414658 45:0.65325677 46:1.336761 47:1.1140574 48:1.1884286 49:1.0951662 50:0.74205559 51:0.43840653 52:0.53078371 53:0.33150291 54:0.16384475 55:0.3287681 56:0.1438003 57:0.14911582 58:0.15559192 59:0.27452013 60:1.698202 61:8.9780111 62:13.010946 63:9.1689911 64:6.0623174 65:7.205236 66:4.4176927 67:2.729408 68:2.7876909 69:0.61753726 70:0.41200608 71:1.5248506 72:1.2189443 73:1.4521495 74:0.59092522 75:0.9805221 76:1.1743133 77:0.3768025 78:0.37979525 79:0.79648596 80:0.40304393 81:0.24691683 82:0.40812221 83:0.18443796 84:0.3638519 85:0.18397219 86:0.085312188 87:0.16479996 88:0.068780288 89:0.089272626 90:2.293427 91:11.32307 92:16.415236 93:22.061968 94:14.386186 95:13.745674 96:11.66643 97:8.9102955 98:8.359334 99:4.1985536 100:4.2332644 101:6.2140789 102:1.8443972 103:1.6128777 104:2.1913168 105:1.3487822 106:1.4791908 107:2.0401917 108:2.1384952 109:2.3752129 110:0.65253448 111:1.3297815 112:1.7468724 113:0.34691933 114:0.84424871 115:0.34765732 116:0.27353361 117:0.48650965 118:0.47273749 119:0.36199722 
0.2321403138392965 0:1.1383644 1:8.4095316 2:13.753705 3:14.495151 4:12.036432 5:10.959773 6:10.256069 7:7.5033259 8:5.346179 9:3.0341027 10:4.5038152 11:4.0381284 12:1.7150639 13:1.8253686 14:1.6306627 15:1.3529502 16:2.4750125 17:2.2645438 18:1.8873243 19:2.216815 20:1.3547249 21:1.1950496 22:1.5322719 23:0.59405786 24:0.12111117 25:0.30904219 26:0.7295559 27:0.64259064 28:0.39606801 29:0.38985968 30:1.4699097 31:11.304061 32:14.221075 33:11.138373 34:10.094914 35:9.0746737 36:5.1535325 37:4.3414011 38:4.6822743 39:3.4697101 40:1.9124038 41:2.1364791 42:1.2228457 43:0.99323326 44:0.84249735 45:1.2564775 46:1.4910836 47:0.78145492 48:1.027217 49:0.91588587 50:0.6202513 51:0.92850828 52:0.82519782 53:0.68109518 54:0.39156783 55:0.3541306 56:0.34668607 57:0.36114368 58:0.35944054 59:0.13661665 60:1.0694833 61:8.9733286 62:13.147946 63:8.802352 64:7.7193379 65:6.6718435 66:3.4758215 67:2.2392015 68:2.137207 69:1.3145283 70:0.69197679 71:1.3563124 72:1.5379101 73:0.54910362 74:0.79356742 75:1.0642551 76:1.37444 77:0.53437018 78:0.73492956 79:0.52393121 80:0.26332492 81:0.44852796 82:0.43439466 83:0.40027401 84:0.15012594 85:0.16195467 86:0.097095743 87:0.20747608 88:0.19915897 89:0.063225657 90:1.7130251 91:11.526742 92:17.418156 93:19.016426 94:17.001232 95:13.609152 96:10.515017 97:9.1271896 98:6.6953917 99:4.8047085 100:4.7556329 101:5.5492039 102:2.4937589 103:0.91350001 104:1.4871166 105:1.8237706 106:2.334271 107:1.4286021 108:1.9224347 109:2.1326017 110:0.64021677 111:1.6110854 112:2.1678972 113:0.66317934 114:0.7065506 115:0.40985188 116:0.74559402 117:0.35775664 118:0.60760599 119:0.17387247 
0.9387326867342348 0:2.4947395 1:2.4493284 2:0.92630333 3:4.0500636 4:1.9081309 5:0.98373389 6:2.8344338 7:1.2557641 8:1.70068 9:3.5436771 10:1.0668919 11:0.21526948 12:0.89542747 13:1.0256536 14:0.86237878 15:2.0712323 16:0.23742902 17:1.4854381 18:0.61483979 19:0.66512865 20:0.52338314 21:0.69368279 22:0.23494062 23:1.0615494 24:0.51781327 25:0.77363634 26:1.0087306 27:0.21503106 28:0.29786777 29:0.14322604 30:3.6778481 31:4.3197732 32:3.0026603 33:1.2760357 34:1.4109712 35:1.6442225 36:3.6747947 37:0.942029 38:2.0554194 39:0.00727147 40:0.69620848 41:0.72140205 42:2.7980125 43:0.71338695 44:0.55623919 45:1.0749503 46:1.3946698 47:0.22002348 48:0.86820525 49:0.47367567 50:0.2521275 51:0.11065513 52:0.17457433 53:0.16785498 54:0.20881742 55:0.070586137 56:0.36021554 57:0.18279834 58:0.090529308 59:0.24273376 60:2.7000332 61:3.9767792 62:4.3315907 63:2.5529604 64:0.99945498 65:0.28317207 66:2.135488 67:0.12572546 68:1.7418619 69:1.1490068 70:0.41654393 71:0.33907419 72:1.8603276 73:0.50349748 74:0.5437398 75:0.90341455 76:0.982144 77:0.31297502 78:0.49949551 79:0.1333375 80:0.18254897 81:0.30117586 82:0.093913913 83:0.14236191 84:0.58053398 85:0.20426628 86:0.31033435 87:0.22083403 88:0.15504691 89:0.16317448 90:3.2050877 91:4.3562636 92:2.4175017 93:2.7986784 94:1.2484598 95:1.6667353 96:2.8325942 97:1.6033512 98:0.76806247 99:1.1587441 100:2.5519946 101:0.5791226 102:0.90921235 103:1.4766912 104:0.55375785 105:1.2460475 106:0.95148766 107:0.36875126 108:0.42588103 109:0.14610653 110:0.52962482 111:1.0488645 112:0.71969575 113:0.72765511 114:0.25917509 115:1.0511979 116:0.82098716 117:0.56972152 118:0.50407398 119:0.34199762 
2.339220945757271 0:0.25142112 1:0.47551581 2:0.64854795 3:2.5195096 4:1.2896439 5:0.94352323 6:1.004514 7:1.5762099 8:1.4861821 9:0.99265838 10:2.0612707 11:1.3632985 12:0.80208814 13:0.93937457 14:1.6796005 15:1.7261151 16:1.7776417 17:0.67492849 18:0.33286476 19:0.39714608 20:0.98526806 21:1.2884531 22:1.3040656 23:0.65173483 24:0.52210969 25:0.50840825 26:0.46797878 27:0.41629246 28:0.33427775 29:0.16424625 30:0.49963456 31:2.8961248 32:2.0757565 33:2.873189 34:1.5989978 35:3.259726 36:1.8166186 37:1.912064 38:2.3695633 39:0.59535062 40:0.50539452 41:0.85556608 42:1.8062119 43:1.4269227 44:0.67308092 45:1.2303581 46:1.3415095 47:0.37560165 48:0.82868564 49:0.27251142 50:0.71751583 51:0.41927907 52:0.45302978 53:0.23820515 54:0.2439345 55:0.11711776 56:0.32481644 57:0.17168815 58:0.094658576 59:0.11766431 60:0.26317856 61:2.1955531 62:3.2694719 63:1.9664288 64:1.0668989 65:1.2592402 66:0.51321977 67:1.8886834 68:1.9162564 69:1.1570731 70:0.84387106 71:0.99742103 72:1.3168851 73:1.1311704 74:1.1156996 75:1.101663 76:0.70635086 77:0.80328447 78:0.88812745 79:0.23730935 80:0.42271063 81:0.32284257 82:0.065670334 83:0.28754723 84:0.36879128 85:0.27860403 86:0.40465131 87:0.20831318 88:0.15855788 89:0.065790951 90:0.091194302 91:1.9762861 92:1.3641279 93:2.3046587 94:0.78669196 95:0.37276676 96:3.0224943 97:1.1597619 98:0.99992043 99:0.82996964 100:2.3300984 101:0.76218408 102:1.1645674 103:1.0467757 104:2.0625963 105:0.210593 106:0.86252588 107:1.0181775 108:0.22724597 109:0.73025203 110:0.22956471 111:1.1934639 112:0.23948184 113:0.24399871 114:0.81997168 115:0.075946532 116:0.31873924 117:0.36473569 118:0.53127122 119:0.32186267 
1.142334836176139 0:1.5749516 1:0.78294683 2:0.99223286 3:2.8208601 4:1.7058451 5:2.5001462 6:3.2499909 7:2.2104909 8:3.2249954 9:3.0954237 10:3.7871041 11:3.7276275 12:3.0302417 13:1.6727476 14:3.4479902 15:1.874729 16:1.311811 17:2.0487137 18:0.94895405 19:0.70641315 20:1.7502542 21:0.66720688 22:1.2230453 23:0.30341217 24:0.81550133 25:0.82828289 26:0.7930733 27:0.72960341 28:1.1484715 29:0.6668095 30:1.0153133 31:4.273243 32:2.4784551 33:2.6454315 34:1.649904 35:1.0359902 36:3.4667413 37:3.1167819 38:3.3941503 39:2.2327015 40:2.4644048 41:3.1383247 42:1.6886741 43:1.8318968 44:0.53958935 45:1.6549664 46:0.77064168 47:0.81909031 48:1.1156062 49:0.13998048 50:0.60896933 51:0.7191062 52:0.50445676 53:0.080796458 54:0.18969476 55:0.26733109 56:0.58630377 57:0.26051173 58:0.3937887 59:0.19898464 60:3.8943706 61:6.681231 62:2.2625787 63:4.5357866 64:3.3583906 65:4.0586514 66:6.351728 67:3.9294112 68:4.9760518 69:2.9676657 70:3.5408089 71:1.9346113 72:3.0395992 73:2.0666826 74:2.491605 75:0.80674654 76:2.3143036 77:1.8451716 78:2.8354239 79:2.0249932 80:2.5235088 81:1.4345182 82:1.3547012 83:1.242345 84:1.2948047 85:0.97532696 86:1.2678397 87:0.75593853 88:0.96906233 89:0.72899783 90:0.61796004 91:1.7676238 92:2.1021812 93:1.9329346 94:1.3671517 95:2.7990646 96:2.7709184 97:4.1094871 98:3.7656615 99:3.9228721 100:0.46845666 101:0.82707065 102:2.4153049 103:3.2264953 104:3.2299583 105:1.4047961 106:0.84988016 107:0.8642953 108:1.8895307 109:0.74404335 110:0.46546558 111:0.40399903 112:0.56157082 113:0.42338523 114:0.72121537 115:0.28174749 116:0.74617481 117:0.30220097 118:0.95795119 119:0.99471104 
0.6271659415124489 0:1.7625288 1:8.4898958 2:12.773117 3:12.349804 4:9.8022642 5:11.053461 6:10.197803 7:5.903008 8:5.7065949 9:4.0378904 10:3.6175249 11:2.2137964 12:0.7977587 13:1.1650612 14:2.0804772 15:1.4327883 16:1.9340148 17:1.3302122 18:1.0938934 19:0.72381234 20:1.0993891 21:0.9562149 22:0.69664544 23:1.7654725 24:0.59295511 25:0.81769121 26:0.57218993 27:0.6435259 28:0.51644683 29:0.37484914 30:4.5438795 31:10.12555 32:8.7334442 33:7.0027037 34:1.3654127 35:2.3883054 36:2.6418347 37:1.9013455 38:1.8450843 39:3.0682516 40:2.2020543 41:2.3018703 42:1.158742 43:1.3399844 44:0.78106546 45:1.8369923 46:0.73871571 47:0.52433491 48:0.20569046 49:0.89762568 50:0.76494479 51:0.6724385 52:0.42000797 53:0.5892486 54:0.1298009 55:0.37616861 56:0.19952013 57:0.31705791 58:0.19666231 59:0.10882526 60:5.0343952 61:14.671368 62:23.046339 63:21.516758 64:13.747881 65:14.056768 66:9.6273651 67:6.2379608 68:5.032413 69:2.279973 70:3.3248782 71:1.8557148 72:1.6159115 73:1.1522876 74:1.2911923 75:2.1399426 76:1.3471879 77:0.77393728 78:0.73980665 79:0.38233688 80:1.5722294 81:0.19738257 82:0.32057977 83:0.44659078 84:0.45719862 85:0.17015573 86:0.25667116 87:0.2276212 88:0.30317968 89:0.3050524 90:2.2218864 91:8.0830708 92:10.43898 93:8.3011885 94:9.1250601 95:7.8401599 96:9.6473293 97:6.4909306 98:5.1850963 99:3.4790559 100:2.0713074 101:2.6549613 102:3.2071137 103:0.93291414 104:2.799726 105:2.74139 106:1.300503 107:0.40734094 108:1.8604953 109:0.69044834 110:1.1310586 111:0.15697171 112:0.58019799 113:1.1207359 114:0.4899008 115:0.58679175 116:0.85827428 117:0.35035673 118:0.43103954 119:0.68169081 
0.6366104587521521 0:9.6134262 1:21.135242 2:24.185816 3:32.665752 4:24.16898 5:17.701424 6:8.8473015 7:11.176499 8:5.8447542 9:5.6321774 10:0.99308664 11:5.4769163 12:4.0265694 13:3.0897765 14:1.0817086 15:3.0064461 16:2.8422689 17:0.63911563 18:0.34016249 19:2.5226965 20:0.33309844 21:1.3258113 22:0.5105322 23:1.213675 24:0.65244895 25:0.79500389 26:0.85478222 27:0.7665621 28:0.63981414 29:0.54169846 30:8.0931301 31:6.8849463 32:32.468704 33:20.320509 34:18.957066 35:9.3335009 36:3.693197 37:6.929193 38:4.8710594 39:2.2255449 40:2.0463188 41:1.6247412 42:2.5030575 43:3.562007 44:0.11900053 45:3.1345851 46:1.1378423 47:0.77262098 48:1.0600351 49:1.6101804 50:0.40792954 51:0.95436424 52:0.66130191 53:0.61608452 54:0.82685417 55:0.72227013 56:0.506643 57:0.64940917 58:0.19103676 59:0.20952711 60:0.49006036 61:20.967403 62:22.968878 63:22.606123 64:13.54399 65:11.963487 66:11.95597 67:5.6095037 68:6.5042491 69:0.80157822 70:4.900022 71:1.390906 72:1.8701853 73:1.3443395 74:2.5438974 75:1.3962251 76:1.4897189 77:1.3778014 78:0.39446071 79:0.51374406 80:0.70084274 81:1.1335124 82:0.89700532 83:0.46688539 84:0.63956237 85:0.3591857 86:0.050657123 87:0.19235685 88:0.32152587 89:0.33850747 90:12.561221 91:22.138134 92:35.56308 93:33.108006 94:33.175182 95:16.019011 96:8.4042912 97:10.898062 98:5.3424902 99:6.8718309 100:0.97084492 101:3.1108434 102:4.7092342 103:2.8776104 104:2.0528939 105:5.5977607 106:2.3535841 107:0.67621648 108:1.3084037 109:1.9259782 110:1.0833321 111:2.2295713 112:2.7099068 113:0.62642062 114:1.371346 115:1.0277013 116:0.83840144 117:1.385214 118:1.1023867 119:0.93913811 
0.6357116506773633 0:6.2023792 1:21.204666 2:29.224823 3:30.262966 4:17.982975 5:14.372429 6:9.0826273 7:5.072494 8:2.6304593 9:3.1951923 10:2.5336313 11:4.5216622 12:4.7860045 13:1.6839393 14:3.3301101 15:1.4210809 16:3.5095782 17:0.46531865 18:0.49930692 19:1.294524 20:1.3196816 21:1.1512942 22:0.40855202 23:0.49010864 24:0.095508792 25:0.55722737 26:0.39584139 27:0.40688479 28:0.1378469 29:0.043386161 30:8.3884554 31:12.654012 32:34.44939 33:18.398453 34:15.644343 35:11.894623 36:4.2429996 37:4.9519134 38:3.3940871 39:1.8996372 40:1.3654367 41:1.5218142 42:2.3099403 43:1.6968949 44:1.6260475 45:2.3067575 46:1.4228971 47:1.014686 48:1.506144 49:1.0787456 50:0.96086478 51:0.21229652 52:0.77253199 53:0.39542305 54:0.18999445 55:0.2702044 56:0.34454855 57:0.43548024 58:0.35420531 59:0.23477125 60:5.4691591 61:16.664816 62:11.433929 63:5.0841455 64:4.1139126 65:3.2649512 66:4.2243381 67:0.48026702 68:3.9771061 69:4.0031328 70:1.8774554 71:2.6079164 72:1.8658233 73:1.280533 74:2.2165251 75:1.4455062 76:1.2009237 77:1.1104256 78:0.86902416 79:0.79927254 80:1.0112878 81:0.13904631 82:1.1342162 83:0.68994629 84:0.46493867 85:0.69685984 86:0.63024694 87:0.62712783 88:0.4744013 89:0.64779174 90:8.7191677 91:24.268984 92:38.162266 93:37.026077 94:26.071667 95:15.990973 96:7.9356871 97:7.7277036 98:2.3742101 99:2.6466386 100:2.0888746 101:2.5132163 102:3.249649 103:1.6636777 104:1.2627928 105:3.2400157 106:3.9336379 107:1.2689046 108:1.3319401 109:1.4257318 110:1.0690179 111:2.1472185 112:1.4363873 113:1.5443418 114:0.53292781 115:0.49470553 116:0.98483396 117:0.5830828 118:0.30099249 119:0.22799395 
0.6346808946562333 0:4.5915322 1:26.373873 2:23.127913 3:18.466673 4:10.656454 5:8.409544 6:8.3668242 7:6.923224 8:5.4089055 9:2.5741353 10:4.1768465 11:3.816741 12:5.0130486 13:3.981461 14:1.1822942 15:3.2655571 16:0.9586705 17:2.1908989 18:2.1620171 19:3.2407026 20:1.5645448 21:1.7763884 22:1.8121114 23:1.6214238 24:1.7141372 25:1.0492004 26:1.24236 27:1.4636394 28:1.1099967 29:1.1866858 30:2.3098793 31:22.047005 32:22.470526 33:16.424864 34:10.646995 35:9.8700466 36:4.8896341 37:3.9562926 38:2.3433363 39:3.562758 40:2.1854057 41:2.4005578 42:2.4346852 43:1.9574465 44:2.8654692 45:2.1487198 46:2.7088635 47:1.8582622 48:1.6069198 49:1.805333 50:1.4312482 51:0.89525646 52:1.3308048 53:1.0067394 54:1.106021 55:1.160086 56:1.0616399 57:0.97229266 58:1.0941707 59:0.94253194 60:3.3076174 61:9.8838863 62:7.1557708 63:4.8231587 64:1.9550344 65:1.3266991 66:0.46278268 67:0.66295254 68:1.1462651 69:0.85727853 70:1.9187148 71:1.635681 72:1.5741667 73:1.66794 74:0.86989176 75:0.59367222 76:0.68185812 77:0.42501071 78:0.17481798 79:0.37557882 80:0.2448324 81:0.50134742 82:0.28872243 83:0.26140934 84:0.14982931 85:0.33166724 86:0.15689291 87:0.13744839 88:0.13375506 89:0.24296251 90:5.453105 91:32.533173 92:29.098774 93:24.111757 94:16.779383 95:12.916764 96:11.348035 97:8.6273746 98:8.680459 99:4.2335305 100:3.2643795 101:2.7475176 102:3.836298 103:4.6483417 104:3.8759413 105:3.9407015 106:2.2953556 107:3.5179448 108:2.2127492 109:2.4935272 110:2.0917506 111:3.0364916 112:1.7664046 113:1.6728748 114:2.1733415 115:1.3861316 116:1.7978629 117:1.8825462 118:1.5384139 119:1.6845932 
0.2381807425684588 0:2.955214 1:6.5610642 2:4.0842791 3:5.250196 4:3.4496891 5:2.0562019 6:2.725728 7:2.0538375 8:2.0879669 9:2.0428448 10:1.8698249 11:3.1297798 12:1.8181131 13:2.3020132 14:3.779089 15:1.561756 16:2.3276582 17:0.95370346 18:1.629665 19:1.669198 20:0.29533783 21:0.4283663 22:0.16847309 23:0.30791467 24:0.45527145 25:0.24573989 26:0.14706117 27:0.29768839 28:0.14195853 29:0.030122047 30:2.4880881 31:6.0238223 32:3.9932084 33:1.3461769 34:3.8265805 35:1.3193728 36:3.9834964 37:0.70567304 38:2.6745648 39:1.1248071 40:1.7129749 41:0.91828835 42:0.75781924 43:1.5416675 44:1.3640608 45:1.0570182 46:0.67956191 47:1.3470482 48:0.25904205 49:0.61327595 50:0.11571638 51:0.76673657 52:0.66226417 53:0.63412035 54:0.20678248 55:0.47277275 56:0.39923406 57:0.31884766 58:0.30329067 59:0.31352302 60:1.2762704 61:4.4165287 62:1.2167822 63:2.0777664 64:1.4486743 65:1.6353475 66:1.4434634 67:0.98366654 68:0.76961327 69:0.38783544 70:0.81358069 71:0.90920156 72:0.51320201 73:0.82647485 74:0.95588291 75:0.65886086 76:1.1075308 77:0.62120342 78:0.39948139 79:0.44520912 80:0.38872707 81:0.56318742 82:0.15746313 83:0.090566427 84:0.20990303 85:0.18655187 86:0.081665397 87:0.14612694 88:0.080583379 89:0.037445359 90:4.061604 91:8.9996529 92:6.006433 93:8.4770222 94:6.2988319 95:2.2911103 96:4.9873447 97:1.2220143 98:0.24217063 99:3.1578107 100:1.2606125 101:1.5560991 102:2.1458483 103:2.6417181 104:0.99596995 105:1.8595372 106:0.59228998 107:0.8337388 108:1.5132805 109:0.82495677 110:1.2628784 111:1.1365551 112:0.96574724 113:0.12742487 114:0.65411013 115:0.32052183 116:0.35492599 117:0.55600601 118:0.52722991 119:0.41212043 
0.2155410378017109 0:0.91858065 1:0.88812762 2:3.7295709 3:2.8995519 4:4.1049671 5:2.6637242 6:3.5343215 7:1.0480822 8:1.7891858 9:2.8795688 10:2.5820913 11:2.58972 12:1.7516518 13:1.641565 14:3.2143841 15:2.0333254 16:1.8402025 17:1.471287 18:1.1655508 19:0.72159964 20:0.64468443 21:0.2162609 22:0.53693974 23:0.23194641 24:0.42244577 25:0.5214799 26:0.14494623 27:0.12292331 28:0.24825434 29:0.14891075 30:0.9220745 31:1.5127583 32:2.2651265 33:0.98894143 34:3.4794836 35:2.3388906 36:1.760242 37:1.1813198 38:1.1774555 39:1.1458809 40:1.2044268 41:0.060530249 42:1.0030626 43:0.41616479 44:0.41758001 45:0.97898954 46:1.0487231 47:0.97479624 48:0.37688798 49:0.21294601 50:0.26022953 51:0.59894317 52:0.13324073 53:0.11487947 54:0.12030192 55:0.11981948 56:0.10226277 57:0.092916578 58:0.068455778 59:0.025722539 60:0.55276555 61:2.8988175 62:2.4675865 63:1.6035006 64:1.9098117 65:1.0580547 66:1.7036649 67:0.88299012 68:0.57950813 69:0.51148224 70:0.63528293 71:0.59688938 72:0.77714109 73:0.99675024 74:0.91180998 75:0.63006723 76:1.2040563 77:0.5710237 78:0.17673385 79:0.4408637 80:0.60795707 81:0.59477913 82:0.24704798 83:0.097715296 84:0.12991089 85:0.018351927 86:0.22655033 87:0.15036026 88:0.15606838 89:0.09467797 90:0.42061582 91:1.6619064 92:5.3410707 93:6.9958234 94:5.4017634 95:3.4037519 96:5.1803112 97:3.0133317 98:0.8690778 99:1.4585942 100:0.1243434 101:1.1589018 102:1.2888778 103:3.4025655 104:0.92432356 105:1.1976799 106:1.763449 107:0.94741422 108:1.1363499 109:1.2204903 110:0.93546098 111:0.62862766 112:1.2246195 113:0.29791421 114:0.18049684 115:0.16974451 116:0.14936636 117:0.49582604 118:0.36612165 119:0.11845315 
1.365686172893565 0:1.0054504 1:0.86908889 2:2.6746733 3:3.9647574 4:2.0208285 5:2.1998472 6:6.0525794 7:2.2051437 8:2.3647912 9:1.5230545 10:4.5117407 11:0.51893818 12:3.3033645 13:0.1938363 14:2.6366737 15:0.48027763 16:1.711246 17:0.82131726 18:0.9530043 19:0.68150014 20:0.49307632 21:0.36105594 22:0.88577443 23:0.37842208 24:0.31626838 25:0.41937438 26:0.063621819 27:0.28276983 28:0.4598144 29:0.22197722 30:0.63563341 31:1.7921702 32:2.8482227 33:0.65123063 34:0.86824006 35:3.1412952 36:2.1992967 37:0.81168371 38:0.81011283 39:1.3910425 40:2.0948913 41:0.47860056 42:1.2795638 43:0.64034849 44:0.9414711 45:0.56215721 46:0.70723182 47:0.69442493 48:0.39936435 49:0.14233612 50:0.090271555 51:0.56771302 52:0.28589737 53:0.16404733 54:0.10992748 55:0.25381026 56:0.23972352 57:0.15675433 58:0.030814776 59:0.046131689 60:0.79924208 61:1.50792 62:3.8099012 63:1.9129752 64:1.2830679 65:2.1595874 66:1.3446892 67:0.9140653 68:1.3756388 69:1.0536652 70:0.83675033 71:0.74134791 72:1.0018487 73:1.3190352 74:0.60832173 75:1.0868758 76:0.4821558 77:0.63812286 78:0.16986942 79:0.73998553 80:0.3596116 81:0.14706133 82:0.51410079 83:0.16771296 84:0.19011979 85:0.18513064 86:0.25709638 87:0.21136953 88:0.061438404 89:0.097164318 90:1.3880613 91:1.6573211 92:1.6757008 93:8.2179241 94:3.1300159 95:3.9125738 96:6.6378617 97:1.4957513 98:2.4499271 99:0.53429896 100:2.4919891 101:2.0852101 102:1.3835787 103:1.2148019 104:1.5459238 105:0.29310438 106:2.444746 107:0.37777439 108:1.1744291 109:1.6093349 110:1.1607027 111:0.54052752 112:0.70927 113:0.56335723 114:0.43348923 115:0.40597263 116:0.16734445 117:0.17348912 118:0.43094468 119:0.11114594 
0.9266851885535513 0:0.5718146 1:1.2253801 2:3.4797897 3:3.2648387 4:2.8052034 5:3.1938689 6:4.8402448 7:3.150985 8:2.0457456 9:1.2281525 10:1.2243035 11:2.5085158 12:2.2656293 13:1.4210117 14:1.77619 15:2.9125888 16:0.24837977 17:0.87080812 18:1.4048674 19:0.60436779 20:0.53858119 21:0.63406229 22:0.58765483 23:0.15784252 24:0.053731456 25:0.11426724 26:0.26582453 27:0.21310328 28:0.14041378 29:0.24634169 30:0.18237801 31:2.7803228 32:1.8488456 33:1.6152139 34:1.7875042 35:1.8839395 36:3.4314344 37:0.984716 38:1.5233146 39:1.3799154 40:1.445137 41:1.198887 42:0.7996546 43:0.65027839 44:0.79376543 45:0.53902054 46:0.96144658 47:0.79291111 48:0.85539013 49:0.063818783 50:0.18127826 51:0.76496649 52:0.25229609 53:0.32549992 54:0.11621881 55:0.30482623 56:0.19648677 57:0.27184686 58:0.15696068 59:0.14857154 60:0.29290801 61:3.1563818 62:3.6822913 63:1.8823262 64:2.3597517 65:0.68954098 66:2.4041188 67:0.60956591 68:1.2567168 69:1.4798125 70:0.69375259 71:0.86740863 72:1.0878488 73:1.0857167 74:1.4347684 75:0.76393372 76:1.2771914 77:0.39503795 78:1.0969536 79:0.49050263 80:0.24903497 81:0.57973337 82:0.29954654 83:0.31236416 84:0.16733463 85:0.44071019 86:0.23289458 87:0.12996528 88:0.19739307 89:0.085400313 90:0.62177706 91:0.92395967 92:3.1772733 93:4.3974333 94:8.2272177 95:2.4358015 96:5.2323575 97:1.552449 98:1.5647438 99:1.7326462 100:1.419753 101:3.167995 102:1.0822715 103:1.3154012 104:0.33630306 105:0.79238141 106:1.8227886 107:1.5802197 108:0.20377766 109:0.22059685 110:1.4062835 111:0.26332155 112:0.35175869 113:0.27334902 114:0.30060831 115:0.19824079 116:0.27765375 117:0.32519153 118:0.086596459 119:0.096703023 
0.117317262484091 0:1.5932117 1:1.1810838 2:2.3704882 3:1.3974189 4:2.1412883 5:1.8837569 6:2.2567832 7:3.6181102 8:0.89115709 9:1.0389795 10:0.81734216 11:1.4597434 12:0.43517196 13:1.1480376 14:2.4335091 15:1.7841215 16:1.251894 17:1.4254726 18:0.40917015 19:0.25349909 20:0.20188333 21:0.14720576 22:0.50962061 23:0.15819734 24:0.19389121 25:0.20607802 26:0.20207748 27:0.098446757 28:0.13362771 29:0.23932312 30:1.6753501 31:2.1666043 32:0.92230809 33:0.82929599 34:0.79165882 35:1.6004788 36:1.1118571 37:2.2301877 38:1.2173693 39:0.65450037 40:0.25206339 41:0.32657009 42:0.32418805 43:0.48902506 44:0.32429782 45:0.082596801 46:0.67860639 47:0.87528044 48:0.22372444 49:0.16816472 50:0.43938044 51:0.46754971 52:0.26918513 53:0.19556093 54:0.29161444 55:0.27644682 56:0.07783553 57:0.11877079 58:0.2367738 59:0.21528307 60:0.84962326 61:3.6396017 62:2.0930805 63:0.23915805 64:1.5596517 65:1.0445039 66:0.66541833 67:1.35904 68:0.34228817 69:1.1252062 70:0.2918888 71:0.12149379 72:0.2625103 73:0.6908232 74:0.5490011 75:0.93443614 76:0.63329744 77:0.92312789 78:0.77472711 79:0.44594824 80:0.12203643 81:0.37862369 82:0.057157222 83:0.30766174 84:0.38681284 85:0.2852819 86:0.056719411 87:0.18052265 88:0.14695457 89:0.06613034 90:1.2100079 91:1.2910097 92:1.2163486 93:1.1476096 94:5.8554821 95:2.4827225 96:2.8529799 97:1.5264884 98:0.89560223 99:0.5165655 100:0.37448317 101:2.4609873 102:1.4284523 103:1.2027472 104:1.3568672 105:0.91345108 106:0.59651202 107:0.73399246 108:0.48534545 109:0.22661863 110:0.95975995 111:0.70024383 112:0.62452394 113:0.26816857 114:0.52005804 115:0.25886813 116:0.44922996 117:0.30139509 118:0.16552216 119:0.3404372 
1.558803892337088 0:0.66861576 1:0.30892363 2:3.5560186 3:0.44485718 4:0.79335058 5:0.65533155 6:1.6890484 7:1.4980288 8:1.5382088 9:0.92025453 10:1.4697934 11:1.2051438 12:0.15467077 13:2.9248717 14:2.1859419 15:0.68802637 16:1.9257822 17:0.79524362 18:1.1287643 19:0.78721309 20:0.40380874 21:0.31217551 22:0.19838482 23:0.30006856 24:0.15418193 25:0.1107247 26:0.16999705 27:0.11110576 28:0.16697313 29:0.12707272 30:0.49436593 31:1.1808932 32:2.0068941 33:1.9630998 34:1.4217539 35:0.91329581 36:1.4544916 37:0.81959766 38:0.67946982 39:1.2324858 40:1.9267304 41:0.94248533 42:0.87495792 43:1.2595971 44:1.0746017 45:0.38171992 46:1.3787818 47:0.68070745 48:0.84073204 49:0.41416499 50:0.47394621 51:0.51891005 52:0.26469517 53:0.082722858 54:0.51404846 55:0.16368605 56:0.036802839 57:0.26418754 58:0.12365033 59:0.22380097 60:0.50755638 61:2.7861249 62:1.9090242 63:1.5559455 64:0.21642378 65:0.54529405 66:1.7425201 67:1.8770287 68:1.165145 69:1.7393854 70:1.5852269 71:0.93962485 72:1.2098231 73:1.244018 74:0.68960512 75:0.62425935 76:1.3402691 77:0.99501091 78:0.25378361 79:0.55723912 80:0.26234585 81:0.32968649 82:0.23073094 83:0.29215243 84:0.37907788 85:0.14194871 86:0.12400617 87:0.1394977 88:0.13424273 89:0.088224381 90:0.51141644 91:1.4585682 92:1.256336 93:1.2881699 94:2.3257928 95:0.38422513 96:1.7533358 97:3.1227157 98:1.9288058 99:1.0796146 100:3.2127886 101:1.1979238 102:0.74412459 103:0.1603791 104:0.54970014 105:0.63915813 106:1.7653444 107:1.5052681 108:0.60832793 109:0.14278485 110:0.65136093 111:0.72774243 112:0.48224351 113:0.39269504 114:0.67782038 115:0.29055604 116:0.25414315 117:0.48017618 118:0.37339988 119:0.12942941 
2.128313231334777 0:1.1592729 1:0.65189302 2:3.0880575 3:0.71290743 4:1.0806285 5:1.5686336 6:1.5825648 7:0.19692986 8:0.57113951 9:1.0597799 10:0.68981028 11:1.9400152 12:1.4282409 13:1.5220237 14:2.2734289 15:0.34599754 16:0.65166557 17:1.1525726 18:0.10073918 19:1.1521883 20:0.33496675 21:0.43323529 22:0.27936026 23:0.42548507 24:0.18233339 25:0.403072 26:0.14203776 27:0.1293228 28:0.31168759 29:0.37178224 30:0.75507385 31:0.67729932 32:1.9465806 33:3.0789316 34:1.8307866 35:1.0559994 36:1.1846247 37:1.1382033 38:1.3544053 39:1.0785908 40:2.04498 41:0.39162758 42:0.75204521 43:0.78894889 44:1.4391634 45:0.081598021 46:0.84194905 47:1.1791357 48:0.62169439 49:0.54893601 50:0.35635218 51:0.68116921 52:0.28587681 53:0.18207756 54:0.27269459 55:0.1111564 56:0.14972252 57:0.17677706 58:0.047211152 59:0.072191603 60:0.53538156 61:0.74298215 62:2.7786021 63:2.5243616 64:1.1726205 65:2.0394607 66:1.859707 67:2.3946321 68:0.46331948 69:0.900675 70:1.7051972 71:0.63039863 72:0.93525207 73:1.1747261 74:0.46064582 75:0.47683546 76:0.98243302 77:0.91006416 78:0.11141434 79:0.40155965 80:0.43574452 81:0.63509381 82:0.20427939 83:0.41413179 84:0.30919501 85:0.01622886 86:0.077527076 87:0.17948136 88:0.11326939 89:0.0071460539 90:1.0889571 91:0.39011088 92:1.4005358 93:1.4141554 94:1.852952 95:3.9562907 96:0.55986267 97:2.7522378 98:1.3002229 99:1.0942937 100:2.8187578 101:1.6486881 102:1.2925067 103:0.45387667 104:0.69801205 105:0.13946456 106:1.2728105 107:0.95721167 108:1.2237313 109:0.7085256 110:0.42335424 111:0.64498478 112:0.36714047 113:0.46594113 114:0.69836825 115:0.31951588 116:0.17188746 117:0.4405843 118:0.32577327 119:0.19336025 
0.616704122403842 0:4.3253651 1:8.0290327 2:7.9632874 3:8.7681379 4:10.908172 5:11.266203 6:12.253423 7:12.594048 8:9.8052092 9:7.5907755 10:8.2194338 11:6.0839925 12:2.6766896 13:4.544066 14:2.3136275 15:0.45638096 16:1.8072859 17:2.5778186 18:1.5259809 19:2.7474825 20:2.9941075 21:2.9693866 22:2.7413654 23:2.3672743 24:1.9399751 25:1.7774041 26:1.5689839 27:1.5544496 28:1.5346856 29:1.4099445 30:2.1717539 31:4.2067847 32:6.3978453 33:5.86765 34:5.7034235 35:5.6336918 36:6.4890618 37:5.6681228 38:4.1415153 39:3.1954401 40:1.5923529 41:1.1863927 42:1.9803863 43:0.44666764 44:1.8328748 45:1.8488387 46:0.57737541 47:0.99182236 48:1.9112537 49:1.1596065 50:1.3418542 51:0.67909449 52:0.56527036 53:0.59059334 54:0.47982273 55:0.55215997 56:0.80268449 57:0.70745939 58:0.53279638 59:0.50332087 60:2.9853482 61:4.0274754 62:6.9227414 63:6.8194327 64:8.2584724 65:8.0804472 66:7.1639786 67:6.5157671 68:5.2268305 69:4.4438047 70:6.4359474 71:2.9351637 72:1.1050111 73:2.2275465 74:1.6547576 75:0.88471431 76:2.0013959 77:1.5245662 78:1.24281 79:1.9683123 80:1.5398021 81:1.4446645 82:1.1852688 83:0.43794027 84:0.86272115 85:0.96748465 86:0.7737419 87:1.0446275 88:0.9185037 89:0.77442843 90:4.2153397 91:8.0348206 92:9.1917744 93:8.6385946 94:12.424991 95:9.7247648 96:12.713202 97:12.820469 98:11.021128 99:7.2387319 100:6.6862626 101:4.7792373 102:3.1599839 103:2.4792857 104:2.3778098 105:1.2780366 106:2.7139721 107:2.3040063 108:2.1429989 109:3.2393811 110:3.3228986 111:2.1754322 112:2.267242 113:2.594486 114:1.6444468 115:2.0633416 116:1.7030592 117:1.4838115 118:1.6184801 119:1.2900376 
0.5691515153846158 0:4.699512 1:19.402924 2:32.300934 3:22.800247 4:18.80591 5:16.681955 6:10.582008 7:11.983027 8:4.3119869 9:2.6418338 10:4.1928487 11:4.968564 12:0.29429862 13:0.93747371 14:1.1670201 15:2.2195897 16:1.7098383 17:0.78179032 18:2.2562914 19:0.83883226 20:1.9874213 21:0.51669645 22:1.4147696 23:0.086180754 24:0.50598407 25:0.26347667 26:0.58747673 27:0.46528473 28:0.35064328 29:0.46667981 30:2.3423324 31:10.83347 32:17.53191 33:11.529634 34:8.3756714 35:9.0228796 36:3.9280088 37:2.9601927 38:1.7239586 39:2.5958014 40:1.2696589 41:0.55762225 42:0.60427499 43:1.7385956 44:0.88375682 45:1.2010456 46:0.096558131 47:1.1613199 48:0.25769949 49:0.41988307 50:0.27470616 51:0.96318018 52:0.52305019 53:0.40750083 54:0.55481201 55:0.41296116 56:0.10519791 57:0.32102522 58:0.20301181 59:0.18049319 60:2.4624844 61:9.0809755 62:14.369337 63:17.333607 64:11.442331 65:8.6609831 66:6.9369922 67:6.8920197 68:2.9039943 69:2.9332464 70:3.3925021 71:1.6178468 72:0.11262416 73:0.7324726 74:1.2397788 75:0.98262095 76:1.1377478 77:0.46395275 78:0.95380485 79:1.0009066 80:0.67270225 81:0.078730203 82:0.11543336 83:0.51694173 84:0.49703875 85:0.18342452 86:0.16008231 87:0.25956079 88:0.16942824 89:0.20878378 90:4.7404556 91:20.601904 92:33.310291 93:21.140814 94:19.660194 95:15.748265 96:11.27723 97:10.509117 98:4.0832295 99:3.6204545 100:3.5112281 101:3.8563228 102:0.93316156 103:1.5755718 104:0.57368535 105:2.6220596 106:0.74044031 107:0.92368895 108:2.0346525 109:0.99003232 110:1.3511533 111:0.2027747 112:0.88555795 113:0.29402354 114:1.232684 115:0.6775701 116:0.43554005 117:0.2327859 118:0.46965009 119:0.34889951 
0.6367548920045568 0:7.7867198 1:29.504492 2:30.324209 3:23.869417 4:36.697067 5:3.5912256 6:19.865513 7:13.06875 8:9.4589186 9:10.514621 10:3.3133883 11:4.0216002 12:1.7862052 13:0.62995338 14:3.1389272 15:0.90403277 16:1.058185 17:2.2608557 18:1.414228 19:0.91370022 20:1.7944959 21:0.36133173 22:1.4099673 23:0.087627284 24:0.99107498 25:0.70653856 26:0.30558512 27:0.32322994 28:0.23903435 29:0.26023915 30:2.3235567 31:18.301718 32:9.5819864 33:21.006842 34:10.86457 35:5.235415 36:8.3100224 37:3.797437 38:1.8195194 39:4.4782872 40:4.9442797 41:2.5591273 42:2.8181293 43:2.4704008 44:1.9737349 45:2.2637103 46:0.14382721 47:1.9092286 48:1.1766384 49:0.19306231 50:0.45385221 51:0.27469662 52:0.93057787 53:0.41128328 54:0.7856456 55:0.58478785 56:0.36496687 57:0.44261214 58:0.46814147 59:0.37344521 60:6.5910654 61:10.539958 62:28.90486 63:13.243597 64:31.77763 65:8.1214428 66:13.818496 67:9.3685961 68:6.0251708 69:6.1182704 70:2.2806807 71:3.6783102 72:1.9715842 73:0.64418006 74:0.68026656 75:0.45909405 76:0.34268546 77:1.2980585 78:1.1949443 79:0.54712272 80:1.5236564 81:0.81012464 82:0.6610558 83:0.78837204 84:0.6547361 85:0.13051537 86:0.33644685 87:0.51344854 88:0.46488667 89:0.41100878 90:6.8569007 91:32.252548 92:26.180714 93:25.267075 94:32.867954 95:2.8635895 96:18.973965 97:11.682654 98:7.8215299 99:12.27485 100:6.7947979 101:5.0384526 102:3.7300484 103:2.1635623 104:1.3153914 105:1.5017817 106:1.7297856 107:0.86073595 108:1.5858476 109:1.0632606 110:1.6757445 111:0.18902145 112:1.1595302 113:0.82328731 114:0.34649411 115:0.49141768 116:0.39946127 117:0.27062601 118:0.085075408 119:0.076704189 
0.6366162163210483 0:6.8146553 1:21.218721 2:17.62746 3:24.209114 4:15.107603 5:10.840268 6:16.175371 7:5.2616119 8:13.698662 9:7.4043145 10:5.0768676 11:6.7204356 12:3.1845508 13:1.2043865 14:2.1179919 15:2.681175 16:1.2413924 17:1.6696379 18:1.1809244 19:1.9346058 20:1.3373086 21:2.6691165 22:1.934649 23:1.1112751 24:1.1760654 25:1.4270239 26:1.0489756 27:0.9788903 28:1.1670191 29:0.78656787 30:1.5570748 31:16.903234 32:9.5775843 33:10.800923 34:9.0576668 35:2.2991302 36:5.4610763 37:1.9350233 38:4.9611397 39:3.0214734 40:4.4834361 41:4.0427003 42:2.2252536 43:3.3107913 44:1.7432717 45:1.6170615 46:1.3498396 47:1.3653606 48:0.57343805 49:1.0348712 50:0.98708457 51:0.82621688 52:1.2731636 53:0.49882543 54:0.38862082 55:0.32358494 56:0.48791045 57:0.54186016 58:0.33793929 59:0.55499607 60:7.9855828 61:13.035468 62:24.844585 63:20.685167 64:15.30025 65:15.060842 66:9.5985441 67:7.735075 68:7.041326 69:2.2949283 70:3.2358556 71:1.5708072 72:0.75125384 73:0.8991015 74:0.46495944 75:0.7234748 76:0.31575951 77:0.63173658 78:0.69787979 79:0.87813008 80:0.075784698 81:0.43494448 82:0.11351364 83:0.18340388 84:0.36367995 85:0.44717622 86:0.16812639 87:0.071007743 88:0.18986048 89:0.17474681 90:5.8012309 91:23.418461 92:11.86368 93:22.74091 94:12.614604 95:8.8779964 96:14.585076 97:3.3967228 98:14.423491 99:8.7239084 100:8.0182943 101:9.5292301 102:1.2631748 103:4.1822248 104:2.0363266 105:1.0818981 106:0.98348141 107:0.26830766 108:1.4160045 109:2.3768094 110:1.2837344 111:2.7166655 112:1.9583052 113:0.62397122 114:0.96286637 115:0.99098396 116:0.61618137 117:0.73579741 118:1.1006751 119:0.94833535 
0.6359385626938746 0:2.3917258 1:17.227276 2:24.803564 3:14.538652 4:15.524976 5:3.1057005 6:11.285195 7:2.4910209 8:8.2347898 9:3.2694008 10:4.7940307 11:3.626322 12:5.8043613 13:1.2083052 14:4.1471076 15:1.0209105 16:0.98278368 17:1.1323712 18:1.6734433 19:2.7130291 20:0.49727884 21:1.8624625 22:1.0183904 23:1.0003749 24:0.88048619 25:1.1717206 26:1.1252408 27:0.65411854 28:0.80900818 29:0.98459619 30:3.9264746 31:11.733024 32:14.518863 33:7.8311505 34:6.9753485 35:3.3212574 36:3.9993708 37:3.8484564 38:3.4669602 39:2.4188712 40:3.0045116 41:0.99395961 42:1.8507729 43:1.9776168 44:1.2517713 45:1.7090709 46:0.7228713 47:1.3626242 48:0.79723626 49:1.1445254 50:0.22999562 51:0.92691147 52:0.22996464 53:0.67256397 54:0.41362652 55:0.55087757 56:0.58318365 57:0.2927281 58:0.47894195 59:0.56180429 60:3.964864 61:23.15921 62:19.016579 63:15.313869 64:9.3177176 65:9.3485565 66:5.4920969 67:5.7000947 68:4.5958424 69:4.5710855 70:2.4827015 71:2.3524718 72:2.7033896 73:1.716941 74:2.3038509 75:1.4894215 76:2.090771 77:0.76366311 78:1.2355481 79:1.1450434 80:1.5217376 81:1.0605086 82:1.3092067 83:1.1720514 84:0.98921639 85:0.84311408 86:0.73273766 87:0.79740304 88:0.72150367 89:0.76696366 90:3.0986607 91:14.440454 92:25.767841 93:11.466212 94:13.844555 95:3.1414137 96:10.604158 97:3.7833979 98:7.6867495 99:3.2721293 100:6.7586269 101:3.2405238 102:5.5912328 103:2.3652065 104:3.2148979 105:4.0651326 106:1.9024146 107:2.3680284 108:1.4243972 109:2.5708394 110:0.48480961 111:2.0757308 112:0.60541278 113:1.2257385 114:0.87185502 115:0.92034835 116:1.287856 117:1.0748203 118:1.0562512 119:1.1113719 
0.5909888088899037 0:4.2213511 1:3.9909565 2:7.1469269 3:8.4823427 4:17.027937 5:5.3439598 6:6.5201683 7:6.8801537 8:1.743489 9:6.0082798 10:1.3344159 11:3.5744185 12:3.2686145 13:1.533964 14:3.1512582 15:0.62107295 16:1.6329103 17:0.57877898 18:1.3717675 19:1.5575854 20:1.2201039 21:1.7653784 22:0.81023306 23:0.53872848 24:0.43711132 25:1.1086596 26:0.65354174 27:0.3431738 28:0.77712107 29:0.34829226 30:4.3346648 31:8.79319 32:10.170245 33:9.279027 34:11.661386 35:6.5179176 36:7.0487609 37:4.9798393 38:3.8618712 39:4.4457383 40:1.5268894 41:2.3635895 42:2.2680316 43:0.38664451 44:0.80300373 45:1.0359364 46:0.70970327 47:0.54767436 48:1.0267704 49:1.4837008 50:0.31868139 51:1.0040091 52:0.27683541 53:0.23497982 54:0.18118562 55:0.43542629 56:0.31621096 57:0.23705095 58:0.3557646 59:0.43450478 60:2.9143634 61:11.714337 62:11.120426 63:7.7110944 64:8.9185324 65:3.9980791 66:4.5349331 67:2.3888285 68:2.0588329 69:2.4526782 70:0.3542859 71:1.194638 72:0.33021867 73:0.73216516 74:0.68552411 75:0.77258742 76:1.1133655 77:0.74083149 78:0.54854149 79:0.24478321 80:0.51217103 81:0.26725844 82:0.11294516 83:0.17046964 84:0.045302361 85:0.24621788 86:0.11446185 87:0.11775286 88:0.06463562 89:0.18808192 90:5.6906762 91:6.9049115 92:14.736435 93:10.989597 94:20.056719 95:8.0590086 96:9.4387016 97:7.7773919 98:4.4971781 99:8.3222733 100:2.2634449 101:4.6630421 102:4.447834 103:1.5969887 104:2.4832926 105:1.5272281 106:2.9093685 107:0.20297821 108:1.5394921 109:1.6998209 110:1.4999421 111:2.3284698 112:0.50267833 113:0.55897135 114:0.53791052 115:0.61240608 116:0.6436708 117:0.5474363 118:0.45045978 119:0.68926334 
0.4121984296155468 0:2.0298774 1:7.1945887 2:11.463338 3:8.2696209 4:11.038188 5:6.9360785 6:7.0730066 7:3.8869946 8:5.0041952 9:1.5829457 10:2.8413222 11:3.5244184 12:1.5713856 13:2.9387939 14:1.4101539 15:0.71776545 16:2.6611698 17:1.04151 18:0.58423036 19:1.6799684 20:1.5098871 21:1.1444234 22:1.7487093 23:0.88421679 24:0.908647 25:1.0196595 26:1.0591334 27:0.49599296 28:0.71079165 29:0.86201513 30:1.5288292 31:9.1506214 32:13.032464 33:10.335124 34:7.9405599 35:9.2168999 36:4.5007181 37:7.5753717 38:2.0813482 39:4.0906577 40:2.8009384 41:1.6540426 42:1.0295976 43:2.1503391 44:0.68901128 45:0.3989324 46:1.0453066 47:0.69415241 48:0.10756765 49:1.3879319 50:1.1718882 51:0.24359952 52:0.57564771 53:0.16943084 54:0.20361426 55:0.69198173 56:0.54471433 57:0.40405574 58:0.34126523 59:0.34459963 60:2.9711857 61:12.197873 62:9.5970097 63:11.105377 64:5.3576031 65:6.6680851 66:2.5954375 67:3.7637644 68:1.3335229 69:2.1440225 70:0.30478314 71:0.70115668 72:0.80824071 73:0.69613552 74:0.250521 75:0.2763969 76:0.6266343 77:0.92131865 78:0.37992194 79:0.30426961 80:0.43388709 81:0.33938614 82:0.062191337 83:0.34332421 84:0.22244941 85:0.11173234 86:0.14014995 87:0.1371365 88:0.08187367 89:0.15126936 90:2.3783228 91:9.2215729 92:17.356775 93:12.991617 94:14.264085 95:10.010547 96:8.7275972 97:6.1736121 98:6.8385363 99:3.6908698 100:4.611186 101:3.1332927 102:3.0406053 103:1.7554094 104:0.94861895 105:0.8424924 106:2.0112674 107:1.6900405 108:0.57405251 109:1.8062704 110:2.9007494 111:0.56864405 112:1.9004484 113:0.54197288 114:0.93975085 115:1.3050723 116:0.95946246 117:0.76137024 118:0.76086402 119:0.72219342 
0.6341684467930402 0:3.46172 1:7.8926516 2:33.729252 3:24.125635 4:16.289927 5:17.443691 6:7.7053518 7:9.1575174 8:9.3632526 9:5.3897781 10:5.6360846 11:5.0231085 12:4.0602388 13:3.5167329 14:1.6495564 15:1.2664968 16:1.1008178 17:0.68110996 18:0.59470683 19:0.66119069 20:1.1583602 21:1.1636693 22:0.97657788 23:0.85198963 24:0.79287773 25:0.20039371 26:0.19942738 27:0.46534443 28:0.10225248 29:0.29223815 30:0.69439024 31:13.671892 32:25.257818 33:12.888218 34:12.074987 35:13.397213 36:7.5030508 37:6.0800071 38:4.7342463 39:2.6981323 40:4.0599728 41:1.9410783 42:1.6493012 43:1.7664814 44:0.40339255 45:1.7522959 46:2.1741149 47:0.77882928 48:1.2824882 49:0.18076366 50:0.036783051 51:0.52452248 52:0.39356467 53:0.74206942 54:0.13500309 55:0.51488042 56:0.21499208 57:0.23862951 58:0.25474459 59:0.055707142 60:5.6021762 61:16.861631 62:6.8906407 63:17.751337 64:6.4597178 65:4.7310309 66:5.6830459 67:2.7618072 68:4.6018076 69:5.2112932 70:0.79098129 71:2.8893485 72:2.2379301 73:1.456177 74:2.1290126 75:1.9622008 76:0.77532727 77:1.0139544 78:0.80667317 79:0.66589236 80:0.68882185 81:0.13563555 82:0.54473239 83:0.13872111 84:0.31784844 85:0.49800816 86:0.29893872 87:0.2977812 88:0.20370232 89:0.098537676 90:2.145035 91:11.150958 92:37.742767 93:23.553972 94:18.070154 95:18.967569 96:8.1262026 97:10.627109 98:9.5945415 99:3.7333145 100:7.5765705 101:3.2610681 102:1.5198369 103:3.7672727 104:1.1626568 105:2.5439227 106:2.6643054 107:1.2791198 108:0.55325699 109:0.088295721 110:1.4416077 111:0.97949946 112:1.1563674 113:0.5752809 114:0.69754678 115:0.22172374 116:0.28056115 117:0.77947712 118:0.23829992 119:0.2793214 
0.5993990571749497 0:3.442286 1:12.570068 2:29.954725 3:21.346214 4:20.928717 5:12.425848 6:10.203386 7:10.479582 8:6.1060066 9:7.3697786 10:5.4755654 11:4.1640534 12:4.9373398 13:2.7664666 14:2.2770455 15:0.72238165 16:0.92907298 17:1.1357049 18:0.54651451 19:0.67888951 20:0.61539364 21:0.71999139 22:0.5252797 23:0.4977622 24:0.88256645 25:0.22050227 26:0.18487218 27:0.28137934 28:0.37727863 29:0.16416031 30:1.9152807 31:13.882896 32:13.337576 33:19.528471 34:10.669755 35:10.608716 36:11.390653 37:3.8827586 38:4.7207184 39:2.0995121 40:3.8237503 41:4.6371212 42:1.6876917 43:1.8468778 44:2.4305286 45:1.7332528 46:2.4966338 47:0.20327625 48:1.4654289 49:1.231181 50:0.706038 51:0.20479465 52:0.58831841 53:1.1387192 54:0.49763769 55:0.53751546 56:0.10503327 57:0.27851611 58:0.47043657 59:0.69586009 60:4.2486167 61:11.203617 62:11.566237 63:11.717751 64:7.5691857 65:4.0284629 66:4.5892735 67:2.8499577 68:4.480619 69:4.3681951 70:2.324719 71:1.7144318 72:2.2486889 73:1.8974594 74:2.0160179 75:1.5674344 76:1.202179 77:0.73063338 78:0.74554855 79:0.81167668 80:0.51104146 81:0.35882705 82:0.22257726 83:0.32572633 84:0.2298934 85:0.32631323 86:0.52181488 87:0.11123832 88:0.15292263 89:0.058702264 90:4.5431175 91:12.506222 92:28.933704 93:22.879593 94:21.43754 95:12.94748 96:11.535653 97:10.8404 98:6.903729 99:6.7900772 100:5.5277023 101:3.4714537 102:3.2760258 103:1.2815926 104:2.4264324 105:2.0454121 106:2.3442786 107:0.85266596 108:0.75263 109:0.81810683 110:1.222953 111:1.0458541 112:0.69891822 113:0.53305417 114:0.11507638 115:0.24848782 116:0.2186303 117:0.55249554 118:0.19992909 119:0.36786491 
0.6365225506536709 0:11.353642 1:10.843023 2:14.532203 3:4.2750673 4:9.3409538 5:10.458399 6:11.821765 7:11.007668 8:10.92023 9:9.8638325 10:8.4972572 11:7.4691606 12:6.7100148 13:8.7017841 14:3.1616814 15:3.038192 16:2.7746675 17:3.3975582 18:1.7255294 19:1.6170546 20:3.055021 21:2.546423 22:1.8804508 23:1.2884879 24:2.0848646 25:2.1225605 26:2.0457876 27:2.0417805 28:1.8554573 29:1.6977663 30:6.9384475 31:16.532768 32:1.1970289 33:10.667064 34:6.1568675 35:9.4906178 36:6.2878685 37:9.1079445 38:5.7592831 39:8.1120253 40:4.9379964 41:6.1066952 42:3.3870211 43:4.6372819 44:3.3220732 45:2.4794858 46:2.1424117 47:0.63516003 48:1.8718344 49:0.43903127 50:1.7194105 51:1.3802046 52:1.4364749 53:2.0477688 54:1.030727 55:1.213436 56:0.96552992 57:1.3435227 58:0.98942524 59:1.1291962 60:4.0034909 61:10.199892 62:1.1959162 63:5.8080902 64:2.962034 65:5.4671211 66:3.8098283 67:5.8382893 68:2.9380214 69:3.1863832 70:2.6624007 71:2.772136 72:2.7926157 73:2.553529 74:1.3518696 75:1.0519668 76:0.92454022 77:1.0577874 78:0.26059467 79:0.43707815 80:1.0410886 81:1.0054303 82:0.65247881 83:0.71583533 84:0.68117851 85:1.0259498 86:0.57969034 87:0.63302839 88:0.76012319 89:0.72975707 90:11.492266 91:11.937981 92:12.265284 93:5.307076 94:10.670969 95:11.538229 96:11.724623 97:10.627611 98:9.5067291 99:10.697682 100:9.4739542 101:7.2732401 102:8.9813747 103:5.9193649 104:2.6395819 105:4.214035 106:4.1378789 107:1.7352792 108:2.6664331 109:1.2420568 110:2.3557916 111:1.3573494 112:1.9062415 113:1.7235069 114:1.3662096 115:1.8332238 116:1.8975236 117:1.8431937 118:1.7101152 119:1.6994559 
0.6348778374454709 0:6.5068464 1:24.018894 2:30.188484 3:30.565495 4:20.979603 5:20.310116 6:6.9669452 7:12.206637 8:4.0983577 9:3.9552538 10:3.7306983 11:2.4924772 12:3.9470341 13:4.1740866 14:4.7456293 15:0.8683641 16:1.1868943 17:0.85571378 18:2.4957492 19:0.72124863 20:1.8226433 21:1.0676256 22:1.2892302 23:0.55436379 24:0.12167469 25:0.91682428 26:0.3320314 27:0.50109422 28:0.32872558 29:0.60992038 30:8.8754101 31:7.1466837 32:20.644087 33:20.377983 34:22.608875 35:12.256219 36:0.96212226 37:9.3816557 38:6.7608891 39:2.406038 40:0.97810906 41:5.2658772 42:2.3442388 43:2.3987012 44:0.35129625 45:2.9844334 46:0.86330467 47:1.1341176 48:0.62001133 49:1.2444388 50:0.36425504 51:1.0280465 52:0.17887725 53:0.53266144 54:0.84245008 55:0.41189489 56:0.57591236 57:0.37749776 58:0.57151771 59:0.36345327 60:4.3678513 61:13.711169 62:19.69084 63:14.788198 64:4.8583212 65:10.78225 66:10.448727 67:4.6603613 68:1.1314279 69:2.3006525 70:3.1494622 71:1.0786887 72:1.0582191 73:0.95702535 74:0.88820118 75:0.27085471 76:0.89083457 77:1.463884 78:1.1257129 79:0.46799386 80:0.96842992 81:0.25570914 82:0.37766087 83:0.17879395 84:0.12510571 85:0.62192565 86:0.26608849 87:0.065353721 88:0.3074708 89:0.14288633 90:8.9090652 91:22.601288 92:28.044416 93:29.679941 94:23.91539 95:20.165756 96:5.6908097 97:10.732373 98:5.4490671 99:2.981092 100:4.022222 101:2.7667837 102:4.4907117 103:3.406765 104:1.988364 105:0.93359441 106:1.9990427 107:1.4556788 108:1.9404242 109:1.3957124 110:1.2054065 111:1.0354954 112:0.77821046 113:0.51823741 114:0.12792766 115:1.0595906 116:0.50574535 117:0.55878991 118:0.49686038 119:0.47733012 
0.6364174787606409 0:3.0002968 1:32.094635 2:26.861528 3:30.123165 4:21.171528 5:18.436731 6:8.9989586 7:12.657671 8:2.5319471 9:4.2042551 10:2.1874857 11:5.2761922 12:3.6622345 13:3.5101986 14:5.1379194 15:0.94049478 16:1.3660718 17:1.3249049 18:2.1099486 19:0.65879893 20:1.5883991 21:0.83533949 22:0.66588545 23:0.95281523 24:0.56755137 25:0.55327594 26:0.54823983 27:0.48605514 28:0.42307603 29:0.11399618 30:5.6056957 31:23.338631 32:11.888986 33:20.253836 34:26.51606 35:11.055344 36:2.5422804 37:5.2895508 38:6.4217677 39:1.4465222 40:4.5258746 41:3.6437807 42:1.4502175 43:0.73768508 44:1.2228771 45:2.760915 46:1.7514044 47:0.43387032 48:1.3406354 49:0.77751154 50:0.62583238 51:0.31605205 52:0.68386889 53:0.092945822 54:0.21479924 55:0.35091218 56:0.26854384 57:0.36966789 58:0.20916392 59:0.1159554 60:1.0408258 61:12.926636 62:22.98564 63:14.782561 64:4.0751867 65:10.779263 66:8.5784874 67:5.404098 68:1.9666508 69:3.172894 70:2.8821115 71:1.0660567 72:0.89624679 73:1.0893469 74:0.69562662 75:0.048505966 76:0.7135781 77:1.5456833 78:0.78772628 79:0.11376197 80:0.78914016 81:0.56548649 82:0.086237311 83:0.29793882 84:0.15253955 85:0.36597848 86:0.20610788 87:0.16120242 88:0.15004425 89:0.13206126 90:3.8869953 91:34.139446 92:22.878696 93:31.380692 94:24.293423 95:18.025599 96:7.2042689 97:11.054746 98:4.6119866 99:2.7729347 100:4.2808471 101:4.0078397 102:3.9934361 103:2.9486575 104:3.1414886 105:1.1353356 106:0.61743248 107:1.6423734 108:2.513032 109:0.97056782 110:0.62944889 111:0.55295658 112:0.61063522 113:0.80405289 114:0.49882945 115:0.74682224 116:0.60064334 117:0.38137087 118:0.34964335 119:0.045306213 
0.6223615667824989 0:7.3176284 1:19.642653 2:7.7480736 3:7.08497 4:5.8577142 5:2.0312424 6:5.3288631 7:8.5527153 8:3.1215594 9:2.0828636 10:3.4665797 11:3.4876754 12:1.4976107 13:2.7291615 14:5.5290184 15:0.58710939 16:0.6674608 17:1.5951265 18:1.2271472 19:0.63404095 20:1.5530816 21:1.3932447 22:0.36185768 23:0.95769024 24:1.2659369 25:0.69699895 26:0.61053544 27:0.9907884 28:0.54856223 29:0.86257166 30:5.9154344 31:17.066191 32:8.2051306 33:6.5648565 34:6.3003345 35:5.7319903 36:6.2212954 37:4.3711133 38:5.2120199 39:4.3188577 40:4.7734222 41:1.9020764 42:1.9940488 43:3.2575083 44:1.1464992 45:2.7999153 46:0.73582262 47:2.0144796 48:1.8318001 49:0.67467886 50:1.2258624 51:0.98719043 52:0.73863566 53:0.93508792 54:0.54473788 55:0.78536302 56:0.48795605 57:0.47413325 58:0.84462166 59:0.43558341 60:2.84793 61:14.280523 62:14.150284 63:10.758295 64:7.7750983 65:7.3194513 66:3.1393106 67:2.6633947 68:1.7632306 69:2.9043882 70:0.95780361 71:0.40905789 72:0.39123675 73:0.28446603 74:0.17243594 75:0.47081152 76:0.20031428 77:0.64681786 78:0.38647884 79:0.29077333 80:0.76520813 81:0.24500051 82:0.48809755 83:0.59939778 84:0.31191826 85:0.29303473 86:0.46131083 87:0.35235924 88:0.36277479 89:0.28657335 90:7.8828325 91:21.462997 92:8.5970507 93:3.6374633 94:4.0860209 95:4.4330196 96:5.7538433 97:6.8045864 98:2.1102951 99:3.4914966 100:4.5431967 101:2.8711779 102:0.84652442 103:2.1209278 104:3.4725628 105:0.70769525 106:1.3240367 107:1.3300937 108:1.0927864 109:0.57864362 110:0.69509184 111:1.1122347 112:0.42933053 113:0.84712929 114:1.2218171 115:1.3584036 116:0.79306036 117:1.1256016 118:1.1524212 119:0.80868983 
0.4050691054447044 0:3.3131735 1:6.7847404 2:9.5643053 3:10.083695 4:7.52529 5:9.7318602 6:7.5702467 7:5.0545335 8:5.1530671 9:4.831974 10:4.0430264 11:1.687645 12:3.9426768 13:3.5854778 14:1.4555641 15:2.8304896 16:1.4967008 17:2.7803807 18:1.6496881 19:1.0809448 20:1.3567994 21:1.6526206 22:0.34721267 23:0.21052451 24:0.90914708 25:0.49407145 26:0.15319823 27:0.39291346 28:0.29627916 29:0.61614633 30:3.405117 31:8.3190689 32:13.430497 33:14.657452 34:13.122822 35:7.0952468 36:7.2648358 37:6.0877185 38:4.8230186 39:3.45806 40:2.3521495 41:0.78223908 42:1.9064718 43:1.943799 44:0.85115081 45:0.95843661 46:1.2093104 47:0.57517147 48:0.94883049 49:0.62788188 50:1.217091 51:0.87813479 52:0.36400464 53:0.45181397 54:0.69881761 55:0.17878374 56:0.22305699 57:0.26267257 58:0.16176447 59:0.216837 60:2.2650769 61:6.5166807 62:10.669119 63:11.842194 64:8.7790022 65:5.7916765 66:3.8377202 67:3.8470287 68:2.8943148 69:2.3956201 70:1.1958114 71:0.77109575 72:0.86947 73:0.55140716 74:0.53032529 75:0.68943447 76:0.8384217 77:0.93867266 78:0.18783776 79:0.70937693 80:0.75208461 81:0.62975645 82:0.26543418 83:0.14475527 84:0.27860233 85:0.18119439 86:0.070358425 87:0.073253691 88:0.05809281 89:0.053052548 90:4.1102142 91:9.6274166 92:13.973013 93:16.147884 94:11.757366 95:10.845044 96:9.1650867 97:8.5271254 98:7.3984265 99:7.2117872 100:5.3505006 101:3.5268314 102:3.5390458 103:2.1389198 104:1.5625279 105:1.0364126 106:1.7539542 107:1.7709244 108:1.006231 109:0.58695251 110:1.1930722 111:1.6728654 112:0.94611746 113:0.3205376 114:0.80434197 115:0.74642599 116:0.24466361 117:0.28472996 118:0.33606383 119:0.29665151 
0.6369845280991404 0:3.7624762 1:10.333772 2:7.0694337 3:14.469669 4:4.1903214 5:15.343962 6:13.473269 7:7.6981521 8:10.433439 9:2.5432732 10:5.8355784 11:0.54116112 12:5.6197748 13:2.4292808 14:0.054643471 15:1.0382123 16:2.8553033 17:2.5421453 18:2.3403966 19:0.99495262 20:1.8939836 21:1.1447256 22:0.47006723 23:0.88792998 24:1.1540227 25:0.30750006 26:0.39098167 27:0.67561579 28:0.93501562 29:0.29365098 30:2.8455548 31:12.168396 32:18.486193 33:10.025825 34:16.109299 35:7.2064681 36:7.4865885 37:4.3911524 38:7.5548015 39:1.1400632 40:3.7990174 41:1.6967565 42:2.5247698 43:1.1653833 44:3.0953226 45:2.4591768 46:0.14689715 47:1.4983444 48:0.18579082 49:1.2326899 50:1.2303405 51:0.5571636 52:0.56062257 53:0.57051492 54:0.43742937 55:0.070893124 56:0.17372417 57:0.28358257 58:0.057287548 59:0.094147556 60:5.9240341 61:9.6572571 62:22.949232 63:4.6395249 64:24.285215 65:7.8964653 66:13.989341 67:8.0012074 68:5.107121 69:2.5278316 70:2.3907652 71:2.8812258 72:1.5980661 73:1.5624374 74:0.91326952 75:1.4456288 76:1.2836844 77:0.59596997 78:1.2175577 79:1.7720156 80:0.69788319 81:0.96528471 82:0.27381623 83:0.60140532 84:0.88889635 85:0.82663375 86:0.41521302 87:0.36534202 88:0.45112559 89:0.54504597 90:1.3227458 91:13.908916 92:12.11331 93:18.971964 94:8.5524368 95:13.933529 96:11.352417 97:7.5871892 98:11.881098 99:3.6142318 100:8.4149027 101:2.6639442 102:4.5395312 103:2.7036297 104:1.3754817 105:1.3065698 106:1.6745477 107:1.9856409 108:0.51134378 109:0.46387157 110:1.8988909 111:1.052645 112:1.241225 113:0.40662748 114:0.6815111 115:0.96143186 116:0.20355679 117:0.32753444 118:0.54597515 119:0.11590813 
0.6366343829110019 0:2.36795 1:20.424988 2:16.194363 3:2.1817708 4:14.739925 5:20.449785 6:2.4557962 7:11.23892 8:9.441556 9:2.7708876 10:7.0691524 11:6.1746259 12:0.95820862 13:2.5770018 14:5.3028889 15:4.8160896 16:2.132973 17:1.5888894 18:3.5236576 19:1.8227344 20:1.1153185 21:0.30690631 22:0.57884979 23:1.0394269 24:0.55215192 25:0.57885599 26:0.76633936 27:0.52865547 28:0.57382768 29:0.46662542 30:6.8736453 31:16.480194 32:7.9738665 33:11.866145 34:13.490223 35:13.650012 36:11.05372 37:4.9714403 38:4.2425451 39:3.145689 40:4.6209517 41:4.4151049 42:2.4001915 43:1.5949155 44:5.9726253 45:0.34364367 46:0.78150237 47:2.4127047 48:2.0634015 49:2.1760838 50:1.4001089 51:1.6733493 52:2.0244572 53:1.2477506 54:0.6148901 55:1.0193435 56:1.1465478 57:1.1322222 58:1.0257963 59:0.81228453 60:6.5881577 61:6.577158 62:25.81366 63:22.509338 64:16.697359 65:14.177892 66:14.114054 67:5.4635525 68:5.01296 69:4.4987941 70:0.85475248 71:3.7889261 72:1.0181565 73:2.7508945 74:2.3186138 75:1.5365542 76:0.63043493 77:1.7590822 78:0.68600607 79:1.8942252 80:1.4933243 81:0.77941304 82:1.8811306 83:0.49722582 84:1.0357631 85:0.92317641 86:0.84705853 87:1.0421649 88:0.76354098 89:0.81639183 90:5.193119 91:24.209148 92:11.188185 93:4.8169789 94:18.375483 95:21.336802 96:6.8057446 97:10.346131 98:8.5370607 99:3.9332261 100:7.791182 101:7.9351501 102:0.32519192 103:1.9677618 104:5.6641212 105:3.0946987 106:1.3548589 107:1.9077997 108:2.0043497 109:1.8209778 110:1.9640279 111:1.0065844 112:2.7427239 113:1.6772896 114:1.1391959 115:0.34986395 116:1.2539771 117:1.3504871 118:1.1440489 119:0.88408118 
0.6368325993635453 0:2.7028582 1:10.763394 2:27.796371 3:8.3683329 4:14.700371 5:13.524032 6:10.133348 7:14.17437 8:12.67335 9:7.2120318 10:13.678657 11:3.3307376 12:2.5886786 13:6.0750151 14:4.2158346 15:4.0858121 16:3.1846125 17:4.9503598 18:2.7657795 19:2.1083112 20:2.9478827 21:0.12498169 22:1.6270325 23:1.512568 24:0.9859426 25:1.1802256 26:1.3569639 27:0.34604695 28:1.0216815 29:0.92443055 30:4.4690442 31:16.746902 32:8.2288513 33:19.519787 34:13.079948 35:10.049318 36:9.8570576 37:3.8749173 38:11.014267 39:2.4815917 40:5.0756068 41:5.3201313 42:1.9863154 43:2.8643641 44:1.2392287 45:2.8456955 46:2.3687661 47:2.5818307 48:2.5085568 49:1.6074882 50:1.6533478 51:1.0228471 52:0.13352464 53:0.78019744 54:0.54697341 55:0.28799492 56:0.54133463 57:0.42723531 58:0.56740141 59:0.40767393 60:3.6511097 61:18.455967 62:21.162079 63:24.351234 64:11.155215 65:12.621323 66:16.490147 67:10.007814 68:10.993992 69:6.8508053 70:6.8347406 71:4.5281835 72:2.2283711 73:2.9875944 74:4.4932923 75:2.2956638 76:3.9431729 77:3.3033478 78:2.5984514 79:2.2604582 80:2.2942038 81:1.5668497 82:1.8989869 83:1.5493282 84:1.4118224 85:1.6797904 86:1.3627614 87:1.4021389 88:1.2427275 89:1.269063 90:3.3126001 91:15.586746 92:25.817974 93:19.303572 94:16.404114 95:11.207354 96:11.87176 97:14.572924 98:13.898379 99:4.2691054 100:12.368175 101:4.6328578 102:4.53373 103:6.2431149 104:3.5079746 105:3.6968307 106:2.6186328 107:5.1445208 108:2.4056118 109:1.6845953 110:2.8937426 111:1.6990119 112:0.92460155 113:2.2336268 114:1.0965068 115:1.3239858 116:1.3237969 117:0.61460143 118:1.1928494 119:0.87299407 
0.6366317086775101 0:6.9865484 1:25.498631 2:18.478355 3:31.104475 4:14.728682 5:15.956744 6:20.982752 7:4.7472496 8:9.0050421 9:5.0484571 10:11.534177 11:1.9013166 12:3.1692719 13:5.8499546 14:3.1152604 15:2.9640825 16:1.6313823 17:4.9718752 18:5.0009775 19:0.94141918 20:2.5421021 21:2.0676708 22:2.3496494 23:1.2854186 24:2.0230188 25:2.0104558 26:1.4881741 27:0.83636516 28:0.75958681 29:1.2073612 30:3.8537352 31:24.543425 32:8.4318733 33:25.557281 34:19.146488 35:10.882595 36:9.311368 37:7.0996599 38:14.114768 39:1.003237 40:3.9480386 41:3.3725157 42:3.1794834 43:1.1787193 44:2.0166965 45:3.4382756 46:0.49624959 47:2.6866837 48:1.1020389 49:2.0249617 50:0.5057258 51:1.517441 52:1.110993 53:0.78229952 54:0.75816691 55:0.49947092 56:0.84635299 57:0.63210684 58:0.72947001 59:0.65335017 60:9.6476889 61:7.6877346 62:25.588812 63:4.8506107 64:14.96779 65:6.3099937 66:15.280967 67:3.1718414 68:7.4949484 69:6.7648649 70:4.8235965 71:1.6740609 72:1.4452783 73:4.0255799 74:1.5997193 75:1.2184855 76:1.9196404 77:0.11872904 78:0.79483134 79:1.1198109 80:1.5622339 81:0.21542361 82:0.81695467 83:0.27338931 84:0.57783037 85:0.24397741 86:0.44147289 87:0.37196541 88:0.41631806 89:0.28137416 90:3.5685203 91:31.521931 92:19.238703 93:37.1376 94:17.741713 95:16.67416 96:22.020767 97:7.9357343 98:12.116664 99:1.8040864 100:11.261123 101:3.3547597 102:6.164237 103:5.3719673 104:2.9364009 105:2.5272851 106:1.022476 107:4.9431138 108:3.139416 109:2.4035718 110:2.3896601 111:1.4205953 112:1.4979908 113:0.73892027 114:2.3669677 115:1.2358838 116:1.5978701 117:0.96131784 118:1.0243853 119:1.2515337 
0.6277817607378622 0:1.5552611 1:15.617406 2:25.357925 3:21.530302 4:15.569051 5:18.260828 6:11.315048 7:7.8760633 8:6.8334422 9:8.1218653 10:5.5692544 11:2.665781 12:2.5575778 13:2.5818684 14:1.4533161 15:1.7919457 16:1.7482581 17:1.1800882 18:2.4795055 19:0.40754095 20:0.83687538 21:1.1360235 22:0.093200877 23:0.14584048 24:1.1071937 25:0.72251141 26:0.23830426 27:0.51891875 28:0.50547719 29:0.20467559 30:4.9485588 31:19.489443 32:10.294026 33:16.767403 34:19.910646 35:10.591281 36:7.4212623 37:7.969317 38:9.7200794 39:3.7058079 40:2.6928382 41:3.1796305 42:2.3276284 43:1.2062192 44:2.335161 45:2.2378848 46:0.85649461 47:1.778237 48:1.1498169 49:0.83354884 50:0.78505147 51:0.94897795 52:0.17433712 53:0.088995673 54:0.16553158 55:0.12751611 56:0.25949103 57:0.31527129 58:0.21291903 59:0.14688553 60:6.1720161 61:7.5816331 62:19.037489 63:12.904328 64:9.2925682 65:11.993494 66:10.528377 67:4.8429389 68:5.7910137 69:6.7604685 70:4.2130046 71:1.555988 72:2.6796861 73:3.4493103 74:1.0617034 75:0.39936417 76:1.2599651 77:0.68536276 78:0.62161314 79:1.2162267 80:0.51510692 81:0.245139 82:0.30354497 83:0.51260471 84:0.30801854 85:0.084368557 86:0.34519115 87:0.21303077 88:0.22692357 89:0.1237967 90:2.1074626 91:20.303394 92:26.853432 93:20.273302 94:21.829935 95:18.794003 96:10.302891 97:10.358274 98:7.1454816 99:7.324327 100:5.3909245 101:4.6525955 102:3.4291582 103:3.6442814 104:1.9873132 105:0.79800498 106:2.1739051 107:1.2173103 108:1.0813296 109:0.59081137 110:1.3078145 111:0.3098529 112:0.84404004 113:0.90696478 114:0.9941107 115:0.59435833 116:0.59124464 117:0.65296406 118:0.11179937 119:0.22618817 
0.4017644719208519 0:4.2455587 1:11.126166 2:11.889978 3:6.0714512 4:6.3777175 5:4.1916156 6:1.5540835 7:2.469425 8:2.8937287 9:0.751445 10:2.599864 11:2.0607939 12:1.9680225 13:2.5722349 14:1.0808383 15:3.2349236 16:2.6501522 17:1.3510526 18:1.3261026 19:1.0204093 20:1.6483384 21:1.4088564 22:0.39977297 23:0.69600248 24:0.21442974 25:0.68421245 26:0.95056528 27:0.49603173 28:0.66356927 29:0.65095639 30:5.0352712 31:10.506416 32:4.0780964 33:2.2217789 34:3.1833127 35:4.707489 36:4.9934335 37:5.5253615 38:6.8327174 39:4.7162876 40:3.7509062 41:2.8488171 42:1.2906709 43:0.80416447 44:0.43345428 45:0.74159849 46:0.30729163 47:0.67049134 48:1.4135919 49:0.97973937 50:1.2728542 51:1.3400328 52:1.3184366 53:0.97726023 54:0.92747802 55:0.92594928 56:0.91561109 57:0.62583721 58:0.69972217 59:0.69775474 60:5.1137061 61:10.890286 62:8.2771959 63:6.5340352 64:5.2590528 65:1.6535754 66:1.1876638 67:2.4872675 68:2.1535015 69:2.6954103 70:2.4956837 71:2.5465615 72:1.1811662 73:1.2306335 74:1.4478601 75:1.5630226 76:1.4206581 77:0.54546756 78:0.46475634 79:0.3189953 80:0.24976957 81:0.58543772 82:0.2618551 83:0.13400941 84:0.10674863 85:0.22026105 86:0.21400996 87:0.064066224 88:0.053475931 89:0.14588417 90:4.6455207 91:12.350911 92:10.101821 93:7.182591 94:5.469099 95:3.777782 96:2.9608309 97:4.7706461 98:2.6822753 99:2.2997465 100:3.5327547 101:2.7497933 102:3.0223131 103:2.8827786 104:2.9548485 105:2.0328624 106:2.3741617 107:0.23274286 108:0.86916864 109:0.88765383 110:1.1531292 111:0.73214775 112:0.31993583 113:0.56274617 114:0.72821945 115:0.95518166 116:0.84855485 117:0.62833816 118:0.82457465 119:0.81228477 
0.6407045305546812 0:1.5066801 1:1.7213734 2:0.84243548 3:3.1072621 4:2.8927369 5:3.6406512 6:0.21557383 7:2.2387867 8:1.8214039 9:0.58700258 10:1.4057822 11:1.8293877 12:1.0957842 13:0.97680652 14:0.85209322 15:1.8179016 16:1.4961969 17:1.4436351 18:0.57980216 19:0.95622885 20:2.2544336 21:1.0210227 22:0.61759436 23:0.55911839 24:0.71911377 25:0.87731779 26:0.16466883 27:0.27738172 28:0.43608224 29:0.075202964 30:3.035723 31:0.65306377 32:5.8911281 33:2.4132743 34:1.9163977 35:1.077523 36:2.7864566 37:1.1586883 38:2.1468918 39:0.22140513 40:0.43749666 41:1.8186768 42:1.2044423 43:0.43661049 44:0.38279718 45:0.77990812 46:1.4737017 47:0.87957805 48:0.5270955 49:0.44739372 50:0.31929481 51:0.21926118 52:0.51043636 53:0.097116224 54:0.13089104 55:0.10496285 56:0.054611042 57:0.19642414 58:0.021188218 59:0.084797114 60:0.74812615 61:2.2891197 62:3.6561003 63:0.35594386 64:1.1987025 65:1.4571389 66:1.5332456 67:1.7086568 68:1.4528624 69:0.57280964 70:0.24669562 71:1.2386349 72:1.252313 73:1.0158788 74:0.11184027 75:0.77746111 76:0.96190071 77:0.62407333 78:0.45144737 79:0.31029934 80:0.18782043 81:0.5467633 82:0.18156931 83:0.097795054 84:0.18100376 85:0.18286416 86:0.096850388 87:0.17901909 88:0.086292431 89:0.063131824 90:1.731963 91:0.74426889 92:3.0464904 93:2.3950675 94:6.7888355 95:7.1892233 96:1.5019699 97:2.8496637 98:0.51168895 99:2.0986164 100:1.5291531 101:1.6650511 102:1.9078004 103:1.6554695 104:2.2528675 105:1.0333457 106:1.4026088 107:0.64888632 108:1.1024442 109:1.1433473 110:1.0266412 111:0.09729556 112:0.52620584 113:0.47504118 114:0.089422159 115:0.46938697 116:0.33482879 117:0.37277573 118:0.47963363 119:0.25030977 
0.7805796940982983 0:0.95702064 1:0.90650433 2:1.6654662 3:4.1941524 4:1.6842411 5:2.7666719 6:1.822781 7:0.9289611 8:3.1604435 9:1.3040525 10:0.96271151 11:1.4721278 12:1.1895068 13:0.95494777 14:0.64932978 15:1.7450352 16:1.8021148 17:1.0715785 18:1.2357055 19:0.28054857 20:1.3184491 21:1.5483611 22:0.86406928 23:0.25852388 24:0.98815942 25:0.44076365 26:0.55065942 27:0.50300795 28:0.33366808 29:0.32783851 30:0.32335573 31:3.6045744 32:4.5391531 33:3.1411569 34:1.0744458 35:2.1023219 36:1.1090201 37:2.5024054 38:1.6170819 39:0.41589609 40:0.75420696 41:1.292699 42:1.6514894 43:0.86963314 44:0.56269652 45:0.87064999 46:1.1118244 47:0.88551551 48:0.95275426 49:0.09524364 50:0.15778689 51:0.54235518 52:0.21600464 53:0.26834843 54:0.15530801 55:0.21894147 56:0.090904899 57:0.11433787 58:0.03452462 59:0.013554499 60:0.53936327 61:1.47464 62:0.95302606 63:2.5558186 64:1.0687211 65:1.3694998 66:1.3644181 67:1.4725347 68:1.8804328 69:0.22800572 70:0.12427321 71:1.1506015 72:1.5962107 73:0.98834068 74:0.098208509 75:0.92165744 76:0.78935903 77:0.45655379 78:0.69974393 79:0.25584352 80:0.5466249 81:0.58590424 82:0.14984202 83:0.18893354 84:0.14412878 85:0.19424699 86:0.041930594 87:0.14480852 88:0.13147143 89:0.035494272 90:1.0925608 91:2.4215074 92:2.2624092 93:6.8894868 94:5.9363232 95:2.0403492 96:3.8184938 97:1.2213951 98:1.3023283 99:2.6757307 100:0.7697863 101:2.0328896 102:1.798048 103:2.1468854 104:1.5090818 105:1.1021358 106:0.45680121 107:0.70910954 108:0.97661281 109:0.77324575 110:0.45292813 111:0.43846652 112:0.55627739 113:0.47240549 114:0.49087062 115:0.55259061 116:0.58536768 117:0.56197459 118:0.2361971 119:0.27355474 
0.8464596386682819 0:0.43818852 1:1.5862048 2:3.282753 3:3.0904717 4:2.1929832 5:2.068018 6:0.76708072 7:1.4810792 8:3.2719512 9:1.1127709 10:1.7588526 11:0.5346089 12:0.81920886 13:0.57246208 14:0.10793125 15:0.83386874 16:0.37502328 17:0.66911721 18:0.41047546 19:1.5153923 20:0.9350394 21:1.5712405 22:0.42599156 23:0.50462306 24:0.78318167 25:0.37519842 26:0.45070547 27:0.3122094 28:0.29838157 29:0.2493955 30:0.64142978 31:3.6957428 32:2.364572 33:0.26658729 34:1.400378 35:0.63316256 36:0.72709018 37:0.77544075 38:1.0732391 39:0.53814185 40:0.45609891 41:0.59304786 42:1.0026673 43:0.61810422 44:0.1540968 45:0.55153799 46:0.44602644 47:0.12950973 48:1.0122259 49:0.21169348 50:0.37204677 51:0.80389619 52:0.23165837 53:0.21460629 54:0.35824877 55:0.11401703 56:0.14063074 57:0.14546315 58:0.17959709 59:0.18169525 60:0.4063096 61:2.2538643 62:1.1673919 63:1.0077475 64:1.2673197 65:0.54462397 66:0.14918429 67:0.38151091 68:0.88256961 69:0.49710667 70:0.2101018 71:1.1034585 72:0.21481644 73:0.22996297 74:0.16154593 75:0.23312174 76:0.42462352 77:0.17872143 78:0.4408752 79:0.27491054 80:0.60359555 81:0.833336 82:0.27951977 83:0.26947373 84:0.14295517 85:0.14770301 86:0.063019715 87:0.10513099 88:0.15676937 89:0.086635508 90:1.5848449 91:3.6624992 92:4.2753506 93:6.5566254 94:7.489964 95:3.9002938 96:3.0243108 97:0.89292002 98:0.65307903 99:2.5425501 100:0.96508461 101:1.7680334 102:1.5053109 103:0.80482179 104:0.15706539 105:0.64836282 106:0.65398043 107:0.57386535 108:0.10503491 109:0.40391824 110:1.3292065 111:1.0475845 112:0.25773358 113:0.17366789 114:0.74405247 115:0.32574129 116:0.51713443 117:0.14910322 118:0.51721925 119:0.14385375 
0.352935202174989 0:1.1078804 1:2.4624414 2:3.3460405 3:2.3578172 4:4.4593015 5:2.0794852 6:3.3651564 7:3.7087188 8:2.8006525 9:3.1882212 10:3.1829312 11:4.4153562 12:0.63535053 13:2.2574868 14:3.4918253 15:2.4780469 16:1.1367599 17:2.5076303 18:2.4797075 19:1.7845627 20:1.1984855 21:1.6085473 22:2.2983406 23:1.5835656 24:1.4116455 25:1.1969639 26:1.1583945 27:1.1455194 28:1.4922746 29:1.1850576 30:2.6244462 31:4.7151375 32:3.8681402 33:3.2305043 34:1.6693895 35:1.1413716 36:2.273407 37:2.1652763 38:0.91566527 39:0.78068465 40:2.0528097 41:1.9815241 42:0.21694696 43:1.6308537 44:1.4064672 45:0.70350188 46:0.97229278 47:0.42781255 48:1.0141274 49:0.2623336 50:0.54859912 51:0.67244077 52:0.64112419 53:0.38540179 54:0.19061795 55:0.38389102 56:0.35817957 57:0.4913463 58:0.42298353 59:0.33752996 60:1.7218118 61:3.1790578 62:2.2625921 63:2.565273 64:3.9160132 65:2.3440127 66:1.2938803 67:0.16482145 68:2.019438 69:1.8109576 70:0.75150168 71:1.5601139 72:0.90302742 73:0.54304945 74:0.66404206 75:0.81558019 76:1.3411205 77:0.5826894 78:0.249694 79:0.92356181 80:0.89293337 81:0.75123382 82:0.19111884 83:0.30752969 84:0.22680491 85:0.23696855 86:0.31610128 87:0.18665209 88:0.46946019 89:0.3162474 90:0.93620926 91:3.1472266 92:2.2036493 93:3.3000579 94:7.6695013 95:3.7141228 96:2.8801708 97:6.1464157 98:3.5131648 99:2.3846245 100:5.2533498 101:4.7519307 102:0.94579184 103:4.208838 104:2.9148619 105:2.6079588 106:1.9874842 107:2.9897976 108:3.0094373 109:1.3620691 110:0.54058534 111:3.0779238 112:1.8922402 113:1.7586225 114:1.6748493 115:1.1080594 116:0.98408216 117:1.2320952 118:1.2564093 119:1.2955346 
0.5850691019694589 0:6.6240263 1:13.069688 2:26.772242 3:27.983004 4:20.196001 5:15.396046 6:18.121853 7:12.309493 8:7.8723249 9:11.090368 10:4.6809163 11:2.6587405 12:5.7091317 13:3.4142184 14:2.8717313 15:1.2761557 16:1.0021091 17:1.3671547 18:2.2721219 19:1.6661732 20:0.71607387 21:1.6885287 22:0.38060859 23:0.96369398 24:1.2038286 25:0.31033456 26:0.73612499 27:0.13073881 28:0.66307145 29:0.15046608 30:4.1656322 31:8.321456 32:20.28104 33:21.399717 34:13.444715 35:11.754053 36:12.297736 37:6.3284693 38:6.5249715 39:6.5895977 40:3.5137682 41:2.3773398 42:4.0856214 43:1.8332039 44:0.69799417 45:2.4127891 46:2.2980692 47:1.5071589 48:0.69430727 49:1.419256 50:0.7858488 51:0.18100315 52:0.51159006 53:0.40691081 54:0.30920181 55:0.31368095 56:0.10175446 57:0.25513887 58:0.10932919 59:0.21453542 60:2.1252861 61:8.4123535 62:11.02861 63:9.116538 64:10.148861 65:7.6540761 66:5.4540524 67:4.502326 68:3.9226041 69:2.3414776 70:2.0421135 71:2.4465663 72:1.2984197 73:0.73802704 74:1.7362134 75:1.1708665 76:0.72589093 77:0.85853004 78:0.66960728 79:0.63997215 80:0.74785465 81:0.28892183 82:0.41095474 83:0.078590393 84:0.5005089 85:0.35986358 86:0.20264706 87:0.31841603 88:0.18107422 89:0.21029978 90:5.35431 91:12.405295 92:30.303152 93:29.449772 94:21.453024 95:17.558161 96:21.984907 97:14.99046 98:6.0700402 99:11.572666 100:6.7109799 101:0.50189942 102:6.227726 103:2.1785178 104:1.1693522 105:1.5069001 106:1.2597229 107:1.4287884 108:0.93202817 109:0.80733126 110:0.63339239 111:1.4646664 112:1.0420766 113:0.75527412 114:0.49684891 115:1.1978723 116:0.76980162 117:0.1527041 118:0.91678327 119:0.32785437 
0.5134836165180319 0:3.5786879 1:17.210291 2:30.662188 3:25.547766 4:20.053932 5:17.259228 6:15.644217 7:13.088825 8:10.217876 9:6.8188891 10:6.1788502 11:4.2930293 12:3.5558035 13:2.7595725 14:3.7839057 15:0.75275248 16:0.90155369 17:0.62183005 18:0.85440844 19:1.2081792 20:0.22911024 21:0.82375938 22:0.063737124 23:0.84093034 24:0.16190648 25:0.4607276 26:0.37373161 27:0.58308005 28:0.46124735 29:0.36419696 30:1.5097975 31:11.985366 32:21.913857 33:20.495487 34:12.668969 35:12.905428 36:10.595994 37:8.2003565 38:6.4295893 39:4.9031663 40:4.1970854 41:3.8467493 42:1.960107 43:1.7793797 44:1.8605207 45:2.2873113 46:1.7785648 47:1.1735705 48:1.4454712 49:1.0839858 50:0.69149494 51:0.25903484 52:0.34163308 53:0.48354742 54:0.47236553 55:0.33162248 56:0.087847114 57:0.20366266 58:0.1642106 59:0.11289732 60:1.3781743 61:10.786229 62:10.938208 63:8.4750443 64:8.5776844 65:8.5416241 66:5.7466211 67:3.9119077 68:3.0240619 69:3.125823 70:1.8055499 71:0.99549431 72:1.7112502 73:1.6474886 74:1.199947 75:0.54572809 76:0.26680726 77:0.75017649 78:0.29886943 79:0.48617378 80:0.43503156 81:0.2710301 82:0.58276492 83:0.28434446 84:0.41709211 85:0.21745592 86:0.32978812 87:0.45851478 88:0.21212219 89:0.18629976 90:3.1251719 91:18.060368 92:30.958965 93:27.312227 94:23.300043 95:17.107576 96:20.982357 97:15.297379 98:8.1570358 99:6.9052153 100:7.4968615 101:4.3358564 102:2.9914377 103:1.9186679 104:1.4202514 105:1.7591889 106:0.98585445 107:0.74602187 108:0.4271799 109:0.74306846 110:0.25582728 111:0.62796623 112:0.49394768 113:0.5012027 114:0.46847713 115:0.4982661 116:0.75321919 117:0.7436862 118:0.69484657 119:0.13853903 
0.6181128553266725 0:18.166121 1:26.507015 2:16.396748 3:4.0122137 4:3.8192139 5:3.9379401 6:3.2958539 7:4.3351402 8:3.1303809 9:4.3728738 10:3.1704681 11:3.9091473 12:3.2293444 13:3.0812907 14:4.6838627 15:2.1122711 16:2.8129127 17:2.1286697 18:1.9420322 19:1.9310182 20:1.2050943 21:1.01565 22:0.97497803 23:1.2381272 24:0.74897021 25:0.86920995 26:1.0049241 27:0.53178871 28:0.76352274 29:0.43041104 30:11.259922 31:18.611855 32:8.7620287 33:6.1828799 34:1.1492358 35:2.4551816 36:1.3799192 37:0.8751536 38:1.4918987 39:1.4057283 40:1.6136376 41:0.88950998 42:1.3822633 43:1.2249924 44:0.69239163 45:0.99206537 46:1.3184769 47:1.5529516 48:1.0604788 49:0.87190211 50:0.95081341 51:1.009518 52:0.90397632 53:0.56223673 54:0.72777647 55:0.63534927 56:0.53218865 57:0.39704105 58:0.45376527 59:0.38374534 60:6.5222025 61:11.712819 62:4.9800801 63:3.8830373 64:1.4680802 65:1.7046808 66:0.60730612 67:1.7979835 68:1.2946054 69:0.77449638 70:0.60503149 71:1.0354606 72:1.3306152 73:0.97089863 74:1.0397904 75:1.3328564 76:1.0782858 77:0.5208903 78:0.84560347 79:1.1110052 80:0.39868245 81:0.53820723 82:0.485138 83:0.8373844 84:0.46931252 85:0.35435501 86:0.22361746 87:0.3503682 88:0.29723322 89:0.14436121 90:18.2194 91:27.521774 92:15.673405 93:9.6244745 94:8.3647203 95:7.1082773 96:6.2525787 97:6.7848935 98:5.8008475 99:4.400434 100:4.1362987 101:4.8498917 102:3.5704818 103:3.410476 104:2.3953748 105:1.3025258 106:2.7410121 107:2.5422225 108:1.7029645 109:1.1828778 110:0.96377861 111:1.0223149 112:0.96775872 113:1.2733965 114:0.96424019 115:0.57082301 116:0.65890515 117:0.46557254 118:0.68392366 119:0.76775086 
0.6275762459213128 0:7.5582232 1:17.793619 2:35.330692 3:38.102612 4:25.499418 5:20.471624 6:17.571463 7:11.656393 8:9.3797665 9:7.1255016 10:2.0439699 11:3.8194864 12:1.5767982 13:4.9567585 14:3.5247941 15:1.8480515 16:2.4121082 17:1.4623483 18:1.7584263 19:0.90709007 20:0.52018213 21:1.5564117 22:0.049229983 23:1.0770924 24:0.96426177 25:0.13880678 26:0.76127726 27:0.53255039 28:0.86994642 29:0.55369246 30:3.6768129 31:7.5881028 32:21.883101 33:21.382956 34:16.29398 35:13.703051 36:10.75607 37:5.8773727 38:5.4337263 39:4.2451882 40:2.312356 41:1.5143009 42:0.71183789 43:1.3553224 44:1.1617635 45:1.7161045 46:2.0535324 47:1.42673 48:1.6804346 49:1.1821318 50:1.2314835 51:1.045489 52:0.46352267 53:0.53238702 54:0.1658711 55:0.13356142 56:0.26453686 57:0.17190549 58:0.11178751 59:0.24464658 60:5.0808778 61:7.6693029 62:17.185715 63:17.172199 64:10.777007 65:9.3869667 66:6.3613353 67:3.6322162 68:4.0564733 69:2.6954691 70:1.2663615 71:1.7237004 72:1.6130552 73:1.279278 74:1.1089823 75:1.1852878 76:0.99190664 77:0.32820913 78:0.74357069 79:0.53194016 80:0.56443489 81:0.79844809 82:0.15829512 83:0.66693884 84:0.16780983 85:0.53671986 86:0.1226011 87:0.37800196 88:0.38769048 89:0.19438551 90:8.0756416 91:16.413574 92:35.20829 93:35.526817 94:27.224014 95:23.062813 96:17.907091 97:12.962653 98:11.508989 99:7.5958796 100:5.5059834 101:5.3495865 102:2.6812098 103:5.3348908 104:1.6515033 105:1.9670104 106:2.7349048 107:0.78295165 108:2.1303298 109:1.1673962 110:0.51714599 111:0.820265 112:0.66635984 113:1.170571 114:0.51903021 115:0.2098873 116:0.25141999 117:0.48610464 118:0.49423864 119:0.51211149 
0.6126355651256725 0:2.1626558 1:25.873007 2:39.973152 3:32.35215 4:27.533949 5:20.982368 6:15.302544 7:13.750521 8:9.0654821 9:5.7832932 10:3.5365872 11:2.1674848 12:3.4118154 13:3.4336579 14:4.5082755 15:1.9558759 16:1.0722542 17:2.2144554 18:1.0000064 19:1.1033438 20:0.34731114 21:0.94575751 22:0.90987808 23:0.76259768 24:0.45854846 25:0.43787324 26:0.26291594 27:0.39848226 28:0.36577326 29:0.17988069 30:1.3655819 31:12.948414 32:22.00462 33:19.014874 34:17.616137 35:13.840949 36:9.4597549 37:7.4056964 38:4.4912066 39:4.7478609 40:1.9277023 41:1.8188274 42:0.76202655 43:1.2113786 44:0.82481217 45:2.1182075 46:1.4392216 47:1.9530978 48:1.2231575 49:1.588972 50:0.98421013 51:1.056168 52:0.57968992 53:0.42379826 54:0.23827679 55:0.11510888 56:0.19278766 57:0.035643078 58:0.11520687 59:0.20292029 60:1.5222982 61:13.758355 62:16.547512 63:15.998064 64:11.882704 65:8.4229937 66:7.4063096 67:2.8758545 68:4.5894337 69:2.1182377 70:1.8196383 71:1.014747 72:2.2821398 73:1.0361872 74:1.3749348 75:0.84417129 76:1.1507601 77:0.41477761 78:0.67974728 79:0.44040731 80:0.66333038 81:0.64755172 82:0.63312495 83:0.19198123 84:0.24194342 85:0.22858675 86:0.23744026 87:0.30350128 88:0.24703987 89:0.18969816 90:2.3403153 91:26.542145 92:38.340714 93:29.563255 94:29.581579 95:21.741093 96:17.468113 97:14.052801 98:10.917744 99:7.9061809 100:5.9945269 101:3.5401123 102:4.0653586 103:4.6246743 104:1.73434 105:2.8509765 106:0.82923573 107:2.8487489 108:0.86736685 109:1.4759821 110:0.29164091 111:0.57826108 112:0.16412157 113:0.58506328 114:0.38826898 115:0.26279753 116:0.13019688 117:0.01255154 118:0.29538307 119:0.075299993 
0.5802616024445177 0:10.084832 1:26.676695 2:19.793695 3:10.287537 4:8.6774168 5:5.2774143 6:6.8646736 7:6.1641908 8:3.5022426 9:3.8606486 10:2.7686946 11:2.9693005 12:2.3170376 13:2.5775578 14:3.1922479 15:1.5061133 16:2.9315333 17:1.5234774 18:1.1960502 19:1.6769484 20:0.42271736 21:0.72124565 22:1.136335 23:0.45279768 24:0.70599473 25:1.2858967 26:0.6984095 27:0.59599096 28:0.42253825 29:0.906205 30:5.2794523 31:12.939818 32:10.555824 33:5.5463495 34:5.1281695 35:4.8154187 36:3.126004 37:1.062608 38:3.2721579 39:2.8160472 40:1.8522408 41:1.7820387 42:0.85608608 43:1.504216 44:0.90256405 45:1.125764 46:1.2837323 47:0.35387692 48:0.67089248 49:1.0340891 50:0.50824928 51:0.52885103 52:0.5037322 53:0.57962841 54:0.82234859 55:0.5086326 56:0.76489109 57:0.70889419 58:0.59638119 59:0.60133189 60:4.8486099 61:13.025598 62:7.0863528 63:4.1712155 64:4.1499567 65:2.7550261 66:1.9520668 67:4.8801661 68:2.247381 69:0.8095718 70:1.8891505 71:2.3372993 72:1.4356054 73:0.94842768 74:1.1164455 75:1.1235039 76:0.82644445 77:1.602837 78:1.4054359 79:0.57874531 80:0.64408612 81:1.5220444 82:0.85820979 83:0.84590989 84:0.65369743 85:0.62413573 86:0.73557043 87:0.52147102 88:0.63043034 89:0.53349072 90:10.026011 91:26.869219 92:19.841146 93:9.2009258 94:10.314055 95:5.2088556 96:6.2992811 97:3.3013632 98:3.9417338 99:4.2839394 100:0.97502095 101:3.6530337 102:3.0504332 103:3.1034517 104:1.2986852 105:2.6725862 106:2.9932859 107:0.99532485 108:2.0228362 109:1.286063 110:0.64820558 111:1.0525553 112:1.2746673 113:0.75638402 114:0.99613833 115:1.0180397 116:1.0005536 117:0.96301413 118:0.72533232 119:0.95937198 
2.576712459047474 0:4.8844495 1:4.2641869 2:2.9539077 3:2.8142304 4:0.67163414 5:3.5366881 6:1.2500045 7:1.2079308 8:0.61030895 9:1.1708766 10:1.2534223 11:0.77150816 12:0.40330207 13:0.8240695 14:1.522728 15:1.5559562 16:0.93352562 17:0.87982816 18:2.2375913 19:0.41202599 20:0.34034491 21:0.68167925 22:0.43634024 23:0.51911223 24:0.32383776 25:0.4129619 26:0.45198128 27:0.17870909 28:0.23008604 29:0.055886779 30:1.8349452 31:2.985163 32:0.67270148 33:1.2485572 34:1.3069943 35:1.3688445 36:2.5574422 37:1.2796221 38:0.91191655 39:0.30579314 40:0.01692445 41:1.3907965 42:1.4592026 43:0.45312789 44:0.10352927 45:0.89335656 46:0.81874019 47:0.42029634 48:0.6619435 49:0.52719533 50:0.5430553 51:0.25456169 52:0.29015213 53:0.57185686 54:0.26112413 55:0.20387417 56:0.18793868 57:0.19828087 58:0.2192006 59:0.069711842 60:1.8220485 61:4.709291 62:1.8653508 63:0.88027549 64:1.5661252 65:1.0339934 66:1.9838352 67:1.3745958 68:0.31148896 69:0.47181711 70:1.1793652 71:0.72526389 72:0.94010848 73:0.70816231 74:0.35002008 75:0.78283232 76:0.69419664 77:0.63767749 78:0.4643999 79:0.17236923 80:0.67022192 81:0.49854273 82:0.05323001 83:0.35907024 84:0.15510993 85:0.12703256 86:0.30061418 87:0.065321669 88:0.15330526 89:0.043872595 90:5.0677457 91:5.03198 92:1.3842816 93:3.1826377 94:2.290153 95:3.6168919 96:3.4536338 97:1.5184822 98:1.7424717 99:2.4484143 100:3.19646 101:1.2535131 102:0.88387811 103:1.0099447 104:1.0113835 105:0.61328715 106:1.0010908 107:0.8395195 108:0.97573 109:1.0247252 110:0.40067989 111:0.491613 112:0.28064358 113:0.96620834 114:0.38426268 115:0.75894803 116:0.55298984 117:0.25696841 118:0.28661788 119:0.19396158 
0.01177839201986427 0:0.29438111 1:1.7882546 2:0.49113825 3:1.4083802 4:2.348356 5:1.4575756 6:0.67794377 7:1.2421061 8:1.2532297 9:0.92038381 10:1.4321269 11:1.3247687 12:2.6059577 13:2.3237317 14:0.98997313 15:1.6642195 16:0.67130953 17:1.6694331 18:0.8465538 19:1.1288145 20:0.72525543 21:0.90693974 22:0.52906716 23:0.30993617 24:0.73294735 25:0.13170688 26:0.20510679 27:0.45647344 28:0.10868522 29:0.25177497 30:0.59798485 31:2.1076503 32:2.7702644 33:2.0385306 34:1.794264 35:1.2995666 36:2.8710949 37:1.0147402 38:2.2045796 39:1.0725887 40:1.0354151 41:1.2932315 42:1.4575874 43:1.7374669 44:1.0712849 45:1.2761353 46:1.0367337 47:0.96916384 48:0.22530018 49:0.84389651 50:0.63240713 51:0.30965924 52:0.63825947 53:0.27759001 54:0.32077843 55:0.072631985 56:0.091404989 57:0.10014398 58:0.21140888 59:0.13662861 60:1.0845077 61:4.7246952 62:0.69974297 63:2.4213283 64:2.2531862 65:1.2043582 66:2.9955568 67:1.7332317 68:1.4447252 69:0.85618407 70:1.3810229 71:0.93003964 72:1.5160004 73:0.66146785 74:0.60753125 75:1.4676888 76:0.30676618 77:0.98509973 78:0.19346546 79:0.41664389 80:0.61032766 81:0.24851488 82:0.42660609 83:0.36189654 84:0.17023486 85:0.1451771 86:0.20488848 87:0.17428748 88:0.17679593 89:0.067914531 90:0.31695393 91:0.64866751 92:1.5897578 93:1.9489599 94:1.556131 95:1.2497778 96:3.4030271 97:1.5535737 98:1.2127558 99:1.1873575 100:0.9874444 101:1.1561251 102:2.3881757 103:1.6859051 104:1.5500616 105:1.5886807 106:1.1371932 107:1.7091492 108:0.41588053 109:0.55458683 110:1.0857466 111:0.51500785 112:0.3189258 113:0.67339849 114:0.1519458 115:0.41937006 116:0.34993297 117:0.28720558 118:0.078099363 119:0.32853904 
0.6098634932475693 0:4.5264215 1:6.3046627 2:4.8043747 3:6.4045773 4:6.1336169 5:9.3811531 6:8.4750786 7:8.9187059 8:7.5541058 9:4.9692059 10:6.0829873 11:3.1597154 12:0.7974292 13:2.1266274 14:1.5584762 15:2.3056128 16:0.71412957 17:1.112415 18:1.4736148 19:1.4658675 20:0.91985804 21:1.1450194 22:1.1570228 23:0.41595101 24:0.55333835 25:0.43557924 26:0.44488034 27:0.57821578 28:0.36159182 29:0.55985522 30:2.1229417 31:3.5424347 32:7.1045198 33:4.6311831 34:6.2737503 35:4.8025055 36:6.6172018 37:5.0568204 38:4.9175725 39:2.537915 40:1.6500546 41:1.2175108 42:0.78751391 43:0.31974986 44:0.92343014 45:0.70855504 46:1.1701779 47:0.7117573 48:1.2613956 49:0.92576039 50:0.26987541 51:0.42695379 52:0.4252426 53:0.7726751 54:0.52651811 55:0.48442686 56:0.35757908 57:0.36681801 58:0.49167201 59:0.32731569 60:0.78152162 61:0.26749045 62:4.8034973 63:1.2256941 64:3.0784595 65:1.4789362 66:1.6383419 67:1.1866144 68:2.7378771 69:0.87222409 70:1.2173755 71:0.81644213 72:1.4517484 73:0.47345817 74:0.28876284 75:0.74611413 76:0.65941316 77:0.39987481 78:0.86550814 79:0.72874355 80:0.52592027 81:0.38288623 82:0.048749749 83:0.069275945 84:0.15991963 85:0.19751728 86:0.10459549 87:0.12726752 88:0.29353291 89:0.2451399 90:5.5067811 91:6.7700438 92:6.1551299 93:8.3452396 94:8.1047468 95:10.046575 96:11.371611 97:10.430318 98:8.5912466 99:6.3421755 100:4.6794591 101:4.1407938 102:0.88687855 103:1.7317928 104:1.0672522 105:0.91457415 106:2.0359907 107:2.1562755 108:1.783276 109:2.5987241 110:0.53787977 111:0.9411366 112:1.3204699 113:0.87576032 114:1.3494933 115:0.72999507 116:0.65664381 117:0.64248592 118:0.47070956 119:0.60320777 
0.4316517796517804 0:0.64714473 1:8.3603296 2:8.7203007 3:12.178741 4:8.8116655 5:10.332635 6:7.3200307 7:7.8815446 8:5.5052204 9:2.5648081 10:6.679347 11:3.7532618 12:1.6420008 13:1.4117993 14:1.9140023 15:1.3468474 16:2.1691682 17:1.4161006 18:0.80996478 19:0.89444953 20:1.2958075 21:1.2196767 22:1.0257671 23:0.25862014 24:0.83727717 25:0.27999917 26:0.38819885 27:0.45303789 28:0.22889262 29:0.28988841 30:1.7579819 31:6.2024517 32:12.860583 33:8.8669939 34:7.6200252 35:4.3507748 36:6.0748796 37:4.1421204 38:2.6335089 39:2.405664 40:1.1284406 41:0.97825027 42:1.1757966 43:0.51604092 44:1.2251997 45:0.42728639 46:0.70088977 47:0.26866862 48:0.28047383 49:0.41587618 50:0.57272291 51:0.39851218 52:0.26940861 53:0.27735579 54:0.18111584 55:0.1308471 56:0.1888272 57:0.063914597 58:0.066949479 59:0.11750071 60:1.1436652 61:1.6654576 62:6.1891236 63:3.23298 64:4.3229637 65:1.4883399 66:2.142452 67:2.2365894 68:1.0228059 69:0.72098023 70:0.92086029 71:0.55648917 72:1.2360042 73:0.61415553 74:0.87777895 75:0.68953252 76:0.16124967 77:0.59655517 78:0.48192132 79:0.1710169 80:0.8015945 81:0.586891 82:0.29398268 83:0.093147203 84:0.2998572 85:0.31413049 86:0.27939343 87:0.26333582 88:0.15896645 89:0.19670062 90:1.5132604 91:12.2858 92:15.518762 93:14.527396 94:10.261488 95:12.985641 96:10.975867 97:9.1449747 98:5.0812049 99:4.737947 100:4.78827 101:2.9356191 102:1.2584344 103:3.1625519 104:1.954708 105:1.6890571 106:0.37250593 107:2.0327091 108:0.89704335 109:0.85977048 110:1.1744659 111:0.91473192 112:0.84919399 113:0.51467454 114:0.26048556 115:0.39268857 116:0.28904951 117:0.11293218 118:0.21437763 119:0.21209821 
0.6365629149623372 0:5.1956806 1:2.8898997 2:24.470612 3:20.57283 4:16.268019 5:29.202618 6:19.623819 7:4.8719935 8:12.630763 9:8.972847 10:1.1005864 11:9.4889593 12:5.573782 13:2.4021957 14:0.40430441 15:2.0715101 16:3.503119 17:0.65209019 18:0.90522975 19:1.3391865 20:1.2800769 21:1.5926831 22:1.4403024 23:1.7086824 24:0.81989533 25:0.90524149 26:1.1750815 27:0.66289318 28:0.70513028 29:0.66321111 30:4.6562076 31:12.228663 32:17.090357 33:3.112499 34:16.095667 35:15.663342 36:8.3838234 37:4.5024481 38:5.8510747 39:2.9209676 40:2.9018955 41:2.9674506 42:2.1306155 43:1.1125649 44:1.2126185 45:0.76793247 46:1.5505514 47:0.48037794 48:0.021646244 49:0.40115705 50:0.5971753 51:0.55109155 52:0.48109341 53:0.36718568 54:0.61992246 55:0.55166751 56:0.49180704 57:0.25371695 58:0.36315602 59:0.47371992 60:3.5593255 61:9.3484488 62:4.3382454 63:13.906057 64:12.885212 65:9.7022314 66:9.5208483 67:8.2637177 68:3.7102637 69:2.7335629 70:4.558907 71:4.4781785 72:2.929095 73:1.5867199 74:1.2486396 75:1.3147513 76:1.6663318 77:1.3807204 78:0.4096407 79:0.69617844 80:0.89947426 81:0.98513716 82:0.63810372 83:0.19166581 84:0.47000062 85:0.50529981 86:0.58516663 87:0.17150813 88:0.16611002 89:0.36415997 90:4.1776714 91:5.0043702 92:29.832756 93:15.071976 94:19.512455 95:32.547279 96:17.536175 97:3.4381227 98:11.391873 99:9.3188686 100:0.61205393 101:6.2137413 102:3.9620771 103:3.5003507 104:3.6303275 105:2.6364291 106:2.7312202 107:1.274076 108:0.79079229 109:0.85733777 110:1.2400401 111:1.3625509 112:1.5032213 113:1.6952596 114:0.42857552 115:1.1345958 116:1.0810822 117:0.69858736 118:0.86459494 119:0.50061518 
0.6305570548977459 0:6.3977175 1:14.00983 2:29.638786 3:20.734327 4:25.784304 5:12.722897 6:15.756924 7:8.6522245 8:13.954039 9:6.4673734 10:6.5243058 11:6.1870084 12:2.8634713 13:2.2406485 14:2.174475 15:1.1108352 16:0.55991286 17:0.83205777 18:0.40395194 19:1.1005782 20:0.05520618 21:0.61693686 22:0.89364427 23:0.82973319 24:1.2271479 25:0.59896404 26:0.21128972 27:0.74383217 28:0.22814883 29:0.47878456 30:1.6325947 31:14.904334 32:15.528095 33:12.513281 34:16.074831 35:6.5131469 36:12.596691 37:3.6784384 38:7.7055831 39:3.4113891 40:4.5780787 41:2.6002295 42:1.6798763 43:1.1565759 44:0.76306814 45:1.1131449 46:1.6216964 47:0.55293798 48:1.1518528 49:1.0322886 50:0.89119047 51:0.83942479 52:0.4971098 53:0.35799062 54:0.35846785 55:0.64132392 56:0.67844808 57:0.42256832 58:0.63256848 59:0.51516718 60:2.4983182 61:11.451642 62:11.572658 63:16.274963 64:8.234004 65:13.958024 66:3.3463171 67:9.9631205 68:2.8466423 69:6.3475537 70:2.4678509 71:4.3978395 72:2.6813478 73:1.2797066 74:2.2913663 75:0.46125823 76:2.1566238 77:1.00021 78:0.78687733 79:1.3408796 80:0.44424725 81:1.097244 82:0.51275396 83:0.3887367 84:0.62782288 85:0.29827866 86:0.61780155 87:0.64363158 88:0.25249192 89:0.44003353 90:5.3096704 91:9.9655914 92:31.052101 93:17.590664 94:27.33403 95:12.316545 96:17.188931 97:5.8127642 98:13.269032 99:4.7490897 100:6.9642067 101:2.5746417 102:2.1543326 103:1.6261468 104:0.68775207 105:2.0098238 106:1.2415498 107:1.2211355 108:0.76356155 109:0.95803237 110:0.07107272 111:0.34460574 112:0.68002099 113:0.17041531 114:0.56144643 115:0.82853371 116:0.049796697 117:0.36503997 118:0.12832125 119:0.61439073 
0.6323973277607879 0:2.204325 1:15.284686 2:35.42141 3:23.27726 4:24.868593 5:13.678675 6:13.396846 7:9.9597464 8:11.70769 9:6.6123109 10:6.0709715 11:5.9748783 12:3.2424798 13:2.928726 14:4.5374031 15:0.80589688 16:1.1156883 17:2.2606316 18:1.2395695 19:1.2470368 20:0.78013217 21:0.37115294 22:0.92219812 23:0.79707789 24:1.1805882 25:0.42474544 26:0.33575335 27:0.51177609 28:0.8768509 29:0.35691535 30:2.4522011 31:20.24229 32:21.139202 33:20.051878 34:14.670041 35:10.692943 36:9.6840115 37:4.4032812 38:5.2949367 39:2.0068667 40:4.6054406 41:1.4401579 42:2.7293253 43:0.3074533 44:1.7199342 45:1.0965384 46:0.52239007 47:0.69563156 48:0.44217238 49:0.51670378 50:0.2905581 51:0.33621153 52:0.33657101 53:0.34175608 54:0.40162274 55:0.23323843 56:0.11640429 57:0.20671004 58:0.1152096 59:0.056245528 60:1.878419 61:18.089386 62:4.5323534 63:20.907494 64:6.9306812 65:14.240572 66:4.5448189 67:9.947381 68:4.3710456 69:6.2291136 70:2.9641767 71:2.9157209 72:3.2077463 73:1.8089291 74:1.7584687 75:1.0812036 76:1.3712946 77:0.78972447 78:0.3117595 79:1.0033523 80:0.32411048 81:0.60879093 82:0.22595137 83:0.43094906 84:0.47854373 85:0.34158042 86:0.21424794 87:0.34846011 88:0.11904738 89:0.13342665 90:2.5974059 91:15.238198 92:38.183445 93:23.037556 94:24.512194 95:11.570289 96:16.713423 97:8.3165865 98:11.92523 99:6.1521788 100:5.3419209 101:3.4480116 102:0.79450583 103:1.2042462 104:1.7383327 105:1.1136683 106:0.3508727 107:1.2990023 108:0.79965228 109:1.2963195 110:0.66024232 111:0.3919574 112:0.59445119 113:0.59661919 114:0.52211356 115:0.253925 116:0.72151721 117:0.6314081 118:0.6392076 119:0.55938202 
0.6161903667958764 0:3.4799435 1:13.96924 2:20.621956 3:9.5471268 4:10.013955 5:7.3097892 6:3.7110419 7:2.619194 8:2.9005973 9:4.246325 10:0.53058416 11:2.918891 12:1.6107688 13:2.5717354 14:1.3563457 15:3.09781 16:1.6663439 17:3.3661218 18:3.4726102 19:1.382827 20:2.0237484 21:1.4229951 22:1.1809688 23:0.61733121 24:0.57578099 25:0.39078441 26:0.65347487 27:0.28508362 28:0.60086411 29:0.15482986 30:2.0767808 31:15.593036 32:21.067282 33:10.245353 34:8.1795712 35:6.49226 36:5.608398 37:4.2371445 38:3.0515096 39:2.3682621 40:2.7486784 41:1.7745463 42:2.0753431 43:1.5597302 44:1.7735544 45:2.014909 46:1.2336121 47:0.80230218 48:0.64452529 49:0.21876459 50:0.13433196 51:0.091520816 52:0.26233977 53:0.39907739 54:0.69931334 55:0.48517123 56:0.39864597 57:0.26868787 58:0.2388477 59:0.20743743 60:3.9900832 61:11.884572 62:9.6641359 63:7.3081698 64:7.372941 65:3.1389108 66:4.6528211 67:2.33393 68:2.1862125 69:1.2202802 70:1.3472956 71:0.69232523 72:1.3845693 73:0.54941303 74:1.2258143 75:0.49114662 76:0.98513383 77:0.20471542 78:0.7000519 79:0.43189988 80:0.53101605 81:0.41628617 82:0.2954261 83:0.16803791 84:0.48340774 85:0.07913167 86:0.15011767 87:0.081136532 88:0.12174688 89:0.061404843 90:1.5650369 91:16.076803 92:27.230349 93:11.532711 94:12.626134 95:8.3153715 96:6.7258835 97:7.4644637 98:5.2836661 99:4.4477143 100:3.2992613 101:2.7907944 102:3.9792054 103:3.9977441 104:2.1017759 105:2.2609794 106:2.6013658 107:2.2629128 108:2.6473594 109:1.2352904 110:0.55234301 111:1.0034212 112:0.41542515 113:0.96069682 114:0.3380557 115:0.35956815 116:0.50323361 117:0.14074183 118:0.31434706 119:0.12594718 
0.5096244725904594 0:2.9726143 1:4.6936741 2:8.3860531 3:13.801183 4:6.6905355 5:6.9805231 6:3.4795797 7:3.4858971 8:2.7143931 9:2.9045522 10:2.2668698 11:1.4859312 12:4.3172708 13:5.2005301 14:0.81687415 15:2.624707 16:1.768756 17:2.6482201 18:3.248028 19:1.6481651 20:2.1233366 21:0.82436424 22:0.34473789 23:0.7721417 24:0.64031005 25:0.82670659 26:0.40152305 27:0.29106814 28:0.60270816 29:0.31590819 30:3.3837504 31:5.3013487 32:10.028314 33:6.7288117 34:3.3487148 35:2.230397 36:1.0635905 37:2.8615708 38:2.7507777 39:1.5214751 40:2.4437215 41:1.9976313 42:2.2025945 43:0.97780585 44:1.562255 45:1.9246804 46:0.96592295 47:0.78996038 48:0.50684476 49:0.89979565 50:0.5113945 51:0.38780472 52:0.36993629 53:0.57493311 54:0.64113933 55:0.37965828 56:0.30243412 57:0.18643463 58:0.29790708 59:0.36817813 60:2.5695708 61:6.3614082 62:5.3240786 63:3.0561287 64:0.71712679 65:2.4054284 66:1.7834707 67:1.9724908 68:1.3792264 69:1.3917706 70:1.1199813 71:1.3200426 72:0.88697642 73:0.10582969 74:1.2903832 75:0.54621464 76:0.48718143 77:0.51411802 78:0.78764468 79:0.54453647 80:0.3532545 81:0.21848141 82:0.41134107 83:0.47488391 84:0.67582035 85:0.26060826 86:0.20238012 87:0.358098 88:0.34274009 89:0.2400039 90:5.0070143 91:7.5414095 92:13.677918 93:16.434307 94:8.3650141 95:6.0991545 96:3.0097346 97:5.3250327 98:4.2040982 99:1.6752719 100:4.0101089 101:3.2903981 102:3.8054631 103:3.6493311 104:2.9002504 105:1.7039937 106:2.9028065 107:2.9141221 108:1.2550625 109:1.4493874 110:1.6585405 111:0.31777257 112:0.43223444 113:0.65889478 114:0.87174422 115:0.41013148 116:0.11920953 117:0.23835686 118:0.23231214 119:0.28338435 
