svm_type c_svc
kernel_type rbf
gamma 0.001
nr_class 2
total_sv 1801
rho 0.442705 
label 0 1 
nr_sv 739 1062 
SV 
10 0:1.186087 1:1.2135156 2:4.2692933 3:4.945467 4:3.6199853 5:2.8961687 6:2.2485952 7:1.276251 8:0.66383976 9:0.78634667 10:1.4158188 11:0.58527011 12:0.56231773 13:1.3565315 14:0.77384245 15:0.20241274 16:0.8703233 17:0.63274097 18:0.24102223 19:0.86658835 20:0.54312015 21:0.12303518 22:0.47933248 23:0.20171225 24:0.47201431 25:0.15372851 26:0.079822034 27:0.39619032 28:0.32941109 29:0.019274678 30:0.18699324 31:1.6588184 32:1.4730309 33:2.6413105 34:0.82253253 35:0.95873272 36:1.3541367 37:2.1772909 38:1.3414918 39:1.2393249 40:0.23552705 41:0.82573581 42:0.64339548 43:0.77672219 44:0.94418144 45:0.95279181 46:1.7306309 47:0.96163791 48:1.2880102 49:0.44457284 50:1.4409029 51:1.430022 52:0.16283685 53:0.46738532 54:0.46825194 55:0.385858 56:0.24943878 57:0.25044248 58:0.038071085 59:0.32344091 60:0.31003955 61:0.14615984 62:0.43912309 63:0.38304606 64:0.869524 65:0.39933124 66:0.729653 67:1.1467012 68:0.48930141 69:0.61593008 70:0.53483647 71:0.1454636 72:0.49559483 73:0.37495697 74:0.52344078 75:0.78209525 76:0.26081094 77:0.049528748 78:0.42554638 79:0.38217959 80:0.22156349 81:0.097614929 82:0.041458324 83:0.12927954 84:0.027222726 85:0.14825822 86:0.18650907 87:0.058196478 88:0.10015467 89:0.074289612 90:0.57991445 91:1.0723606 92:5.4079604 93:5.9129181 94:3.5250318 95:1.3072124 96:3.1674376 97:1.1043756 98:0.7536689 99:1.1363553 100:2.1299798 101:1.1032602 102:1.3114301 103:0.32633826 104:1.2180643 105:1.1317229 106:0.96135986 107:0.38760406 108:1.492915 109:0.048502956 110:0.37822112 111:0.60343617 112:0.16648814 113:0.11206923 114:0.67329371 115:0.28362477 116:0.20643674 117:0.4164378 118:0.23257658 119:0.11060598 
2.763677114258864 0:0.13840826 1:0.78009027 2:2.7983038 3:9.1316938 4:0.22829142 5:0.45147777 6:1.7454115 7:1.011048 8:1.8987918 9:1.9751323 10:0.65145403 11:0.76939553 12:0.75856537 13:1.1107985 14:0.72275329 15:0.2873503 16:0.86602741 17:0.52406371 18:0.70916843 19:0.22507112 20:0.60552812 21:0.31893909 22:0.60644364 23:0.28274086 24:0.29356906 25:0.11966962 26:0.29629856 27:0.2093334 28:0.17512421 29:0.26089367 30:0.031636365 31:0.80416405 32:0.37428594 33:1.1178119 34:1.1718546 35:2.092181 36:0.57608622 37:1.3378024 38:2.0077777 39:1.0642734 40:0.086879551 41:1.4170724 42:0.84472072 43:0.87688154 44:0.81315684 45:0.97173858 46:0.87042373 47:0.8823114 48:0.5951491 49:0.1067334 50:0.81521732 51:1.1277177 52:0.36036238 53:0.58858836 54:0.55753267 55:0.057105731 56:0.28988671 57:0.58201683 58:0.067637935 59:0.079885982 60:0.13417773 61:0.40071684 62:0.67352074 63:1.2939597 64:0.91127402 65:0.24576601 66:0.38077384 67:0.54209048 68:0.30128282 69:0.26684833 70:0.61678767 71:0.3783122 72:0.46674213 73:0.64807218 74:0.26071391 75:0.46268621 76:0.18912707 77:0.17854333 78:0.40817007 79:0.024010478 80:0.065310366 81:0.25951785 82:0.36185807 83:0.2467131 84:0.066113286 85:0.11436664 86:0.21632507 87:0.063307077 88:0.1410097 89:0.013837354 90:0.33937564 91:1.6681939 92:1.1242708 93:9.0851698 94:0.19882204 95:1.2253946 96:1.4955692 97:1.1246701 98:1.8234655 99:1.5346202 100:1.5462266 101:0.6718207 102:1.0394844 103:1.4885633 104:0.61600435 105:1.6536981 106:0.32175395 107:0.59884435 108:0.94970679 109:0.85867405 110:0.51280326 111:0.50160611 112:0.30242711 113:0.41849715 114:0.23657519 115:0.13287359 116:0.11148816 117:0.30952671 118:0.13621108 119:0.22727874 
10 0:2.3074188 1:4.3242393 2:3.744252 3:4.1476288 4:3.9743824 5:2.1917734 6:1.2296377 7:2.0181956 8:1.2243711 9:0.57968968 10:2.8802533 11:1.5510237 12:1.3126861 13:0.18165118 14:0.26780039 15:0.51698774 16:0.8188566 17:0.92599022 18:0.70135784 19:0.37203655 20:0.62351984 21:0.31929117 22:0.57755589 23:0.57346886 24:0.50569886 25:0.48430109 26:0.30513164 27:0.44030365 28:0.21108285 29:0.014064387 30:0.26692274 31:0.31935298 32:0.61677992 33:1.3411497 34:1.2891643 35:1.665241 36:0.62285519 37:1.8017092 38:1.3109189 39:0.76766402 40:0.94299352 41:0.16343127 42:1.6775639 43:0.70557022 44:1.5083063 45:0.18473902 46:0.49839661 47:0.86995512 48:0.19029121 49:0.41811061 50:1.4943477 51:0.26524252 52:0.63156766 53:0.67243963 54:0.31149226 55:0.41152996 56:0.55049449 57:0.44822094 58:0.15981038 59:0.061980732 60:0.35784397 61:0.57629579 62:1.8509892 63:0.46739808 64:0.7393645 65:0.81199443 66:0.48922583 67:0.77392274 68:0.39806274 69:0.38476336 70:0.47462839 71:0.57773256 72:0.73264933 73:0.4961358 74:0.35640252 75:0.60059196 76:0.4157235 77:0.50180358 78:0.014481376 79:0.2524268 80:0.097175211 81:0.28729433 82:0.23649453 83:0.36669129 84:0.22787352 85:0.11775373 86:0.14968155 87:0.17924488 88:0.084400624 89:0.035728976 90:1.740639 91:3.8099887 92:2.7852035 93:5.1105275 94:3.3654125 95:1.9639099 96:1.0161459 97:2.1673141 98:0.86407393 99:1.1017048 100:0.6017639 101:0.93877506 102:1.1164292 103:0.99811339 104:0.52072489 105:1.580554 106:0.011907461 107:0.87657976 108:0.5949958 109:0.52728844 110:0.76471192 111:0.60737997 112:0.32599506 113:0.6672014 114:0.028007263 115:0.20517948 116:0.1878335 117:0.27391788 118:0.2563391 119:0.17925945 
10 0:1.2800297 1:0.64420462 2:4.5681891 3:0.91545367 4:2.7048485 5:0.17308475 6:0.76163429 7:1.3442177 8:1.8270651 9:0.64608496 10:1.1095377 11:2.0326488 12:1.1091152 13:0.68159205 14:0.39812911 15:0.7940107 16:1.1772548 17:0.74416941 18:0.66855168 19:0.74098682 20:0.26984447 21:0.40218917 22:0.92996716 23:0.3139036 24:0.28596586 25:0.33447233 26:0.22484581 27:0.20119782 28:0.26630753 29:0.17867973 30:0.45477155 31:1.0745107 32:1.7414045 33:1.3427804 34:0.4830403 35:2.1781864 36:0.91477168 37:0.09614592 38:0.19428459 39:0.78498179 40:1.8510848 41:0.56103349 42:1.0096035 43:0.63044637 44:0.82484162 45:0.9896307 46:0.33999926 47:0.70721257 48:1.4132771 49:0.93309271 50:1.1992592 51:1.2377486 52:0.56160474 53:0.51652735 54:0.38273931 55:0.11211856 56:0.39911705 57:0.23974068 58:0.41355985 59:0.18446158 60:0.22324552 61:0.57121223 62:0.56290901 63:0.66171783 64:0.42924097 65:0.24085891 66:0.63130909 67:0.25556737 68:0.34238517 69:0.23487313 70:0.13811074 71:0.74865079 72:0.16399647 73:0.29574382 74:0.42476285 75:0.50344479 76:0.32388872 77:0.12063079 78:0.54427552 79:0.085275851 80:0.18899094 81:0.13410713 82:0.11052119 83:0.1244002 84:0.10169011 85:0.10660216 86:0.1118737 87:0.088576861 88:0.035689373 89:0.10891926 90:1.3193322 91:0.61093813 92:3.585058 93:1.1939485 94:2.0772183 95:0.80118501 96:0.93373096 97:1.204354 98:1.4155598 99:0.81222969 100:0.37883994 101:1.591428 102:0.95905739 103:0.33862069 104:0.50584608 105:0.79472339 106:1.8786516 107:0.82066971 108:0.24850008 109:0.50191677 110:0.21206914 111:0.17698255 112:0.3071205 113:0.17544232 114:0.17683962 115:0.075730719 116:0.25199473 117:0.18418524 118:0.067246154 119:0.15210707 
10 0:0.75638407 1:0.55845922 2:1.8783302 3:2.6625845 4:2.1525955 5:1.5542465 6:2.2456377 7:1.5969157 8:2.1304607 9:0.76997972 10:6.2714038 11:2.1242585 12:1.7937717 13:1.3283688 14:2.1508896 15:0.48631915 16:0.86346436 17:0.78154182 18:1.2483133 19:0.24986266 20:0.47106203 21:0.31927097 22:0.1430542 23:0.4809989 24:0.46832672 25:0.73264241 26:0.19401564 27:0.43409428 28:0.19836925 29:0.15313493 30:0.20485924 31:1.1846288 32:2.0017221 33:0.52260894 34:1.6249868 35:2.5932102 36:0.87267464 37:2.2600067 38:0.82122803 39:0.64494616 40:1.8915198 41:0.84431833 42:1.0221188 43:2.3321733 44:1.0257555 45:0.13249777 46:0.88891214 47:0.70803809 48:1.6246562 49:1.3159782 50:1.5939463 51:0.76548111 52:0.52051687 53:0.66166472 54:0.25490531 55:0.23141401 56:0.26918286 57:0.30731234 58:0.21073206 59:0.083861537 60:0.025876723 61:1.3635693 62:1.4259367 63:0.86189198 64:1.1576087 65:0.75115341 66:0.37891066 67:1.3286889 68:0.73616773 69:0.71857131 70:1.5616282 71:0.98059571 72:0.84505045 73:1.4709045 74:0.51208973 75:0.36344856 76:0.74315137 77:0.52712655 78:0.35971406 79:0.40786657 80:0.19081417 81:0.33727631 82:0.16638292 83:0.18420082 84:0.094403341 85:0.026796944 86:0.26249757 87:0.17610724 88:0.1468253 89:0.019214403 90:0.95192897 91:0.76353592 92:2.3341417 93:3.5135415 94:2.0047212 95:3.1326458 96:2.2232161 97:2.6582944 98:3.2216322 99:1.3330462 100:4.9131379 101:0.38336205 102:1.1952988 103:1.4571877 104:1.1969634 105:0.28663447 106:1.7257754 107:0.75174886 108:0.095334835 109:0.17543204 110:0.14429238 111:0.87678999 112:0.6579212 113:0.29903689 114:0.19328335 115:0.40168917 116:0.19926421 117:0.1362205 118:0.11840665 119:0.099857464 
10 0:0.76129568 1:1.7699716 2:2.2484133 3:1.2111359 4:2.8290713 5:1.0635717 6:1.2074879 7:2.3767421 8:0.78400123 9:0.16273299 10:2.6594243 11:0.23086484 12:2.2778852 13:0.84807229 14:1.3943938 15:1.0732267 16:1.7517586 17:1.2943788 18:1.0155064 19:0.71044421 20:0.50158215 21:0.57144445 22:0.31642628 23:0.30639642 24:0.38841459 25:0.20074064 26:0.10387663 27:0.22017337 28:0.4103466 29:0.21911845 30:1.0460693 31:0.83034098 32:1.6547673 33:0.69068068 34:1.5785477 35:2.6873281 36:1.5137249 37:1.1831131 38:1.5516899 39:0.14507076 40:1.7576953 41:0.48462287 42:0.56727451 43:1.035933 44:0.61563569 45:1.02698 46:0.98772907 47:0.88583565 48:0.15162544 49:0.89735675 50:2.0151086 51:1.1913202 52:0.10192768 53:1.4646626 54:0.2017386 55:0.088586815 56:0.34485388 57:0.3620058 58:0.26286593 59:0.18656871 60:0.54319197 61:1.5850974 62:0.11819575 63:0.1107375 64:0.42400077 65:0.81731218 66:0.17072748 67:0.4688476 68:0.63910341 69:0.56409681 70:0.39693168 71:0.90701014 72:0.63275504 73:0.39184654 74:0.73255575 75:0.29384384 76:0.41021076 77:0.77302712 78:0.19238594 79:0.18994415 80:0.42999724 81:0.17274851 82:0.20072414 83:0.39716676 84:0.081610456 85:0.10087346 86:0.26948985 87:0.099163197 88:0.020785982 89:0.1005917 90:0.65284866 91:1.5882162 92:3.3138151 93:1.1963296 94:3.2107761 95:0.90559983 96:1.9853445 97:2.9841089 98:1.4226525 99:0.79763669 100:2.1094518 101:1.2529957 102:2.1146736 103:1.2884648 104:1.4886956 105:0.73927361 106:1.0418137 107:1.0769885 108:1.2451882 109:0.46660447 110:0.73462212 111:1.04951 112:0.57205015 113:0.65283233 114:0.42999262 115:0.11674926 116:0.23496516 117:0.15224375 118:0.29791209 119:0.18047085 
10 0:0.3734194 1:1.6048303 2:1.1247092 3:2.5317664 4:1.2941014 5:0.95827025 6:0.80294514 7:1.4777198 8:1.5034338 9:1.676711 10:2.1125989 11:2.7679214 12:0.98618901 13:0.74871588 14:0.8453213 15:0.82429928 16:0.65298438 17:0.40335107 18:0.57671809 19:0.39228871 20:0.76322669 21:0.80207825 22:0.029887352 23:0.40089434 24:0.190357 25:0.28094056 26:0.14825396 27:0.17197327 28:0.17354827 29:0.10932862 30:0.32932898 31:0.67474604 32:1.6932589 33:1.3469858 34:2.1642179 35:2.4793036 36:0.72639543 37:1.9661411 38:1.1577749 39:1.7444729 40:0.68401879 41:1.1729934 42:1.0196505 43:0.30249935 44:0.55202585 45:0.34984887 46:0.56172556 47:1.2170061 48:0.22494285 49:0.41237655 50:1.4995872 51:0.55767518 52:0.24300851 53:0.91257983 54:0.66862267 55:0.3027288 56:0.14725123 57:0.27924272 58:0.20831966 59:0.21587437 60:0.43213341 61:1.6112504 62:0.91730392 63:0.18298054 64:0.53030986 65:1.3613497 66:0.282469 67:0.87064791 68:0.86750239 69:1.1103829 70:0.09002395 71:0.97295129 72:0.23588589 73:0.22060217 74:0.71812242 75:0.13337924 76:0.40745535 77:0.5200814 78:0.35167253 79:0.32516286 80:0.37531236 81:0.16919605 82:0.30788159 83:0.083644606 84:0.38149253 85:0.22585374 86:0.16821955 87:0.088154063 88:0.099909551 89:0.047278598 90:0.80586487 91:2.058161 92:1.0438457 93:2.5614815 94:1.9538122 95:0.86547977 96:1.4360856 97:2.2413583 98:0.95962369 99:1.8514724 100:0.024352754 101:3.1549182 102:0.53160626 103:0.26858926 104:1.5251009 105:0.53813243 106:0.89464676 107:0.42887157 108:0.74848551 109:0.11354889 110:0.55567306 111:0.75263649 112:0.82723147 113:0.5732531 114:0.068213955 115:0.18137771 116:0.30166429 117:0.20866624 118:0.18778139 119:0.14982218 
10 0:0.33281776 1:1.3653216 2:3.0668912 3:2.2539015 4:1.4168363 5:0.43787724 6:1.6071093 7:2.0968266 8:1.9711919 9:0.64165294 10:3.2151093 11:2.2117057 12:0.81942749 13:0.83057159 14:0.93033034 15:0.94366235 16:0.80513239 17:0.9719764 18:0.57400036 19:0.47071534 20:0.68949527 21:0.49118915 22:0.2933332 23:0.30662623 24:0.46291667 25:0.25777289 26:0.10142323 27:0.23263559 28:0.2270584 29:0.13283512 30:0.87010622 31:1.8039712 32:1.8406545 33:1.5805372 34:2.4804745 35:1.489562 36:1.4040214 37:1.2610203 38:1.8261483 39:1.1081713 40:2.2206011 41:0.99999338 42:0.48986283 43:0.45377687 44:0.94251949 45:1.1220906 46:0.97401989 47:1.33407 48:0.65038353 49:0.59109062 50:1.293277 51:0.75961113 52:0.36776549 53:0.60978216 54:0.14629032 55:0.35989782 56:0.12526733 57:0.28373832 58:0.18435419 59:0.037253056 60:0.42460275 61:1.7434715 62:0.82912838 63:0.72875988 64:1.323421 65:0.59429944 66:0.6157102 67:0.62369651 68:1.0243568 69:0.95098776 70:0.27214408 71:0.84174007 72:0.26297083 73:0.28764626 74:0.33156478 75:0.31245896 76:0.55087745 77:0.29341185 78:0.24330126 79:0.18424886 80:0.28714365 81:0.32348576 82:0.31230593 83:0.44437504 84:0.17205472 85:0.16817246 86:0.25147727 87:0.088117748 88:0.13306463 89:0.089277282 90:0.37770495 91:0.34276628 92:3.2855787 93:0.74934363 94:2.079098 95:1.195271 96:1.8469296 97:2.4828959 98:0.76019835 99:0.42214578 100:1.7618709 101:2.046284 102:1.2975957 103:0.55235988 104:1.4816165 105:1.6549935 106:1.4317324 107:1.067687 108:0.58852285 109:0.83351684 110:0.38861302 111:0.47377789 112:0.4207944 113:0.26972058 114:0.28577828 115:0.32039854 116:0.040779464 117:0.23632383 118:0.16606532 119:0.17435427 
10 0:0.71104342 1:1.5576259 2:5.6010728 3:1.7094684 4:1.4714565 5:1.4093288 6:2.0661514 7:0.69406366 8:1.4876661 9:0.81693155 10:1.5231578 11:2.4544535 12:1.3461897 13:0.93285453 14:0.69662911 15:0.76514691 16:0.99672067 17:0.76926076 18:1.1709013 19:0.96796179 20:1.0250927 21:0.07336095 22:0.49257731 23:0.21070088 24:0.16662493 25:0.54691893 26:0.2027462 27:0.098234393 28:0.058702573 29:0.18948072 30:0.82897389 31:1.9827852 32:1.8791811 33:2.0578625 34:2.9272835 35:0.93113208 36:3.2459219 37:1.4823886 38:1.4862776 39:1.498642 40:3.4524386 41:0.44315156 42:0.71063221 43:0.44369689 44:1.0305561 45:0.39777321 46:2.0497198 47:0.67608505 48:0.65201801 49:0.32207513 50:1.3931553 51:1.0883093 52:0.43516597 53:0.44345897 54:0.51073301 55:0.13017008 56:0.092379771 57:0.22376536 58:0.16558114 59:0.2256441 60:0.46388587 61:0.61315018 62:1.7018803 63:0.64062029 64:1.1844026 65:0.57081616 66:0.16384892 67:0.21464424 68:0.41024172 69:0.29611227 70:0.8708173 71:0.60239071 72:0.34437996 73:0.23205382 74:0.12642832 75:0.5475502 76:0.36944851 77:0.052302305 78:0.19490546 79:0.16937427 80:0.19589792 81:0.22215876 82:0.45659095 83:0.27155221 84:0.13609141 85:0.14145784 86:0.19134383 87:0.041136153 88:0.15118016 89:0.11485919 90:0.72190654 91:1.2688415 92:4.2965527 93:2.4573922 94:0.76014388 95:0.73724568 96:0.61941469 97:1.6886319 98:1.2116162 99:1.9481758 100:0.13252896 101:0.94765216 102:1.0495926 103:0.35542271 104:1.0752838 105:0.89170253 106:1.7855972 107:1.1435615 108:0.78044724 109:1.117666 110:0.82091296 111:0.42525256 112:0.45698372 113:0.17878902 114:0.23356776 115:0.52405357 116:0.23011893 117:0.17475529 118:0.25011915 119:0.056193415 
10 0:0.19537087 1:1.3665839 2:3.0437872 3:3.9508469 4:0.59248203 5:0.61506599 6:3.0847106 7:0.97828233 8:1.9980639 9:1.8301297 10:2.1686063 11:0.82507974 12:1.9485291 13:1.0089866 14:1.3164625 15:0.64934719 16:0.4879342 17:0.40821952 18:1.1313596 19:0.97759086 20:0.92061687 21:0.31899327 22:0.036644667 23:0.78775084 24:0.24051353 25:0.13156569 26:0.24900892 27:0.28925976 28:0.29703814 29:0.19223446 30:0.67394811 31:2.2887194 32:2.1873715 33:2.1286094 34:1.2406275 35:0.78242624 36:0.99001741 37:1.3403451 38:1.2186493 39:1.2383518 40:1.2500294 41:0.66465104 42:1.0959626 43:0.82094091 44:0.74592066 45:0.4215551 46:0.7822684 47:0.43439782 48:0.80490029 49:1.524349 50:1.3390964 51:1.3497626 52:1.1295242 53:0.33559442 54:0.47267187 55:0.53701669 56:0.14898525 57:0.21444455 58:0.077612713 59:0.22154823 60:0.23493579 61:0.5217545 62:1.2875998 63:0.54613751 64:0.75351816 65:1.3255451 66:0.62370461 67:0.47213653 68:0.48681718 69:0.48755634 70:0.35839891 71:1.4031737 72:0.5074684 73:0.38942221 74:0.6377269 75:0.67480689 76:0.54565191 77:0.093115933 78:0.15121157 79:0.18904346 80:0.083334938 81:0.18010369 82:0.27550873 83:0.25238088 84:0.24648981 85:0.15966067 86:0.15970345 87:0.11632288 88:0.18059866 89:0.12124696 90:0.89352494 91:0.42550519 92:5.4218602 93:2.7723298 94:2.006562 95:0.48989579 96:0.83226568 97:1.3488532 98:1.0051295 99:1.1062912 100:2.1847732 101:1.4766374 102:1.9569005 103:0.47952533 104:0.64830983 105:1.0758256 106:0.44565979 107:0.74337667 108:0.22824785 109:0.91527528 110:0.19872004 111:0.30491871 112:0.2167937 113:0.31761953 114:0.47357073 115:0.1759475 116:0.20042112 117:0.37565297 118:0.1294121 119:0.0962952 
10 0:0.37231258 1:2.1690915 2:2.3920634 3:1.8839104 4:0.42765224 5:1.7608787 6:1.8406981 7:1.6709545 8:2.7716503 9:1.2865452 10:2.365284 11:2.7252517 12:0.57009274 13:1.638551 14:0.18650311 15:0.32655713 16:0.58826119 17:0.48909247 18:1.1253866 19:0.37668052 20:1.2138265 21:0.52978951 22:0.26334724 23:0.9417212 24:0.43979856 25:0.37067229 26:0.44139966 27:0.1786779 28:0.048921917 29:0.2637848 30:0.65476155 31:1.2885283 32:1.4366961 33:3.0542471 34:0.6270197 35:0.50244886 36:0.89088225 37:0.96658128 38:1.0777079 39:1.5170763 40:1.3631778 41:0.87040162 42:0.74340153 43:1.4309345 44:0.58026087 45:1.148012 46:0.27865005 47:0.48598412 48:0.98045027 49:1.012675 50:1.640833 51:0.17698108 52:0.31124529 53:0.56387532 54:0.60010993 55:0.27122167 56:0.43957201 57:0.32137722 58:0.08008536 59:0.20536196 60:0.26003411 61:0.94786882 62:0.72352904 63:1.0421313 64:0.57141209 65:0.88280666 66:0.32148388 67:0.91696537 68:0.87536573 69:0.4083631 70:0.44664338 71:0.7258774 72:0.27493238 73:0.72923923 74:0.64189297 75:0.41123655 76:0.61599392 77:0.22172616 78:0.15438192 79:0.15255597 80:0.24785846 81:0.098197468 82:0.36536944 83:0.29278633 84:0.18520352 85:0.14469336 86:0.25349143 87:0.13119073 88:0.032187272 89:0.0830466 90:0.71243572 91:1.8738557 92:2.287962 93:0.84320647 94:0.56246692 95:1.1366227 96:0.80331391 97:1.0615584 98:2.2389269 99:0.92547548 100:0.43460998 101:3.5206897 102:1.0460842 103:0.79664373 104:0.19725342 105:0.89499897 106:0.87676775 107:0.68404955 108:0.79117715 109:0.63973314 110:0.71067768 111:0.21227418 112:0.26983052 113:0.48383319 114:0.269633 115:0.20791969 116:0.13181522 117:0.30704728 118:0.10258827 119:0.15604964 
10 0:0.64073759 1:1.5219043 2:2.7392957 3:1.059001 4:1.5401964 5:2.2968552 6:0.35000858 7:2.018441 8:1.5305079 9:1.9322308 10:1.4053856 11:1.9651382 12:0.68360972 13:1.0836952 14:0.95333827 15:0.63949507 16:0.75300187 17:0.56377333 18:1.1702307 19:1.3088294 20:0.79968375 21:0.69598562 22:0.064011067 23:0.64091611 24:0.090341538 25:0.35651818 26:0.42457917 27:0.14466733 28:0.12756127 29:0.14389801 30:0.70893532 31:1.0757129 32:1.1474926 33:2.6380596 34:1.3190173 35:2.0464158 36:1.1854097 37:1.642591 38:0.42315352 39:0.65906012 40:1.5451243 41:0.45273447 42:0.60907996 43:1.6128966 44:0.64944077 45:1.5676867 46:0.7055614 47:0.68795961 48:0.49620196 49:0.83826661 50:1.7530216 51:0.55051273 52:0.29022858 53:0.25333345 54:0.05998338 55:0.20403677 56:0.48488319 57:0.27363124 58:0.23325419 59:0.1264421 60:0.2709966 61:0.55618072 62:0.87115705 63:0.62200266 64:0.26205224 65:0.41409203 66:0.21521384 67:0.93552524 68:0.73176378 69:0.58482856 70:0.77296621 71:0.24556656 72:0.20623729 73:0.67375159 74:0.48931468 75:0.16164529 76:0.40846694 77:0.24599241 78:0.34681395 79:0.15650825 80:0.24417681 81:0.25989896 82:0.23663919 83:0.40929827 84:0.13767746 85:0.13583514 86:0.17426278 87:0.050267342 88:0.037766669 89:0.099357501 90:0.27802455 91:0.84631771 92:2.2660465 93:1.8487161 94:0.86541957 95:1.7673376 96:0.86959821 97:1.2904756 98:1.7442411 99:2.050364 100:0.88860893 101:2.5614858 102:1.5983653 103:0.11869296 104:1.2161397 105:1.4330629 106:0.821383 107:1.0430788 108:0.75771129 109:1.13826 110:1.3129843 111:0.61629397 112:0.50424802 113:0.71390748 114:0.23364422 115:0.26301304 116:0.15883173 117:0.16373183 118:0.17590009 119:0.08546938 
10 0:0.32819521 1:0.87330103 2:3.3180468 3:1.3945652 4:1.0473808 5:1.3848413 6:4.2387514 7:1.6798538 8:1.4202324 9:2.4481573 10:2.1597488 11:1.394166 12:2.0372517 13:1.9403138 14:0.55379307 15:1.5595539 16:0.45392841 17:1.0191995 18:1.7703081 19:1.007953 20:0.73617113 21:1.335672 22:0.37375394 23:0.24935019 24:0.66667247 25:0.34911445 26:0.35713303 27:0.22017799 28:0.30708963 29:0.24495354 30:0.95175445 31:3.0681849 32:3.7038801 33:1.3738829 34:0.98603094 35:1.7344868 36:2.4801979 37:2.5080478 38:0.84188807 39:1.5609134 40:1.5296702 41:1.2614242 42:2.0578442 43:0.4937188 44:1.211305 45:1.2189776 46:1.6122245 47:1.4204403 48:0.19944368 49:0.15721223 50:1.6175059 51:0.89095199 52:0.59226882 53:0.34078395 54:0.089513674 55:0.29751933 56:0.21570295 57:0.11993167 58:0.083695464 59:0.35673249 60:0.046211135 61:1.2771051 62:2.0774553 63:1.124088 64:1.6540643 65:1.3356444 66:0.5235337 67:1.197208 68:0.54206753 69:0.44370371 70:0.41701666 71:0.71807426 72:0.67086476 73:0.30476731 74:0.56045938 75:0.31574672 76:0.32620281 77:0.68973404 78:0.53358632 79:0.43836892 80:0.22279431 81:0.22676279 82:0.35210025 83:0.2962653 84:0.17826013 85:0.14253291 86:0.1138845 87:0.081231631 88:0.089721218 89:0.021234799 90:0.16386907 91:0.75867194 92:4.146687 93:1.0693836 94:2.043961 95:3.3064022 96:2.9111569 97:0.56462377 98:0.94948506 99:1.1045263 100:1.0686215 101:1.100252 102:0.51519322 103:0.4458161 104:1.1455663 105:0.7281329 106:1.1246626 107:1.6402725 108:0.80575007 109:0.3608222 110:1.3455749 111:0.8749783 112:0.29109147 113:0.76807976 114:0.46232331 115:0.30416819 116:0.2106391 117:0.018204618 118:0.27066052 119:0.1678022 
10 0:0.58171248 1:2.0829113 2:1.8382717 3:3.2924559 4:1.3518536 5:2.240469 6:1.7649821 7:4.171433 8:0.62435699 9:1.4682834 10:1.7365559 11:1.9498825 12:1.9317508 13:3.166887 14:0.16812535 15:1.589281 16:0.75606942 17:1.1405616 18:0.7407825 19:1.5381719 20:1.6273879 21:0.33187449 22:0.47163469 23:0.48359606 24:0.15636095 25:0.45009252 26:0.44212556 27:0.15754968 28:0.14711334 29:0.23585688 30:0.30284694 31:1.5295472 32:5.4255443 33:1.0746372 34:0.97178817 35:0.78983968 36:2.4487793 37:2.7694302 38:0.55171204 39:1.4571671 40:0.87586808 41:1.2526414 42:1.3424276 43:0.2374465 44:0.7767204 45:2.0315516 46:1.1567061 47:1.6457924 48:0.96256465 49:0.99891883 50:1.1020204 51:1.0157655 52:0.5095343 53:0.32921109 54:0.056089647 55:0.30599868 56:0.35551986 57:0.18760952 58:0.28769204 59:0.13237984 60:0.97874123 61:1.0387675 62:2.7717445 63:1.2882192 64:0.81674647 65:1.280205 66:0.5339905 67:0.61103088 68:1.2402002 69:0.18483269 70:0.39922008 71:0.94662273 72:0.69377422 73:0.44605637 74:0.74735749 75:0.25796995 76:0.65279722 77:0.53438544 78:0.38492626 79:0.49343666 80:0.26324651 81:0.40241385 82:0.23888682 83:0.16450547 84:0.19781582 85:0.023879955 86:0.067174785 87:0.065412179 88:0.069669835 89:0.045129262 90:1.3407525 91:3.0560033 92:0.62828326 93:0.89997256 94:0.4090116 95:0.32650089 96:1.8302412 97:1.4635357 98:2.4405427 99:0.49416387 100:2.0311816 101:1.2113031 102:0.58801711 103:1.3357043 104:0.53025633 105:0.91327614 106:1.5844059 107:1.9546292 108:0.32057518 109:1.1834286 110:0.31791356 111:0.084226288 112:0.38712153 113:0.26150757 114:0.17075172 115:0.16897924 116:0.2756246 117:0.12623784 118:0.14288075 119:0.23585971 
10 0:0.55625212 1:3.508455 2:1.2361027 3:3.0840046 4:1.6980038 5:2.0234809 6:2.8588042 7:3.0334237 8:1.0850629 9:1.5406595 10:2.4219322 11:1.3360436 12:1.5636961 13:2.4669352 14:0.74606961 15:1.1592323 16:1.5008707 17:1.0747496 18:0.98284018 19:1.1765347 20:1.7877569 21:0.65515441 22:0.19957659 23:0.29611149 24:0.25191307 25:0.22921726 26:0.11348432 27:0.25793946 28:0.10628495 29:0.23336539 30:0.53906226 31:0.9692474 32:1.0814048 33:1.1634215 34:2.1541605 35:2.0126641 36:1.8978449 37:1.404197 38:0.68403709 39:0.76917356 40:1.884263 41:1.1967617 42:0.57243556 43:0.52872854 44:1.2999127 45:0.32156312 46:1.305221 47:0.29784852 48:1.0628062 49:0.89613295 50:2.1483679 51:1.0638205 52:0.78592926 53:0.10739413 54:0.62080294 55:0.48249117 56:0.22012447 57:0.16218667 58:0.20059463 59:0.2649456 60:0.65192586 61:1.3816431 62:2.1831923 63:0.95210886 64:0.64839429 65:0.75387192 66:0.47729105 67:0.51266301 68:0.31256667 69:0.4573248 70:0.42749575 71:0.62368035 72:1.0761412 73:0.18377124 74:0.48295221 75:0.52769494 76:0.47311941 77:0.077733777 78:0.57626206 79:0.33136109 80:0.1518719 81:0.46412453 82:0.30059373 83:0.13174993 84:0.27324602 85:0.23845091 86:0.16802455 87:0.10517189 88:0.042736616 89:0.079510048 90:0.26292202 91:3.2665739 92:4.0627913 93:1.7291425 94:1.9632558 95:1.6109411 96:1.3281614 97:0.74219269 98:2.3329914 99:0.95584917 100:0.62636787 101:0.49712634 102:1.9270918 103:1.2330915 104:0.44744307 105:1.7503743 106:1.6587497 107:1.1306798 108:1.3249663 109:1.0093243 110:0.42705086 111:0.72539449 112:0.68747622 113:0.37951314 114:0.40151882 115:0.40093076 116:0.37285492 117:0.32120141 118:0.072810188 119:0.10093847 
10 0:0.18910803 1:2.2479341 2:1.4798096 3:1.4382527 4:1.0774812 5:2.570996 6:2.4211481 7:0.21623975 8:0.53514993 9:2.1505458 10:0.66526115 11:2.6155822 12:0.94855589 13:0.91536725 14:1.4923797 15:1.2376896 16:0.5750342 17:0.4368453 18:1.6111172 19:0.54196274 20:0.98890585 21:0.64645255 22:0.3133159 23:0.58271879 24:0.377029 25:0.38822356 26:0.23361485 27:0.11620317 28:0.17451632 29:0.14187516 30:0.31333229 31:1.686782 32:1.5589422 33:0.89993244 34:1.4573196 35:2.346415 36:1.1928234 37:2.4132617 38:0.99873763 39:2.0380046 40:1.3399756 41:1.1114674 42:1.0975586 43:0.4469713 44:0.69323325 45:0.82496029 46:0.46215603 47:1.0461046 48:0.70300013 49:0.44930977 50:1.9537435 51:1.037518 52:0.81632185 53:0.42849958 54:0.26887149 55:0.24180131 56:0.42079842 57:0.074879043 58:0.3136678 59:0.15947357 60:0.4024916 61:1.2747273 62:1.2948773 63:1.052786 64:0.85295355 65:1.209076 66:0.90833551 67:1.257333 68:0.74545246 69:0.47879994 70:0.22064511 71:0.44948164 72:0.49803811 73:0.55789024 74:0.53541529 75:0.15214376 76:0.5277372 77:0.57243794 78:0.39214301 79:0.31752554 80:0.33482745 81:0.2352234 82:0.10491017 83:0.34404588 84:0.030355867 85:0.10521568 86:0.075393796 87:0.077026434 88:0.034341007 89:0.040173162 90:0.28843892 91:1.0033557 92:0.59521592 93:3.4725645 94:1.2785501 95:0.44831911 96:1.8542516 97:0.95613623 98:1.5829036 99:1.4355501 100:0.54618692 101:2.4673717 102:0.57486516 103:0.7196759 104:1.6741511 105:0.63028216 106:0.68572879 107:0.3595666 108:1.8847896 109:0.49801233 110:0.31853613 111:0.51695251 112:0.4683083 113:0.23868717 114:0.18293497 115:0.68511528 116:0.19227368 117:0.18773843 118:0.18854052 119:0.12274187 
10 0:0.73146486 1:0.87347054 2:0.91587842 3:2.8799436 4:0.69631469 5:1.68827 6:0.69619823 7:1.4843488 8:1.600436 9:0.79898334 10:1.1481898 11:2.3866446 12:1.5754856 13:0.68607563 14:1.6556137 15:0.43210775 16:0.37650806 17:0.78359205 18:1.0289069 19:0.9341467 20:0.53669399 21:0.57966477 22:0.29272979 23:0.29258865 24:0.13652633 25:0.1113539 26:0.53756207 27:0.26256123 28:0.13328658 29:0.13624685 30:0.4086206 31:0.6847086 32:2.2517121 33:1.1142784 34:1.8684518 35:0.69376761 36:2.5882096 37:1.3199421 38:1.4816183 39:0.98062682 40:0.41696671 41:0.8166545 42:0.24762039 43:0.8736341 44:0.84476596 45:0.018304721 46:0.6269995 47:0.50734794 48:0.4788962 49:0.93636262 50:1.5461133 51:0.8836866 52:0.013046342 53:0.26150295 54:0.061110526 55:0.32338053 56:0.45995229 57:0.01744174 58:0.19915704 59:0.11260393 60:0.1096194 61:1.3153268 62:0.70090413 63:0.4229584 64:1.254595 65:0.74947536 66:0.9486419 67:0.086034551 68:0.20311749 69:0.2385848 70:0.59890789 71:1.0148543 72:0.16563323 73:0.20155412 74:0.15386753 75:0.726448 76:0.16750596 77:0.26318637 78:0.10323767 79:0.083097182 80:0.34741285 81:0.10368608 82:0.21581578 83:0.19281735 84:0.092429839 85:0.032653827 86:0.049672838 87:0.040613763 88:0.089106962 89:0.096240506 90:0.2971411 91:0.91451699 92:0.42743683 93:2.3725519 94:2.2679746 95:1.2657765 96:1.6223404 97:0.61194158 98:1.6079819 99:1.0608721 100:0.92221588 101:2.6289191 102:1.712324 103:0.28199407 104:1.4487042 105:0.95609409 106:0.26264563 107:0.35823867 108:1.0329323 109:0.43398845 110:0.70885772 111:0.3126286 112:0.4073247 113:0.21160047 114:0.39833727 115:0.30463669 116:0.19737792 117:0.12499774 118:0.17935832 119:0.10511348 
10 0:0.35546184 1:1.5367446 2:1.4764669 3:1.8530786 4:0.92478728 5:1.9988389 6:0.80762285 7:1.3651919 8:2.9027004 9:1.4153198 10:1.5331991 11:1.3075552 12:1.6846833 13:0.83406502 14:0.80856764 15:0.99193692 16:0.30486479 17:0.66702902 18:0.46275231 19:0.4559454 20:0.20668228 21:0.44713712 22:0.25067246 23:0.33504659 24:0.44180581 25:0.28533304 26:0.17750536 27:0.21980067 28:0.096510328 29:0.21462025 30:0.37179497 31:0.085612409 32:2.7323892 33:1.0017641 34:0.94082737 35:3.2151859 36:0.78353465 37:0.7221604 38:0.57224792 39:0.91101849 40:0.46720377 41:0.61065775 42:0.80695784 43:0.80997437 44:1.3788919 45:0.37937117 46:1.5900959 47:0.43406928 48:0.83763093 49:0.78458416 50:1.5265942 51:0.46280503 52:0.49852028 53:0.97367471 54:0.43458655 55:0.42482379 56:0.24790604 57:0.2595115 58:0.11543998 59:0.14910261 60:0.21968721 61:0.85167909 62:0.46015722 63:0.71631658 64:1.7958125 65:0.35721546 66:1.0547403 67:0.57529843 68:0.7253828 69:0.42398825 70:0.46415243 71:0.55290091 72:0.30885187 73:0.51120275 74:0.36996973 75:0.26879206 76:0.41541582 77:0.60743839 78:0.49003729 79:0.18024455 80:0.52508551 81:0.35857192 82:0.22455855 83:0.11670101 84:0.099107936 85:0.19095482 86:0.26002702 87:0.11159655 88:0.03716037 89:0.041923504 90:0.080756225 91:1.36522 92:1.3143758 93:1.3996813 94:1.0665816 95:1.3588367 96:0.95178872 97:0.79652441 98:2.128628 99:0.6701436 100:0.46352065 101:0.91415471 102:1.4849595 103:1.5040863 104:0.98381275 105:0.89533633 106:0.76410568 107:1.6386698 108:0.30323356 109:0.36145213 110:0.35965174 111:0.62442458 112:0.75218403 113:0.27786919 114:0.25943562 115:0.22051354 116:0.087433487 117:0.16457075 118:0.15876354 119:0.14724495 
10 0:1.0976267 1:1.4246799 2:2.2998896 3:2.719909 4:0.68846726 5:0.35005355 6:1.0065951 7:1.1043061 8:2.5425024 9:0.92403805 10:1.9348474 11:1.0783768 12:1.237674 13:0.92100334 14:0.7430827 15:1.2154845 16:0.37355864 17:0.2498748 18:0.19199762 19:0.31328225 20:0.55168885 21:0.20226468 22:0.47864836 23:0.22357064 24:0.31846127 25:0.35061213 26:0.22649026 27:0.38930234 28:0.16573273 29:0.14565676 30:0.24762836 31:0.33000672 32:2.8239272 33:2.6680408 34:2.4816575 35:1.7527871 36:0.87440062 37:0.84093791 38:0.70214397 39:0.62825918 40:1.1992373 41:0.62379414 42:1.2266821 43:0.26292571 44:0.86875641 45:1.0657136 46:1.7863812 47:0.55528808 48:1.0233899 49:0.65241021 50:1.2557739 51:1.0447447 52:0.42853734 53:0.63281995 54:0.72873586 55:0.30670753 56:0.19863041 57:0.20376168 58:0.17730939 59:0.054097477 60:0.06967549 61:0.78174752 62:0.87924713 63:0.47103381 64:0.92008603 65:0.63117069 66:0.26816219 67:1.4674586 68:0.15018897 69:0.53705406 70:0.13754906 71:0.11484807 72:0.14001994 73:0.41235113 74:0.50490445 75:0.2266807 76:0.13851725 77:0.29930049 78:0.4402976 79:0.58162731 80:0.21905762 81:0.50999832 82:0.19343279 83:0.10024097 84:0.24434985 85:0.083833799 86:0.23841481 87:0.046752874 88:0.11313628 89:0.022172468 90:0.85932088 91:0.88924533 92:3.42434 93:1.9179217 94:0.89841288 95:0.1334728 96:0.74571985 97:1.101145 98:0.98091137 99:0.44920909 100:0.39227894 101:0.17999807 102:1.0128641 103:1.0431007 104:1.4947482 105:1.4418179 106:0.45360437 107:1.2113713 108:0.39125144 109:0.72893339 110:0.38272512 111:0.4258278 112:0.70483458 113:0.42189124 114:0.2277872 115:0.14676757 116:0.19100767 117:0.26170164 118:0.1142686 119:0.22422513 
10 0:0.36041015 1:0.2164036 2:4.0469851 3:1.4749933 4:1.8277502 5:2.2155139 6:1.0032094 7:1.3511784 8:2.3792188 9:2.9447711 10:3.4279995 11:2.2247772 12:0.47546113 13:1.8813517 14:2.0246737 15:0.7281425 16:0.41959855 17:0.13965167 18:0.49361384 19:0.44886741 20:0.29758102 21:0.18047252 22:0.8643375 23:0.21201687 24:0.12045683 25:0.12800576 26:0.044263475 27:0.091003016 28:0.24346828 29:0.20552149 30:0.54423004 31:1.6006938 32:1.8541653 33:2.1901917 34:2.0740728 35:1.3534905 36:0.88287365 37:1.9073581 38:1.3071897 39:0.65482289 40:1.6966538 41:0.64490628 42:1.4289168 43:0.64324552 44:0.58412266 45:1.3187631 46:1.0680938 47:0.52054411 48:0.83380824 49:0.75268662 50:1.6254708 51:0.95184016 52:0.46369752 53:0.42821607 54:0.27959725 55:0.39919379 56:0.13259195 57:0.16763923 58:0.17128161 59:0.068745464 60:0.37742248 61:1.041238 62:1.398577 63:0.64405239 64:0.82161885 65:0.80526316 66:0.55891001 67:0.80961663 68:0.76319575 69:0.60495818 70:0.25659502 71:0.25935617 72:0.43784678 73:0.71338093 74:0.36915153 75:0.15617524 76:0.26573166 77:0.22594808 78:0.1707471 79:0.5091452 80:0.37272915 81:0.53233647 82:0.030247111 83:0.34966204 84:0.37445205 85:0.29779956 86:0.21698962 87:0.1339764 88:0.19815345 89:0.15509684 90:0.54558766 91:0.50109231 92:4.793479 93:0.84997749 94:0.76071352 95:0.96272528 96:1.5738325 97:0.68428242 98:0.77447045 99:1.069482 100:1.9890581 101:1.5647261 102:1.0907909 103:1.3930616 104:0.63391674 105:1.1100256 106:0.12449566 107:0.70290577 108:0.47542563 109:0.32476085 110:0.41647482 111:0.40042055 112:0.23515575 113:0.16344999 114:0.18868327 115:0.14816381 116:0.20509869 117:0.19342151 118:0.12158799 119:0.13867278 
9.928659149711743 0:1.3098949 1:2.0730243 2:2.0061057 3:3.3929901 4:0.18467337 5:1.2046947 6:3.2355661 7:1.9281592 8:1.0367553 9:1.6309067 10:0.93257785 11:1.8808335 12:1.2786527 13:1.4191508 14:1.591652 15:1.3629445 16:1.1969104 17:0.92717957 18:0.83725959 19:0.12247332 20:0.29665405 21:0.6180914 22:0.11902547 23:0.29513848 24:0.55956483 25:0.32550579 26:0.16618612 27:0.15137213 28:0.34626552 29:0.32933116 30:0.33063972 31:0.61939895 32:1.8244721 33:1.8365912 34:1.8146207 35:1.8691922 36:1.0050771 37:1.1292182 38:0.61385912 39:0.90473235 40:0.6407786 41:1.2202072 42:0.8307603 43:1.1576215 44:0.50387126 45:0.53444648 46:1.0716227 47:1.498172 48:0.96418744 49:0.7409994 50:1.6230859 51:1.0636849 52:0.50954109 53:0.97810435 54:0.18964663 55:0.304382 56:0.45068979 57:0.37526461 58:0.11387219 59:0.12714636 60:0.18690509 61:0.32524693 62:2.1119797 63:1.3020556 64:0.44335735 65:0.57055163 66:1.3241012 67:0.093476146 68:0.74690259 69:0.72379249 70:0.14640617 71:0.64251351 72:0.494225 73:0.60694402 74:0.98307121 75:0.33296967 76:0.22856764 77:0.044421613 78:0.048369855 79:0.20362626 80:0.17463554 81:0.20177637 82:0.12206595 83:0.080686793 84:0.12103262 85:0.13263533 86:0.1588843 87:0.20091049 88:0.073356241 89:0.067547247 90:0.47938129 91:1.7215847 92:1.5355285 93:2.1587272 94:0.79896909 95:1.542127 96:2.6256363 97:1.3706015 98:1.181576 99:0.67633098 100:0.55582112 101:1.6636447 102:0.40561223 103:1.3495703 104:0.29093775 105:0.50815141 106:0.83661467 107:0.6088596 108:0.54384369 109:0.27711165 110:0.27094993 111:0.64634329 112:0.42291963 113:0.36432576 114:0.53348869 115:0.3287459 116:0.24023646 117:0.17871042 118:0.20825776 119:0.15511099 
10 0:0.26621139 1:2.9209037 2:3.5964527 3:1.3607314 4:2.7067213 5:1.5948737 6:1.4448869 7:0.65823549 8:1.5455452 9:0.93575805 10:1.7472975 11:0.97385406 12:0.9389798 13:1.4286568 14:0.36328977 15:0.62119889 16:1.1463069 17:0.66491818 18:1.0273415 19:0.14917761 20:0.5224914 21:0.7156986 22:0.49376139 23:0.070165783 24:0.2145097 25:0.014941994 26:0.12351911 27:0.20234832 28:0.055535994 29:0.17249459 30:0.34579176 31:0.59964329 32:0.53731281 33:1.227152 34:1.035508 35:2.6695898 36:0.730268 37:0.83106863 38:0.5954839 39:1.2900773 40:1.4981443 41:1.3348421 42:0.90469807 43:0.67912906 44:0.34272256 45:0.40579471 46:0.68800378 47:0.68271881 48:0.66171062 49:0.54109102 50:1.7289331 51:0.78519166 52:0.81788349 53:1.181101 54:0.066119909 55:0.081070118 56:0.38473549 57:0.36623982 58:0.15038179 59:0.11398806 60:0.38796467 61:0.59870803 62:0.64368773 63:0.98567873 64:2.1175296 65:0.13455769 66:0.60288858 67:0.55658537 68:0.69103801 69:0.24149926 70:0.27945763 71:0.1193079 72:0.98872101 73:0.73453367 74:0.26262811 75:0.16735166 76:0.18488964 77:0.18158138 78:0.5646227 79:0.074726194 80:0.4027293 81:0.12447503 82:0.24923371 83:0.18462621 84:0.082807094 85:0.14440061 86:0.13640445 87:0.034939062 88:0.17377049 89:0.11674655 90:0.25903457 91:2.4477878 92:3.1007991 93:0.82528532 94:1.9616597 95:1.8781592 96:0.30782416 97:0.21182671 98:0.4519574 99:0.63621277 100:2.4416749 101:2.3047676 102:1.5213633 103:1.0573947 104:0.57400423 105:1.1767744 106:0.3805126 107:0.38942567 108:0.87333947 109:0.61040306 110:0.76867563 111:1.0233523 112:0.62610567 113:0.29568422 114:0.32881987 115:0.22701389 116:0.13168421 117:0.16730134 118:0.070481405 119:0.11475717 
10 0:0.9373228 1:2.4220436 2:2.9934886 3:1.5674776 4:2.7679377 5:1.6046091 6:0.21363144 7:0.95963717 8:1.8979334 9:1.1981997 10:3.0297327 11:1.2747505 12:1.2039268 13:0.25037596 14:1.0603046 15:1.2901942 16:1.1589512 17:0.59697038 18:1.1048799 19:0.4782176 20:0.48739141 21:0.86028665 22:0.35973337 23:0.088358484 24:0.14376414 25:0.23928097 26:0.24425979 27:0.21625397 28:0.079906799 29:0.057941232 30:0.421556 31:0.46549314 32:0.98929155 33:1.6765547 34:1.7552729 35:1.3141955 36:1.3417273 37:1.7134784 38:0.73380452 39:1.7703725 40:0.46117666 41:0.3371805 42:1.6959792 43:0.31677732 44:0.82802874 45:1.1944084 46:0.44346324 47:1.0253692 48:0.36201233 49:0.29711273 50:1.6628898 51:1.2596192 52:0.44802263 53:0.98340178 54:0.47794136 55:0.19014306 56:0.22270876 57:0.38856429 58:0.1510309 59:0.26296112 60:0.12589464 61:0.59958214 62:0.70998496 63:1.1616522 64:1.2861263 65:0.20659454 66:0.89329165 67:0.90516871 68:0.45100486 69:0.3562952 70:0.22837664 71:0.60131675 72:0.11881053 73:0.39946365 74:0.5446136 75:0.12745395 76:0.28402835 77:0.23197924 78:0.31637874 79:0.24073473 80:0.34554496 81:0.1399952 82:0.13784482 83:0.14917041 84:0.15148431 85:0.04968673 86:0.12234698 87:0.14002408 88:0.045613911 89:0.19139892 90:0.63208622 91:1.9044069 92:3.9576206 93:1.376367 94:1.8787762 95:1.1027172 96:1.3520112 97:0.59000981 98:1.6096866 99:1.0441216 100:2.8354573 101:2.7209978 102:1.4099383 103:0.25862676 104:1.2755753 105:1.2384154 106:0.18384358 107:0.72533953 108:1.009202 109:0.18509063 110:0.82442713 111:1.1195055 112:0.69664258 113:0.047546539 114:0.19705625 115:0.072945498 116:0.20487171 117:0.024570776 118:0.086761594 119:0.1900578 
10 0:0.58573079 1:1.8164035 2:2.1435335 3:1.0633342 4:1.6635565 5:3.3084991 6:1.7272139 7:0.7631765 8:1.3374364 9:0.63924879 10:3.5880454 11:0.66264671 12:0.89053392 13:0.22700867 14:0.64310503 15:0.46391854 16:0.27367431 17:1.6522148 18:0.34374568 19:0.60412389 20:0.24363884 21:1.1898466 22:1.2027773 23:0.14036405 24:0.3969852 25:0.39833197 26:0.13275155 27:0.027469443 28:0.37825567 29:0.077226713 30:0.44508606 31:0.96282548 32:1.8306782 33:2.7832344 34:1.0708759 35:0.84099633 36:2.4283655 37:2.6531341 38:1.8783865 39:2.4457388 40:1.3666852 41:1.070536 42:1.4622066 43:1.5079914 44:1.8504009 45:1.1415466 46:1.8355619 47:0.84458387 48:0.32009614 49:0.53397661 50:1.4745529 51:1.0772747 52:0.71296197 53:1.2906305 54:0.16934004 55:0.33057523 56:0.39510897 57:0.2835812 58:0.10056682 59:0.22996913 60:0.37567845 61:0.2588349 62:1.6023425 63:0.43522719 64:0.96242964 65:0.35928085 66:0.28680784 67:0.61990297 68:1.3292336 69:0.55867583 70:0.36608854 71:0.51945519 72:0.40409908 73:0.43616894 74:0.60907179 75:0.82413989 76:0.39761612 77:0.3372854 78:0.8424809 79:0.27429324 80:0.32618222 81:0.23819308 82:0.26904142 83:0.090489097 84:0.030857993 85:0.1491645 86:0.15770228 87:0.11073489 88:0.041097779 89:0.10019999 90:0.11822928 91:2.0689476 92:3.4481914 93:0.70378214 94:1.3634201 95:2.5688419 96:1.6982369 97:1.4633846 98:1.8050097 99:0.4137477 100:2.9642513 101:0.8266443 102:0.72916639 103:0.63761264 104:0.48883235 105:1.1855437 106:1.295911 107:0.91868371 108:0.47039288 109:0.2742731 110:0.067583598 111:0.73640013 112:1.2405686 113:0.27550516 114:0.27002522 115:0.095961921 116:0.087927833 117:0.17201607 118:0.27246913 119:0.24687406 
10 0:0.72519833 1:1.2807121 2:0.96737629 3:0.68768674 4:2.7738295 5:1.417449 6:0.1279697 7:0.5179857 8:0.84536755 9:1.8337023 10:2.7653818 11:0.40838492 12:0.68361747 13:1.2896615 14:1.0977511 15:1.1304806 16:1.0038209 17:1.1436441 18:0.81770945 19:0.46213007 20:1.3266085 21:0.40516055 22:0.777825 23:0.46855813 24:0.29869658 25:0.33785626 26:0.12527193 27:0.051763456 28:0.2830219 29:0.1429821 30:0.74459618 31:3.0647111 32:2.4970176 33:0.22271073 34:0.42410392 35:0.72136641 36:2.2027178 37:2.0624671 38:2.0574849 39:2.4275439 40:1.359987 41:0.66245747 42:1.8874747 43:0.52910048 44:1.2507184 45:2.2492251 46:1.3691587 47:0.25741768 48:0.23511161 49:0.38717464 50:1.3506565 51:1.3653111 52:0.62960303 53:0.82639015 54:0.67343628 55:0.64976984 56:0.52454436 57:0.31718913 58:0.18852051 59:0.41861615 60:0.43278357 61:1.1583589 62:0.34599686 63:1.5879046 64:1.8864187 65:1.099715 66:0.16506042 67:0.53340137 68:0.71374601 69:0.85163182 70:0.4760446 71:0.76239753 72:0.6634357 73:0.22437495 74:0.62947088 75:0.71919328 76:0.43167812 77:0.451098 78:0.63137257 79:0.25641853 80:0.2821804 81:0.32663688 82:0.24766077 83:0.041952051 84:0.12589881 85:0.056549523 86:0.23269284 87:0.15469776 88:0.1006961 89:0.047627613 90:0.55056316 91:0.67704105 92:1.3157378 93:1.1961503 94:2.5211344 95:1.7775121 96:0.83545715 97:0.79218882 98:0.026050841 99:1.4190232 100:1.7962142 101:0.17730395 102:1.1408991 103:0.58337748 104:0.82150561 105:0.68721569 106:1.6645174 107:1.0439196 108:0.61230713 109:0.70905614 110:0.36914358 111:0.32320431 112:0.63219589 113:0.26208842 114:0.30710882 115:0.2902151 116:0.19054623 117:0.12268016 118:0.17687981 119:0.25751027 
10 0:1.0518655 1:2.145519 2:3.3565912 3:1.6399407 4:1.3106608 5:1.6745023 6:2.7693024 7:1.2293705 8:1.1510309 9:1.395798 10:1.4590518 11:0.8992514 12:0.67292589 13:0.87390524 14:1.1871856 15:1.1461829 16:0.61861432 17:0.61527532 18:0.33824384 19:0.63354862 20:0.77773303 21:0.97237885 22:0.62334961 23:0.47823766 24:0.057138409 25:0.30806479 26:0.2544429 27:0.15355301 28:0.092130296 29:0.10377105 30:0.28780758 31:0.49602541 32:2.1232722 33:1.2236431 34:2.0235112 35:0.89043587 36:1.6736234 37:0.45128211 38:1.4509947 39:1.0835325 40:0.6073817 41:1.1759752 42:0.83995456 43:1.0333978 44:0.54301524 45:0.71479589 46:1.4560342 47:1.2910417 48:0.33461201 49:0.66764599 50:1.8686485 51:1.0295227 52:0.51029974 53:0.24720237 54:0.43640792 55:0.25178441 56:0.28792262 57:0.071857743 58:0.27617571 59:0.090823203 60:0.030018296 61:0.60197377 62:0.68450934 63:0.82657826 64:0.56856775 65:0.19398825 66:0.48128775 67:0.60316801 68:0.92568576 69:0.21950066 70:0.74939412 71:0.47379962 72:0.66794991 73:0.39119643 74:0.26209331 75:0.068419144 76:0.3201234 77:0.30102056 78:0.3322469 79:0.18877037 80:0.23889031 81:0.13222599 82:0.11922983 83:0.17898285 84:0.24783149 85:0.13659927 86:0.061690185 87:0.10021532 88:0.079594426 89:0.097960129 90:1.3957704 91:3.1198328 92:4.5554042 93:3.223851 94:1.3536942 95:1.7927936 96:2.8067822 97:0.73099548 98:1.3512052 99:0.41762251 100:1.8009654 101:0.65375245 102:0.8984946 103:1.3803571 104:0.63916594 105:1.1853219 106:0.26443839 107:0.2778801 108:0.24126889 109:0.98683476 110:0.42168126 111:0.3979632 112:0.50981581 113:0.36984277 114:0.32185835 115:0.22525445 116:0.10644991 117:0.072770119 118:0.18622559 119:0.014698422 
10 0:0.35036007 1:1.4655874 2:2.3803749 3:3.499366 4:0.54960251 5:0.97046947 6:1.6760081 7:0.98929793 8:2.8198519 9:0.74581438 10:1.1803478 11:1.6799477 12:1.5386152 13:0.26795834 14:0.33754238 15:0.75204921 16:0.90025616 17:0.42613375 18:0.72827035 19:0.84454125 20:0.82752591 21:0.75992763 22:0.51105201 23:0.45163903 24:0.20296521 25:0.26524487 26:0.14112231 27:0.33019799 28:0.25871816 29:0.0074830335 30:0.45938793 31:0.38991305 32:1.3310193 33:1.7694782 34:0.78014773 35:1.8545731 36:0.61034518 37:1.1071056 38:1.4559486 39:0.46162269 40:1.1347773 41:1.103698 42:1.2832673 43:0.58127743 44:0.87172753 45:0.084580399 46:0.53352284 47:1.5649391 48:0.80406016 49:0.93500954 50:1.9222437 51:1.2599818 52:0.96101135 53:0.20643646 54:0.29773822 55:0.26969311 56:0.1090141 57:0.21148846 58:0.47110084 59:0.26698035 60:0.20232026 61:0.31735247 62:0.41987115 63:0.73765773 64:0.376607 65:0.5848363 66:0.60279411 67:0.78946143 68:0.88399744 69:0.34502289 70:0.48168722 71:0.95398605 72:0.41310367 73:0.37601516 74:0.15572378 75:0.38607177 76:0.19701383 77:0.23827523 78:0.3722471 79:0.22887933 80:0.15908819 81:0.025546018 82:0.16091917 83:0.11041123 84:0.27333313 85:0.21146168 86:0.19535865 87:0.070869818 88:0.054225285 89:0.069454283 90:0.29789141 91:1.8936882 92:4.8255858 93:3.5985215 94:0.93420434 95:2.4220016 96:2.1487513 97:1.2487876 98:2.3735013 99:0.27343088 100:0.86640906 101:1.896404 102:2.2967267 103:0.69808745 104:0.40686429 105:1.0341712 106:0.24697596 107:0.78738385 108:0.57613856 109:1.0716487 110:0.40183619 111:0.25808957 112:0.43345532 113:0.49596581 114:0.021834673 115:0.14858228 116:0.072975732 117:0.062770501 118:0.19032 119:0.099794313 
10 0:0.27813846 1:2.0917888 2:2.3059566 3:2.9691041 4:1.9204103 5:2.1298709 6:1.1636889 7:0.53094071 8:2.0707631 9:1.0564382 10:0.94714057 11:2.1899552 12:1.0498435 13:0.37808231 14:0.96010351 15:0.3962445 16:0.37068054 17:0.65728116 18:1.2353328 19:0.56604791 20:0.39133787 21:0.4481709 22:0.26837698 23:0.34451732 24:0.076707609 25:0.073460564 26:0.43551821 27:0.16652372 28:0.082202703 29:0.10841838 30:0.68842572 31:0.20706829 32:1.5399407 33:1.1478307 34:0.58366317 35:1.6175579 36:1.0796007 37:0.66428918 38:0.48692054 39:1.036924 40:1.3369304 41:1.6103132 42:0.54215616 43:0.71658587 44:1.2229382 45:0.87937856 46:0.80225915 47:1.0405304 48:0.28922942 49:1.1585253 50:2.630794 51:0.93149084 52:0.56373334 53:0.18511866 54:0.49836093 55:0.64899772 56:0.2244565 57:0.15850239 58:0.23268355 59:0.30465254 60:0.12546846 61:0.52805907 62:0.27252108 63:1.4973365 64:0.19194762 65:0.88403004 66:0.22487092 67:1.0020882 68:0.41584775 69:0.064124495 70:0.55366081 71:0.32368341 72:0.76236802 73:0.74644214 74:0.69867045 75:0.60993844 76:0.096452326 77:0.39556262 78:0.30573881 79:0.28170118 80:0.27673373 81:0.12701334 82:0.12900715 83:0.13537581 84:0.19098844 85:0.17686352 86:0.093050443 87:0.07251066 88:0.086249836 89:0.13967195 90:0.96682727 91:3.4158077 92:4.9971347 93:2.3395519 94:2.5731118 95:2.5278802 96:0.90602237 97:0.54047763 98:1.401458 99:1.6301428 100:0.87202185 101:2.2665994 102:2.5390854 103:1.4447726 104:0.56973219 105:0.36998659 106:0.49166766 107:1.2959092 108:0.16147433 109:0.83203435 110:0.40073183 111:0.30332601 112:0.46895599 113:0.1141775 114:0.25180086 115:0.020048387 116:0.36979628 117:0.11342396 118:0.11674888 119:0.12733617 
10 0:0.2719802 1:3.1690567 2:3.4005296 3:2.3891072 4:1.3275628 5:2.1992464 6:2.6833446 7:0.7247864 8:2.2696838 9:2.3513737 10:3.1447513 11:3.0973639 12:1.0556674 13:0.88938409 14:2.049129 15:0.62677455 16:0.36263981 17:0.37178275 18:0.59570551 19:0.31046188 20:0.60185528 21:0.76795715 22:0.3199577 23:0.39870003 24:0.58561558 25:0.5210526 26:0.39175341 27:0.22495943 28:0.053423144 29:0.1077189 30:0.46395636 31:0.87404841 32:2.3298242 33:2.0248299 34:0.57922816 35:1.2669206 36:2.1789119 37:2.1352684 38:0.5723471 39:1.4097034 40:0.62552685 41:0.17584915 42:0.25198528 43:0.56031251 44:0.74190396 45:0.85845715 46:0.71739322 47:0.74728686 48:1.1781614 49:0.86567134 50:1.5934368 51:0.72803128 52:0.41427746 53:0.37724334 54:0.35428423 55:0.47200716 56:0.28637394 57:0.17259419 58:0.13259678 59:0.2630772 60:0.4558298 61:1.4760915 62:2.5740097 63:0.78950393 64:1.1792992 65:1.6488639 66:0.93028927 67:0.72602987 68:0.30114442 69:1.141933 70:1.0104057 71:0.75601459 72:0.58123791 73:0.13537262 74:0.26986527 75:0.82839364 76:0.41869649 77:0.73805338 78:0.39980373 79:0.2437847 80:0.34908417 81:0.17693354 82:0.24403936 83:0.04000172 84:0.18483672 85:0.1934177 86:0.10513897 87:0.053658042 88:0.10822346 89:0.059667874 90:0.42518786 91:2.999208 92:4.1170115 93:1.6379696 94:0.6417945 95:0.97498214 96:1.0666915 97:1.5171973 98:1.1822933 99:1.2916936 100:1.7603767 101:3.0120952 102:2.1417558 103:0.86780864 104:1.7307022 105:0.38102096 106:0.3939361 107:0.65069246 108:0.41922653 109:0.50468373 110:0.60822368 111:0.26202312 112:0.25768921 113:0.26497921 114:0.40481335 115:0.27116957 116:0.41307467 117:0.29698229 118:0.198974 119:0.03883056 
1.815746465937149 0:0.614241 1:0.32264566 2:4.3389349 3:1.1252524 4:1.8389815 5:2.6100717 6:1.7831939 7:0.49596643 8:3.0505142 9:0.65150762 10:3.2294989 11:2.3567345 12:1.3077246 13:2.2464914 14:0.49225456 15:1.5498414 16:1.1845746 17:1.598006 18:1.1299894 19:1.1429528 20:0.864492 21:0.54238647 22:1.023187 23:0.42713991 24:0.60987699 25:0.34811381 26:0.75647038 27:0.18635878 28:0.46559161 29:0.32060707 30:0.25215355 31:0.32702008 32:1.432151 33:2.5798573 34:1.2725477 35:2.0660968 36:0.99633944 37:0.74497807 38:0.66934764 39:0.47096914 40:2.6924655 41:0.84518439 42:0.67635381 43:1.232969 44:1.3862479 45:1.3259064 46:0.96366876 47:1.0883044 48:0.60141736 49:0.17883478 50:0.99467051 51:1.0794625 52:0.15323584 53:0.67583406 54:0.4614884 55:0.55759937 56:0.15687974 57:0.16772598 58:0.080907673 59:0.050475266 60:0.64874882 61:1.8822058 62:2.4636679 63:1.4084916 64:0.89988768 65:1.0440037 66:0.19271466 67:0.2847482 68:0.37045914 69:0.18899205 70:0.70379782 71:0.25819492 72:0.80033851 73:0.23244563 74:0.77240783 75:0.26874804 76:0.13665515 77:0.33475307 78:0.50903183 79:0.3940824 80:0.15933965 81:0.17012964 82:0.36875734 83:0.072183356 84:0.056408986 85:0.050927565 86:0.16737154 87:0.0350287 88:0.026064793 89:0.06087156 90:0.59243 91:2.2037613 92:4.5457931 93:1.5621686 94:0.72513318 95:4.9484634 96:3.6303182 97:1.4393243 98:2.2919965 99:0.3776195 100:2.3418829 101:2.1715765 102:2.3505964 103:1.1170672 104:0.64399207 105:1.0844055 106:0.15660557 107:1.2276372 108:0.35090765 109:0.66478759 110:0.88851529 111:0.6096831 112:0.75020194 113:0.7890591 114:0.29162979 115:0.27540353 116:0.52801573 117:0.15825769 118:0.33527106 119:0.28956234 
4.251187457551442 0:0.61024618 1:0.57243574 2:5.2374425 3:1.7022951 4:1.8630173 5:1.4600968 6:1.502813 7:1.6784636 8:1.5517784 9:0.95786148 10:1.9320586 11:1.002238 12:1.3858204 13:1.0251877 14:1.9068115 15:0.66161001 16:0.23801003 17:0.95500761 18:0.88766903 19:0.48480922 20:0.13785209 21:0.21592686 22:0.59992522 23:0.70560527 24:0.16869529 25:0.065103717 26:0.11070653 27:0.22121011 28:0.16436982 29:0.16239034 30:0.61878872 31:1.1380059 32:2.6491404 33:2.8847902 34:2.2525833 35:1.5841175 36:2.5157075 37:1.7074022 38:0.7100693 39:0.71460587 40:0.064264446 41:1.8271941 42:1.0324399 43:0.94217533 44:1.3029339 45:0.67249155 46:0.74515641 47:0.96435946 48:0.37518033 49:0.78956908 50:1.6478757 51:0.93278563 52:0.72040766 53:0.74532318 54:0.42600557 55:0.11025891 56:0.16769585 57:0.232089 58:0.25922278 59:0.12377182 60:0.28032985 61:0.79910326 62:1.2328742 63:1.6775451 64:0.35624263 65:1.0665488 66:1.5152278 67:0.95042861 68:1.0461838 69:0.42994863 70:0.3510437 71:0.5401898 72:0.35796168 73:0.36829215 74:0.14688377 75:0.28489104 76:0.34305835 77:0.44225198 78:0.2029971 79:0.1159092 80:0.10244256 81:0.067126028 82:0.17406179 83:0.14162464 84:0.098221526 85:0.035730254 86:0.10264711 87:0.030535677 88:0.071928591 89:0.085149944 90:0.70180863 91:0.77752978 92:5.22541 93:1.945732 94:2.9232192 95:1.8978764 96:3.3205993 97:0.9380765 98:2.8382075 99:0.73219377 100:2.0845957 101:1.1842599 102:1.5416099 103:1.0593714 104:0.50533485 105:0.44175738 106:0.8668192 107:0.79120708 108:0.4992674 109:0.79364038 110:0.49031371 111:0.55939102 112:0.15947519 113:0.22034758 114:0.31971431 115:0.11688618 116:0.1790105 117:0.23207766 118:0.142684 119:0.14303793 
10 0:0.60555017 1:1.6734256 2:2.7716465 3:2.7945373 4:1.2321318 5:1.2116474 6:0.44071239 7:2.8015337 8:2.1770797 9:0.43871504 10:1.0599327 11:1.3396341 12:1.627548 13:1.1757822 14:1.8149992 15:0.94748712 16:0.80185384 17:0.5658462 18:1.1642998 19:0.68426621 20:0.14568083 21:0.47968739 22:0.4086875 23:0.33084014 24:0.25580442 25:0.13904484 26:0.39516345 27:0.084956102 28:0.13846207 29:0.076991849 30:0.23231575 31:1.2716522 32:3.510175 33:2.6055374 34:3.2547882 35:0.77469313 36:1.4098557 37:1.8847201 38:0.5119561 39:2.2365258 40:1.9192307 41:0.65666819 42:0.57815486 43:1.2689277 44:1.2725674 45:0.69569522 46:1.0149903 47:0.73273975 48:0.17203058 49:0.23402478 50:2.1102364 51:0.17278743 52:0.24802501 53:0.80147153 54:0.39854535 55:0.36591882 56:0.22404291 57:0.45552689 58:0.29170936 59:0.13856645 60:0.77204329 61:0.13833576 62:2.2852573 63:0.15129809 64:2.0592093 65:1.0166062 66:0.13098593 67:1.1325039 68:0.95437741 69:0.84639817 70:0.21253927 71:0.72483724 72:0.4902578 73:0.45012826 74:0.10490882 75:0.1334476 76:0.49742913 77:0.4283731 78:0.21984757 79:0.2498576 80:0.37874892 81:0.27120787 82:0.2370422 83:0.29669571 84:0.07812009 85:0.12066937 86:0.029100414 87:0.040023271 88:0.046109635 89:0.11150098 90:0.28049102 91:2.2152736 92:3.349191 93:2.1004066 94:0.42151284 95:2.5112138 96:1.2336928 97:3.0684297 98:3.2520452 99:0.18147309 100:1.7140743 101:1.4161752 102:0.69640625 103:0.55606657 104:1.0802315 105:0.56990153 106:1.0008342 107:0.50168252 108:0.94115853 109:1.1650753 110:0.25942391 111:0.31747994 112:0.25261825 113:0.11155748 114:0.29039553 115:0.051264301 116:0.27895868 117:0.036148839 118:0.053365577 119:0.11062574 
10 0:1.5633996 1:2.5267334 2:3.3546286 3:0.95151931 4:3.2550607 5:0.97654504 6:4.2112861 7:1.6380272 8:1.2482985 9:2.0039802 10:0.90360415 11:1.2862006 12:0.53234929 13:0.79164028 14:0.65575767 15:1.9522661 16:1.1398568 17:0.27439746 18:0.97117168 19:0.57973689 20:0.51601321 21:0.36498424 22:0.43507797 23:0.2641151 24:0.34856418 25:0.17523223 26:0.17493859 27:0.24349837 28:0.19035594 29:0.068504609 30:0.32262757 31:0.17025696 32:3.2735949 33:0.70968825 34:1.3751113 35:2.4549677 36:0.77754301 37:0.98518109 38:1.7329555 39:1.154657 40:0.67861789 41:0.94915211 42:0.59709811 43:0.79923654 44:0.8617087 45:0.46960464 46:1.6597564 47:0.37229007 48:0.86729997 49:0.65167075 50:1.2563305 51:0.3955766 52:0.27335644 53:0.59997517 54:0.12545685 55:0.23701622 56:0.24782932 57:0.37292975 58:0.042357985 59:0.14582741 60:0.23871726 61:0.77040178 62:0.48971245 63:1.5645306 64:0.49667475 65:0.87327904 66:1.0877306 67:0.81822371 68:0.29910409 69:0.43873477 70:0.22907209 71:0.10462116 72:0.55747581 73:0.69592309 74:0.16740522 75:0.17936032 76:0.22318859 77:0.1249235 78:0.44441912 79:0.20690872 80:0.18237916 81:0.29166716 82:0.18402851 83:0.29431725 84:0.13210912 85:0.25803879 86:0.041062038 87:0.26415309 88:0.099832483 89:0.028241521 90:1.4571117 91:1.6682642 92:5.1494265 93:2.0681264 94:1.5222828 95:1.7308509 96:4.0139127 97:2.4558272 98:1.5639558 99:1.9277934 100:0.66733497 101:0.85878992 102:1.1658117 103:0.89155084 104:0.76668346 105:0.79492396 106:0.68681872 107:0.24727519 108:0.42367682 109:0.1997561 110:0.30855188 111:0.086883493 112:0.4643352 113:0.74513054 114:0.13142972 115:0.26169473 116:0.2447997 117:0.086973242 118:0.33205777 119:0.060962472 
10 0:0.55420536 1:1.8577471 2:4.7962379 3:3.3908784 4:1.7184979 5:1.6057371 6:3.6862488 7:1.8967381 8:0.14896025 9:1.3255153 10:1.8128995 11:1.3574864 12:0.94685066 13:1.2402294 14:0.71757358 15:2.320483 16:0.87616521 17:1.1819634 18:0.11160959 19:0.8022368 20:0.2342433 21:0.28677121 22:0.54197145 23:0.30382586 24:0.48710415 25:0.40303576 26:0.056284264 27:0.17238319 28:0.12720138 29:0.081045769 30:0.34450644 31:1.0080571 32:3.0528963 33:1.2605164 34:1.3566813 35:1.7421873 36:1.3136946 37:0.73447716 38:0.70354658 39:1.7195342 40:1.3046603 41:0.68092436 42:0.66130441 43:1.1533653 44:0.266844 45:0.61661565 46:2.5018709 47:0.55113631 48:0.35235733 49:0.57134652 50:1.1621863 51:0.98647821 52:0.27404833 53:0.45853788 54:0.29742086 55:0.28914437 56:0.12541288 57:0.21212888 58:0.20062517 59:0.12802701 60:0.34991804 61:0.40770426 62:0.36471626 63:0.83884031 64:0.94862294 65:0.44635066 66:0.79220468 67:0.38427046 68:0.22089548 69:0.18849039 70:0.49266395 71:0.45184627 72:0.49908841 73:0.74878716 74:0.4719401 75:0.24866018 76:0.33280787 77:0.39811486 78:0.51060975 79:0.10052141 80:0.16169211 81:0.30664662 82:0.22409619 83:0.21300906 84:0.22518212 85:0.18376538 86:0.086410113 87:0.24110056 88:0.078297243 89:0.070287719 90:0.4613938 91:1.4383353 92:3.5556962 93:3.2568679 94:1.513325 95:2.9311738 96:4.0368543 97:2.1084874 98:1.1989839 99:1.4118298 100:1.3075533 101:1.3780466 102:0.37521145 103:1.5080149 104:0.56596988 105:1.1952786 106:0.42397434 107:0.62149835 108:0.3108725 109:0.29766843 110:0.11260135 111:0.37533736 112:0.73530978 113:0.56510305 114:0.16986261 115:0.024161717 116:0.35652396 117:0.25139561 118:0.35976574 119:0.18496598 
2.521165984170279 0:0.82025105 1:0.76820773 2:2.6716449 3:1.586507 4:0.68032867 5:4.2882919 6:2.1812057 7:1.6473075 8:1.5089417 9:1.534566 10:2.3783374 11:1.4026356 12:0.10009622 13:1.9405886 14:1.2433619 15:0.31251153 16:0.61889654 17:0.84023511 18:0.98953837 19:1.1963633 20:1.0638766 21:1.170808 22:0.094327457 23:0.41140956 24:0.36341643 25:0.097878993 26:0.32605499 27:0.072694838 28:0.13245983 29:0.11637618 30:0.79871672 31:1.7308261 32:1.1895522 33:2.705179 34:0.82535297 35:0.62494075 36:2.497148 37:1.3820971 38:0.45541143 39:1.3509946 40:1.264433 41:1.7273325 42:0.68562198 43:0.41908497 44:0.53021699 45:0.74956578 46:0.81778145 47:1.0844699 48:0.074110225 49:0.30749339 50:1.481401 51:1.8590175 52:0.81749636 53:0.19951619 54:0.32022014 55:0.17904904 56:0.48055732 57:0.16762859 58:0.46068215 59:0.21936408 60:0.29340625 61:0.77646309 62:1.1729569 63:0.79442024 64:0.50105953 65:0.73626113 66:0.30062351 67:0.58566999 68:0.8166846 69:0.3757427 70:0.59034598 71:0.54415917 72:0.39453319 73:0.9103685 74:0.86076176 75:0.64482164 76:0.56790406 77:0.17453213 78:0.15549025 79:0.19197774 80:0.40256727 81:0.18646367 82:0.038321923 83:0.03283092 84:0.092226975 85:0.18020667 86:0.074062899 87:0.082236812 88:0.053101968 89:0.037906017 90:0.26935568 91:0.6966874 92:3.030457 93:0.36932138 94:1.7018328 95:5.0463691 96:2.8027685 97:1.090003 98:1.1891056 99:0.78292692 100:0.95509362 101:1.5929033 102:0.63431698 103:1.0839672 104:2.0565813 105:0.47876254 106:0.7143147 107:1.3682076 108:0.77013916 109:1.4257634 110:0.58678514 111:0.32142797 112:0.26246887 113:0.65754569 114:0.42070347 115:0.60380107 116:0.19788918 117:0.14150065 118:0.082997248 119:0.19641183 
10 0:0.33226916 1:0.84469676 2:0.49502409 3:1.9040607 4:0.95379931 5:1.2621615 6:1.9907713 7:3.4445689 8:1.5621642 9:0.55852342 10:1.0006273 11:0.47122371 12:0.74766368 13:1.0650729 14:1.0720232 15:1.3183997 16:0.5330528 17:0.51114357 18:0.77310073 19:0.35859889 20:0.43487817 21:0.32831016 22:0.15746313 23:0.63626736 24:0.35123503 25:0.39109296 26:0.068128958 27:0.11215837 28:0.030236615 29:0.017777033 30:0.26989901 31:0.48211521 32:2.0171623 33:0.53398466 34:2.6013665 35:1.6414894 36:0.95891124 37:0.866023 38:1.5572462 39:1.152887 40:1.5446396 41:1.4253503 42:1.8766532 43:0.40350685 44:0.5326097 45:1.9505523 46:1.0962496 47:1.9401805 48:0.64462471 49:0.76154095 50:1.6045227 51:1.0003464 52:0.54628539 53:0.38894305 54:0.30443707 55:0.48308572 56:0.32128859 57:0.030353963 58:0.12898594 59:0.26754832 60:0.64015323 61:2.2207737 62:0.90523314 63:0.57934678 64:1.3060035 65:0.23344511 66:0.73071253 67:0.97065324 68:0.71330476 69:0.41871956 70:0.54808253 71:0.55383778 72:0.51181632 73:0.83969754 74:0.62012446 75:0.5623979 76:0.45318165 77:0.49466106 78:0.13139623 79:0.4025394 80:0.15201734 81:0.28608635 82:0.06085768 83:0.15593015 84:0.21353313 85:0.23552325 86:0.077429302 87:0.12463761 88:0.16211244 89:0.11754183 90:0.24318287 91:2.0909784 92:1.4108467 93:2.3889191 94:0.65788597 95:2.8371336 96:2.9343529 97:2.9088819 98:2.5829134 99:0.54096162 100:2.6256592 101:0.95587355 102:1.3240595 103:2.411819 104:0.8657617 105:0.80230957 106:0.4345516 107:0.82522905 108:0.51005226 109:0.60079551 110:0.32499093 111:0.57300073 112:0.35635516 113:0.11857769 114:0.36135411 115:0.049943447 116:0.22866489 117:0.16655825 118:0.1156558 119:0.11589263 
10 0:0.39771822 1:0.69513983 2:0.76326448 3:1.3468175 4:1.6539683 5:2.0853193 6:1.462774 7:2.4193239 8:0.75598764 9:0.45893359 10:0.4186182 11:1.2965534 12:1.2828801 13:1.1307349 14:1.0691217 15:0.9029212 16:0.73714596 17:1.0280969 18:0.26741332 19:0.71665525 20:0.93325979 21:0.34851742 22:0.20299155 23:0.4652096 24:0.66007841 25:0.59878349 26:0.12182778 27:0.10225029 28:0.10629993 29:0.074401148 30:0.34046566 31:1.0728027 32:2.7295878 33:0.68901974 34:2.2291281 35:1.1877861 36:1.1564271 37:1.2528312 38:0.97470099 39:2.4635816 40:0.2363531 41:0.54719102 42:2.2551675 43:0.10001027 44:0.81286758 45:1.1563889 46:1.0631332 47:1.1015062 48:0.622015 49:0.60739183 50:1.6492878 51:0.78845221 52:0.40427831 53:0.49527091 54:0.51984584 55:0.50913823 56:0.41852748 57:0.24596794 58:0.1547773 59:0.18257406 60:0.34426692 61:1.607249 62:0.87135929 63:0.43832314 64:1.4449277 65:0.47247192 66:1.1724448 67:0.95224893 68:0.70889288 69:0.68044698 70:0.23369269 71:0.31660318 72:0.16901869 73:0.306741 74:0.63757181 75:1.1382581 76:0.634839 77:0.32857305 78:0.14168875 79:0.54113901 80:0.21266836 81:0.21903086 82:0.21518128 83:0.31495664 84:0.13668059 85:0.28357145 86:0.11425237 87:0.067576416 88:0.16180868 89:0.030066254 90:0.95276219 91:2.916641 92:1.113151 93:1.1894709 94:1.5812823 95:3.6590741 96:2.8416059 97:2.9609823 98:1.6500564 99:1.1324946 100:0.36389384 101:2.5190303 102:0.76066703 103:1.7933109 104:1.4645404 105:1.1110564 106:0.54937834 107:0.72866124 108:0.53626525 109:0.88176674 110:1.0809674 111:0.41745788 112:0.39721581 113:0.62779874 114:0.83062154 115:0.52220869 116:0.23144606 117:0.2473232 118:0.24374989 119:0.22325623 
8.566592810594628 0:0.38536581 1:2.0540631 2:1.5260966 3:2.304179 4:1.804463 5:0.4919425 6:1.0982709 7:1.8021097 8:1.1445584 9:0.8694666 10:0.85058105 11:2.5317676 12:1.0945215 13:1.459646 14:0.14604555 15:1.7317106 16:0.96826696 17:0.88610595 18:1.2192086 19:1.1798579 20:0.57822627 21:0.12632814 22:0.52771938 23:0.16558537 24:0.23879725 25:0.36502317 26:0.18443462 27:0.1906717 28:0.067734011 29:0.069915093 30:0.34110993 31:0.36839664 32:0.90927762 33:0.21787277 34:2.1393664 35:0.13610242 36:0.38993964 37:1.0461195 38:1.6598424 39:1.1519955 40:1.3227928 41:0.6369139 42:0.73625815 43:0.09066242 44:0.51779091 45:1.1199421 46:0.75231433 47:0.76966405 48:0.33535361 49:0.8352496 50:1.078928 51:1.2015607 52:0.46948975 53:0.78948939 54:0.22473821 55:0.27079251 56:0.1795215 57:0.15680026 58:0.24149007 59:0.2172665 60:0.084724598 61:0.81419289 62:0.7950958 63:1.4970254 64:0.6547097 65:0.98323113 66:0.32393417 67:0.42602909 68:0.3011803 69:0.62874073 70:1.3211714 71:0.082019277 72:0.85297465 73:0.29915464 74:0.37563145 75:0.28598893 76:0.16412723 77:0.38334903 78:0.56359965 79:0.17905322 80:0.27487358 81:0.17333354 82:0.1138623 83:0.12738715 84:0.16360188 85:0.15478802 86:0.076004349 87:0.10090094 88:0.053042088 89:0.052415289 90:0.53614581 91:0.52111155 92:2.0136089 93:3.202251 94:0.61096209 95:1.6507008 96:1.5667554 97:1.3730676 98:1.4466033 99:1.2693943 100:0.86090219 101:3.633723 102:0.91817904 103:1.7673769 104:0.28657654 105:1.2645311 106:0.26202536 107:1.5898274 108:0.51266944 109:0.37612155 110:0.76836634 111:0.031054055 112:0.018956415 113:0.35207981 114:0.33530742 115:0.4969109 116:0.25134709 117:0.073266827 118:0.16400419 119:0.042497907 
10 0:0.67129761 1:1.0066968 2:3.9270339 3:1.863156 4:0.98985672 5:3.0803428 6:0.50275707 7:2.5256393 8:1.4387203 9:1.7930264 10:1.2298301 11:0.87251258 12:0.89129341 13:0.81944293 14:1.3805603 15:1.5832978 16:0.61909771 17:0.54115701 18:0.15404366 19:0.83332461 20:0.49044478 21:0.72499013 22:0.23803496 23:0.40141624 24:0.59035796 25:0.36874366 26:0.49506137 27:0.29957348 28:0.14799623 29:0.23285164 30:0.08831159 31:0.6712358 32:3.6051035 33:1.4049817 34:0.12142797 35:1.6492373 36:1.7503686 37:1.6708617 38:0.74741209 39:0.58954984 40:2.0035229 41:0.35093915 42:1.5126818 43:0.63673848 44:1.2813147 45:1.2792046 46:1.2034805 47:1.0848317 48:0.98169035 49:0.97426331 50:1.778037 51:0.60520023 52:0.84765118 53:0.83552772 54:0.11163957 55:0.040242378 56:0.22677414 57:0.24049819 58:0.19034901 59:0.33966079 60:0.056194033 61:0.5436489 62:2.1303504 63:1.6376218 64:0.13694301 65:1.0221146 66:0.60297847 67:0.37729645 68:0.45633262 69:0.84973097 70:0.5871402 71:0.3321707 72:0.15259893 73:0.27129647 74:0.63777894 75:0.47602582 76:0.35803506 77:0.12811123 78:0.40223148 79:0.25155419 80:0.2219238 81:0.30523002 82:0.18137042 83:0.31616852 84:0.29677525 85:0.11498652 86:0.14332139 87:0.049737521 88:0.021255642 89:0.073380426 90:0.75590259 91:0.92440659 92:2.7467957 93:2.6269424 94:0.35591936 95:3.0824454 96:0.88627172 97:2.3920691 98:0.48920023 99:0.97223008 100:1.2215865 101:0.44744807 102:0.93263406 103:1.4046694 104:0.85484982 105:0.87747777 106:0.73336005 107:0.64995736 108:0.32848409 109:0.8755151 110:0.44114912 111:0.64486665 112:0.63421077 113:0.46089566 114:0.14460631 115:0.1086733 116:0.49368554 117:0.27432248 118:0.25833938 119:0.29063714 
10 0:1.422281 1:3.2119193 2:1.9071811 3:3.3069146 4:0.8687883 5:4.2670951 6:1.9958546 7:2.2774026 8:0.89247859 9:1.5547686 10:0.36639997 11:0.73863232 12:0.34753227 13:0.39296976 14:0.89261216 15:0.79079223 16:0.78569764 17:0.53528947 18:0.13716552 19:0.81143224 20:0.58756775 21:0.37326342 22:0.53690416 23:0.37206736 24:0.55911553 25:0.2515814 26:0.24722522 27:0.080874816 28:0.1007039 29:0.17411014 30:1.0245645 31:1.3922614 32:1.3454218 33:1.4669356 34:2.7203748 35:1.1251686 36:0.91825426 37:2.8113525 38:1.0061684 39:1.5997083 40:1.5024941 41:0.57794845 42:1.2717367 43:0.30481806 44:1.5807989 45:1.3061153 46:0.5859195 47:0.79784811 48:1.2394547 49:1.004233 50:1.2521094 51:1.2245871 52:0.13903907 53:0.81417632 54:0.42872137 55:0.37846559 56:0.40428704 57:0.43407053 58:0.088350222 59:0.26862603 60:0.33596706 61:0.77342087 62:1.8849449 63:1.3678099 64:0.87960106 65:0.12007251 66:0.068016067 67:0.48615974 68:0.092192329 69:0.89851868 70:0.68432492 71:0.46565226 72:0.59270281 73:0.24281143 74:0.85429102 75:0.52694988 76:0.29297128 77:0.12874317 78:0.25609952 79:0.34447333 80:0.10601088 81:0.33514455 82:0.25098133 83:0.24164508 84:0.34767681 85:0.07387872 86:0.11809497 87:0.063337706 88:0.031810299 89:0.056691084 90:0.54210967 91:2.6342485 92:1.6679617 93:2.9135659 94:0.62309241 95:4.8409557 96:1.4906987 97:2.6087303 98:0.87088412 99:0.11179643 100:1.1775138 101:0.55649537 102:0.89131212 103:1.2496228 104:1.1713288 105:1.114652 106:0.70162576 107:0.64711189 108:0.34399003 109:0.8388226 110:0.56930286 111:0.44512567 112:0.64893651 113:0.44822448 114:0.022826672 115:0.30360913 116:0.19324467 117:0.24186476 118:0.22552657 119:0.21098422 
10 0:0.47069791 1:4.1681833 2:1.422685 3:2.2653682 4:0.55215347 5:2.3660808 6:4.4359303 7:2.1413314 8:0.31654921 9:0.47239819 10:2.1542485 11:1.0009177 12:0.54152185 13:0.26450065 14:0.4777143 15:1.3482876 16:0.28843954 17:0.11336074 18:0.70112753 19:0.17413682 20:0.13202754 21:0.19935682 22:0.27099624 23:0.58514905 24:0.54830027 25:0.12081966 26:0.19317324 27:0.1675704 28:0.18164301 29:0.13816479 30:0.42624393 31:1.0604695 32:3.3429163 33:3.7783537 34:1.3518441 35:1.7188301 36:1.2806146 37:2.8170366 38:0.15285471 39:1.7834305 40:0.79139489 41:1.1700119 42:1.1776949 43:1.0106757 44:0.40089354 45:0.61707729 46:0.70907444 47:0.57485396 48:0.90901744 49:0.27424484 50:1.9376132 51:0.92073429 52:0.31135783 53:0.40897545 54:0.21582182 55:0.47589207 56:0.19995174 57:0.30627328 58:0.10115238 59:0.12427406 60:0.45524552 61:0.65555078 62:2.1563833 63:1.8462014 64:0.65097135 65:0.32904845 66:0.34730795 67:0.81809092 68:0.29691523 69:0.83464938 70:0.5764401 71:0.21763709 72:0.43685478 73:0.45845944 74:0.45173433 75:0.2625947 76:0.26679403 77:0.23931786 78:0.42322227 79:0.45606703 80:0.27009967 81:0.096664406 82:0.056923453 83:0.35835454 84:0.12633266 85:0.17678432 86:0.091499671 87:0.10723655 88:0.055552904 89:0.072228976 90:0.49991041 91:2.4360509 92:0.72006202 93:2.9906213 94:1.6758687 95:2.8106174 96:3.3060224 97:2.2621756 98:0.84512919 99:1.0676298 100:1.2984498 101:0.78990895 102:1.6959193 103:0.78312308 104:1.1489046 105:0.65937787 106:0.27151015 107:0.55766052 108:0.12399156 109:0.59878039 110:0.18021847 111:0.27794668 112:0.17982659 113:0.072240166 114:0.33517793 115:0.20286889 116:0.023280935 117:0.30923557 118:0.16541329 119:0.12281183 
10 0:0.44849202 1:2.2686832 2:0.78444391 3:0.9741146 4:1.2433637 5:1.7441388 6:0.46022108 7:0.63564855 8:1.8557837 9:0.542045 10:1.8676946 11:1.7737864 12:1.8204743 13:0.59030664 14:1.5000792 15:0.62279308 16:0.85102034 17:0.20670003 18:0.86925179 19:0.61555141 20:0.25090998 21:0.020380115 22:0.80152053 23:0.63121343 24:0.66891646 25:0.20650053 26:0.46375516 27:0.098191418 28:0.2668786 29:0.27297145 30:0.39267915 31:1.5374347 32:2.786396 33:1.6512965 34:0.21082561 35:2.8639886 36:0.16415189 37:1.1934917 38:1.613355 39:1.999814 40:1.6936187 41:1.2756032 42:0.94954896 43:1.1677413 44:0.59108257 45:0.99957317 46:0.61466748 47:0.5966509 48:0.8801145 49:0.34437308 50:1.1236069 51:1.4169812 52:0.54356509 53:0.22029966 54:0.64535779 55:0.26845959 56:0.5443356 57:0.29037336 58:0.26645789 59:0.22416522 60:0.17722283 61:0.85044903 62:0.57262439 63:0.86812204 64:0.60315061 65:0.81924617 66:0.12202248 67:0.16920082 68:0.35101822 69:0.44121611 70:0.27897456 71:0.61178517 72:0.53313768 73:0.15513334 74:0.60821944 75:0.32406822 76:0.3448818 77:0.28018841 78:0.075595669 79:0.13103931 80:0.30331361 81:0.17936471 82:0.15841404 83:0.09677837 84:0.097737297 85:0.11214547 86:0.052476164 87:0.06153696 88:0.11242169 89:0.21856846 90:0.082553089 91:1.8393965 92:1.2411764 93:0.58289629 94:3.2432055 95:2.671016 96:1.4491254 97:1.3545396 98:0.72387141 99:1.1279616 100:1.8116553 101:1.4196504 102:0.48450908 103:0.91176063 104:1.5348732 105:1.37491 106:0.98099262 107:0.88743329 108:0.66759759 109:0.45503262 110:0.65329015 111:0.30872342 112:0.43608084 113:0.38411471 114:0.37601063 115:0.098066777 116:0.24577633 117:0.12208503 118:0.25104284 119:0.042468484 
10 0:0.4052949 1:2.1062908 2:0.74842912 3:1.3334147 4:0.9444021 5:1.1588788 6:1.2562853 7:0.91114014 8:1.8584726 9:1.996917 10:2.0996728 11:0.64090431 12:2.7637708 13:1.0808322 14:1.4737334 15:1.0588717 16:0.14175782 17:0.42206833 18:0.6114943 19:0.12801783 20:0.38254416 21:0.20995018 22:1.0969145 23:0.64438164 24:0.29274583 25:0.3761546 26:0.45738631 27:0.35961205 28:0.12949938 29:0.12462259 30:0.20803374 31:1.5447187 32:2.0732596 33:2.5064149 34:2.7151625 35:0.72497016 36:1.3896875 37:1.749227 38:1.1409088 39:1.6658022 40:1.5862242 41:1.22211 42:0.75465423 43:0.82159048 44:0.46658504 45:0.91286182 46:0.4990482 47:1.0655166 48:0.44635737 49:0.8447935 50:1.5760348 51:0.65368903 52:0.25869501 53:0.32611412 54:0.19360986 55:0.27543047 56:0.54446447 57:0.12533963 58:0.28405365 59:0.099822946 60:0.22421727 61:0.14749004 62:1.032109 63:0.752388 64:0.52204525 65:0.5375042 66:0.9806177 67:0.88230473 68:0.12398207 69:0.64946121 70:0.70562708 71:0.34195599 72:0.088994913 73:0.21908414 74:0.11319162 75:0.56745714 76:0.44715965 77:0.24187776 78:0.20729472 79:0.13298179 80:0.33942267 81:0.22599898 82:0.16827452 83:0.26497456 84:0.16587971 85:0.1700497 86:0.21524711 87:0.076422028 88:0.20944834 89:0.12019458 90:0.68752509 91:1.6964611 92:1.5249195 93:0.73587745 94:1.9454359 95:0.872554 96:1.8698496 97:2.2092001 98:0.36097559 99:1.462204 100:2.9809024 101:0.963296 102:2.0175154 103:1.154236 104:1.7002418 105:1.408547 106:0.86676794 107:1.1038048 108:0.40717193 109:0.38213849 110:0.46153367 111:1.0679524 112:0.35635638 113:0.27270097 114:0.39041054 115:0.12420782 116:0.047204811 117:0.22953109 118:0.3252207 119:0.14674307 
10 0:1.2101905 1:1.9321619 2:2.2955563 3:2.1941128 4:2.5323467 5:2.7657304 6:0.88139826 7:2.6421802 8:0.92599285 9:1.357344 10:3.1279895 11:1.9576588 12:2.1523664 13:2.3877571 14:0.86482 15:1.4673268 16:1.6407481 17:1.1495092 18:1.0375922 19:0.94889122 20:0.79486197 21:0.78784382 22:0.1044447 23:0.50748569 24:0.50228631 25:0.35143316 26:0.080050938 27:0.20299736 28:0.071222834 29:0.13782524 30:0.71411628 31:0.7202847 32:2.9360964 33:2.9826064 34:1.3067614 35:0.65664703 36:1.3792468 37:2.1561739 38:1.8145096 39:1.7253063 40:1.4535728 41:0.64713752 42:0.97281998 43:1.7999978 44:0.92271709 45:1.4156446 46:0.44397807 47:0.5147841 48:0.5028125 49:0.12779464 50:2.3046188 51:0.68812656 52:0.35408649 53:0.21162333 54:0.41426277 55:0.59407198 56:0.24585256 57:0.21226546 58:0.22981666 59:0.20233545 60:0.63539481 61:1.4029232 62:0.93419588 63:1.8685297 64:0.85864764 65:0.89715153 66:1.3563374 67:1.3606145 68:0.38341644 69:0.46624646 70:0.86313295 71:0.10779385 72:0.41900826 73:0.5399161 74:0.40345979 75:1.3660884 76:0.73571831 77:0.73922348 78:0.21115813 79:0.15931755 80:0.47027048 81:0.24256191 82:0.31139475 83:0.14087908 84:0.11725363 85:0.082948938 86:0.13049747 87:0.031877566 88:0.19632059 89:0.037252091 90:1.7749304 91:3.0722091 92:3.4690397 93:4.4192767 94:4.0488997 95:2.6538563 96:3.1471226 97:3.1378908 98:0.87585729 99:2.3112051 100:3.4371977 101:0.63042665 102:2.6576939 103:1.1440572 104:1.3701149 105:1.8917691 106:2.3483765 107:1.8488015 108:0.74438745 109:0.70530558 110:1.4054554 111:0.32712761 112:0.12570396 113:0.58887625 114:0.64976102 115:0.54586542 116:0.24652939 117:0.23017272 118:0.17126456 119:0.21952178 
7.919829466390896 0:6.978663 1:11.508174 2:14.729303 3:10.965481 4:10.237282 5:7.1940675 6:1.9422807 7:2.9849253 8:2.9494469 9:3.014884 10:3.0510771 11:3.7289257 12:3.0742121 13:3.7964504 14:0.67373091 15:1.2301254 16:1.2485471 17:1.9420222 18:0.83184946 19:0.86691892 20:0.62702125 21:0.049681801 22:0.8330735 23:1.0794506 24:0.73823249 25:0.10999741 26:0.41189703 27:0.25027245 28:0.11260809 29:0.12162706 30:0.80218452 31:0.98531914 32:4.0114751 33:5.2079253 34:2.4471183 35:1.5299519 36:0.67771792 37:2.7917817 38:1.7383194 39:3.7678449 40:0.45682424 41:1.194554 42:1.3370734 43:1.823514 44:1.1429379 45:1.3377812 46:2.1063712 47:1.6368665 48:1.3687626 49:1.0215564 50:3.4840839 51:1.2550995 52:1.2438434 53:0.85603833 54:0.12050851 55:0.34913042 56:0.050590266 57:0.1469527 58:0.18946193 59:0.42927092 60:1.5348164 61:1.5357659 62:2.4649844 63:4.2078471 64:1.8730053 65:0.21694754 66:1.0121909 67:1.2816801 68:0.83759886 69:0.43391478 70:0.37338492 71:0.3231394 72:0.81994462 73:1.9979576 74:1.1470097 75:0.75116348 76:1.1836176 77:1.2027062 78:0.047466636 79:0.38410541 80:0.20086356 81:0.21957925 82:0.64707601 83:0.32650372 84:0.19173428 85:0.10434452 86:0.21224752 87:0.14144115 88:0.10347861 89:0.12351403 90:6.9145641 91:12.570927 92:17.250568 93:8.6374311 94:11.562629 95:8.0037117 96:0.25939336 97:3.4052107 98:0.99791831 99:2.7825801 100:3.1265697 101:1.3254015 102:2.9146488 103:1.7729036 104:1.989665 105:1.2990541 106:2.0409272 107:2.3893609 108:0.69019186 109:0.96418124 110:0.89922863 111:0.19872963 112:0.23482037 113:0.90791398 114:0.84212816 115:0.27915791 116:0.2937983 117:0.15942997 118:0.23425998 119:0.28994372 
4.404388837697702 0:4.4109225 1:21.283909 2:20.076521 3:6.1385403 4:13.34321 5:5.3635941 6:6.6012197 7:4.4571347 8:1.4322685 9:4.121057 10:1.2073308 11:2.120527 12:3.9011896 13:2.0615456 14:0.82396615 15:1.075418 16:0.64825618 17:0.80584413 18:1.377955 19:1.0889238 20:0.2996808 21:0.63579351 22:1.3476449 23:0.94100279 24:0.81061023 25:0.14668575 26:0.74942893 27:0.28124264 28:0.22860287 29:0.12335227 30:12.069545 31:10.192361 32:1.4871386 33:1.4442656 34:9.0964499 35:6.0258961 36:0.80171967 37:6.0782104 38:3.2943323 39:8.4097853 40:4.5885859 41:4.5379772 42:3.7289705 43:3.0334008 44:2.4860659 45:3.5372963 46:1.6492356 47:3.7789831 48:1.2744396 49:2.5692539 50:2.2436836 51:1.6312847 52:2.4249685 53:1.3447425 54:1.8952971 55:1.3483704 56:0.83338171 57:0.68412852 58:1.4073673 59:0.72039479 60:0.34231541 61:4.1462169 62:4.1059313 63:4.2241502 64:1.8612806 65:1.0583906 66:0.84681237 67:1.1277726 68:0.89948303 69:0.54341549 70:0.64933354 71:0.62111509 72:0.70868111 73:2.1425261 74:1.3073012 75:1.003016 76:1.2500869 77:1.5362036 78:0.50264496 79:0.46434188 80:0.15816502 81:0.28968883 82:0.75165981 83:0.041404042 84:0.53330326 85:0.48940411 86:0.16338153 87:0.055655241 88:0.29721749 89:0.27577114 90:4.6119556 91:22.220331 92:20.540018 93:4.3949761 94:13.215534 95:7.4287982 96:6.1568265 97:3.4388237 98:1.9504787 99:4.1999679 100:0.90655965 101:0.61045355 102:2.4885576 103:4.32973 104:1.910315 105:1.4119742 106:0.85171342 107:1.1788378 108:0.50409484 109:0.78337282 110:0.33778241 111:0.99854571 112:0.9483363 113:1.1089865 114:0.61651003 115:0.41228995 116:0.3524898 117:0.3067618 118:0.4809646 119:0.34989819 
1.188953215891988 0:4.4325223 1:26.2644 2:11.38812 3:4.9019122 4:12.799556 5:4.3505464 6:13.709762 7:3.0905466 8:2.5372181 9:0.60154837 10:4.784667 11:4.6606202 12:1.5805653 13:2.0203154 14:0.66936457 15:1.023652 16:0.68487948 17:0.92175615 18:1.2609781 19:1.9294759 20:0.95029497 21:0.86441129 22:1.1578519 23:0.7430771 24:0.94094682 25:0.45013139 26:0.24485573 27:1.1970946 28:0.66673607 29:0.62258953 30:34.347725 31:78.81488 32:70.240158 33:49.322559 34:33.357117 35:44.793243 36:34.893272 37:13.301533 38:6.6711745 39:11.148374 40:6.6546106 41:3.9384832 42:6.2212038 43:4.6496654 44:3.68573 45:2.6912084 46:0.58562487 47:1.5640208 48:1.4010153 49:2.363009 50:1.0863376 51:0.69840443 52:0.64442897 53:1.9993531 54:0.55793637 55:1.4565964 56:0.46893886 57:1.656109 58:1.3037695 59:0.70518404 60:2.0070262 61:2.5742869 62:4.3967166 63:3.1906047 64:1.6861237 65:2.2180581 66:1.4695308 67:2.589433 68:1.181224 69:1.3961164 70:1.2877806 71:1.1908132 72:2.1499321 73:0.40403685 74:0.84555143 75:1.7299957 76:0.15212563 77:0.54541892 78:0.43586922 79:0.70854044 80:0.49158368 81:0.39144501 82:0.54429394 83:0.17701516 84:0.4609887 85:0.23727804 86:0.064254425 87:0.056211989 88:0.23481575 89:0.23484696 90:4.7209544 91:26.922304 92:11.53732 93:6.5825353 94:11.526021 95:4.1777644 96:13.23675 97:2.6899812 98:2.1274903 99:0.96629739 100:3.1384151 101:3.8326502 102:0.67509961 103:2.7531867 104:1.0024306 105:1.4179311 106:0.89466929 107:2.3241665 108:0.53371602 109:0.54164022 110:0.75470537 111:0.57018483 112:0.97429627 113:0.44190171 114:0.76749682 115:0.83761305 116:0.51055461 117:1.0878363 118:0.41237682 119:0.53478897 
0.7527644320912358 0:2.728478 1:2.86779 2:3.8659873 3:3.9696157 4:3.8564727 5:1.9015719 6:2.6433859 7:0.94827938 8:1.3831992 9:1.5301641 10:0.64559031 11:0.46006379 12:1.6923058 13:1.5900396 14:1.2379967 15:1.3540528 16:1.4521368 17:0.49674854 18:2.7910743 19:1.0052984 20:1.0100644 21:0.72561604 22:1.6136792 23:0.13128012 24:0.32104489 25:0.58627081 26:0.45854053 27:0.21784924 28:0.34156895 29:0.38292295 30:12.996449 31:80.663612 32:86.893349 33:63.285053 34:50.979404 35:32.642731 36:23.967232 37:16.73036 38:12.26139 39:11.183902 40:3.7295108 41:2.2597957 42:1.5141417 43:1.2332436 44:2.0915751 45:3.4543302 46:3.0437632 47:0.7984544 48:1.4321752 49:3.7739019 50:1.7771195 51:2.0034909 52:2.5505891 53:0.64058506 54:1.6485546 55:1.1448889 56:1.0829378 57:1.3521129 58:1.4060713 59:1.826381 60:0.53019065 61:1.8737205 62:0.68636644 63:1.2072626 64:0.82910317 65:1.4471684 66:0.66683966 67:0.60289246 68:0.33129853 69:0.66412109 70:0.56915164 71:0.48445851 72:0.75768805 73:0.84621823 74:0.59024489 75:0.50706977 76:0.27983361 77:0.25799635 78:0.52876687 79:0.56081969 80:0.8037312 81:0.13695729 82:0.32362908 83:0.14755234 84:0.047176406 85:0.06551367 86:0.13118128 87:0.10792518 88:0.055304915 89:0.034962099 90:3.1370988 91:2.3891971 92:4.1541076 93:4.0716481 94:4.0721221 95:2.1994905 96:1.736704 97:2.2624924 98:1.5714991 99:1.6746273 100:0.80224752 101:0.7647242 102:1.048811 103:0.60836262 104:1.2544472 105:1.0012257 106:0.47576535 107:1.671679 108:1.7666415 109:0.49659473 110:0.47684464 111:0.63677555 112:0.5347535 113:0.065128572 114:0.19468907 115:0.39555463 116:0.30667582 117:0.35056669 118:0.2241078 119:0.02629452 
9.010450749393339 0:0.56126755 1:0.70805496 2:1.3911384 3:2.1628842 4:2.1739442 5:0.8267132 6:1.5175658 7:0.95411271 8:0.77941555 9:0.35514566 10:1.0380458 11:1.4486037 12:0.37973335 13:0.87229151 14:1.0422379 15:1.6597704 16:1.3986819 17:1.0181414 18:2.0730562 19:1.1619484 20:0.8143934 21:0.78824526 22:1.5224534 23:0.27464721 24:0.37078816 25:0.40000886 26:0.52149284 27:0.26262668 28:0.19536224 29:0.10978028 30:17.450079 31:18.25831 32:8.1499119 33:9.8082266 34:4.8588305 35:2.4850104 36:4.178452 37:4.0034814 38:2.9176753 39:2.036447 40:5.3586502 41:1.2882016 42:2.2228975 43:4.050477 44:0.6412276 45:0.76627457 46:1.3731658 47:2.81336 48:3.2131193 49:3.3657961 50:2.5109434 51:1.2318959 52:1.8733392 53:1.1371045 54:0.50112081 55:0.55342835 56:1.510846 57:0.93772435 58:0.58622855 59:0.40244594 60:0.59627259 61:0.35729834 62:1.0940596 63:1.2764385 64:0.63533729 65:0.95912325 66:0.59484923 67:0.3931129 68:0.48805013 69:0.5340969 70:0.24708892 71:0.44165364 72:0.85943484 73:0.19816245 74:0.14974192 75:0.070706792 76:0.29630959 77:0.73549706 78:0.25097346 79:0.38128182 80:0.43222812 81:0.48639405 82:0.25180674 83:0.080641553 84:0.11030304 85:0.0081749437 86:0.066649437 87:0.12459626 88:0.030488426 89:0.10150427 90:1.0737724 91:2.7477591 92:1.3074646 93:1.9052718 94:1.2776372 95:1.0459611 96:1.3838341 97:0.75968534 98:0.99154788 99:0.29390022 100:0.91722316 101:1.1665099 102:1.0707089 103:0.46707055 104:0.51202172 105:0.32882679 106:0.35459822 107:1.246874 108:1.4525136 109:0.39126584 110:0.93175989 111:0.40098688 112:0.82227957 113:0.65003258 114:0.09188728 115:0.28506169 116:0.33695173 117:0.38197652 118:0.099775583 119:0.25843546 
1.290110908808803 0:1.798395 1:1.1857666 2:2.0859244 3:3.5817823 4:5.6669488 5:1.9893764 6:3.4560654 7:4.5730891 8:3.9197857 9:2.2535226 10:2.5272861 11:2.014884 12:2.1503913 13:2.6135914 14:1.0774895 15:0.69377774 16:2.7607784 17:1.3634075 18:0.55752277 19:1.8182191 20:0.94762969 21:0.76399463 22:0.65742004 23:0.88408625 24:1.0003195 25:0.60634106 26:0.52950138 27:0.46325716 28:0.39557683 29:0.076676607 30:6.7894869 31:5.1766229 32:4.442071 33:2.7462351 34:0.97441059 35:5.2925911 36:1.8741733 37:0.90942043 38:1.5015442 39:2.536772 40:3.0221715 41:1.3165653 42:3.275722 43:1.1488221 44:2.3178535 45:0.95777631 46:1.3101256 47:1.064626 48:0.99581194 49:0.76665419 50:1.8465499 51:1.5503201 52:0.77775162 53:0.50801271 54:0.9589662 55:0.80211109 56:0.44972748 57:0.28817335 58:0.23004898 59:0.3876186 60:0.24547635 61:0.30118313 62:1.4734519 63:1.1732857 64:2.2146788 65:0.38243628 66:0.90832216 67:0.29759032 68:0.30725467 69:0.39493027 70:0.47803721 71:0.42854679 72:1.0433518 73:0.31189397 74:0.096736409 75:0.11761425 76:0.2105695 77:0.91917789 78:0.26068708 79:0.51866978 80:0.33408108 81:0.076566607 82:0.14373332 83:0.20908397 84:0.053864829 85:0.075049564 86:0.07610213 87:0.057813484 88:0.10763308 89:0.10880367 90:1.8998989 91:2.0565112 92:2.6428256 93:5.546741 94:5.2865734 95:1.1902825 96:2.6844184 97:4.9304481 98:3.8004138 99:2.0637779 100:2.8167794 101:1.8472512 102:2.9244277 103:1.4575318 104:0.76076537 105:1.4128281 106:2.8249552 107:1.1743916 108:0.94365323 109:1.8340888 110:0.89456314 111:0.93952566 112:0.31093869 113:0.70575571 114:0.4966487 115:0.38484141 116:0.42804515 117:0.1211353 118:0.27419621 119:0.23235029 
1.974176728757507 0:0.96851784 1:5.0431256 2:4.3192697 3:4.8023872 4:4.7380981 5:3.4328294 6:4.1804705 7:2.7065773 8:2.4044983 9:4.584722 10:2.5536749 11:1.332266 12:0.77059299 13:3.2923071 14:1.802359 15:1.3148993 16:1.0257396 17:1.6981521 18:2.1101348 19:0.71391654 20:0.71354401 21:0.4113085 22:0.41039789 23:0.72507197 24:0.70312786 25:0.40225637 26:0.31391478 27:0.36836463 28:0.0951887 29:0.16261576 30:5.6393185 31:21.401934 32:20.789503 33:8.805336 34:2.8094103 35:4.7423754 36:3.062341 37:2.5468354 38:2.4569883 39:4.5974021 40:0.96022916 41:0.58026707 42:1.9097165 43:1.3131249 44:1.3502856 45:1.9796827 46:2.5535302 47:2.1420689 48:3.0454996 49:1.0495402 50:2.9703872 51:1.9397907 52:0.93086308 53:0.33393022 54:1.0534976 55:0.74465305 56:0.54556811 57:1.0136787 58:0.34978154 59:0.33743641 60:0.2445588 61:0.99242288 62:0.30937767 63:0.60542345 64:3.0849209 65:0.53114063 66:1.893793 67:0.18077753 68:0.96378624 69:0.15663148 70:0.94691122 71:0.083081149 72:0.41324723 73:0.64337188 74:0.64330441 75:0.2870205 76:0.7512998 77:0.45575052 78:0.50419515 79:0.1981003 80:0.39299923 81:0.28069773 82:0.61763936 83:0.063242815 84:0.25324932 85:0.41823998 86:0.046189927 87:0.16230115 88:0.074200556 89:0.065471388 90:0.72810572 91:4.8260775 92:5.0415521 93:4.1582265 94:6.6577859 95:3.7923388 96:0.67113292 97:2.7119348 98:3.4143479 99:4.6430225 100:2.9049222 101:1.5637213 102:0.80429345 103:2.4799778 104:2.507545 105:2.6196337 106:0.17103887 107:1.6066033 108:1.2150944 109:1.2352717 110:1.0817509 111:0.34747121 112:0.63956368 113:0.4651801 114:0.68829393 115:0.7200551 116:0.073972695 117:0.26837137 118:0.22674175 119:0.16014166 
0.4660790273973177 0:3.6148469 1:5.7243953 2:11.677368 3:19.501741 4:17.270332 5:18.322767 6:14.220645 7:10.009653 8:7.05475 9:7.2330308 10:6.1270728 11:5.3233414 12:4.9606338 13:4.949594 14:2.2393882 15:2.0632441 16:2.979882 17:1.2111861 18:0.6085757 19:0.73101932 20:0.85992587 21:0.82209861 22:0.51737034 23:0.92955381 24:0.51471436 25:0.42691436 26:0.72935092 27:0.59664541 28:0.53349012 29:0.53858274 30:3.9020684 31:24.612406 32:16.687687 33:11.78665 34:5.2322993 35:4.91957 36:1.3213924 37:4.1794934 38:3.1326442 39:3.7984352 40:1.2523102 41:1.2156398 42:1.9886241 43:0.41657698 44:1.5780393 45:1.0060112 46:3.6211135 47:3.3860092 48:2.3632135 49:0.13645677 50:2.0792348 51:2.4953649 52:1.9802449 53:0.63607323 54:0.42391914 55:0.72544229 56:0.12697269 57:1.3639494 58:0.30748296 59:0.084828772 60:0.44368854 61:2.0457087 62:1.4506822 63:1.8524253 64:3.5062914 65:1.1867 66:1.0340834 67:1.0117918 68:0.37207535 69:0.90764612 70:1.4417307 71:0.23163846 72:0.63084334 73:0.73750752 74:0.69046617 75:0.84644735 76:0.46497205 77:0.96209437 78:0.28821635 79:0.36622715 80:0.48738456 81:0.22237934 82:0.37631133 83:0.092696801 84:0.074744947 85:0.39562511 86:0.037733261 87:0.12243968 88:0.039561518 89:0.085222557 90:4.0784106 91:4.93503 92:13.676454 93:19.597055 94:16.30192 95:17.239941 96:16.173321 97:9.929059 98:6.1623015 99:7.9434075 100:7.5795503 101:5.4842911 102:4.4014907 103:4.6695895 104:1.3682361 105:1.2831523 106:2.8419967 107:0.65192676 108:0.68790126 109:0.7360841 110:0.89958745 111:1.226697 112:0.59882754 113:0.89886028 114:0.59377098 115:0.83779544 116:0.63159031 117:0.72496295 118:0.64821768 119:0.59979326 
1.075960793685334 0:5.0747342 1:9.041503 2:12.002529 3:4.2437181 4:1.0700048 5:3.7056146 6:2.0240097 7:2.3099213 8:3.0524843 9:2.1220467 10:2.4729192 11:1.5829436 12:0.90643036 13:1.7201464 14:2.0094059 15:2.8233919 16:0.93866372 17:1.833445 18:0.83804137 19:1.5118402 20:1.3685508 21:1.0311219 22:1.1742579 23:0.6230824 24:0.73710299 25:0.4799476 26:0.4118107 27:0.18003297 28:0.29110971 29:0.12165403 30:8.7199917 31:14.571877 32:65.226151 33:47.099976 34:35.203323 35:18.114851 36:11.426273 37:12.26559 38:15.477795 39:6.4248343 40:4.1480727 41:9.1521816 42:10.446442 43:15.619185 44:19.275429 45:12.303351 46:18.525002 47:16.162672 48:14.238808 49:15.996531 50:14.645372 51:10.638516 52:5.9443288 53:4.8182421 54:6.0084686 55:3.1319962 56:3.6381023 57:3.4477482 58:4.0244536 59:3.4509792 60:0.39034471 61:0.86197448 62:1.006098 63:1.0407548 64:0.5613994 65:0.80423176 66:0.40706503 67:1.4839145 68:0.84994674 69:0.62570256 70:0.7243399 71:0.44982651 72:1.4222565 73:0.98180348 74:0.94673705 75:0.61081284 76:0.74475765 77:0.52758408 78:0.21671005 79:0.85595393 80:0.79867351 81:0.55003715 82:0.19930443 83:0.37445161 84:0.21139559 85:0.30589077 86:0.091329172 87:0.21455491 88:0.20736505 89:0.15242024 90:4.921453 91:8.0724554 92:13.665751 93:5.369257 94:1.6484671 95:3.5701032 96:2.2907135 97:1.9316301 98:1.8200048 99:0.632626 100:1.8087521 101:1.5258783 102:0.55911636 103:2.0389345 104:1.5822456 105:1.5885329 106:0.49681988 107:0.84745687 108:1.3676184 109:0.35462233 110:1.2491255 111:0.97015315 112:0.58702666 113:0.12738727 114:0.53169376 115:0.31557956 116:0.29016343 117:0.11051718 118:0.1499688 119:0.25745839 
0.9560137172580092 0:0.98837012 1:2.6858411 2:4.4874082 3:1.3232251 4:2.1640761 5:2.2607594 6:1.3574535 7:0.56740332 8:1.6049882 9:1.1021969 10:1.420807 11:1.3765799 12:1.7492346 13:1.7110538 14:2.9993527 15:3.1963446 16:1.3846846 17:1.9935999 18:0.47366142 19:0.51862669 20:1.7883389 21:1.2501959 22:0.98957491 23:0.67571294 24:0.51223695 25:0.48903859 26:0.20749842 27:0.77516091 28:0.44759259 29:0.67480934 30:15.188251 31:22.255289 32:54.898403 33:62.529621 34:45.13533 35:13.202174 36:16.072636 37:13.432404 38:16.86286 39:13.267017 40:8.0733471 41:11.492444 42:6.6835275 43:12.491385 44:19.541529 45:12.266719 46:20.645672 47:20.755131 48:10.287671 49:16.383869 50:13.823443 51:10.950252 52:5.2577467 53:3.8364151 54:6.1578608 55:4.3436046 56:4.1781626 57:4.7730126 58:2.6817894 59:3.589252 60:0.23950577 61:0.78672445 62:1.2924544 63:0.51038969 64:0.69920975 65:0.73943174 66:0.6474961 67:0.56039643 68:0.90774798 69:0.69302523 70:0.36497617 71:0.3670584 72:1.8209068 73:0.54485375 74:1.1047866 75:0.91436392 76:0.80048186 77:0.43637469 78:0.29115373 79:0.71050262 80:0.81875139 81:0.58762956 82:0.14936985 83:0.52179581 84:0.037063919 85:0.44631892 86:0.16651377 87:0.33706284 88:0.23990701 89:0.33276328 90:1.3991657 91:2.1562006 92:5.6689935 93:0.69983852 94:1.0959785 95:1.3892255 96:1.0799329 97:0.50853962 98:0.72215933 99:0.61099648 100:0.39018279 101:0.72187108 102:2.1746361 103:1.7970946 104:1.3983231 105:2.2072999 106:0.36189923 107:0.95676368 108:0.97546959 109:0.25309402 110:1.1207658 111:1.1671611 112:0.42004237 113:0.81695074 114:0.45031202 115:0.58483773 116:0.40502155 117:0.37417635 118:0.27743927 119:0.3927727 
1.43983906295197 0:0.91755027 1:0.62769359 2:2.288564 3:0.39489141 4:1.0244794 5:0.58690792 6:0.83436286 7:1.4427415 8:0.52858549 9:1.7476885 10:2.8159578 11:1.6072611 12:3.3967133 13:0.63571894 14:1.9345188 15:1.9319267 16:3.4243121 17:1.2827594 18:2.2086563 19:1.956561 20:2.8084154 21:0.53018707 22:0.51247841 23:1.4946238 24:0.78628063 25:1.0055908 26:1.3703138 27:2.2775574 28:0.96244955 29:0.58304459 30:20.222948 31:45.935524 32:57.967476 33:46.743633 34:70.064178 35:55.846207 36:54.442371 37:69.694778 38:67.286736 39:41.925961 40:2.1119123 41:14.944662 42:17.382378 43:15.280107 44:31.167301 45:41.110817 46:50.585533 47:34.977699 48:22.328041 49:7.494204 50:15.816023 51:18.454939 52:22.575562 53:20.333487 54:15.154202 55:10.831832 56:4.6423416 57:7.1043086 58:0.71346593 59:2.4293461 60:0.30703896 61:0.55076611 62:1.25853 63:1.2453409 64:0.28656024 65:0.98590559 66:0.7046892 67:0.33032548 68:0.77877814 69:1.7350098 70:1.4428232 71:0.55596471 72:1.9633436 73:0.78992349 74:1.1152805 75:0.51845378 76:1.871864 77:1.0080843 78:1.3320905 79:1.3432779 80:1.6696142 81:1.2552242 82:0.3867079 83:1.0217882 84:0.697685 85:0.75435042 86:1.0979141 87:1.4070272 88:0.41360369 89:0.37718913 90:0.46371251 91:1.5335892 92:3.1324084 93:0.77400124 94:0.97268361 95:1.3064755 96:0.24641852 97:1.8415612 98:1.579833 99:1.481022 100:1.8952639 101:1.5838902 102:3.5693483 103:0.93826634 104:1.6977097 105:0.86435831 106:2.0701957 107:0.96255225 108:2.5577841 109:1.0670645 110:1.4139034 111:1.4622269 112:0.3411994 113:1.2181646 114:0.46468472 115:0.89268655 116:1.1823984 117:1.559575 118:0.41707078 119:0.43502048 
1.442689090579742 0:6.7325592 1:14.375285 2:23.285446 3:28.814371 4:30.544655 5:28.292204 6:20.442497 7:9.6518536 8:7.3000693 9:10.626808 10:8.4354143 11:5.3030748 12:1.730526 13:3.9695337 14:5.6496925 15:2.9270363 16:3.5575869 17:4.2860804 18:1.8348104 19:3.5758128 20:1.2588067 21:2.0655298 22:2.3728912 23:1.0908068 24:1.5279294 25:0.99267703 26:2.5615869 27:2.1808262 28:2.2536194 29:0.74719745 30:63.169281 31:182.14351 32:257.73773 33:107.64085 34:87.645004 35:102.1891 36:29.986837 37:40.733944 38:33.711117 39:62.671204 40:28.410955 41:21.334476 42:25.036484 43:26.951021 44:46.057873 45:37.766289 46:47.07375 47:40.830605 48:44.955349 49:42.412235 50:25.430862 51:24.249887 52:24.645479 53:15.566665 54:17.175871 55:6.3379936 56:7.6271634 57:4.3219991 58:0.8786273 59:3.6115236 60:0.39854398 61:1.6040009 62:2.5218554 63:3.5364335 64:2.7545245 65:2.9815066 66:2.0644205 67:1.5375886 68:0.83186555 69:0.83256298 70:3.44209 71:1.7554629 72:2.3273852 73:0.56377512 74:1.7742794 75:1.8614045 76:2.590148 77:3.0118239 78:2.1490841 79:0.9563008 80:0.92756599 81:1.4131808 82:0.90582645 83:1.1166929 84:0.17884518 85:0.72670925 86:1.1661609 87:1.1225525 88:0.43467712 89:0.2167166 90:7.1405807 91:14.329559 92:24.62878 93:28.023529 94:30.546724 95:27.485016 96:20.092806 97:8.9791489 98:6.6286216 99:8.3792982 100:7.8320017 101:4.0558043 102:2.5901444 103:2.6205418 104:3.9582741 105:2.1711173 106:1.3294104 107:3.5737507 108:0.6998257 109:2.6823046 110:1.6871828 111:2.2368555 112:2.0026872 113:0.9145661 114:1.3505063 115:1.7216058 116:1.525153 117:1.7796043 118:1.4028906 119:1.025695 
10 0:0.62100577 1:1.3126545 2:2.5690784 3:2.338985 4:2.3321903 5:1.5891341 6:1.6941649 7:1.3014535 8:1.0165008 9:0.26261163 10:3.2681372 11:1.1110191 12:1.3934212 13:1.4540623 14:0.22106959 15:1.9459702 16:0.24668558 17:0.44732472 18:0.58008242 19:1.408989 20:0.58783203 21:0.72609752 22:1.3379817 23:0.64590555 24:0.14701901 25:0.57765412 26:0.16455905 27:0.19880988 28:0.039390422 29:0.016897732 30:0.74726862 31:0.46545291 32:2.064862 33:1.1311281 34:2.9223363 35:1.5758941 36:1.5339043 37:1.9854664 38:0.84074378 39:0.70759165 40:1.5636008 41:0.90580285 42:1.7593648 43:0.74318069 44:0.51587838 45:0.4751642 46:1.7919128 47:0.31406194 48:1.0138271 49:0.55897439 50:1.7001233 51:1.9495616 52:0.75389713 53:0.26244798 54:0.46016753 55:0.57364684 56:0.11636289 57:0.45886138 58:0.64187431 59:0.12815332 60:0.50962508 61:0.36466971 62:1.4406934 63:0.67917717 64:0.98042607 65:1.108955 66:0.58724248 67:0.47672489 68:0.075927965 69:0.20928788 70:0.74970639 71:0.14248857 72:0.6925326 73:0.24597681 74:0.89526981 75:0.37978813 76:0.51489335 77:0.19836624 78:0.36513713 79:0.093450986 80:0.20592427 81:0.47930175 82:0.22479086 83:0.3894653 84:0.1069579 85:0.194225 86:0.19517092 87:0.1701735 88:0.10769821 89:0.1533166 90:0.84393781 91:0.73655647 92:3.8461227 93:3.0294204 94:2.1080914 95:2.7206442 96:1.3721054 97:1.728514 98:1.7895108 99:1.861348 100:2.2673788 101:0.11429974 102:0.52506357 103:1.7001119 104:1.6272358 105:2.564122 106:0.73352814 107:0.85204166 108:1.1358519 109:0.99188256 110:0.32546404 111:0.16757762 112:0.67329693 113:0.25831595 114:0.16328843 115:0.59691054 116:0.19714552 117:0.098182641 118:0.16411808 119:0.35721305 
10 0:0.44668439 1:1.0198611 2:3.2482929 3:1.394039 4:1.2465992 5:1.4439292 6:3.0322347 7:0.67678124 8:1.7965204 9:1.5796583 10:2.1240232 11:1.3802989 12:1.2037842 13:0.85623783 14:0.41212994 15:1.6502122 16:0.24339314 17:0.12775791 18:0.74923754 19:1.3117138 20:0.83498025 21:0.53355205 22:1.4155566 23:0.45891815 24:0.49064654 25:0.26919901 26:0.34004736 27:0.1515529 28:0.24263293 29:0.23650631 30:0.22123708 31:0.31007671 32:0.45490289 33:1.968563 34:2.3401949 35:2.0394547 36:1.3519897 37:1.5326216 38:1.3345009 39:0.91425747 40:2.0815065 41:2.3721793 42:0.85110056 43:0.91744733 44:1.2758605 45:0.73175102 46:1.4547539 47:0.62204587 48:1.1899297 49:0.73116404 50:1.7312683 51:1.2194171 52:0.18971145 53:0.54192233 54:0.30336758 55:1.1374489 56:0.63744569 57:0.60430294 58:0.53930587 59:0.13429208 60:0.088774055 61:0.56299388 62:1.3737649 63:0.37435034 64:0.91823119 65:0.58924389 66:0.73328561 67:0.88648593 68:0.28788581 69:0.52850193 70:0.77772611 71:0.3204965 72:0.43257272 73:0.71023059 74:0.3555074 75:0.45206228 76:0.64619833 77:0.27986062 78:0.29504424 79:0.2082836 80:0.46074376 81:0.55473471 82:0.37343395 83:0.50778478 84:0.078540511 85:0.12082773 86:0.2087553 87:0.18376316 88:0.069258824 89:0.11900887 90:0.93690234 91:0.9199428 92:2.2089326 93:1.489105 94:2.1915388 95:2.4174156 96:3.5964584 97:0.75854796 98:2.4617772 99:1.3701113 100:1.0641744 101:2.0748377 102:0.99958354 103:1.0406508 104:2.1830151 105:1.408802 106:0.57374799 107:1.2373968 108:0.37010187 109:0.76956445 110:0.43343568 111:0.41733983 112:0.26437485 113:0.43438041 114:0.75549537 115:0.22307725 116:0.25872988 117:0.28296542 118:0.30761206 119:0.39435095 
10 0:0.95054477 1:4.6315093 2:4.0695124 3:5.0432138 4:4.9619598 5:2.4898736 6:2.5247488 7:2.3931222 8:4.5500183 9:2.4141505 10:1.743945 11:2.0451877 12:1.7242985 13:2.4789283 14:0.8467285 15:0.70742708 16:1.6123229 17:1.4429049 18:1.0538514 19:0.82934952 20:0.70811403 21:1.0782852 22:0.37993819 23:0.3122803 24:0.12174883 25:0.044336818 26:0.55547971 27:0.22708422 28:0.15891036 29:0.32838783 30:0.31672245 31:1.2654425 32:1.9352521 33:1.7655156 34:1.1794975 35:2.9640093 36:2.036293 37:1.3999602 38:2.1323149 39:0.99178636 40:2.6107855 41:1.2681366 42:1.9352349 43:2.6779149 44:1.4590967 45:1.1967424 46:1.4018815 47:0.85958874 48:0.76799798 49:0.84887737 50:2.994123 51:1.3031783 52:1.1380782 53:1.1130642 54:0.2797074 55:0.35134378 56:0.54533386 57:0.24402197 58:0.29712045 59:0.15186818 60:0.24909103 61:1.4194751 62:1.4331712 63:0.84523672 64:1.165082 65:0.70530814 66:1.1357601 67:0.61640877 68:0.65219998 69:0.42291468 70:1.2277802 71:0.47307926 72:0.5899809 73:1.4870945 74:1.5879931 75:1.2410746 76:0.44439951 77:0.49366823 78:0.83807027 79:0.94799054 80:0.98986024 81:0.50783801 82:0.28757852 83:0.072526596 84:0.23084837 85:0.16534731 86:0.16196425 87:0.29739282 88:0.087913491 89:0.07626383 90:0.71508658 91:3.8719485 92:5.6238971 93:6.9536362 94:5.6551876 95:3.9198325 96:2.4347875 97:0.8873502 98:4.49856 99:1.2377893 100:0.61889201 101:2.3565736 102:1.9378781 103:0.76559752 104:0.80857766 105:1.1986462 106:0.99767846 107:0.96843058 108:0.52681309 109:0.35836345 110:0.31137672 111:0.56011152 112:0.71491134 113:0.21851973 114:0.72738647 115:0.065500803 116:0.37687939 117:0.42044929 118:0.28394333 119:0.27685431 
10 0:0.71284151 1:2.1478639 2:4.8482289 3:5.1708603 4:5.5284934 5:1.5834383 6:1.5990522 7:0.55405009 8:4.4288039 9:3.4757335 10:2.7495816 11:1.644147 12:2.0580049 13:1.3287491 14:2.1914244 15:0.79055464 16:1.2579137 17:0.597911 18:1.1710805 19:1.0560707 20:0.35980314 21:1.4115448 22:0.92586023 23:0.8587302 24:0.91549724 25:0.38492078 26:0.56370348 27:0.12972945 28:0.46747935 29:0.069098085 30:0.15355673 31:1.1100379 32:1.9212741 33:0.72625387 34:1.3159692 35:2.2482667 36:2.0774932 37:0.62421119 38:0.16101685 39:2.1318347 40:1.8503528 41:1.0929255 42:1.6436714 43:2.6013889 44:1.3677137 45:1.2423514 46:1.9045035 47:0.96614003 48:0.97297639 49:1.1422122 50:3.675045 51:1.275417 52:0.57885832 53:1.2101595 54:0.66227734 55:0.67812216 56:0.49642706 57:0.75495595 58:0.12706383 59:0.17439766 60:0.27887636 61:2.1493242 62:2.2718601 63:0.53516626 64:0.3013517 65:1.1552604 66:1.3063463 67:0.67138004 68:0.96077091 69:1.1905605 70:0.81319517 71:0.52309829 72:0.70136386 73:1.4610339 74:1.1520282 75:1.7466787 76:0.94409227 77:0.91121036 78:0.85479623 79:0.98512751 80:0.65783805 81:0.71517712 82:0.46118253 83:0.4193601 84:0.59669185 85:0.16761887 86:0.24532622 87:0.55826885 88:0.27043679 89:0.25618777 90:0.76946884 91:1.427489 92:4.8968048 93:6.9722528 94:6.5789857 95:2.0328929 96:1.5922983 97:1.3620465 98:3.8293166 99:3.1858211 100:2.0179777 101:1.8575168 102:1.3301578 103:0.54727799 104:0.8239007 105:1.4141723 106:0.68735039 107:1.2760397 108:1.0128947 109:0.89380872 110:0.34854728 111:0.88372797 112:1.4123365 113:0.59073293 114:1.0868171 115:0.12439729 116:0.39569882 117:0.48804957 118:0.52957731 119:0.14081585 
