svm_type c_svc
kernel_type rbf
gamma 0.005
nr_class 2
total_sv 109
rho 0.147961 
label 0 1 
nr_sv 55 54 
SV 
0.9037590287001701 0:1.3035843 1:7.3769646 2:16.98547 3:12.188162 4:13.595101 5:9.3027449 6:8.3278313 7:6.8211293 8:6.7137079 9:4.2160501 10:1.7833607 11:2.4712291 12:2.0089409 13:2.1712606 14:1.0468664 15:1.0434475 16:2.4645102 17:0.85589135 18:1.0546194 19:1.6265459 20:0.49158841 21:0.36186153 22:1.1300725 23:0.50642323 24:0.23559634 25:0.34754509 26:0.3460924 27:0.28640667 28:0.3170079 29:0.57157087 30:1.0566046 31:3.9681115 32:2.7106524 33:4.0882583 34:4.1491122 35:2.5214157 36:1.2714784 37:2.8407564 38:0.23326306 39:2.042582 40:2.0293479 41:0.47563344 42:2.3962839 43:1.7344024 44:1.3894932 45:0.32872769 46:0.59974116 47:0.94303912 48:0.2700876 49:1.1284359 50:0.45258349 51:0.76651955 52:0.37904304 53:0.51411331 54:0.036143158 55:0.033235449 56:0.28042924 57:0.14170025 58:0.049855933 59:0.22956291 60:0.66145658 61:10.700089 62:2.6308513 63:8.0579796 64:4.403151 65:7.2120481 66:2.0189469 67:1.1061263 68:4.191021 69:1.0690719 70:2.5721004 71:2.0884602 72:2.9574645 73:1.2426465 74:1.7020206 75:1.3384104 76:0.30082846 77:0.70128196 78:1.0812804 79:0.76122886 80:1.2787006 81:0.1771704 82:1.3327438 83:0.77508599 84:0.44437295 85:0.43202332 86:0.20661658 87:0.14180866 88:0.30638793 89:0.23831858 90:2.0249691 91:6.1520925 92:16.860582 93:10.452246 94:13.091449 95:8.2243996 96:7.0835714 97:5.9517245 98:5.1933136 99:3.3769815 100:1.1619064 101:4.3500381 102:1.299915 103:1.7174847 104:0.7248199 105:1.5557441 106:2.3294835 107:1.7903184 108:1.0097761 109:1.1766759 110:1.3564185 111:0.6731565 112:0.59637111 113:0.82692271 114:0.15186141 115:0.69994342 116:0.32124972 117:0.3423118 118:0.35876971 119:0.26291004 
1.034071281027936 0:1.8746955 1:10.534275 2:13.487202 3:15.621037 4:10.368879 5:10.360855 6:9.3007689 7:6.7580509 8:5.1412702 9:4.0861731 10:2.7234855 11:2.0984657 12:1.6225104 13:1.5210122 14:0.98673666 15:2.2004716 16:1.5661435 17:0.70457894 18:1.2869629 19:0.43317801 20:1.3349864 21:0.9442389 22:0.13321339 23:0.91480887 24:0.4050906 25:0.61266041 26:0.26240242 27:0.203918 28:0.15653688 29:0.28624299 30:1.2612509 31:3.1252203 32:3.6778841 33:2.8809347 34:2.4609873 35:3.2982266 36:1.9808756 37:0.97597188 38:1.6185039 39:1.13361 40:2.302711 41:0.51349705 42:1.4269756 43:0.54680586 44:0.4739697 45:0.69989103 46:1.1586132 47:0.90121162 48:0.68300182 49:1.1859114 50:0.37398812 51:0.94020629 52:0.62520552 53:0.14343983 54:0.4579317 55:0.28115696 56:0.2448706 57:0.24908994 58:0.27906415 59:0.22000115 60:4.6339831 61:5.6317105 62:8.1759892 63:2.6592109 64:4.8261032 65:4.5299911 66:2.3223557 67:1.57899 68:1.7939526 69:1.9840935 70:1.5063571 71:0.89513338 72:1.2395384 73:1.0414623 74:1.1693074 75:0.68651086 76:0.061194368 77:0.90445888 78:0.37073934 79:1.365358 80:0.87994206 81:0.64645219 82:0.46638194 83:0.075451374 84:0.05752987 85:0.57945323 86:0.18646049 87:0.20379704 88:0.098550692 89:0.35436213 90:1.6434817 91:11.359602 92:11.301177 93:15.771519 94:9.4020958 95:8.2544098 96:9.0355959 97:5.04041 98:4.0179625 99:3.4750032 100:2.5492976 101:3.194273 102:1.0324367 103:1.7693218 104:0.85999352 105:1.6197498 106:1.8250885 107:1.7638707 108:1.1292965 109:1.543573 110:0.94165492 111:0.8439154 112:0.34908378 113:0.54533452 114:0.20543082 115:0.87859976 116:0.25068483 117:0.11770694 118:0.19742462 119:0.27958235 
1.843542616877138 0:1.1936226 1:2.6233315 2:3.8782699 3:4.2902441 4:2.7463191 5:1.3397684 6:1.2873868 7:4.2872043 8:2.9366565 9:2.0003021 10:3.2559173 11:1.5315934 12:1.1283041 13:1.9887853 14:1.6574318 15:0.74344796 16:1.7677536 17:1.1203694 18:1.0668218 19:0.3378883 20:0.60479271 21:0.88608664 22:0.27053416 23:1.0587285 24:0.4816556 25:0.47525391 26:0.23673843 27:0.35525328 28:0.26653999 29:0.46016794 30:0.39020097 31:2.4263833 32:1.8764895 33:0.69023144 34:1.5508608 35:0.84044766 36:2.4308147 37:1.7401727 38:0.34472644 39:2.752538 40:1.832505 41:1.5491322 42:1.0025671 43:1.6778046 44:0.093932889 45:0.50006747 46:1.3707018 47:1.1083392 48:0.28057045 49:0.94696206 50:0.10718753 51:0.28401229 52:1.3228151 53:0.5373401 54:0.15802169 55:0.34464568 56:0.23529141 57:0.25167203 58:0.11625164 59:0.1305269 60:2.064688 61:4.3331881 62:4.2697115 63:3.5355039 64:3.3457844 65:1.3047236 66:1.3147212 67:1.9030538 68:1.5004522 69:1.5680265 70:1.3986202 71:0.47059286 72:0.86806005 73:1.0563306 74:0.19050169 75:1.3614376 76:0.82777917 77:0.29305241 78:0.45525479 79:0.89399123 80:1.3648229 81:0.75862318 82:0.46656728 83:0.48596677 84:0.20111866 85:0.1344948 86:0.16307725 87:0.15447567 88:0.30034518 89:0.095915608 90:2.0757108 91:4.8110623 92:2.1940942 93:3.4020402 94:3.9030633 95:0.44496569 96:1.5303252 97:2.2995768 98:3.1660032 99:2.9910126 100:1.8718634 101:2.1860518 102:1.9011751 103:0.73012233 104:0.56986117 105:2.2854533 106:1.5866433 107:2.2492595 108:1.1556746 109:1.3070632 110:1.2901714 111:1.5033482 112:0.25410351 113:0.67588091 114:0.72038406 115:0.40635097 116:0.46868652 117:0.24212782 118:0.2709626 119:0.42314458 
0.834765020594868 0:0.95792621 1:2.1453183 2:4.1394796 3:1.8760246 4:3.1060219 5:4.6593065 6:3.2632992 7:4.205977 8:1.7345738 9:2.2764692 10:0.36856177 11:0.99561429 12:3.1842823 13:1.2283696 14:2.7887757 15:3.0781198 16:2.3790467 17:0.79770011 18:1.6048729 19:0.46987057 20:2.015759 21:1.0212263 22:0.64157981 23:0.22322816 24:0.54810137 25:0.5381465 26:0.39903837 27:0.44697711 28:0.072189331 29:0.20091181 30:0.48238057 31:1.2249637 32:2.1578007 33:1.7531693 34:0.90873808 35:2.9298563 36:1.8374302 37:1.4668854 38:1.4530715 39:1.5738286 40:1.5763189 41:2.1262281 42:0.97620368 43:1.3901476 44:2.0981562 45:1.323842 46:0.40523365 47:1.4892919 48:0.67705411 49:0.67550653 50:0.60137016 51:1.1938417 52:0.29597718 53:0.70713758 54:0.31339437 55:0.42849132 56:0.39494538 57:0.34818318 58:0.3779383 59:0.11648925 60:1.6399908 61:1.6827012 62:6.5220814 63:3.6370511 64:1.8856215 65:0.58970439 66:1.8537601 67:2.0808949 68:0.538324 69:1.2532942 70:0.88073301 71:3.7229185 72:1.3583671 73:1.0091462 74:1.2888988 75:3.1417375 76:1.7562246 77:1.7534399 78:0.78670239 79:0.23460136 80:0.76228958 81:0.90444404 82:0.79531026 83:0.22756648 84:0.25266835 85:0.20076138 86:0.51267469 87:0.34767893 88:0.028773732 89:0.15989068 90:1.1573409 91:1.7127084 92:4.570188 93:1.6334894 94:3.3288939 95:4.0159082 96:5.4826469 97:5.1883693 98:2.1817992 99:1.9481226 100:1.825829 101:1.7575232 102:1.9595464 103:1.547884 104:1.4738827 105:2.7266049 106:1.3476492 107:0.55545479 108:2.6238396 109:1.7588233 110:0.40336862 111:1.366504 112:0.59279227 113:0.14539656 114:0.31106067 115:0.66012424 116:0.45597863 117:0.35302287 118:0.28868139 119:0.12581788 
1.148306301684758 0:5.4908986 1:7.2987866 2:2.5625644 3:45.184685 4:38.654678 5:8.6653786 6:14.500341 7:8.7613792 8:10.380569 9:5.0719109 10:7.3981652 11:4.8244619 12:7.6363449 13:3.0747604 14:5.2118521 15:2.8338177 16:1.6503503 17:0.73118544 18:2.010998 19:1.9295592 20:2.0019705 21:1.8118087 22:1.1839101 23:0.24139915 24:1.3232143 25:0.86899418 26:0.54714608 27:0.47313383 28:0.21410644 29:0.55339617 30:0.91074675 31:1.3907745 32:2.0445659 33:12.421475 34:9.7504854 35:0.71313387 36:4.5171304 37:2.3218291 38:4.5366983 39:2.5935042 40:1.0356945 41:1.7540225 42:4.0140805 43:2.8030643 44:2.5324428 45:3.0694594 46:4.2030177 47:1.5024856 48:0.92123938 49:1.1011255 50:2.3683975 51:0.9175154 52:1.2273811 53:0.75071657 54:0.3611162 55:0.6277315 56:0.63167077 57:0.54293066 58:0.69355482 59:0.44857976 60:1.6177026 61:2.5857303 62:3.5655887 63:6.3813415 64:7.3701229 65:10.437844 66:0.66812438 67:2.2286031 68:1.6630173 69:3.8074129 70:1.6649975 71:1.1316458 72:1.7596631 73:2.0166092 74:2.8811073 75:3.2577701 76:3.9015403 77:2.8379726 78:2.0839598 79:1.6142634 80:0.33502197 81:1.6957657 82:2.5359855 83:0.58480895 84:0.42369136 85:0.25119209 86:0.80406559 87:1.0612626 88:0.40353647 89:1.2556391 90:4.6826892 91:6.6323328 92:2.3290632 93:47.334244 94:38.018482 95:5.9060721 96:13.48822 97:7.5978723 98:12.376608 99:5.917377 100:5.5056186 101:6.1592226 102:5.6141391 103:3.0774307 104:3.8537045 105:2.4820981 106:2.8817964 107:2.3942676 108:3.0878191 109:1.6487963 110:1.6047778 111:0.74511486 112:0.91613722 113:0.34335291 114:0.86144066 115:0.35643709 116:0.28621945 117:0.46859732 118:0.18280189 119:0.10902476 
1.148094533311665 0:2.6165755 1:19.755234 2:36.646549 3:16.191372 4:9.389369 5:22.922077 6:8.967041 7:13.307507 8:11.036684 9:1.2036983 10:4.7569962 11:5.1878309 12:4.3160014 13:3.1174178 14:4.5595655 15:3.8455379 16:7.7581167 17:1.3111044 18:1.6149884 19:1.2759089 20:1.8427186 21:2.5626974 22:2.4887235 23:0.996584 24:0.17545438 25:0.38623685 26:0.47805253 27:0.31569409 28:1.6930313 29:0.12714572 30:1.2223119 31:5.0173383 32:5.8077626 33:2.7979245 34:8.985095 35:4.9471288 36:12.954735 37:8.549181 38:10.398028 39:5.3917794 40:1.0009706 41:2.1137617 42:2.6016359 43:6.6665635 44:4.679462 45:4.9444828 46:3.7348638 47:1.3954773 48:0.39102975 49:2.5172334 50:2.3628557 51:1.9750931 52:2.3665967 53:0.33318228 54:0.89678997 55:1.0661347 56:0.48806879 57:0.88432378 58:1.2385488 59:0.92616397 60:2.2935705 61:16.614269 62:5.3305793 63:8.5250559 64:11.27214 65:5.4803543 66:12.688334 67:9.2616138 68:10.579221 69:5.3561473 70:1.3736749 71:2.634799 72:4.9699168 73:5.3177147 74:5.9814124 75:7.7741637 76:4.1108594 77:1.9589063 78:3.0407932 79:2.8951175 80:3.2850723 81:4.2529349 82:0.99862838 83:1.0208673 84:1.285291 85:1.6086425 86:1.2118098 87:0.86974472 88:0.83880734 89:0.63212746 90:3.3545101 91:19.877968 92:38.554573 93:14.760687 94:10.705391 95:22.392769 96:8.3030653 97:15.004229 98:9.7948513 99:2.987226 100:3.240972 101:4.1318979 102:6.3321447 103:4.0519152 104:1.6124989 105:4.74332 106:8.1065931 107:2.0398099 108:3.0184357 109:0.37373784 110:2.3215134 111:4.1945009 112:3.7634516 113:2.1042411 114:0.15858634 115:0.33706203 116:0.29264161 117:0.64133888 118:1.4702816 119:0.32203177 
1.147800567517119 0:6.2343183 1:13.095107 2:16.131758 3:8.3506927 4:10.659618 5:12.491144 6:11.525255 7:9.3153191 8:11.958892 9:3.5304637 10:4.0369163 11:5.6648464 12:6.4383307 13:5.240932 14:3.8113663 15:2.1309314 16:3.5700681 17:4.7311563 18:1.5997692 19:3.52052 20:2.5113673 21:3.6416006 22:4.1580315 23:1.6688989 24:1.6993576 25:1.2542326 26:1.121403 27:1.6225808 28:1.7072388 29:1.0280182 30:0.63785654 31:6.504962 32:2.5099716 33:5.2418289 34:3.5376987 35:7.9294453 36:12.116292 37:11.978042 38:8.2003803 39:4.8851171 40:1.0373553 41:1.761802 42:4.0233626 43:3.2481387 44:5.1931081 45:4.6610093 46:5.0315461 47:1.821746 48:0.25910097 49:2.5543196 50:1.705547 51:2.5896611 52:1.7909633 53:0.34137046 54:0.88274348 55:0.81752473 56:0.57107002 57:0.20647748 58:0.79523277 59:0.9275406 60:2.5991085 61:13.573486 62:11.711642 63:6.242619 64:6.92345 65:8.3323479 66:8.3596287 67:9.2408876 68:10.096951 69:6.3086238 70:1.9503179 71:1.6796513 72:3.6799841 73:5.9456258 74:7.1769729 75:7.5629206 76:4.9879994 77:0.90835828 78:2.6096883 79:1.4551094 80:2.853816 81:3.3191957 82:1.0569277 83:1.2210025 84:1.649653 85:0.88058919 86:0.85234433 87:0.95967555 88:0.38037056 89:0.047003485 90:4.9567504 91:13.736207 92:18.064787 93:12.391763 94:9.4427643 95:11.389961 96:9.9587498 97:12.260983 98:11.277556 99:4.2153058 100:2.1918316 101:4.6589332 102:7.7656035 103:4.8010898 104:0.43852642 105:3.4936814 106:5.4838009 107:3.0549655 108:2.8392179 109:3.2542543 110:2.3231866 111:5.5575409 112:5.8145876 113:2.1544926 114:1.3826762 115:1.6639615 116:0.84519958 117:1.9415451 118:1.5309421 119:0.92292434 
1.20134830103946 0:2.5116217 1:14.121603 2:22.047455 3:18.472504 4:11.944854 5:8.4029703 6:11.06278 7:11.441458 8:9.9019756 9:5.8433571 10:4.3307219 11:1.588775 12:1.137733 13:1.1275893 14:0.89866453 15:2.410619 16:0.65267062 17:2.4605219 18:1.3235933 19:3.4960818 20:0.87896603 21:0.36579296 22:0.33674517 23:0.59297419 24:0.73007554 25:0.80953908 26:0.72129858 27:1.0592641 28:0.41225606 29:0.081295103 30:2.4835289 31:1.5309526 32:7.7623186 33:8.2255049 34:1.8309342 35:3.1723232 36:1.3405831 37:1.1056932 38:1.057544 39:2.4482827 40:1.37817 41:3.2489676 42:1.2986174 43:3.5937264 44:2.557384 45:2.1707797 46:1.0466274 47:3.026016 48:1.1767342 49:2.3912904 50:0.61018574 51:0.84035337 52:0.70294583 53:0.86179638 54:1.1438352 55:0.83999217 56:0.43416426 57:0.6135931 58:0.2470801 59:0.36357632 60:2.3654592 61:10.554954 62:7.5572314 63:5.6973958 64:6.3701997 65:5.4166269 66:3.4480369 67:2.9178338 68:2.7442815 69:2.8299766 70:4.4410782 71:2.9198434 72:3.3781674 73:4.2311335 74:2.4536488 75:3.7832456 76:2.661236 77:2.8831635 78:3.5285082 79:0.85790926 80:5.0824966 81:1.0881703 82:2.0685456 83:1.131144 84:1.0135382 85:0.53403521 86:0.49820468 87:1.2544219 88:0.43642303 89:0.91513664 90:2.0544889 91:13.473704 92:21.39522 93:16.596617 94:8.6209383 95:9.2625074 96:9.8995056 97:9.4297781 98:7.6126204 99:5.8271947 100:3.9557958 101:2.2313483 102:1.5721552 103:2.6171796 104:0.7194736 105:1.209137 106:1.5915276 107:0.9655596 108:0.88209289 109:2.9859698 110:0.49106264 111:1.3936617 112:0.33592558 113:1.612139 114:0.8631143 115:1.078467 116:0.66836125 117:0.59090555 118:0.47942111 119:0.41819754 
1.158688972619611 0:3.7286911 1:16.01915 2:11.601901 3:11.032633 4:11.468624 5:4.4641781 6:3.8037415 7:5.5056109 8:3.0666418 9:0.33600652 10:1.5676402 11:0.47487819 12:1.1747923 13:0.39331821 14:1.1625892 15:1.6198771 16:2.4740644 17:0.26505041 18:0.72870553 19:0.90793633 20:0.67776316 21:0.58358932 22:0.42065713 23:0.04620941 24:0.37437266 25:0.97977996 26:0.85443473 27:0.60155547 28:0.45070061 29:0.72207201 30:2.0483329 31:4.7279768 32:1.0143371 33:3.0054219 34:1.8176091 35:0.10272186 36:1.7228413 37:1.3093098 38:1.5482596 39:2.7176926 40:0.77757418 41:3.6013639 42:1.3852012 43:2.9408462 44:1.4747947 45:2.6794982 46:0.15164149 47:1.0681318 48:2.5380111 49:0.1784009 50:1.2766739 51:0.93705028 52:0.79371905 53:1.0446219 54:0.25012285 55:0.3975414 56:0.2937791 57:0.2753064 58:0.52058685 59:0.14234407 60:2.2449265 61:6.5906596 62:3.9787986 63:4.7568731 64:5.1448865 65:5.2694621 66:1.6056725 67:3.1298382 68:0.82464248 69:1.6313224 70:1.4034625 71:1.9206084 72:3.358695 73:4.6756973 74:4.5044465 75:3.3981905 76:0.38757652 77:2.4540501 78:2.6587071 79:1.4176804 80:0.28957528 81:1.2013912 82:1.4047877 83:1.2561547 84:1.3349192 85:0.7820875 86:1.089244 87:0.64964634 88:0.15498964 89:0.6450755 90:3.5756025 91:17.254431 92:8.740943 93:5.4273872 94:13.266798 95:1.8642275 96:2.3435762 97:7.4396601 98:2.5116987 99:1.4197886 100:2.9176309 101:3.0012617 102:2.3685229 103:4.2118955 104:2.1170487 105:1.0929046 106:2.1704974 107:1.0622348 108:1.0325118 109:0.89046276 110:1.3157566 111:1.2842035 112:0.62450051 113:0.56983471 114:0.11299881 115:0.95324671 116:0.34518033 117:0.11613922 118:1.0693914 119:0.59519887 
1.109050940929877 0:6.5868816 1:9.8090458 2:10.813451 3:4.8898363 4:6.2143002 5:7.1490879 6:1.7141145 7:8.2687788 8:4.5102091 9:2.9910018 10:4.1962767 11:2.9541509 12:1.2890223 13:2.227834 14:1.9530288 15:1.6498905 16:1.5280044 17:2.5891128 18:0.62739331 19:0.77222776 20:1.5551471 21:0.72427875 22:0.78353822 23:0.23996623 24:0.8729803 25:0.48873642 26:1.0968194 27:0.78541642 28:0.56589764 29:0.45661962 30:2.6584046 31:1.7464099 32:3.6947064 33:4.3817873 34:3.4436429 35:3.1679554 36:1.9447585 37:2.2649353 38:2.4172907 39:1.9914364 40:1.4139613 41:2.5942411 42:0.63158077 43:1.1109511 44:1.7851279 45:2.8557785 46:1.0072892 47:2.3545012 48:1.4215813 49:0.93521965 50:0.68035454 51:1.7546989 52:1.3971474 53:0.56151408 54:0.59498179 55:0.5593214 56:0.26707777 57:0.39976832 58:0.87177342 59:0.10580571 60:3.0310462 61:3.0130403 62:3.5650756 63:7.5744605 64:4.389338 65:4.2571564 66:1.6137741 67:3.2125919 68:1.7977465 69:1.1667886 70:0.9692744 71:2.4356687 72:3.0719366 73:1.8299493 74:2.271193 75:4.4273424 76:1.9748666 77:0.72714788 78:1.2582294 79:1.4918816 80:0.57303435 81:0.34454641 82:0.81561208 83:1.3553233 84:0.77549636 85:0.65680182 86:1.2933667 87:0.57839978 88:0.44691548 89:0.674007 90:6.3970814 91:8.7997026 92:6.2610688 93:2.5198755 94:5.881124 95:2.1528792 96:3.9319103 97:5.5334549 98:1.6226043 99:2.3156924 100:2.7325928 101:3.0964954 102:0.22350839 103:2.8652837 104:0.97437626 105:0.50545615 106:1.1555783 107:1.5052613 108:0.24922253 109:1.3212547 110:0.3188512 111:0.50845361 112:0.55299187 113:1.0243912 114:0.32748288 115:0.66862983 116:0.49021092 117:0.74854743 118:1.0340108 119:0.5607127 
1.110226416685697 0:4.2212 1:15.929658 2:26.408871 3:27.878641 4:15.93166 5:19.784472 6:9.9481392 7:10.798636 8:4.4035811 9:7.1089277 10:2.639596 11:2.2563152 12:1.4392855 13:2.2124588 14:1.2091802 15:1.8474832 16:0.7988739 17:0.85068297 18:0.33008844 19:1.1135058 20:0.046696536 21:0.26957047 22:1.2495573 23:0.74872601 24:0.73195761 25:0.71481144 26:0.62505966 27:0.72835326 28:0.46017745 29:0.34639636 30:2.0509627 31:2.7173233 32:11.406976 33:5.547605 34:10.223623 35:3.6530058 36:4.629746 37:2.2756808 38:1.3183897 39:1.1753509 40:0.70761257 41:0.84989989 42:0.92410356 43:0.92844081 44:1.5127769 45:1.5204072 46:2.3823073 47:3.1241074 48:0.25947103 49:0.56332254 50:0.82088053 51:1.3345032 52:0.1955696 53:1.3756613 54:0.51796663 55:0.33988184 56:0.3053264 57:0.42575127 58:0.49195808 59:0.45188063 60:1.2142582 61:3.5894556 62:7.3238745 63:7.2788424 64:6.2187519 65:5.0123191 66:3.3511596 67:1.2918385 68:0.48688257 69:1.0120888 70:1.4401437 71:1.0736113 72:4.3325539 73:0.84444714 74:3.5451794 75:3.0082369 76:1.8188809 77:2.3633502 78:2.2915568 79:1.5378731 80:1.7172006 81:1.8739059 82:1.3204141 83:0.32894239 84:0.50482839 85:0.13609242 86:0.64063436 87:0.75536269 88:0.18083298 89:0.41091359 90:2.7026238 91:14.464973 92:23.788731 93:21.378431 94:14.096497 95:14.041844 96:9.1512995 97:8.0147772 98:3.0631428 99:5.6744385 100:0.52522045 101:2.7306094 102:3.0532594 103:2.1530011 104:1.4409264 105:1.1093488 106:0.67585808 107:0.89615756 108:1.4584786 109:0.29386574 110:1.5326358 111:1.3483986 112:1.3682439 113:0.44306037 114:1.0729446 115:1.1975433 116:0.75054282 117:0.61160702 118:0.5358364 119:0.1557745 
1.274461128874979 0:4.629272 1:8.0215235 2:3.5024483 3:4.9276652 4:2.6902611 5:3.5553002 6:4.1470823 7:4.932271 8:0.79705369 9:2.0238364 10:0.33883002 11:1.1267114 12:2.4903038 13:3.0855031 14:1.1535836 15:1.1755022 16:3.0030782 17:0.71334845 18:1.0865964 19:0.51924521 20:0.59171307 21:0.28008434 22:0.70582646 23:1.0241927 24:0.60270554 25:0.22402303 26:0.49152023 27:0.53158414 28:0.29688725 29:0.28176001 30:3.4437063 31:8.1263733 32:3.8064206 33:4.4986143 34:0.92527598 35:2.4611835 36:4.1958361 37:2.9807422 38:1.7649204 39:2.3318596 40:2.3743773 41:1.582513 42:0.51555961 43:0.63884962 44:1.7410486 45:1.3138186 46:2.560941 47:1.7055401 48:1.297088 49:1.0509647 50:0.62415993 51:0.28333384 52:1.486135 53:0.28320527 54:0.64753473 55:0.071677327 56:0.37372953 57:0.63311982 58:0.3842819 59:0.47080302 60:7.3438821 61:6.1142378 62:10.911112 63:6.7256656 64:1.2650832 65:0.80955881 66:2.5181692 67:3.6204069 68:2.281734 69:2.6307118 70:4.2242818 71:2.2137442 72:2.7313256 73:1.950418 74:3.3041787 75:1.8221571 76:2.1399913 77:1.3577907 78:1.6491803 79:1.6547555 80:0.28182739 81:0.52103978 82:0.67920423 83:1.0730418 84:0.52875459 85:0.46140426 86:0.25834352 87:0.38591152 88:0.10040621 89:0.3901197 90:4.659936 91:9.3091135 92:4.577425 93:6.3782187 94:1.3065118 95:2.3712735 96:3.0264056 97:3.4952488 98:2.8953221 99:2.8094752 100:2.2369881 101:1.9573835 102:1.6604223 103:3.4450574 104:1.8398054 105:0.14475256 106:1.0315109 107:0.89260983 108:0.61031586 109:0.93410408 110:0.74458373 111:1.1922441 112:0.46711183 113:0.88265276 114:0.81250829 115:0.51728028 116:0.25913605 117:0.25496367 118:0.21353331 119:0.19321454 
0.9512336832155477 0:0.99832124 1:2.6988282 2:1.4512669 3:2.9983966 4:2.2078879 5:3.8018074 6:1.8766315 7:3.1193917 8:2.0425074 9:0.27923849 10:0.83999938 11:2.0386138 12:1.2827464 13:1.8570758 14:2.6280329 15:2.2747018 16:0.79001856 17:1.4431953 18:0.18824555 19:0.22071032 20:0.01634069 21:0.55869502 22:0.16372442 23:0.29048619 24:0.30375656 25:0.47055268 26:0.37061727 27:0.68365866 28:0.31900972 29:0.28831407 30:0.45326585 31:2.7491136 32:2.5285418 33:0.23060405 34:0.6827842 35:0.78419918 36:2.7371383 37:1.5850949 38:1.7287053 39:0.3818028 40:1.3106117 41:1.989411 42:2.267678 43:2.823823 44:0.87071162 45:1.1746264 46:1.4373316 47:1.7723652 48:2.0776393 49:0.42439848 50:0.36941797 51:0.32018158 52:0.53373981 53:0.59493703 54:0.35971335 55:0.51670659 56:0.12204102 57:0.092163764 58:0.37182593 59:0.29224887 60:2.7785003 61:2.2319548 62:7.2821512 63:4.5278082 64:1.9267817 65:2.0850856 66:2.8351579 67:0.22575192 68:1.0188557 69:2.2456369 70:3.5485547 71:3.1409447 72:2.6732249 73:3.9408705 74:1.9672334 75:1.8276163 76:1.4209747 77:0.43791083 78:2.6515169 79:0.59737289 80:0.605856 81:1.0307056 82:0.57240272 83:0.34005561 84:0.45981646 85:0.56825733 86:0.26834688 87:0.39236507 88:0.20970714 89:0.25009918 90:1.5120242 91:4.8748541 92:1.2406825 93:5.1355224 94:1.4737314 95:3.8875041 96:2.3384068 97:0.81275839 98:0.074926026 99:2.105696 100:0.70005453 101:1.0104758 102:0.44796973 103:3.1854634 104:0.57842553 105:2.3885443 106:1.5446002 107:1.2028359 108:0.35973966 109:0.39589855 110:0.34162459 111:1.0331682 112:0.1157002 113:1.1127648 114:0.11495345 115:0.42375064 116:0.23535088 117:0.29023036 118:0.037846699 119:0.11291796 
0.3342100280657468 0:1.6650065 1:1.0633626 2:2.6371331 3:1.043583 4:2.2648935 5:6.7677107 6:3.4756494 7:1.1263266 8:2.065326 9:1.5074193 10:0.51013488 11:2.1106606 12:0.60914826 13:2.7953892 14:1.7549496 15:2.5545466 16:0.68937272 17:0.66438657 18:1.4470011 19:0.36383849 20:1.1353089 21:0.62336177 22:0.1689695 23:0.83401996 24:0.44912034 25:0.35005057 26:0.16391768 27:0.25413448 28:0.073951192 29:0.17827782 30:1.2525363 31:0.90542668 32:2.129029 33:2.6259046 34:0.95232677 35:1.0146451 36:2.6642106 37:2.214206 38:1.2407659 39:0.10867528 40:0.35643944 41:1.3245543 42:1.3938386 43:4.0454588 44:1.2839866 45:0.5530715 46:0.24544428 47:1.6849914 48:2.0181563 49:0.46713454 50:0.83341932 51:0.99255788 52:0.16690607 53:0.64001983 54:0.14679061 55:0.32542515 56:0.59713084 57:0.11723331 58:0.20715928 59:0.28192857 60:3.0914016 61:2.8570437 62:4.2277522 63:2.0410438 64:2.5308526 65:4.3005314 66:3.3182681 67:1.836831 68:1.5462048 69:1.6517326 70:3.173017 71:1.1161226 72:2.0275075 73:4.394516 74:1.1383263 75:0.29973835 76:1.5193347 77:1.9728566 78:1.2828104 79:0.75519943 80:1.3609505 81:0.78520191 82:1.550373 83:0.29699263 84:0.47057608 85:0.99883115 86:0.72651976 87:0.32618463 88:0.1427462 89:0.30492511 90:2.0332072 91:0.839109 92:5.1556239 93:3.4530687 94:0.3502323 95:6.4192715 96:0.92555803 97:1.7878573 98:1.577647 99:0.89792484 100:1.8618647 101:1.6341176 102:0.54391265 103:3.404953 104:1.074577 105:2.6354227 106:1.0818779 107:1.7074039 108:0.28702378 109:0.82524174 110:0.32051817 111:1.3608966 112:0.51388365 113:0.68531764 114:0.07932394 115:0.43337521 116:0.55534142 117:0.35738698 118:0.069320396 119:0.25233683 
1.021261014201363 0:0.76552892 1:2.8811424 2:3.7548454 3:4.1508656 4:2.2501342 5:3.7658939 6:3.4178274 7:2.4151053 8:2.2649498 9:1.0911292 10:1.0286794 11:2.1369972 12:0.72821975 13:0.30371207 14:1.4403882 15:1.3248019 16:0.8682611 17:1.4389254 18:0.72238332 19:0.37363321 20:0.94931817 21:1.5368087 22:1.0479839 23:0.46063399 24:0.33957401 25:0.23936453 26:0.34711909 27:0.094986446 28:0.093974531 29:0.31958431 30:0.18487972 31:1.7301956 32:4.1847296 33:0.88048363 34:1.4720734 35:1.1381435 36:0.14534099 37:3.759053 38:1.1249806 39:0.9818669 40:1.1942376 41:0.35172731 42:0.87345618 43:1.6678914 44:1.2062851 45:1.0168773 46:0.89946747 47:0.74146956 48:1.2050636 49:0.10766174 50:0.32002741 51:1.5708776 52:0.3426708 53:0.52113247 54:0.72465962 55:0.44032508 56:0.43776506 57:0.10524318 58:0.12187499 59:0.20570926 60:1.1913164 61:0.80232084 62:3.3319302 63:2.948719 64:3.0670745 65:2.7181571 66:5.1451702 67:2.727164 68:1.5149964 69:0.40873176 70:1.6452196 71:2.2297702 72:2.2726672 73:2.8106525 74:1.4420366 75:1.386121 76:1.1406628 77:2.7256353 78:1.6559125 79:1.0341078 80:1.1930277 81:1.0399109 82:1.2776465 83:0.58172876 84:0.52842522 85:1.3265944 86:0.38469154 87:0.31302807 88:0.058105871 89:0.37780732 90:1.0545571 91:3.9816597 92:3.524039 93:2.4043305 94:4.6540518 95:2.9542642 96:2.2608526 97:2.3919747 98:0.41652218 99:0.733926 100:1.1319702 101:1.5238872 102:0.90907466 103:3.1682339 104:0.97423017 105:1.0701368 106:0.23782021 107:1.2192299 108:0.5042516 109:0.9774375 110:0.19309714 111:1.5714769 112:0.13899146 113:0.10922816 114:0.46146098 115:0.17469946 116:0.49899924 117:0.26533788 118:0.24739885 119:0.42006874 
0.5753792687357446 0:0.39916432 1:4.6369805 2:2.1747794 3:6.4208164 4:4.043088 5:3.8606319 6:1.9612294 7:1.1262304 8:2.5652397 9:1.8217694 10:1.3632826 11:0.7134406 12:2.0674431 13:0.49831328 14:1.0640606 15:1.5320393 16:1.3536288 17:1.368037 18:1.6735162 19:0.98209548 20:0.037678152 21:2.1822102 22:0.48374385 23:0.35467359 24:0.56580359 25:0.38849726 26:0.68701077 27:0.48277187 28:0.50426447 29:0.18232962 30:0.80393285 31:3.3645957 32:3.0304589 33:3.5390952 34:0.85838032 35:1.4947981 36:2.6834855 37:1.5536344 38:1.0488653 39:0.75617665 40:1.0826907 41:0.9160611 42:0.68311608 43:1.2912632 44:1.8240172 45:1.1763968 46:0.94844592 47:1.4100878 48:1.5140079 49:0.23828277 50:0.15623556 51:1.3430113 52:0.43484563 53:0.37128621 54:0.97477233 55:0.63493729 56:0.27168998 57:0.24514066 58:0.34210908 59:0.11792704 60:2.0872035 61:2.6245451 62:4.0157704 63:2.5748975 64:2.5034406 65:0.55099469 66:3.7761405 67:3.7122676 68:0.94035131 69:0.8425436 70:1.1320173 71:1.8980426 72:2.2632396 73:0.79458272 74:1.468928 75:2.4154103 76:1.2089871 77:1.8111922 78:0.94156659 79:1.8159631 80:0.70717734 81:0.24739952 82:1.4482722 83:0.2928887 84:0.67330933 85:0.29900068 86:0.74910682 87:0.36587995 88:0.33527625 89:0.36612153 90:0.82073915 91:6.0503964 92:0.36466196 93:4.7284122 94:5.1116285 95:3.7185316 96:3.0224433 97:0.92876005 98:1.508307 99:1.7428939 100:1.3684692 101:1.7053351 102:0.68659818 103:2.558032 104:0.12422952 105:0.8673647 106:0.39736143 107:1.3897978 108:1.3511484 109:0.92912173 110:0.22533439 111:1.3456486 112:0.71283311 113:0.95663112 114:0.40998226 115:0.34649754 116:0.083637387 117:0.1598223 118:0.16844276 119:0.50239265 
0.4131155410360637 0:0.82635999 1:3.7003314 2:2.7369175 3:5.063283 4:1.9267985 5:3.9301651 6:3.4130313 7:1.7191479 8:2.1606562 9:0.791731 10:1.5582992 11:0.44339848 12:1.0390172 13:1.1840515 14:2.4578362 15:1.9746326 16:1.9840407 17:1.2541987 18:1.6769347 19:0.57281846 20:1.3692425 21:0.82710141 22:0.61831003 23:0.68402767 24:1.133844 25:0.21470922 26:0.6238209 27:0.68113619 28:0.39774054 29:0.93174165 30:0.7220754 31:1.8743367 32:0.58012831 33:6.0863953 34:2.5051682 35:2.3556273 36:3.1041112 37:2.1009855 38:2.4241056 39:1.0078481 40:0.87610656 41:1.4150618 42:1.5492222 43:1.7464315 44:1.5944004 45:0.62830478 46:0.38748014 47:2.3750961 48:1.0738511 49:0.77399957 50:0.33062437 51:1.2843289 52:0.83809066 53:0.41778255 54:0.45691171 55:0.90645587 56:0.23603424 57:0.28683284 58:0.11101634 59:0.3779158 60:1.4377255 61:6.5414767 62:3.6078563 63:0.78474927 64:0.078138739 65:0.50185233 66:1.7550112 67:4.9543424 68:1.7476208 69:0.8318305 70:1.282725 71:1.7349439 72:1.0949211 73:2.3245065 74:1.7238251 75:2.5572019 76:1.3445609 77:1.2039224 78:0.23625432 79:1.6144267 80:0.97218078 81:0.46750093 82:0.9874686 83:0.27037585 84:0.72784746 85:0.55938387 86:1.0496196 87:0.2854808 88:0.53354383 89:0.42369679 90:1.0044709 91:4.9243407 92:3.3035517 93:2.7838809 94:2.5858524 95:3.6071782 96:3.3574355 97:1.2793782 98:2.2454739 99:2.3872261 100:1.5276461 101:2.1389832 102:1.4960661 103:0.85051447 104:0.30296114 105:0.74227798 106:1.7300394 107:1.374773 108:1.1771773 109:0.40978247 110:0.83183283 111:1.5528935 112:0.73411971 113:0.70398289 114:0.92741036 115:0.36649787 116:0.17155929 117:0.4129124 118:0.32982036 119:0.4710311 
0.9607385623087438 0:7.4450607 1:5.4778132 2:11.819725 3:16.495113 4:10.767895 5:13.457695 6:5.7285748 7:3.4017749 8:2.2985733 9:2.7799714 10:1.1599967 11:1.1469035 12:1.3736546 13:0.37643516 14:2.1524861 15:2.8161011 16:1.1668794 17:1.1175547 18:0.90998423 19:0.67034507 20:0.82441747 21:0.81744093 22:0.93422252 23:1.1316559 24:0.76873851 25:0.42516744 26:0.92577505 27:0.35974288 28:0.46785823 29:0.68063104 30:2.9821537 31:6.3714714 32:4.0182247 33:3.9251337 34:5.3707819 35:3.7365866 36:4.6137667 37:3.2437725 38:1.7040935 39:2.1776056 40:1.3972707 41:1.0409893 42:0.32315382 43:2.5801799 44:1.106447 45:1.2740039 46:1.3567642 47:1.6110039 48:0.55400878 49:1.1676044 50:0.28488183 51:1.5249046 52:0.77219081 53:0.45369887 54:0.40305418 55:0.69970536 56:0.21535847 57:0.56033021 58:0.32956862 59:0.36161363 60:1.9751859 61:8.0766926 62:0.76568437 63:0.83685261 64:3.5429988 65:4.777925 66:2.9336805 67:2.6131158 68:1.9069148 69:1.2133305 70:0.59283942 71:0.77660447 72:0.27128536 73:2.5725372 74:3.0243034 75:1.8673239 76:0.58480364 77:2.4569592 78:1.9920789 79:0.59214634 80:0.98386902 81:0.91786915 82:0.99647403 83:0.3790769 84:0.83072537 85:0.67598766 86:0.90611231 87:0.089833632 88:0.72949195 89:0.29115444 90:8.285821 91:6.1103196 92:13.395053 93:18.384474 94:11.382287 95:9.7331629 96:5.9418583 97:5.2965713 98:4.2446709 99:1.8358613 100:1.5198998 101:3.0380504 102:1.8884976 103:1.478263 104:0.62430823 105:2.0096967 106:0.81944227 107:1.2345456 108:0.5902279 109:1.2562276 110:0.9643513 111:1.72712 112:0.46318015 113:0.81602532 114:1.2631328 115:0.50725275 116:0.98733616 117:0.44490811 118:0.35905534 119:0.26384225 
1.031161930347641 0:3.4802854 1:12.478008 2:23.296289 3:21.863331 4:10.806191 5:13.518159 6:5.1083193 7:2.250495 8:1.4645467 9:1.2452844 10:2.6672943 11:2.2539802 12:2.3719852 13:1.3526933 14:2.4706693 15:1.3558005 16:2.7726812 17:1.2570655 18:1.4290881 19:0.91593921 20:0.92587948 21:1.1807508 22:1.115477 23:0.79166979 24:0.92515373 25:0.63269126 26:0.59084785 27:0.32692528 28:0.27049765 29:0.11457994 30:0.43980181 31:5.5909996 32:7.6772966 33:4.8015709 34:8.0817957 35:1.3592252 36:3.4176109 37:4.1836591 38:1.6934599 39:1.870905 40:1.3718214 41:1.0167958 42:0.50046623 43:3.226059 44:1.1507353 45:1.3827906 46:1.2472086 47:1.7507812 48:0.63792616 49:1.2378161 50:0.4904111 51:0.17158256 52:1.0791548 53:0.24352865 54:0.2541306 55:0.32637724 56:0.27377382 57:0.42453846 58:0.447009 59:0.14607386 60:1.1171635 61:7.7074385 62:2.1726162 63:1.9413304 64:3.3456178 65:4.7752061 66:3.4183931 67:2.9703286 68:1.5867558 69:1.7001247 70:0.87617493 71:0.31554103 72:0.39434186 73:3.3988416 74:1.4341848 75:0.73462081 76:0.36656031 77:1.2302189 78:2.6240189 79:1.5214727 80:1.0220162 81:1.4589033 82:1.085447 83:0.59808433 84:0.82915974 85:0.47905359 86:0.17623757 87:0.58605868 88:0.58322936 89:0.17001721 90:3.3054039 91:11.566357 92:23.761463 93:23.043831 94:12.880864 95:12.748518 96:5.5660777 97:2.9979591 98:2.7873859 99:1.835205 100:4.4882455 101:2.8196836 102:3.0924423 103:0.39338747 104:1.7081387 105:1.5937783 106:0.69432658 107:2.0189734 108:2.0108109 109:1.3861165 110:0.40287027 111:0.83446932 112:0.51808 113:1.6611198 114:0.6177507 115:0.3074725 116:0.34068713 117:0.33582592 118:0.25084427 119:0.21611653 
1.079314868540348 0:1.1972898 1:5.4335747 2:5.0968814 3:5.2038331 4:3.7168026 5:1.586629 6:5.8159842 7:5.1954427 8:13.622074 9:1.3403368 10:1.1840438 11:4.3476939 12:1.8290164 13:2.1337762 14:1.4482021 15:1.0091391 16:1.3978852 17:2.0096397 18:0.9788034 19:0.8431837 20:1.4554279 21:1.5571061 22:0.90790576 23:0.37992942 24:1.1349944 25:0.34069324 26:0.38557011 27:0.73810941 28:0.98493707 29:0.52060455 30:0.27076828 31:3.4102402 32:2.7156389 33:4.135211 34:3.2110379 35:1.2607349 36:2.1415205 37:4.5783319 38:2.5294182 39:3.9942107 40:2.2865372 41:1.5503143 42:2.7445748 43:2.6352053 44:3.986243 45:1.616645 46:2.8020279 47:2.6361418 48:0.88505757 49:1.1373456 50:2.3179216 51:0.72331345 52:1.8117943 53:1.775589 54:0.80015898 55:0.65523905 56:0.28150454 57:0.35035995 58:0.14099073 59:0.63679928 60:1.6090814 61:4.7421494 62:7.5105834 63:10.574224 64:9.6229153 65:7.804245 66:3.7877758 67:5.1586695 68:3.2885439 69:2.4040079 70:4.3588057 71:1.4929782 72:4.0019174 73:3.0543594 74:1.9024503 75:1.4917967 76:1.2414093 77:2.5991919 78:3.0871534 79:1.6537086 80:3.8053102 81:0.93283689 82:1.7611201 83:1.5023192 84:1.0065418 85:0.27637419 86:0.37414598 87:0.12197872 88:0.61085987 89:0.37335312 90:1.3606068 91:7.5181913 92:8.2774487 93:11.565246 94:6.4510155 95:2.9167318 96:8.4691648 97:4.201014 98:5.8194704 99:2.0224621 100:0.45910633 101:2.7235909 102:1.1833987 103:1.1045189 104:2.16377 105:2.1173391 106:2.5362666 107:2.7578056 108:1.4870716 109:1.8735495 110:1.2174292 111:0.54050392 112:1.3676741 113:0.38189363 114:0.78265804 115:0.30991879 116:0.48915675 117:0.2957972 118:0.85909569 119:0.16962494 
0.4979387595651565 0:0.96688777 1:4.8699307 2:6.5265741 3:3.5298052 4:1.9772083 5:3.1648116 6:6.5561261 7:3.4009719 8:7.6489968 9:4.2865229 10:3.3513198 11:1.6986541 12:2.2488115 13:2.1617723 14:1.8386638 15:0.98458636 16:1.6124915 17:1.7410549 18:1.4327705 19:1.6326996 20:0.28188059 21:1.5419853 22:0.80444616 23:0.53694677 24:0.22643022 25:0.371838 26:0.47848135 27:0.11033191 28:0.096950009 29:0.45544338 30:1.3064765 31:0.86950797 32:6.1379905 33:4.4169421 34:3.5638418 35:2.2752006 36:2.4997966 37:2.7942536 38:0.72623616 39:2.9803588 40:1.4240711 41:3.354449 42:1.3658961 43:2.3910921 44:2.366626 45:3.017134 46:3.1469996 47:2.3283727 48:1.5261441 49:0.96278286 50:2.5494301 51:0.56998479 52:1.8260107 53:1.8569458 54:0.62296939 55:0.48372051 56:0.35294655 57:0.36701447 58:0.32059407 59:0.42232153 60:3.0315619 61:4.3459859 62:5.5242147 63:7.6848621 64:8.585043 65:7.1927853 66:4.1504703 67:4.1292195 68:1.2348753 69:4.7630363 70:1.7534555 71:3.2417526 72:2.9154391 73:3.3747911 74:1.9108568 75:0.7407794 76:1.5243691 77:2.1117728 78:0.23315191 79:2.5847764 80:1.1503141 81:1.4230276 82:2.4739606 83:0.46929631 84:0.49541679 85:0.99573189 86:0.27934438 87:0.19757234 88:0.93512636 89:0.54676497 90:2.3421934 91:6.5564389 92:11.352339 93:2.5543458 94:2.0477824 95:2.1703665 96:7.876749 97:5.2180119 98:3.539871 99:3.2138913 100:0.85458064 101:2.5878186 102:2.5615637 103:1.3484837 104:0.64619851 105:0.61022133 106:1.7690527 107:3.0257246 108:0.56751782 109:1.3688614 110:0.73087555 111:0.63252777 112:1.5416025 113:0.95282578 114:0.24352163 115:0.36792213 116:0.12841657 117:0.52753788 118:0.20015967 119:0.1933092 
0.4074133029512539 0:0.54259932 1:4.9797721 2:2.0120606 3:4.4251237 4:0.92685169 5:1.8807963 6:5.9658046 7:0.83914459 8:5.1661973 9:1.5830277 10:5.5384545 11:1.5383164 12:1.6266382 13:0.76335418 14:1.0613672 15:1.770426 16:1.1968656 17:1.958093 18:1.3338342 19:2.039104 20:0.15679857 21:1.451973 22:1.8215588 23:0.9683755 24:1.184009 25:0.43154058 26:0.43019047 27:0.21284497 28:0.49448529 29:0.51902175 30:0.98304361 31:1.1794194 32:7.0237637 33:4.8876772 34:4.0626144 35:1.0886729 36:3.0121648 37:2.5844676 38:2.0869057 39:2.3617015 40:1.5082577 41:1.9814972 42:0.30344412 43:1.9931612 44:0.90009147 45:2.8593142 46:0.86789268 47:2.0370014 48:1.666792 49:0.81978488 50:1.8089663 51:1.3141071 52:0.47656691 53:0.62327385 54:1.0673624 55:0.67305595 56:0.41716146 57:0.31027892 58:0.11876646 59:0.1108798 60:2.0498209 61:5.297658 62:4.590518 63:8.5897036 64:2.4128611 65:3.8191519 66:3.7987542 67:4.5629792 68:0.93232268 69:1.8121555 70:1.6632493 71:3.2359054 72:0.8099519 73:3.6636813 74:0.84175426 75:0.84459484 76:1.6555926 77:2.6909888 78:0.59010875 79:2.2600172 80:0.52656138 81:0.66387165 82:0.54514939 83:1.4736702 84:1.097535 85:0.64412922 86:0.45753604 87:0.63916206 88:0.32304552 89:0.80736762 90:1.2413054 91:4.2495551 92:9.1808882 93:4.3116708 94:1.6809149 95:0.46955726 96:6.1641464 97:1.7785236 98:1.6712475 99:1.6708391 100:2.4513087 101:2.2856517 102:1.6293956 103:2.1003687 104:0.70857906 105:2.2773421 106:3.7743125 107:1.966722 108:1.8450674 109:0.49534637 110:0.32104835 111:0.71567231 112:1.393015 113:0.53639746 114:0.39198124 115:0.47305164 116:0.072883755 117:0.29603869 118:0.18733044 119:0.24610102 
1.342510559258156 0:2.5753541 1:1.4127257 2:5.4973202 3:2.0251338 4:2.967756 5:5.0313501 6:4.0765605 7:4.3076158 8:1.3770894 9:1.093639 10:3.1089711 11:1.2311566 12:1.3349453 13:1.4237208 14:0.10314056 15:1.7206714 16:3.2433445 17:0.77260578 18:2.6019998 19:1.0437089 20:0.4354057 21:1.152372 22:0.61506319 23:1.3263345 24:0.88332295 25:0.11778224 26:0.73406583 27:0.59518391 28:0.34069872 29:0.24580078 30:1.0650861 31:2.4137502 32:5.2774315 33:4.6869502 34:6.2396197 35:2.5022573 36:2.1305189 37:2.194792 38:2.1117959 39:2.1373789 40:1.5125846 41:0.58222502 42:3.006932 43:2.4398954 44:1.331741 45:1.4902409 46:0.49429327 47:1.8777725 48:0.4440977 49:1.6328232 50:1.2366855 51:0.45252633 52:0.3277674 53:0.89325386 54:0.77980965 55:1.0969232 56:0.27333257 57:0.4545134 58:0.40994114 59:0.43191391 60:3.2487187 61:4.0376678 62:3.8805285 63:7.126411 64:1.6951028 65:4.2989221 66:4.0082984 67:5.3269439 68:2.9798989 69:1.807502 70:1.5143251 71:3.1318564 72:0.50789952 73:2.9672575 74:0.74851048 75:0.93649369 76:1.5561012 77:4.1000147 78:1.1322854 79:2.5423009 80:0.57982844 81:1.0757405 82:1.2585574 83:0.50610983 84:1.5119019 85:0.23735231 86:0.42555323 87:0.64334041 88:0.30464441 89:0.30709764 90:3.2870581 91:4.1681795 92:2.6310456 93:1.9967 94:2.4130871 95:3.1402869 96:3.4955549 97:2.2421916 98:0.91602254 99:1.0960373 100:2.7466207 101:1.7706517 102:0.24847323 103:1.6143321 104:1.4229208 105:3.7771943 106:0.81408322 107:2.8447049 108:2.0467238 109:1.7506914 110:1.0731924 111:0.90696907 112:0.73589563 113:0.11453244 114:0.56189185 115:0.88222355 116:1.014372 117:0.77250409 118:0.37404349 119:0.69591695 
1.099350463632311 0:0.43257979 1:2.1304567 2:7.6555481 3:1.8394456 4:6.5002503 5:3.7936289 6:0.95213854 7:3.6153622 8:3.2461512 9:1.7155361 10:1.9496669 11:1.1781198 12:0.97110558 13:1.2201217 14:0.60306203 15:2.1699574 16:2.5419075 17:1.0386431 18:2.027647 19:1.4409223 20:0.3670342 21:1.0212287 22:1.17614 23:1.1862707 24:1.1030502 25:0.62618738 26:0.97955954 27:0.30601892 28:0.19350998 29:0.31806391 30:0.44497597 31:2.712949 32:4.284029 33:3.4128222 34:5.0492873 35:4.6902695 36:1.8511981 37:3.2457767 38:0.38632345 39:2.1148796 40:1.5559275 41:1.7167648 42:2.7574151 43:1.6843268 44:1.7816577 45:0.94718856 46:1.0171956 47:2.3104589 48:0.94197685 49:1.3335931 50:0.58944446 51:1.7421941 52:0.58771861 53:1.786176 54:0.49441111 55:0.5719344 56:0.42455187 57:0.47085154 58:0.33383831 59:0.21642001 60:0.76807934 61:3.8393688 62:7.2885504 63:5.168725 64:3.85887 65:4.6467695 66:2.1632352 67:3.1317332 68:2.7578609 69:0.76259655 70:1.5806607 71:3.0696316 72:1.6952032 73:2.0280557 74:1.5480834 75:1.9296715 76:1.8794976 77:1.1427391 78:1.355503 79:1.5530356 80:2.2306561 81:1.3745329 82:0.27111197 83:0.88354576 84:1.2452557 85:0.55549949 86:0.53582114 87:0.64779234 88:0.4953557 89:0.45725754 90:0.67886943 91:2.2336502 92:8.2261486 93:3.9423842 94:4.0377536 95:1.8097746 96:1.6064373 97:1.1443993 98:2.4050798 99:1.7638298 100:2.6305573 101:3.1726978 102:1.2027514 103:3.0603046 104:1.6446177 105:3.2074125 106:0.8263793 107:2.8176763 108:2.1157193 109:1.8188294 110:1.4752667 111:0.96423274 112:0.54144639 113:0.70787996 114:0.78920603 115:0.93475509 116:1.1749341 117:0.62864703 118:0.47708866 119:0.46233383 
1.233248852753847 0:3.4894078 1:4.5478563 2:7.6526184 3:3.0244308 4:3.5557001 5:5.3608999 6:5.8973722 7:3.3802862 8:3.1199887 9:2.8514085 10:0.40745664 11:1.1505191 12:2.4407904 13:2.4863019 14:0.96162927 15:1.9457225 16:2.5614212 17:1.3449055 18:2.0679328 19:1.225064 20:1.4572042 21:1.829898 22:0.12223025 23:0.75608057 24:0.80874127 25:0.97806853 26:0.54725868 27:0.39009732 28:0.160238 29:0.5280515 30:1.7502944 31:4.7392659 32:2.5312278 33:6.0006175 34:7.6558366 35:1.131116 36:3.3660059 37:1.650715 38:3.1785471 39:1.9553107 40:1.4266847 41:2.4890685 42:3.4452338 43:2.0339398 44:0.9492833 45:0.92210948 46:2.3378506 47:1.3130454 48:2.1783185 49:0.98486799 50:1.8255634 51:1.1003643 52:1.2101296 53:1.7551855 54:0.84214181 55:0.17093594 56:0.41668239 57:0.72875744 58:0.29287305 59:0.49326006 60:1.2200798 61:4.6058741 62:6.6940489 63:4.7130055 64:4.1548247 65:2.3843517 66:3.5709393 67:3.7083704 68:3.4216447 69:3.4690533 70:3.9317155 71:1.5695839 72:1.7479863 73:3.5457592 74:1.4830682 75:2.1919363 76:1.5685608 77:1.0965457 78:0.82148683 79:1.4527497 80:1.6681967 81:0.42723194 82:1.0919783 83:1.4131207 84:1.3284854 85:0.84187853 86:0.6430546 87:0.80914545 88:0.49251112 89:0.67584282 90:4.7435808 91:4.9932132 92:10.752606 93:3.4842181 94:1.623811 95:4.9352965 96:2.4102705 97:3.6915503 98:4.4869394 99:1.8417534 100:2.4489875 101:4.201426 102:0.83310848 103:4.3613725 104:2.4181173 105:2.811322 106:1.365159 107:2.0140433 108:2.3502765 109:1.7684563 110:2.0981791 111:0.74567252 112:0.82926196 113:0.84552026 114:0.81279516 115:0.77916616 116:0.90091735 117:0.60997182 118:0.71519488 119:0.35382444 
1.032608288827211 0:3.9345458 1:18.67038 2:30.444757 3:23.435543 4:12.850655 5:11.741406 6:8.8962288 7:3.70117 8:1.5445272 9:1.0203227 10:0.38368946 11:0.91490406 12:2.6596067 13:1.2118243 14:2.8440216 15:2.0103362 16:2.8206449 17:0.57884407 18:1.0327276 19:1.9290836 20:0.74122047 21:1.8173605 22:0.73265332 23:0.83422655 24:0.44483128 25:0.42027208 26:0.64214623 27:0.35145912 28:0.51507813 29:0.49766257 30:2.8579838 31:3.2399821 32:7.3396497 33:11.435999 34:6.9124265 35:4.5226955 36:1.7790589 37:1.2110868 38:4.7451787 39:0.98617321 40:3.4569917 41:2.494451 42:3.1163375 43:0.49467662 44:1.6571139 45:1.0317742 46:1.5180749 47:1.8599726 48:1.7109147 49:0.53956705 50:2.4849043 51:1.0478144 52:0.63761616 53:1.615248 54:0.81020331 55:0.51870203 56:0.55816728 57:0.29086849 58:0.44143185 59:0.66821849 60:1.0542011 61:3.193635 62:1.743844 63:2.7258677 64:2.2857513 65:1.7774192 66:1.743766 67:2.8122675 68:2.5716009 69:2.0579352 70:5.1000795 71:3.6249983 72:2.6630936 73:3.4670601 74:3.3383129 75:1.3125299 76:0.80254585 77:1.6818774 78:0.35032466 79:0.37438354 80:0.92741156 81:0.23557633 82:1.3273246 83:0.92085409 84:1.6893847 85:0.27400357 86:0.5002346 87:1.0509199 88:0.43777141 89:0.51382786 90:3.3279412 91:17.161278 92:31.071012 93:23.535437 94:15.806581 95:9.8868694 96:6.6162195 97:4.3177576 98:3.160166 99:0.29298264 100:1.3521349 101:3.0851734 102:2.6905129 103:3.6052973 104:0.62185317 105:1.8195968 106:2.5300426 107:0.73938948 108:0.74205852 109:2.5022798 110:1.5314265 111:0.42987314 112:0.72980022 113:0.51882929 114:0.59117997 115:0.7958948 116:0.52290291 117:0.39421785 118:0.18464288 119:0.50056016 
1.332708539440371 0:7.8642206 1:20.109827 2:17.007105 3:10.254442 4:5.8460269 5:5.3453884 6:6.0829082 7:1.4718499 8:3.6546879 9:2.887882 10:2.4804528 11:1.1226503 12:4.1306548 13:1.2528535 14:3.4963005 15:0.5114159 16:3.9572186 17:2.7878957 18:3.2937405 19:1.1237216 20:1.3287883 21:2.1781354 22:1.0426105 23:1.9783163 24:1.3111937 25:1.388201 26:0.93249238 27:1.0443904 28:1.0197021 29:1.1027733 30:2.6739419 31:8.4752598 32:3.9547341 33:3.9065242 34:2.6263595 35:3.0260317 36:1.7050298 37:1.7742896 38:1.6268668 39:1.5587517 40:2.2327611 41:1.4374706 42:0.85163856 43:1.0601383 44:1.4566967 45:1.2521213 46:0.50721991 47:0.49245825 48:1.1628531 49:1.6294206 50:1.9673673 51:2.8550313 52:0.79136366 53:1.2897822 54:1.0909829 55:0.40809533 56:0.58760768 57:0.75924844 58:0.32847878 59:0.29152703 60:0.64576858 61:4.8532305 62:0.97218192 63:1.3001978 64:3.0433288 65:2.8294461 66:2.2119741 67:2.3886011 68:2.6050014 69:0.70095325 70:1.5303898 71:0.66773438 72:1.2980437 73:2.2901044 74:1.9811227 75:1.3196242 76:3.1021783 77:1.4437622 78:3.3617942 79:0.70068002 80:2.5528159 81:0.74340069 82:0.98006064 83:0.42913046 84:1.1425446 85:0.74468255 86:0.93132097 87:0.87456644 88:0.41338095 89:0.28087091 90:6.7170391 91:16.509012 92:17.495161 93:8.9225502 94:6.4475422 95:8.1549978 96:8.2286253 97:2.9671624 98:0.79165328 99:4.8288951 100:1.7333201 101:1.3461176 102:3.9715042 103:3.1030381 104:2.0567694 105:5.077323 106:2.73348 107:1.6458561 108:3.9709344 109:0.48758706 110:2.0666537 111:1.2068163 112:0.88132882 113:1.6776339 114:1.5751042 115:1.246713 116:1.3984505 117:0.7891205 118:0.96713686 119:0.87295032 
2.048479006073566 0:0.53798145 1:0.34975263 2:0.44782338 3:1.2035648 4:1.228508 5:0.71834302 6:2.9048676 7:2.0976176 8:1.5231408 9:0.7941156 10:0.85844374 11:1.2690544 12:1.6955335 13:0.14956446 14:1.054481 15:1.3601637 16:0.46247411 17:0.97413534 18:0.39911607 19:1.6867458 20:0.9007588 21:0.86720258 22:0.18145326 23:0.78470045 24:0.015057245 25:0.14234777 26:0.29847309 27:0.19317353 28:0.045046303 29:0.12175678 30:0.23074009 31:0.81746531 32:0.96232551 33:0.55986351 34:0.17214814 35:1.4944632 36:1.258582 37:1.4239392 38:1.3187881 39:1.4920808 40:1.3199028 41:1.5757946 42:0.62105411 43:0.79656184 44:0.72984582 45:0.89555919 46:0.56408238 47:1.9581863 48:0.46720392 49:0.36957118 50:1.6418128 51:1.3598676 52:0.6893338 53:0.36245292 54:0.36238045 55:0.36384946 56:0.31630215 57:0.22328229 58:0.27597603 59:0.2243893 60:0.13239984 61:0.14846003 62:4.1421161 63:2.1385617 64:3.9233618 65:1.6807361 66:1.6020267 67:0.15260619 68:1.8178173 69:0.46001965 70:1.8422613 71:1.8985336 72:1.3004044 73:1.4007875 74:1.7843775 75:1.7635577 76:0.41742188 77:0.98842782 78:2.3205063 79:1.5717791 80:0.77136511 81:1.3600847 82:1.0749794 83:0.66388625 84:0.85662884 85:0.57357043 86:0.86358738 87:0.31354216 88:0.34710035 89:0.24092773 90:0.4755294 91:3.5230083 92:2.312469 93:1.4237528 94:2.1693242 95:4.481884 96:2.9863708 97:2.0420613 98:1.1913816 99:1.3086582 100:1.9540892 101:0.79019839 102:0.50628155 103:1.1133374 104:0.75073314 105:1.1666149 106:1.0003926 107:0.99012768 108:0.49030071 109:0.36573115 110:0.97777021 111:1.4284165 112:0.57441974 113:0.084698804 114:0.30933484 115:0.25092772 116:0.32590246 117:0.23908144 118:0.14952958 119:0.084237091 
0.9707551159523731 0:1.2544565 1:1.204187 2:1.4159147 3:1.9402356 4:1.4548322 5:1.7120539 6:1.6991363 7:1.0221235 8:2.7618394 9:0.73258507 10:0.84591901 11:1.3708133 12:1.0644729 13:0.69705641 14:0.77281368 15:0.96480399 16:0.93680501 17:0.4735972 18:0.47088638 19:1.7282411 20:0.56877637 21:0.32856855 22:0.72544408 23:0.79126024 24:0.7436763 25:0.45422652 26:0.41870698 27:0.42328292 28:0.49651378 29:0.29744801 30:0.96928179 31:1.4777027 32:0.94935149 33:1.4148616 34:0.6620307 35:1.9317318 36:0.4779937 37:1.6902266 38:0.76034909 39:0.82647395 40:0.78851855 41:0.33770946 42:1.0677129 43:0.75853109 44:1.136934 45:0.32548088 46:0.92469299 47:1.8482298 48:1.1770196 49:0.47015551 50:1.4286351 51:1.6308861 52:0.50369632 53:0.7395454 54:0.62484396 55:0.29141155 56:0.47805941 57:0.25415555 58:0.41357565 59:0.1859317 60:1.1660113 61:2.2617657 62:0.94151247 63:6.1897364 64:1.7911389 65:3.381155 66:1.1688547 67:2.0257783 68:0.50298083 69:0.62091559 70:1.0577651 71:3.3260822 72:0.69723564 73:2.586484 74:0.77728623 75:1.5964857 76:0.44215426 77:1.2470795 78:0.88026804 79:0.18328595 80:1.4763688 81:1.1504233 82:1.0991377 83:1.6023076 84:0.69094354 85:0.4948374 86:0.80745959 87:0.53198266 88:0.31133983 89:0.35194182 90:0.48160154 91:3.3793788 92:3.3731685 93:2.1288199 94:2.5640159 95:3.3907239 96:4.3044906 97:2.1529584 98:0.72512704 99:0.49253705 100:1.056316 101:1.5725164 102:0.54851359 103:1.5938954 104:0.73148149 105:1.2641207 106:0.56917506 107:1.5706508 108:1.2507088 109:0.95825499 110:0.46780232 111:1.7108235 112:0.44559452 113:0.12547645 114:0.20901348 115:0.43110862 116:0.22025256 117:0.52804172 118:0.42522353 119:0.17641735 
0.334281102826776 0:0.389541 1:2.1333566 2:1.1648966 3:2.7302113 4:2.1898789 5:1.0344676 6:1.5027328 7:0.20519678 8:2.9715085 9:1.2910274 10:1.9668227 11:1.4169934 12:1.4666631 13:1.3987184 14:1.8543262 15:1.1195356 16:1.3641366 17:0.44147235 18:0.44864726 19:0.91078627 20:0.76055646 21:1.2488111 22:0.84231597 23:0.50836456 24:0.41375193 25:0.69643104 26:0.15548159 27:0.090854868 28:0.41727298 29:0.072212398 30:0.33709338 31:2.6268578 32:0.76035064 33:2.1692832 34:0.70100886 35:2.0111699 36:0.48514786 37:1.114042 38:1.1891066 39:0.4707 40:0.58607268 41:0.82322115 42:1.1119099 43:0.67580128 44:1.1224678 45:0.38457689 46:0.76824063 47:2.3511024 48:0.20423602 49:0.90169519 50:0.75095713 51:1.0673479 52:0.52930015 53:1.3006086 54:0.66932213 55:0.41847211 56:0.51923096 57:0.26803452 58:0.6588921 59:0.28548133 60:1.1419818 61:1.8823073 62:2.6901069 63:2.7256074 64:2.511802 65:1.6175389 66:1.1005698 67:1.5744978 68:1.4276474 69:1.4005135 70:1.3090874 71:2.232511 72:1.3889215 73:2.7342844 74:2.2021353 75:1.4711807 76:0.24840647 77:1.2594249 78:0.41424081 79:0.68460137 80:0.67441398 81:0.70188498 82:1.5505552 83:1.3221786 84:0.60380864 85:0.69950134 86:0.42564708 87:0.60833806 88:0.46181476 89:0.43930694 90:1.1108263 91:3.930876 92:3.1223209 93:0.94182158 94:1.4927156 95:2.0286324 96:3.1804678 97:0.48852727 98:0.81338418 99:0.43199036 100:0.63653427 101:1.648571 102:1.3273301 103:0.92588449 104:1.5367577 105:1.1558708 106:0.19380133 107:1.6519182 108:1.0679272 109:0.20409308 110:1.2006525 111:0.60151559 112:0.59254307 113:0.17881177 114:0.78447932 115:0.62919182 116:0.46587938 117:0.805251 118:0.38926128 119:0.14986499 
1.910639605721858 0:0.93249851 1:3.9229476 2:1.3412765 3:2.7495024 4:1.0881587 5:3.6327028 6:2.7815571 7:1.2268424 8:2.6693661 9:0.63745677 10:2.7990677 11:1.0781198 12:1.4109774 13:1.4390223 14:1.123997 15:1.4760759 16:0.89941937 17:0.48800775 18:1.8174785 19:0.56311446 20:0.81054521 21:1.144731 22:0.4827016 23:0.8283816 24:0.13324985 25:0.43469131 26:0.47423577 27:0.24742566 28:0.79231888 29:0.37607953 30:1.2750312 31:3.2673974 32:2.2678359 33:2.8058302 34:1.0196639 35:1.1548892 36:1.4709738 37:1.5809163 38:1.5629553 39:0.62147206 40:0.55122191 41:1.0671806 42:1.343013 43:1.0440154 44:0.38399804 45:0.90948611 46:1.0720781 47:1.4569124 48:1.6910893 49:0.47190836 50:1.4146643 51:0.32066476 52:0.64378744 53:0.81934303 54:0.38558286 55:0.95534378 56:0.3462072 57:0.57817483 58:0.74526447 59:0.30784249 60:0.90876216 61:3.65955 62:3.7068088 63:2.2963588 64:3.1183116 65:1.10918 66:0.59473509 67:1.2918196 68:3.1627555 69:1.8376336 70:0.54042411 71:1.1262836 72:2.2737052 73:1.3808422 74:0.61958331 75:0.67451602 76:2.3301134 77:1.773416 78:0.7306416 79:0.52595443 80:1.5268707 81:2.5026286 82:0.46831143 83:0.60941648 84:1.1326258 85:0.59775758 86:0.83488929 87:0.19611952 88:0.50038511 89:0.18755817 90:0.66031873 91:3.7099633 92:2.9057925 93:2.7606382 94:0.85689121 95:4.2014976 96:2.1053061 97:0.70480663 98:1.2964026 99:2.1365616 100:2.1389523 101:1.9115884 102:0.92900091 103:0.59578472 104:1.0336336 105:2.01805 106:1.1683795 107:1.2125902 108:1.158546 109:0.4762114 110:1.9313651 111:0.41367158 112:0.36154717 113:1.2059284 114:0.054057639 115:0.50720704 116:0.32885107 117:0.93655103 118:0.84040827 119:0.32408753 
2.117946913756291 0:0.5206939 1:1.5358646 2:5.2256246 3:1.9772663 4:2.4150038 5:4.1912684 6:2.3741786 7:1.877672 8:0.20909116 9:2.5433252 10:0.92814839 11:0.78031772 12:1.7860314 13:1.7466122 14:0.97131056 15:1.3772638 16:0.47506797 17:1.621434 18:1.2976332 19:0.30500755 20:1.0940567 21:1.2269298 22:0.39809719 23:0.43132427 24:0.49612921 25:0.50280654 26:0.20574477 27:0.5142141 28:0.45936888 29:0.29322752 30:0.77039629 31:0.91069567 32:5.7204728 33:2.0819271 34:2.2109756 35:1.3572048 36:1.0806942 37:2.1066322 38:1.2463295 39:0.38507581 40:1.219308 41:1.9731913 42:1.1731548 43:0.32852399 44:0.49931416 45:1.6243074 46:1.6401243 47:3.0277979 48:0.34730369 49:0.57130533 50:1.790306 51:0.38937011 52:1.3458697 53:0.38177937 54:0.047846217 55:0.73565221 56:0.13705863 57:0.17395832 58:0.22581877 59:0.22718444 60:0.49585551 61:2.1378715 62:2.6731153 63:1.5235029 64:4.4629931 65:2.7404895 66:1.8269184 67:3.3398161 68:1.8624918 69:0.23770633 70:0.83083051 71:2.4258287 72:1.8677076 73:0.090956628 74:0.3172287 75:1.3900882 76:3.0736885 77:2.2846572 78:1.0603615 79:1.033571 80:2.6167097 81:1.3907053 82:0.67604417 83:0.58099967 84:0.95930427 85:0.80379969 86:0.77141315 87:0.36493412 88:0.058799531 89:0.14852092 90:0.18848574 91:2.0437391 92:5.2852426 93:2.1143041 94:2.6534293 95:3.0275779 96:2.1601777 97:2.6619921 98:1.5148884 99:3.0788326 100:2.073611 101:1.7943347 102:0.77818775 103:0.766128 104:2.197551 105:1.1048225 106:2.2028592 107:1.6100093 108:1.2094675 109:1.3304305 110:0.60090518 111:1.3796881 112:0.21936542 113:1.2614756 114:0.5941695 115:0.131891 116:0.39601505 117:0.72487903 118:0.46636853 119:0.47753868 
2.879676535804691 0:0.79629976 1:2.03456 2:1.8935721 3:2.3204565 4:2.1061811 5:2.1786904 6:2.1958687 7:0.67412424 8:3.2941284 9:1.1398183 10:2.5428298 11:1.2327601 12:0.91155392 13:0.93272275 14:0.31810793 15:1.0717428 16:0.80394006 17:1.4711884 18:0.64383501 19:0.92919427 20:1.3790201 21:0.59249419 22:0.50676322 23:0.90085924 24:0.53728551 25:0.45125142 26:0.59040242 27:0.48212683 28:0.098254554 29:0.2166838 30:1.532969 31:1.0068233 32:0.88999033 33:2.8969116 34:2.1760192 35:1.3676611 36:0.56471217 37:1.6352261 38:1.4092882 39:0.64309609 40:1.2047457 41:0.49906334 42:1.027047 43:1.5138547 44:1.3429196 45:0.82628614 46:2.0203433 47:2.6546307 48:1.8458773 49:1.2609288 50:2.4879177 51:0.72037756 52:1.2339206 53:0.75101393 54:0.15998079 55:0.45222679 56:0.52550763 57:0.32474077 58:0.32729498 59:0.17256317 60:0.44874611 61:2.6813936 62:2.2140796 63:0.48058999 64:0.37580031 65:1.3729265 66:0.50498867 67:1.6910537 68:0.49466297 69:1.997401 70:0.86748123 71:0.90718418 72:1.2323666 73:0.83766747 74:1.9204236 75:3.7996066 76:1.3990248 77:1.9236908 78:0.26171148 79:1.1981838 80:1.6819609 81:0.82116497 82:1.5707341 83:0.45012185 84:0.46661314 85:0.76655012 86:0.7464847 87:0.70212001 88:0.42436481 89:0.13918443 90:0.86501133 91:0.84417814 92:1.9484344 93:3.4635017 94:1.3510216 95:2.3778982 96:3.0856206 97:1.2806165 98:3.12848 99:1.2820541 100:1.709748 101:1.1744812 102:1.0612035 103:1.2288914 104:1.0759541 105:2.625248 106:0.61329484 107:0.49805802 108:1.9986182 109:0.49503097 110:0.81743181 111:0.46200681 112:1.2184285 113:1.1276324 114:0.61898172 115:0.47465393 116:0.39555266 117:0.36580941 118:0.31063625 119:0.36758512 
3.737768972702389 0:0.52881485 1:1.7347305 2:2.130688 3:2.9383266 4:2.2455401 5:2.7423782 6:0.56984305 7:2.2041025 8:1.7383021 9:1.0480834 10:0.87321872 11:1.5704622 12:1.1772053 13:1.1367496 14:0.77575111 15:0.59431922 16:1.076803 17:1.1633432 18:1.0196911 19:1.2962718 20:0.23784402 21:0.6152156 22:0.6265406 23:0.64633715 24:0.63936675 25:0.35343724 26:0.43090165 27:0.14736743 28:0.30928621 29:0.090945683 30:0.24427874 31:0.98586988 32:1.6073816 33:2.5284886 34:1.4897901 35:1.0428669 36:1.1549709 37:0.60545409 38:0.54512894 39:1.9947543 40:0.85488009 41:0.53619677 42:1.2308018 43:1.9402052 44:0.26801693 45:1.4046549 46:0.96515459 47:1.7442303 48:0.19184165 49:2.7720301 50:1.7622913 51:1.3646208 52:0.74222451 53:0.17803769 54:0.337672 55:0.12773232 56:0.30053532 57:0.34397739 58:0.3189038 59:0.37088642 60:1.1815494 61:3.2591965 62:0.95248568 63:1.036801 64:1.543023 65:3.2486041 66:3.1706278 67:0.99267828 68:1.149943 69:2.9507866 70:0.90346944 71:1.0385998 72:1.0924429 73:1.592391 74:2.3743813 75:2.4881971 76:0.64719069 77:1.5844896 78:0.6889655 79:1.5826907 80:0.73712265 81:1.8692842 82:0.86802876 83:0.14489402 84:0.85625404 85:0.85026348 86:0.47665569 87:0.88054484 88:0.63402104 89:0.11031135 90:0.27994174 91:2.3566151 92:0.59263068 93:1.2438284 94:0.60827267 95:3.0639038 96:0.60743237 97:3.8173909 98:0.84675896 99:0.66419858 100:1.0862465 101:0.30408278 102:1.5495567 103:1.5612429 104:1.1155853 105:1.7823536 106:1.7810123 107:1.4949833 108:0.98978615 109:0.4668631 110:0.68279582 111:0.79198921 112:0.89868701 113:0.10852636 114:0.087804861 115:0.17438416 116:0.4707559 117:0.13565639 118:0.47984469 119:0.30027428 
1.087415505699068 0:0.73619545 1:0.68167335 2:0.46160665 3:4.6009417 4:3.2320735 5:1.997576 6:1.3662852 7:0.56038284 8:0.59681314 9:0.35707605 10:0.73460972 11:1.1955367 12:0.64822286 13:0.90851194 14:1.2489225 15:0.35220838 16:0.69637817 17:0.32183614 18:1.4044404 19:1.5276201 20:1.0267949 21:0.44799206 22:0.80845487 23:0.93048054 24:0.35245603 25:0.29952651 26:0.25555047 27:0.37493876 28:0.34528181 29:0.084050365 30:0.7103799 31:1.7798021 32:1.4814286 33:0.66329348 34:1.6784003 35:0.73439711 36:0.97770619 37:1.8091006 38:1.3825114 39:1.4959981 40:0.56373328 41:0.73515087 42:1.18152 43:0.71984583 44:1.8360542 45:1.5866549 46:0.4630529 47:2.1242056 48:2.3710854 49:1.723792 50:0.65055466 51:1.9861577 52:1.6387497 53:0.20707816 54:0.5655418 55:0.20213063 56:0.29751864 57:0.21518372 58:0.074774757 59:0.16162863 60:0.41818044 61:1.402025 62:3.1680112 63:1.3077883 64:2.299819 65:2.8294768 66:3.0781548 67:1.4434773 68:1.1673262 69:3.1406794 70:1.8174238 71:1.9716039 72:1.3405979 73:1.0430588 74:1.2800897 75:1.8692285 76:1.9378994 77:1.7527442 78:1.655393 79:0.60204715 80:0.40068039 81:1.7733617 82:1.0107886 83:1.097813 84:0.44958639 85:1.2600709 86:0.60846341 87:0.32910421 88:0.038313229 89:0.34278828 90:0.2116257 91:0.77483851 92:3.996222 93:3.3919954 94:3.4575121 95:2.4566646 96:2.0556328 97:2.6605659 98:1.3059605 99:1.8554083 100:1.621811 101:2.7096612 102:1.1648586 103:0.64267623 104:1.1268014 105:1.2584928 106:1.3273895 107:1.3400269 108:0.66811067 109:1.054379 110:0.69231457 111:0.72378838 112:0.41027284 113:0.57891238 114:0.81779677 115:0.25130942 116:0.4782967 117:0.48084161 118:0.39740488 119:0.31965253 
1.14757574125267 0:6.4810061 1:16.683954 2:24.142607 3:12.841829 4:3.1273901 5:11.23082 6:4.7530489 7:8.1720352 8:19.122353 9:12.860254 10:6.9531813 11:13.184033 12:7.780128 13:8.3509731 14:2.7087634 15:5.3586793 16:2.4750986 17:3.2772477 18:3.310523 19:3.7051907 20:4.5187626 21:2.2798169 22:3.6054683 23:3.0681067 24:2.9094086 25:1.8276539 26:2.6491983 27:2.3338535 28:2.0273132 29:2.0651991 30:1.6578524 31:3.9575872 32:3.1394176 33:3.9273593 34:2.1165552 35:1.334288 36:1.3102331 37:1.3243395 38:0.59584445 39:1.1341234 40:4.2803931 41:2.6866579 42:2.6913505 43:3.2266974 44:3.9171782 45:0.29297897 46:1.6580057 47:1.2395852 48:1.4635519 49:1.2562615 50:2.0831094 51:0.45750713 52:1.2026515 53:0.59751242 54:0.92250091 55:0.45101088 56:0.77706856 57:0.35031551 58:0.50057441 59:0.2840932 60:2.4834895 61:7.5637999 62:11.89465 63:12.539705 64:10.067311 65:8.1834288 66:8.0526905 67:0.37838694 68:9.1578398 69:8.7932615 70:7.7577243 71:6.0908761 72:2.4524128 73:4.4118795 74:2.265425 75:0.69360375 76:3.8197203 77:4.526947 78:0.32919165 79:5.4075699 80:2.1646144 81:4.3267331 82:2.0286233 83:1.439272 84:1.1513354 85:1.0548213 86:0.87522936 87:1.0003561 88:0.76461732 89:0.3549757 90:6.1573286 91:12.261287 92:26.643465 93:11.245442 94:3.0939 95:13.187743 96:6.6361632 97:13.819888 98:18.982445 99:5.8987198 100:9.4574661 101:13.316607 102:4.3098359 103:4.500771 104:6.0045905 105:7.2935119 106:6.2698832 107:7.4660802 108:4.8806872 109:1.4758569 110:2.9041851 111:0.93401462 112:4.0793085 113:3.5661635 114:2.7252061 115:2.0796013 116:1.341977 117:2.8118916 118:1.8000125 119:2.165787 
1.147724294907216 0:2.288471 1:15.178755 2:50.60585 3:27.701214 4:18.282085 5:20.180511 6:9.2742081 7:15.251638 8:19.213755 9:2.9890566 10:9.4679289 11:5.1102314 12:3.2195444 13:3.618443 14:4.7378407 15:0.9323023 16:1.5871398 17:2.1358547 18:0.74519145 19:1.2456708 20:2.4714832 21:0.2136289 22:1.4176333 23:0.37139577 24:0.99416524 25:0.28932461 26:0.54171789 27:0.318883 28:0.11232296 29:0.70718569 30:1.9977436 31:3.3964484 32:10.081234 33:4.6968136 34:1.5208113 35:1.2984183 36:1.6738992 37:2.6038651 38:3.1076255 39:2.4779794 40:3.9065199 41:0.74934202 42:2.1345739 43:3.4570885 44:2.909436 45:1.8100235 46:2.328095 47:0.73648262 48:1.5129042 49:1.9942173 50:0.72371775 51:1.3044146 52:0.58916187 53:2.3131363 54:0.74881017 55:0.31721929 56:0.76167274 57:0.66073728 58:0.54684275 59:0.48564646 60:13.483654 61:15.526425 62:26.489296 63:18.950638 64:14.855963 65:13.795624 66:6.5647144 67:5.3432422 68:7.8652487 69:8.1528244 70:6.419467 71:8.8658056 72:0.69167489 73:4.360044 74:0.52613735 75:2.5913472 76:2.3694692 77:4.3945231 78:1.6718481 79:6.7681284 80:1.017045 81:4.3125215 82:1.6854455 83:2.1891961 84:0.68994629 85:0.83956188 86:1.3037989 87:0.1936454 88:0.58232117 89:0.36269522 90:1.3294559 91:12.623331 92:47.947163 93:19.652126 94:14.314162 95:22.457851 96:4.9969177 97:19.929649 98:18.235962 99:5.0935059 100:11.110287 101:6.4320593 102:1.954033 103:6.6074748 104:1.4170191 105:4.2594256 106:3.4746194 107:5.2400122 108:3.475863 109:1.1925787 110:1.808365 111:2.2047422 112:0.83157098 113:2.1493282 114:0.75820655 115:0.22871491 116:0.63339156 117:0.63449484 118:0.69407052 119:0.69497651 
1.149595786300143 0:9.0495176 1:25.365776 2:38.934208 3:33.43449 4:17.338379 5:14.627748 6:16.090651 7:12.087667 8:10.960914 9:7.9125485 10:4.4228578 11:1.7047487 12:1.5990676 13:4.5486226 14:3.8475692 15:2.3638625 16:1.54028 17:2.3037996 18:1.3628308 19:2.0152237 20:2.089853 21:0.43110412 22:1.5010111 23:1.0764984 24:1.0875839 25:0.71154135 26:0.72746682 27:0.22807869 28:0.64139158 29:0.46048564 30:1.2982292 31:6.9558058 32:7.3502035 33:5.2061148 34:0.66838491 35:1.4779799 36:1.8695582 37:1.4672781 38:3.5691562 39:3.0590992 40:1.1947123 41:3.7779438 42:1.8653334 43:1.0016515 44:1.3247411 45:0.27078503 46:2.7329092 47:1.8060499 48:0.72610718 49:0.77438945 50:0.17500682 51:1.3326799 52:0.61409158 53:1.7234728 54:1.5005852 55:1.0948679 56:0.092572249 57:0.1969426 58:0.57808173 59:0.62241924 60:7.7844601 61:29.118818 62:33.315887 63:10.2726 64:14.838675 65:8.3998175 66:5.1087203 67:8.8573456 68:0.7898261 69:3.7466609 70:1.4200354 71:5.2515688 72:0.58534276 73:1.6859802 74:3.4591854 75:1.5026817 76:1.9245721 77:4.9077611 78:2.7327259 79:2.4704647 80:5.2783232 81:3.5966153 82:0.88833755 83:1.5569333 84:1.0441265 85:1.1918222 86:0.87398779 87:0.48539552 88:0.14839074 89:0.28380302 90:7.7535663 91:21.50667 92:36.852314 93:25.349354 94:14.195792 95:14.988799 96:13.818486 97:12.877022 98:9.2537155 99:10.434777 100:3.4771736 101:2.1564403 102:3.895081 103:6.2359934 104:1.9756806 105:1.8077916 106:2.2229509 107:2.4118781 108:0.62410933 109:3.5287657 110:0.72720015 111:0.85588646 112:0.30489597 113:1.2265565 114:1.3784136 115:0.62517941 116:0.50820166 117:0.089604884 118:0.20898624 119:0.75028878 
0.9270590836094725 0:1.8922688 1:3.3206012 2:6.9356332 3:6.8056469 4:3.6849463 5:2.483742 6:1.0584221 7:3.0606096 8:0.56824398 9:3.4868312 10:1.1572298 11:2.729491 12:4.0750542 13:1.0791465 14:1.0482382 15:0.84047621 16:3.8266711 17:3.0286224 18:2.400269 19:3.0849223 20:0.25916189 21:1.05288 22:1.8764832 23:0.35715473 24:0.86012709 25:0.51325411 26:0.71598816 27:0.24897197 28:0.1421562 29:0.69655335 30:0.43938655 31:2.1204767 32:5.4377155 33:4.0709004 34:3.6424832 35:2.8619819 36:3.1620572 37:2.3484054 38:3.5526876 39:0.75672662 40:1.5848148 41:2.0941007 42:2.4264948 43:2.7897873 44:2.2825754 45:1.5060587 46:1.5913655 47:1.3172638 48:0.84892493 49:1.2985842 50:2.3989227 51:0.30009827 52:1.451288 53:0.96413141 54:1.0032721 55:0.63994825 56:0.44006759 57:0.31933945 58:0.50692236 59:0.22854252 60:9.7944384 61:4.1568584 62:5.5351291 63:6.5887885 64:5.5908957 65:2.9921823 66:8.1418562 67:1.8058032 68:3.0036802 69:3.4618187 70:5.1080027 71:0.62281621 72:3.0931649 73:0.88282919 74:2.5812504 75:3.8583112 76:1.5041629 77:1.6729385 78:1.718398 79:2.1212468 80:1.5701746 81:2.7733994 82:1.2720349 83:1.9142127 84:1.5351243 85:0.71656007 86:0.71321785 87:0.7770102 88:0.53184807 89:0.056259047 90:1.7241726 91:2.4010823 92:5.4097447 93:2.8278124 94:5.7814155 95:4.058176 96:3.4960692 97:2.9181399 98:5.6411219 99:2.555156 100:1.4657989 101:4.425333 102:1.1406952 103:1.2866189 104:1.6590916 105:0.54699057 106:1.3845587 107:1.5101355 108:1.6275562 109:3.9193659 110:1.3058316 111:1.4584415 112:0.67131728 113:1.7947371 114:0.78142768 115:0.52391607 116:0.74266613 117:0.73409033 118:0.38643479 119:0.37488893 
0.8936638723230086 0:0.48624396 1:2.8308399 2:5.8234878 3:4.7901344 4:4.9513445 5:1.5718547 6:2.2164719 7:2.4025369 8:1.8282074 9:2.0737133 10:1.3244004 11:1.5063967 12:3.0131299 13:1.6371398 14:0.52930385 15:1.5160539 16:3.8702116 17:1.938495 18:0.31874898 19:2.5456519 20:1.2161055 21:1.159176 22:1.5017667 23:1.1452191 24:1.0498357 25:0.83769345 26:0.63072312 27:0.70650941 28:0.13832574 29:0.74197191 30:0.86857796 31:1.5584831 32:5.1868567 33:4.5887146 34:3.7387245 35:2.302979 36:2.9149625 37:3.5292861 38:2.7442391 39:1.9424797 40:0.67033577 41:1.7912915 42:3.2949617 43:3.7188499 44:1.4834358 45:2.6149247 46:2.4431469 47:1.4042451 48:1.1288816 49:2.2695801 50:0.70310831 51:1.5018413 52:0.11252257 53:0.23063229 54:0.87784207 55:1.018647 56:0.77752197 57:0.64235723 58:0.094382323 59:0.50187439 60:2.4717519 61:4.4817061 62:5.0104666 63:8.4427662 64:3.3639362 65:5.826828 66:6.6515436 67:2.6383517 68:1.8911239 69:0.81395531 70:1.1275127 71:5.0560107 72:1.2604688 73:0.57929546 74:5.2349987 75:0.71969432 76:3.2406473 77:1.030183 78:2.6108003 79:2.815577 80:2.619767 81:0.48701635 82:1.0375402 83:0.36734486 84:1.7661732 85:1.2473881 86:1.4613701 87:0.74530435 88:0.27779311 89:0.27149114 90:0.73207003 91:4.6509547 92:4.6504149 93:1.4963266 94:3.0711298 95:2.882009 96:2.7470012 97:2.5625041 98:2.9640181 99:4.0925479 100:2.7159655 101:2.4580019 102:2.3726051 103:1.4437647 104:0.45135057 105:1.6546317 106:1.6693383 107:0.61668777 108:2.3264563 109:3.0396183 110:0.66530871 111:1.1121931 112:0.90174949 113:1.6917181 114:0.70272106 115:0.1223243 116:0.50440723 117:0.292687 118:0.13271172 119:0.086239591 
0.2326168116489469 0:3.0623083 1:1.5837686 2:5.3327436 3:7.1076455 4:7.11061 5:2.8829958 6:3.1526294 7:3.1582999 8:4.2143087 9:4.3656263 10:0.48083517 11:2.480895 12:2.3125858 13:1.1054852 14:1.6523724 15:2.9213576 16:2.265655 17:0.97410035 18:0.80691558 19:1.0782782 20:0.90270144 21:1.400979 22:0.33530217 23:0.60551977 24:0.73415625 25:0.4232378 26:0.071566746 27:0.46851858 28:0.51608598 29:0.42840981 30:1.6834483 31:3.6127059 32:6.6569738 33:5.1198754 34:5.7879186 35:1.9075476 36:1.1511451 37:2.3259447 38:1.7812865 39:1.346892 40:1.4862636 41:1.4156584 42:3.0134203 43:2.4673858 44:1.5930471 45:1.8863357 46:3.4153388 47:1.2630596 48:2.6609833 49:1.3660808 50:1.1756481 51:1.2792697 52:0.33311892 53:0.49140587 54:0.81167853 55:0.78564614 56:0.65102243 57:0.33892131 58:0.042364132 59:0.19557329 60:3.5700364 61:2.2738357 62:2.3890619 63:8.337472 64:4.5746279 65:2.2503552 66:8.4676838 67:3.1934631 68:3.3185632 69:2.1227572 70:2.9174364 71:6.4891148 72:0.65912831 73:2.2276378 74:2.4211619 75:4.1220365 76:6.1486974 77:0.68993592 78:2.5160854 79:2.372633 80:2.4970858 81:1.1432195 82:0.29989046 83:1.5747992 84:0.081618696 85:0.70535928 86:0.7515828 87:0.79606515 88:0.81828737 89:0.83730519 90:3.6472099 91:2.933075 92:8.7925282 93:5.1307898 94:5.2547979 95:2.5403118 96:2.9387207 97:3.5948117 98:3.5399849 99:4.113595 100:1.011892 101:1.6161991 102:1.5172224 103:2.5376637 104:2.8437231 105:3.5960598 106:0.94358671 107:0.30619854 108:0.40598586 109:1.0572869 110:2.0984225 111:0.7646144 112:1.1168072 113:0.22163676 114:0.39455435 115:0.56902152 116:0.53496766 117:0.28141531 118:0.21804877 119:0.096431129 
1.131908294625497 0:3.1694024 1:8.4536343 2:16.913368 3:14.79609 4:1.9131113 5:1.8164537 6:1.7829198 7:0.95986789 8:3.5894823 9:6.4521422 10:2.3956039 11:1.7098488 12:1.8188189 13:1.8946118 14:1.1661184 15:4.2380762 16:1.9700912 17:0.41890365 18:1.4202845 19:0.88015193 20:1.0097531 21:0.50702053 22:0.70476294 23:0.24123736 24:0.59828305 25:0.43105927 26:0.48949501 27:0.21537654 28:0.64812398 29:0.30958986 30:1.240766 31:2.6403208 32:4.3139277 33:1.9998659 34:4.4017 35:2.8130734 36:2.2944634 37:2.3198574 38:1.5159324 39:3.5149546 40:0.7114827 41:3.9860108 42:2.6380064 43:2.1183856 44:1.1396238 45:2.742219 46:0.52574259 47:2.7423437 48:2.3988755 49:2.3921068 50:2.0934386 51:0.31632635 52:0.95101041 53:0.29714215 54:0.65697634 55:0.4889622 56:0.71150792 57:0.48253775 58:0.26377052 59:0.25873205 60:1.0550066 61:5.7319412 62:8.5012741 63:7.0151119 64:10.79166 65:3.9979186 66:3.5398924 67:1.722425 68:1.8615757 69:1.7258238 70:4.9476237 71:3.53793 72:3.6454079 73:1.021816 74:2.847255 75:1.3869735 76:5.4016242 77:3.470185 78:0.47007146 79:2.8496385 80:1.582391 81:0.59506387 82:0.9705258 83:0.70588487 84:0.12072323 85:0.76666182 86:0.57171994 87:0.45910606 88:0.60099304 89:0.52962834 90:3.8534336 91:8.4796848 92:22.446898 93:14.519495 94:3.1540112 95:1.70095 96:2.7740066 97:2.8820078 98:4.8546281 99:1.7080501 100:2.7260952 101:2.4940341 102:2.5563791 103:4.4415641 104:2.1011765 105:4.2774787 106:1.1330246 107:0.66089553 108:0.87276888 109:0.44884443 110:0.80362743 111:1.1212527 112:0.28624803 113:0.20103428 114:0.16577174 115:0.97629011 116:0.31414938 117:0.15079825 118:0.25586995 119:0.15544905 
2.783682298093755 0:0.61164498 1:0.56397039 2:2.6761329 3:1.4417067 4:1.3409028 5:0.21279997 6:0.57318479 7:1.9339968 8:3.7628469 9:1.9107748 10:1.6631905 11:0.73186421 12:2.1276698 13:1.7439027 14:0.4118143 15:0.29324949 16:1.2426288 17:1.2971159 18:0.33665329 19:1.5548503 20:0.61088634 21:1.1425514 22:0.53845853 23:0.73122323 24:0.75102985 25:0.59814918 26:0.39838254 27:0.28600168 28:0.39775068 29:0.30114743 30:1.2085582 31:1.390404 32:1.5220649 33:1.5204005 34:1.1399765 35:2.3386889 36:1.3477768 37:0.71480763 38:1.1551807 39:1.2591898 40:1.4999192 41:3.1914086 42:2.7034948 43:0.95389932 44:1.5388185 45:1.2179499 46:1.3964827 47:2.5002835 48:1.3965199 49:0.35842061 50:0.043762244 51:1.427093 52:0.48681903 53:0.4298569 54:0.72502595 55:0.68086505 56:0.48272443 57:0.16712579 58:0.11201642 59:0.37831634 60:1.430951 61:3.0591567 62:1.8978878 63:1.5942757 64:2.973809 65:2.0854537 66:1.1952173 67:2.5776446 68:1.9905882 69:1.8504788 70:1.4885596 71:2.3016481 72:1.6841885 73:2.8926854 74:0.76382565 75:2.0728347 76:1.0358442 77:1.5000441 78:0.20719829 79:0.80762696 80:1.081441 81:0.94488913 82:0.66270059 83:0.38546747 84:0.63860554 85:0.77113402 86:0.66981572 87:0.60367399 88:0.020748731 89:0.2142733 90:0.31349093 91:3.9851713 92:8.3613262 93:1.9951863 94:3.364598 95:0.84584123 96:1.8711517 97:2.9243245 98:1.184992 99:5.459084 100:2.0848567 101:2.3373561 102:2.0537724 103:1.8460654 104:1.1731253 105:1.0495507 106:0.39336264 107:1.9885273 108:0.95680118 109:0.17099893 110:1.2529348 111:0.42787126 112:0.81080467 113:0.93982798 114:0.47360852 115:0.42186147 116:0.31272149 117:0.096210867 118:0.22896093 119:0.38312441 
0.364532813808387 0:1.2122431 1:3.7707877 2:5.8798265 3:8.2100134 4:7.3605633 5:2.123641 6:0.71494818 7:1.7378227 8:2.2065163 9:0.81476784 10:2.3068666 11:3.0467615 12:1.8981512 13:1.0935467 14:0.5469985 15:1.554617 16:1.2636142 17:0.80241501 18:0.70582157 19:0.97155535 20:2.5223207 21:0.44076952 22:1.5351822 23:0.42638776 24:1.0630693 25:0.68391919 26:0.6081171 27:0.32296443 28:0.21221444 29:0.053455353 30:2.5653281 31:8.5943651 32:5.6835885 33:4.1322541 34:4.6744905 35:0.72485322 36:2.1560743 37:2.5785913 38:1.3527983 39:0.087659396 40:1.6634837 41:0.89237499 42:1.3040695 43:0.87233388 44:0.98941368 45:0.89896882 46:1.7801354 47:2.0832219 48:1.6985269 49:0.47691417 50:0.50051039 51:0.54883647 52:0.42941216 53:0.2689873 54:0.392131 55:0.51449257 56:0.2001649 57:0.20127372 58:0.14217336 59:0.072941266 60:0.43204913 61:5.1919227 62:2.4202538 63:2.6431656 64:1.1265038 65:2.769964 66:1.0098774 67:3.2310584 68:1.3657392 69:0.5623191 70:0.7434752 71:1.4781682 72:0.30883253 73:1.5594312 74:2.1292303 75:1.7014369 76:0.36556536 77:1.2364969 78:0.52470356 79:0.62334239 80:1.1184125 81:0.4096064 82:0.65355468 83:0.67869151 84:0.80007368 85:0.33483744 86:0.22553718 87:0.39462921 88:0.2454754 89:0.10009156 90:0.94786608 91:5.377871 92:10.013844 93:11.375883 94:5.5634265 95:1.9324758 96:1.9034027 97:1.5028229 98:1.7632673 99:0.40915471 100:2.3566678 101:1.0951146 102:1.5669146 103:0.84156597 104:2.9557624 105:1.8595856 106:1.5076175 107:2.7057364 108:0.55243719 109:1.8331403 110:1.3134961 111:0.3231031 112:1.0094604 113:0.70294148 114:0.64183694 115:0.45012292 116:0.23233321 117:0.53382242 118:0.32754257 119:0.24271591 
0.5700585473473636 0:2.2338097 1:1.3639793 2:4.542376 3:5.2318902 4:5.1974864 5:3.6818693 6:0.81474084 7:1.2611555 8:3.9485431 9:0.36642626 10:2.8190219 11:2.0823393 12:2.5725136 13:0.82770437 14:1.7909837 15:2.6045585 16:0.36204904 17:1.2702452 18:0.82401037 19:2.6272657 20:1.3006996 21:0.40320095 22:1.0913872 23:1.5000196 24:1.5223253 25:0.88765317 26:0.12202901 27:0.6951341 28:0.49162009 29:0.38196951 30:0.87002963 31:9.9911623 32:5.7213712 33:3.0347142 34:2.8001485 35:2.7747979 36:2.0307271 37:2.5513244 38:1.2214341 39:0.3825095 40:0.83237875 41:1.0740508 42:1.2619987 43:0.97016597 44:3.2153726 45:1.2993647 46:1.4498913 47:1.6589592 48:0.53617281 49:1.1860056 50:0.385912 51:0.64581078 52:0.65667444 53:0.36591357 54:0.41015846 55:0.41358995 56:0.27431366 57:0.35690874 58:0.30688143 59:0.11762802 60:1.8930124 61:2.738677 62:2.4617038 63:2.9528182 64:3.5978618 65:3.113234 66:2.2207661 67:2.8664751 68:2.4123247 69:0.36963913 70:1.5246853 71:1.134773 72:1.7348151 73:1.5833914 74:2.322825 75:1.8303452 76:0.50965214 77:1.1191612 78:1.1019017 79:1.1388565 80:0.24018349 81:0.79994279 82:0.36157095 83:0.38712481 84:0.41508579 85:0.50983822 86:0.37367898 87:0.32556269 88:0.24896425 89:0.33872059 90:0.8775 91:4.4080958 92:10.782169 93:8.9607735 94:6.8728766 95:3.309211 96:0.30408293 97:1.2125062 98:1.8888397 99:1.0557768 100:0.64381528 101:2.3690388 102:2.7589161 103:1.6167569 104:1.3353852 105:1.383626 106:0.52602458 107:1.8756275 108:0.81002653 109:3.0919638 110:1.3745532 111:0.36580554 112:0.25436479 113:0.99316245 114:0.72533089 115:0.86476952 116:0.66867203 117:0.78046614 118:0.41730946 119:0.46253031 
1.676611090347237 0:2.0452619 1:0.88857949 2:5.4902024 3:4.2291527 4:3.1565506 5:2.8185456 6:1.048327 7:0.7252385 8:3.7115231 9:3.2696166 10:5.5899177 11:3.2628632 12:2.8007936 13:0.89370364 14:4.6987872 15:1.5351312 16:1.8488295 17:0.56815028 18:1.4564897 19:2.3279164 20:1.2990172 21:0.44386622 22:0.33774388 23:0.37021473 24:1.2382301 25:1.0048469 26:0.68909734 27:0.7451511 28:0.49383819 29:0.083835855 30:2.9801469 31:5.7231979 32:0.81649995 33:2.58868 34:1.1224138 35:0.80316859 36:1.9191971 37:1.7083222 38:0.92014205 39:1.2975744 40:2.0131352 41:1.0249342 42:1.4760303 43:1.1225574 44:3.8860557 45:0.67554396 46:1.1232734 47:2.2472 48:1.2492554 49:0.5265823 50:0.40675837 51:0.12749298 52:1.3993876 53:0.24557061 54:0.4518041 55:0.67238081 56:0.6091243 57:0.5273155 58:0.38368154 59:0.10988621 60:0.14230767 61:0.75815159 62:2.8486435 63:2.6952715 64:1.1690533 65:2.5723839 66:4.0981369 67:1.235096 68:0.99168003 69:1.1195028 70:2.2950182 71:1.5681461 72:2.0858331 73:0.37020779 74:1.520417 75:1.3497007 76:0.72300893 77:1.2860501 78:1.8468524 79:0.54309541 80:0.24420403 81:0.67637348 82:0.31389192 83:0.11454351 84:0.46081382 85:0.70822757 86:0.2872892 87:0.2825962 88:0.12265633 89:0.28836846 90:2.5882006 91:2.0417147 92:3.9215512 93:2.2810142 94:2.8079653 95:5.1038918 96:4.056129 97:2.5358627 98:3.3520331 99:4.8148365 100:2.7591825 101:2.0205147 102:3.462528 103:1.8923244 104:3.3100884 105:1.4554285 106:1.3629837 107:1.3063704 108:2.5773313 109:2.2734549 110:1.6635792 111:0.2481734 112:0.40636453 113:0.61108118 114:0.49122009 115:0.92139101 116:0.75484037 117:0.41865218 118:0.56268513 119:0.56610954 
2.646982693125874 0:1.4216951 1:3.3600576 2:4.6273403 3:0.93379003 4:2.9827316 5:0.32671142 6:3.8437333 7:2.6114323 8:5.0484567 9:1.0516711 10:1.8493943 11:2.5147841 12:0.4216038 13:2.6418102 14:2.5434248 15:2.1674542 16:3.0463867 17:2.6539409 18:1.5896682 19:0.80541521 20:1.8865036 21:0.38412166 22:0.75585413 23:0.69465601 24:0.86078364 25:0.61140764 26:0.0096795242 27:0.53593504 28:0.33045584 29:0.21820934 30:0.94525403 31:2.6368835 32:1.2469212 33:1.9077791 34:1.7446541 35:1.4247736 36:3.7151902 37:1.6369832 38:2.8337533 39:3.8392296 40:0.62613159 41:0.31077626 42:0.436028 43:1.3227609 44:1.2997092 45:1.7131883 46:1.8188394 47:1.1811007 48:0.38603729 49:0.31067428 50:1.053552 51:0.29147092 52:0.51964003 53:0.68768835 54:0.61538577 55:0.59961277 56:0.37275061 57:0.13489872 58:0.35901713 59:0.36706284 60:0.50075865 61:3.9417343 62:2.7634311 63:1.2752897 64:3.4792838 65:2.0123916 66:2.5809991 67:2.4438214 68:1.8260381 69:1.5633605 70:0.76013798 71:1.0790898 72:1.6644741 73:0.87504405 74:0.75983799 75:1.172308 76:1.2602365 77:0.99566567 78:0.42479143 79:1.2285591 80:0.63279247 81:0.20594379 82:1.1849359 83:0.57447255 84:0.5098325 85:0.24449526 86:0.35901156 87:0.052146424 88:0.33983386 89:0.31641772 90:0.85841954 91:1.9328898 92:5.5190902 93:1.4137257 94:4.06003 95:1.1213598 96:2.1626825 97:1.9879992 98:6.1914377 99:0.86981755 100:1.7512517 101:0.73224282 102:2.1081951 103:2.9674256 104:2.107842 105:1.6554825 106:1.4237643 107:2.4606586 108:0.63007987 109:0.60904455 110:1.4818627 111:1.0583962 112:1.3696927 113:0.7828815 114:1.0473307 115:0.79850817 116:0.58127505 117:0.65512478 118:0.7546258 119:0.5294224 
0.4523660218907937 0:2.7449741 1:2.3282266 2:4.2750607 3:8.3946447 4:1.1079533 5:3.6181583 6:2.7846117 7:1.2154937 8:2.3735237 9:2.0590408 10:3.0515385 11:0.75737876 12:0.64221793 13:0.96267277 14:0.87398791 15:0.71934932 16:1.48738 17:1.5899882 18:1.100287 19:0.83859473 20:0.8860212 21:0.88170731 22:0.67812955 23:0.77982038 24:0.16089228 25:0.39121297 26:0.63163507 27:0.46268639 28:0.55769277 29:0.2526671 30:0.78599739 31:1.9745533 32:0.83089846 33:3.5554683 34:3.8993926 35:0.72236598 36:0.71507466 37:2.1156166 38:3.3047652 39:1.3183848 40:0.84857327 41:0.7931143 42:1.9777565 43:1.567718 44:1.0029517 45:1.9945818 46:0.56237572 47:2.6846085 48:1.242799 49:1.1672785 50:1.5203079 51:1.0583041 52:0.67190593 53:0.71983838 54:0.37390673 55:0.32263672 56:0.061337654 57:0.83542675 58:0.26319072 59:0.32807803 60:0.56582475 61:3.5295742 62:3.3808656 63:2.1198275 64:2.4437063 65:2.1798368 66:2.6049857 67:2.0572698 68:3.0351129 69:1.7632735 70:0.98642147 71:1.1463783 72:1.734147 73:1.9127214 74:1.528896 75:1.9394134 76:1.7359569 77:1.9964391 78:1.225763 79:0.57477278 80:1.9209831 81:1.1303762 82:1.1183358 83:1.1279024 84:0.56742197 85:0.52958351 86:0.60387135 87:0.27445444 88:0.036438067 89:0.14190443 90:3.1532657 91:3.218235 92:5.9894614 93:5.6899562 94:2.6286409 95:4.9591098 96:3.6014121 97:3.8012559 98:2.1700923 99:3.2669806 100:2.301291 101:2.7204702 102:0.82234722 103:3.8232079 104:0.88606578 105:0.3658635 106:2.1770773 107:0.66645646 108:3.0472295 109:0.46020722 110:0.75900549 111:0.98062456 112:1.0072862 113:0.45449767 114:0.47110131 115:0.66521102 116:0.38677618 117:0.10119254 118:0.21390106 119:0.41837856 
2.146435326108492 0:0.62790173 1:2.056231 2:1.2758939 3:5.3713794 4:3.9437149 5:1.176677 6:1.4668962 7:2.3270059 8:2.1353099 9:2.0837266 10:1.2250046 11:1.3504438 12:1.3013005 13:1.1414818 14:1.9146097 15:0.24759346 16:1.3135054 17:1.6952008 18:0.64298546 19:1.3836758 20:1.4066317 21:0.50565588 22:0.49672619 23:0.63175517 24:0.16407089 25:0.74220389 26:0.057643015 27:0.5938248 28:0.36830735 29:0.1507853 30:0.51714826 31:1.9185649 32:1.0772635 33:3.200927 34:3.5040727 35:0.86692619 36:2.0119739 37:2.2448285 38:3.3281217 39:2.1138833 40:2.2365031 41:1.5529602 42:1.8264341 43:1.5760899 44:0.91680324 45:2.030535 46:0.90559214 47:1.2571915 48:1.4499093 49:1.0068457 50:1.9899572 51:0.70143247 52:0.66546059 53:1.0878037 54:0.65919566 55:0.35539716 56:0.11104503 57:0.64948261 58:0.44341496 59:0.22076675 60:0.30416083 61:4.0458784 62:3.1702719 63:2.777555 64:1.2376126 65:1.3830823 66:1.2371086 67:1.4740825 68:0.72315973 69:1.5594816 70:3.0582082 71:2.5631404 72:2.0050333 73:2.7934606 74:0.26923186 75:1.6509951 76:0.62368256 77:0.46426979 78:1.2428191 79:2.5659916 80:1.3915172 81:1.5120084 82:0.72358465 83:0.53705394 84:0.66840857 85:1.0860187 86:0.42082748 87:0.25070095 88:0.24214292 89:0.2043713 90:0.65417403 91:0.75591809 92:3.5032876 93:5.167779 94:1.3858173 95:1.9092373 96:4.0915356 97:1.8615444 98:2.4702506 99:2.460654 100:0.48978111 101:2.9937484 102:0.67049682 103:2.1170025 104:1.7531892 105:0.6064859 106:1.5586222 107:0.38811159 108:1.3745037 109:2.4717355 110:0.85869795 111:0.97393489 112:0.39310077 113:0.45755041 114:0.43357939 115:0.73015809 116:0.50851178 117:0.25254071 118:0.091031581 119:0.10760889 
1.293756986603285 0:0.71678793 1:2.8524885 2:1.8181907 3:5.8032207 4:5.3074565 5:1.4719263 6:1.8136961 7:2.8278799 8:1.8554547 9:1.3697554 10:1.2489856 11:2.0073254 12:3.0691144 13:1.5246925 14:0.73660648 15:1.0577967 16:1.5709289 17:0.90060961 18:1.7261678 19:1.6476722 20:1.2357658 21:0.66659701 22:0.41782713 23:0.34756732 24:0.73367971 25:0.7975468 26:0.36150867 27:0.23290473 28:0.13335969 29:0.36533162 30:0.714728 31:4.1520033 32:2.0130954 33:4.2010012 34:2.9767892 35:2.4677415 36:2.0085182 37:2.3200953 38:2.6900289 39:1.9731048 40:3.3849061 41:0.83647382 42:0.93493283 43:1.314764 44:0.74787158 45:2.1292052 46:0.65609366 47:0.92398232 48:1.9225646 49:0.84208232 50:1.1837173 51:0.35205847 52:1.0401185 53:0.49184436 54:1.1714636 55:0.19933167 56:0.093534403 57:0.48721278 58:0.089495763 59:0.1142245 60:0.80696005 61:4.8502502 62:2.09323 63:1.4179512 64:1.89713 65:2.0723314 66:2.6652567 67:1.0121639 68:1.2254691 69:0.85954875 70:3.9480288 71:3.9063318 72:0.43799636 73:2.3902123 74:1.051513 75:2.1414301 76:0.83788633 77:1.2784985 78:2.033582 79:2.2240455 80:0.64206117 81:0.76652324 82:0.41865373 83:1.0497458 84:0.4957023 85:0.84575927 86:0.51183122 87:0.43903866 88:0.25369555 89:0.35458279 90:1.0164834 91:1.4829465 92:1.5816433 93:5.2065797 94:2.0783143 95:1.2275273 96:3.5369647 97:2.7321482 98:2.0713356 99:1.0836211 100:2.3070996 101:3.525353 102:1.4325739 103:1.5830534 104:1.8292993 105:0.4515869 106:2.0987635 107:0.49404961 108:0.45024616 109:2.3342795 110:0.97251171 111:1.1230079 112:0.74798512 113:0.63376814 114:0.46756065 115:0.63268012 116:0.18276714 117:0.15985557 118:0.09132579 119:0.19443612 
0.2494071476033127 0:0.93303633 1:1.4269041 2:3.3633356 3:5.0635085 4:1.507847 5:3.4069583 6:1.0798644 7:1.2353632 8:0.1152598 9:1.7762069 10:1.7311565 11:2.3809514 12:3.9748492 13:0.81939799 14:1.0980884 15:1.329064 16:1.4682302 17:1.0407971 18:1.9235241 19:1.9252462 20:0.96652544 21:0.32474265 22:0.70695776 23:0.33748356 24:0.63312191 25:0.70546663 26:0.24249095 27:0.48136702 28:0.3967793 29:0.26277512 30:0.78759146 31:2.9991908 32:4.3822517 33:2.3677094 34:0.77938497 35:1.876516 36:2.423665 37:1.7044088 38:1.0211748 39:2.2741256 40:2.5177569 41:1.1943103 42:0.69095397 43:1.395967 44:1.0658845 45:2.4518332 46:0.4960396 47:0.88519853 48:1.5848395 49:0.98889637 50:1.9334315 51:0.59422189 52:0.65219402 53:0.75549418 54:0.51405621 55:0.41654575 56:0.2637479 57:0.44923848 58:0.22221299 59:0.019767746 60:1.5381839 61:5.4095078 62:3.9165123 63:2.0057976 64:1.9558324 65:2.5999632 66:2.1605318 67:1.170236 68:1.0570719 69:1.2973405 70:2.8219926 71:2.3916266 72:1.9449352 73:2.3573737 74:2.4492669 75:0.93525779 76:1.240135 77:1.9246082 78:0.70421058 79:1.2165976 80:1.5959827 81:0.37174669 82:1.3997433 83:0.29645747 84:0.2826947 85:0.72155422 86:0.53667301 87:0.18499757 88:0.083859518 89:0.28066832 90:0.9666999 91:1.797915 92:3.3806872 93:4.8062611 94:3.5333576 95:3.2293961 96:3.6614175 97:2.3170717 98:2.0392966 99:4.0951295 100:1.5861819 101:1.522846 102:3.3357255 103:1.9131675 104:0.67761928 105:1.0435287 106:1.9935857 107:0.64976376 108:1.2185019 109:0.73960084 110:1.4478178 111:1.6911446 112:1.3702435 113:0.43551558 114:0.26993006 115:0.59090203 116:0.69930148 117:0.10508043 118:0.13894208 119:0.046834663 
0.5308932014858029 0:0.92407453 1:1.0252391 2:3.9609525 3:3.6747813 4:1.4951942 5:2.0855517 6:0.96067131 7:3.6899462 8:3.341202 9:2.2278032 10:1.3212154 11:1.6271433 12:3.8292696 13:1.1329384 14:2.668287 15:0.55911547 16:1.2046921 17:0.59933567 18:1.1673434 19:1.1384059 20:0.1075251 21:0.75461024 22:0.89176309 23:0.48450768 24:0.39416999 25:0.34650406 26:0.60738873 27:0.38436961 28:0.40227062 29:0.31894004 30:1.3343126 31:2.1240149 32:3.2903318 33:1.5596095 34:0.95661706 35:1.2099057 36:1.376292 37:1.9238411 38:2.4805715 39:0.50644279 40:1.1473489 41:1.9864501 42:0.69547981 43:0.8151139 44:2.0816183 45:1.8426178 46:0.63071781 47:1.6556163 48:0.36877787 49:1.7548985 50:1.7597089 51:0.2927261 52:0.68949258 53:0.15565369 54:0.52835715 55:0.40596098 56:0.2628459 57:0.51919556 58:0.32623485 59:0.18322031 60:0.59268457 61:3.3152342 62:5.9134254 63:0.74678946 64:3.1519499 65:1.4020804 66:2.7141221 67:1.620127 68:0.98641938 69:1.8238519 70:1.5629016 71:1.6869658 72:0.74241394 73:2.5223508 74:1.5557241 75:2.2834265 76:1.0491879 77:1.2736493 78:0.9095071 79:1.3740137 80:1.7449526 81:1.0518382 82:0.58235127 83:0.78392559 84:0.6935994 85:0.43525243 86:0.54106128 87:0.17152929 88:0.23095626 89:0.22593322 90:0.92835027 91:2.4895978 92:2.6020093 93:5.2752171 94:1.8963881 95:4.1266589 96:3.4115531 97:3.1697724 98:3.9962542 99:3.0443954 100:1.6211536 101:0.9360916 102:2.3442097 103:1.6883339 104:0.84305775 105:0.91735232 106:0.92216915 107:0.74812287 108:0.34055319 109:1.2384703 110:1.4449416 111:1.4457531 112:1.2500718 113:0.48803845 114:0.71494144 115:1.192531 116:0.3035523 117:0.18801965 118:0.23983575 119:0.27296525 
2.563241641153318 0:1.0618922 1:3.8899703 2:2.4282639 3:4.6062312 4:3.9278684 5:5.3450847 6:2.3988814 7:3.4848986 8:4.443449 9:0.97351295 10:1.1477087 11:2.1083646 12:0.52722377 13:1.2908635 14:1.5165893 15:2.505481 16:1.5785666 17:0.50971633 18:0.83585137 19:1.4165071 20:0.91069311 21:1.3138282 22:0.82076859 23:0.26563224 24:0.80669534 25:0.51109159 26:0.41845471 27:0.48989585 28:0.3825683 29:0.31850284 30:0.64488178 31:1.8772861 32:1.8571 33:0.65193611 34:0.85229099 35:2.8724055 36:1.7068011 37:2.4729545 38:1.1454716 39:2.9300973 40:0.85695732 41:2.0285549 42:0.89794868 43:2.9213281 44:1.6323467 45:3.2627163 46:2.2122917 47:0.86239302 48:1.5938376 49:0.84156734 50:1.5459571 51:0.66030687 52:0.87512118 53:0.51953441 54:0.53809506 55:0.73395342 56:0.16377971 57:0.19205891 58:0.91572487 59:0.59793156 60:0.82032806 61:2.4133432 62:3.4401779 63:2.0072961 64:1.8443331 65:0.4432117 66:3.0002613 67:1.1704758 68:1.6094726 69:0.34095079 70:2.4665301 71:1.8480997 72:1.8382285 73:2.9461372 74:2.9703984 75:1.6417094 76:1.6709361 77:0.60070062 78:0.44817144 79:2.6222963 80:0.93797356 81:0.83605778 82:0.28765896 83:0.48203248 84:0.9022035 85:0.7161572 86:0.5038625 87:0.20150256 88:0.51149386 89:0.084504187 90:1.5188489 91:3.9337637 92:5.7349815 93:2.2537689 94:5.9563527 95:4.8986053 96:1.7940947 97:3.8646567 98:3.6690655 99:2.901052 100:2.8455911 101:2.1759763 102:1.9048545 103:2.6028135 104:1.3112211 105:0.92214507 106:1.2386796 107:1.363472 108:0.98792511 109:1.1314132 110:2.292887 111:2.7423937 112:0.98648584 113:0.92588669 114:0.54944432 115:0.70356417 116:0.21244772 117:0.53433794 118:0.44018447 119:0.14824383 
1.135392400476782 0:10.614719 1:24.111217 2:32.779129 3:27.980515 4:30.391445 5:19.983622 6:10.798443 7:13.665513 8:4.2238226 9:5.6904902 10:5.4448204 11:1.4488494 12:2.126828 13:2.5848823 14:0.42164797 15:1.6782111 16:2.0357928 17:0.42790458 18:1.9849308 19:0.51618373 20:0.62771261 21:0.81557763 22:0.83817124 23:0.30923796 24:0.36022633 25:0.27333352 26:0.50657457 27:0.32390252 28:0.42480209 29:0.36009467 30:1.7019848 31:4.7891555 32:8.1717367 33:6.5656066 34:2.9205623 35:2.7395451 36:1.5529824 37:0.94683856 38:2.8469589 39:2.3055625 40:1.7051868 41:1.4658644 42:2.1053076 43:3.7234244 44:1.6531279 45:3.7128384 46:3.2120502 47:1.6364164 48:0.77419925 49:2.2814674 50:1.4615766 51:1.631736 52:1.8608961 53:1.6120645 54:1.473024 55:0.35855007 56:0.57562995 57:0.75492281 58:0.68705088 59:0.53887665 60:2.5836995 61:6.9370365 62:7.9480233 63:10.107327 64:6.3185391 65:1.9200559 66:4.0987024 67:3.8046844 68:3.5301192 69:0.061636988 70:2.3148966 71:2.2895658 72:3.2921975 73:1.207756 74:1.8533667 75:1.5202738 76:1.6521809 77:2.1619577 78:1.2929709 79:0.40545264 80:1.3116257 81:1.0441591 82:0.7632696 83:1.1723219 84:0.658144 85:0.56780362 86:0.77055568 87:0.59525263 88:0.089462265 89:0.16221566 90:11.495213 91:24.34597 92:30.981663 93:29.110012 94:27.640852 95:16.664684 96:14.38118 97:15.438484 98:5.9223557 99:3.5178816 100:5.8273616 101:0.77848828 102:2.4375381 103:2.1157279 104:0.96184397 105:0.47689793 106:3.15114 107:2.6816988 108:1.2925506 109:0.72923201 110:2.0615361 111:1.8782916 112:1.8556397 113:0.73902696 114:0.12652788 115:0.59034103 116:0.34002495 117:1.1027794 118:0.31016156 119:0.064786814 
1.139495106973637 0:6.6098814 1:27.948933 2:26.171761 3:25.49814 4:18.319025 5:16.63192 6:13.454596 7:9.7437754 8:7.3647599 9:5.8634768 10:2.7350614 11:0.88469231 12:0.20159897 13:2.9558952 14:3.3619037 15:2.3815637 16:3.7081087 17:3.9068675 18:3.2681015 19:1.9687147 20:2.8143544 21:2.9977307 22:1.9203624 23:0.73524344 24:0.71294028 25:0.91858447 26:0.84924996 27:0.86665797 28:0.53373158 29:0.89998668 30:2.3318391 31:6.9728975 32:5.6490483 33:6.7278943 34:4.405406 35:4.6459074 36:3.7287793 37:2.4347181 38:1.3073647 39:2.0088968 40:3.6360795 41:2.0097597 42:0.22999775 43:1.401089 44:1.6436607 45:2.1304367 46:1.4170721 47:1.0374781 48:2.3125045 49:2.1805956 50:0.34312347 51:1.4859513 52:0.65500575 53:0.86308485 54:0.1080046 55:0.96063632 56:0.86951053 57:0.29394934 58:0.41205683 59:0.30843648 60:2.317476 61:5.377758 62:8.4881907 63:4.8602042 64:5.9210944 65:5.2931256 66:4.3982449 67:2.7897308 68:3.5217016 69:3.3888097 70:2.4816883 71:1.8184806 72:1.2564536 73:1.6357231 74:1.9983561 75:1.3211957 76:4.0077744 77:2.0537095 78:3.2630985 79:0.82984793 80:1.124815 81:0.96208006 82:0.44808468 83:1.3697578 84:0.42014372 85:1.0920151 86:0.41565365 87:0.13936187 88:0.3092424 89:0.38545945 90:4.8908572 91:32.640652 92:21.012865 93:28.339649 94:17.392815 95:10.318427 96:10.878867 97:6.5860429 98:7.9828591 99:6.6299462 100:2.1791103 101:3.2101123 102:2.6004307 103:4.0190797 104:2.8635764 105:3.4514744 106:4.0347586 107:1.8029076 108:4.0193982 109:2.5205488 110:3.6337335 111:0.45745564 112:1.4086024 113:1.961434 114:0.61357838 115:0.75639915 116:0.61518908 117:0.54512566 118:0.52898782 119:1.1307851 
-0.8522205619179746 0:5.862586 1:15.233875 2:41.963642 3:19.791365 4:12.078138 5:19.898745 6:5.1664381 7:12.178413 8:4.4214149 9:2.7798505 10:7.5787554 11:4.0327106 12:1.0271744 13:4.6224298 14:2.4900177 15:0.92103547 16:2.2483006 17:3.7448673 18:0.85609961 19:1.0312561 20:1.6242113 21:1.0204483 22:1.327662 23:1.6551089 24:0.81158984 25:1.3573327 26:1.0256643 27:1.4217292 28:0.59223002 29:0.64804518 30:6.2215796 31:17.395603 32:24.973875 33:22.459097 34:20.879213 35:10.522367 36:3.6342673 37:1.9489404 38:5.9722767 39:7.8604345 40:0.12402683 41:3.5865777 42:4.8318596 43:2.0649579 44:3.8039279 45:1.1690662 46:3.6320739 47:2.0722599 48:2.4060628 49:1.3527567 50:1.6251154 51:2.5645368 52:0.40390939 53:1.6621593 54:2.065424 55:1.7261503 56:0.34281042 57:1.5622685 58:0.94280463 59:0.5250901 60:39.673126 61:39.7281 62:89.241913 63:79.192657 64:38.617828 65:45.582741 66:39.53429 67:21.166977 68:15.970171 69:27.390341 70:24.917107 71:9.1619158 72:8.8721838 73:20.863705 74:10.366549 75:8.2267427 76:8.8836899 77:10.311995 78:4.2705522 79:6.2909064 80:6.2545686 81:1.2359506 82:4.2396059 83:4.0149555 84:2.981179 85:2.5259449 86:4.8074207 87:2.1823232 88:3.111284 89:3.4221227 90:4.8325114 91:11.511577 92:35.527573 93:16.973055 94:13.495261 95:16.781105 96:4.4193788 97:8.5618792 98:1.8972028 99:4.2564654 100:6.1501842 101:1.3319614 102:2.1870601 103:2.4631667 104:4.2020197 105:3.7297189 106:4.6432428 107:1.6514509 108:2.5072088 109:4.7566724 110:1.414304 111:1.2432215 112:1.6356683 113:2.4438856 114:1.3672471 115:1.07814 116:0.68731147 117:0.17368561 118:1.3423128 119:0.1038583 
-0.8521925273805936 0:6.6879635 1:19.939577 2:12.11806 3:10.986981 4:7.6475563 5:4.5978804 6:8.984128 7:6.6257253 8:3.4416835 9:4.850215 10:5.3587275 11:3.4177465 12:1.1916898 13:4.3080182 14:1.8435688 15:1.0259078 16:3.361464 17:2.0344961 18:1.6337932 19:1.4641874 20:1.5734618 21:0.6875174 22:1.8840488 23:0.84685701 24:1.4696498 25:1.1820638 26:2.0475478 27:0.81259197 28:0.19959749 29:1.2570144 30:5.4017959 31:27.022402 32:30.966301 33:22.468044 34:16.683414 35:7.787498 36:8.6819391 37:2.9123182 38:4.596559 39:2.0689211 40:6.5547371 41:3.0100129 42:0.69480234 43:3.3612235 44:1.4998246 45:3.6556599 46:2.2770867 47:1.1381662 48:3.7278626 49:2.265934 50:1.6591003 51:0.76470262 52:0.92063534 53:0.70970321 54:0.83414084 55:1.4431359 56:0.85170126 57:0.42313108 58:0.4440555 59:0.047258589 60:52.729118 61:149.66319 62:99.758682 63:79.400154 64:37.68026 65:61.725632 66:36.135281 67:23.769283 68:17.836267 69:28.398478 70:22.634552 71:15.098266 72:11.496817 73:18.136562 74:9.0542946 75:7.4500542 76:13.226366 77:4.8659782 78:11.556978 79:4.3587747 80:3.9197078 81:1.7155857 82:2.9404287 83:3.1938009 84:2.6270168 85:4.7057023 86:1.5709994 87:1.1578622 88:0.50843126 89:0.80246747 90:8.5838537 91:12.721802 92:11.296137 93:9.7092142 94:7.7795572 95:3.1885006 96:7.1982303 97:5.462204 98:6.4661117 99:2.8301225 100:4.8662686 101:2.2204022 102:0.73466063 103:3.2411718 104:2.5567095 105:3.6960194 106:4.8925819 107:0.84958339 108:1.6157393 109:1.5034307 110:2.772526 111:1.3217216 112:3.2082074 113:0.26149973 114:0.94930583 115:0.11239453 116:0.41026101 117:0.37441176 118:0.30212528 119:1.1264707 
-0.8517571631404897 0:8.3276453 1:32.191746 2:38.771858 3:29.009178 4:17.982729 5:9.3023405 6:4.2072058 7:0.9971664 8:3.7003653 9:3.1616876 10:0.83858937 11:3.8244219 12:4.1822314 13:3.4921718 14:3.952914 15:1.6031673 16:1.1784689 17:3.3424895 18:3.1577725 19:0.7718662 20:1.1065408 21:1.0983053 22:0.95250028 23:0.27578366 24:0.16603622 25:0.72111517 26:0.58867037 27:0.11143209 28:0.7595579 29:0.59347969 30:7.7748914 31:10.742493 32:1.5906044 33:7.3280225 34:7.7129517 35:4.1304111 36:6.6874542 37:1.7601533 38:0.57704699 39:4.6203279 40:0.76921976 41:3.1517704 42:4.1504207 43:0.42442787 44:2.3361552 45:1.2145613 46:1.9959966 47:0.56155908 48:0.74741381 49:1.6178974 50:0.16152494 51:1.2289056 52:2.507323 53:0.33440483 54:0.85473615 55:0.26049787 56:0.36497501 57:0.78180611 58:0.37922159 59:0.5328446 60:52.64888 61:95.930954 62:55.326324 63:26.524092 64:23.948406 65:19.18486 66:18.558578 67:13.452609 68:9.6656103 69:6.1239977 70:11.164641 71:3.3032284 72:1.6888388 73:2.7095087 74:1.2998041 75:4.4805307 76:4.6829767 77:3.9324315 78:4.2152109 79:6.4993992 80:1.939389 81:1.8919405 82:2.8672459 83:0.93135065 84:0.53270638 85:0.59282976 86:0.40979344 87:1.4258391 88:1.2939367 89:1.6352792 90:8.2450314 91:28.042101 92:26.080034 93:28.950283 94:10.907651 95:8.766571 96:4.8163896 97:3.1462185 98:3.7315378 99:5.2056975 100:1.8891045 101:3.5309746 102:2.5327473 103:2.7431161 104:0.44214645 105:0.25502607 106:3.2146993 107:2.5907083 108:2.400964 109:3.0900202 110:1.3067635 111:0.72969598 112:0.30398732 113:0.74126536 114:1.2112325 115:1.053642 116:0.25280014 117:0.74668604 118:0.81817353 119:0.55007029 
-0.8542514962627477 0:5.4810295 1:22.553522 2:41.413773 3:35.79903 4:17.360685 5:6.7450099 6:11.200706 7:10.244335 8:5.7283974 9:9.6968851 10:7.3291187 11:5.2236738 12:3.1030738 13:1.7750667 14:3.2479169 15:1.4804277 16:0.99016666 17:5.3248777 18:4.5975084 19:2.71767 20:2.8608162 21:4.5403862 22:2.7464392 23:1.4311781 24:0.84186596 25:1.2742095 26:0.57601589 27:0.92953324 28:1.1106601 29:0.92428637 30:1.0080572 31:1.8911716 32:5.8974876 33:6.1449184 34:8.5323896 35:3.8949671 36:6.0550847 37:5.9768553 38:2.5325971 39:5.61025 40:1.636439 41:2.4961958 42:0.89131176 43:2.8821907 44:2.3008492 45:2.5231483 46:3.5052905 47:0.19456819 48:0.84769291 49:2.6538465 50:1.2150834 51:0.74545926 52:1.5583239 53:1.317793 54:1.3850925 55:0.15217344 56:0.97162306 57:1.1722013 58:0.79532474 59:0.88323659 60:12.340256 61:14.837675 62:34.339054 63:15.799272 64:11.35934 65:14.819844 66:1.9157448 67:6.5277729 68:2.6956046 69:5.512063 70:6.886035 71:0.47977167 72:3.1743057 73:4.4176598 74:3.3917592 75:1.3321054 76:1.4077413 77:3.3928967 78:2.7513447 79:1.8508949 80:1.5455521 81:2.3417461 82:2.309669 83:0.72347522 84:0.55414075 85:1.0875112 86:1.0011005 87:0.98540801 88:0.81724465 89:1.4839314 90:3.6357913 91:28.356371 92:29.480364 93:30.661062 94:16.38559 95:3.8128557 96:7.8738627 97:7.6742673 98:6.6617017 99:9.3254681 100:8.6153507 101:1.7977916 102:4.2075276 103:3.3067272 104:2.0591457 105:2.327883 106:2.2607105 107:4.6887999 108:4.639317 109:4.4352102 110:3.4138052 111:1.4065493 112:0.77364105 113:1.9634395 114:1.0460596 115:0.94216961 116:0.81901354 117:0.55783087 118:0.98382765 119:1.0019026 
-0.8526630038865155 0:7.0856557 1:9.7972145 2:22.760677 3:20.759048 4:15.677052 5:16.221424 6:2.4480691 7:13.511606 8:6.1901002 9:4.1161952 10:3.2491043 11:5.3330197 12:2.4911783 13:3.4393709 14:3.5315175 15:3.4187057 16:3.0238466 17:6.0831561 18:4.8288717 19:1.9231668 20:2.560581 21:4.2246938 22:3.9862752 23:0.75150144 24:1.428671 25:0.96972829 26:0.99782372 27:1.6449 28:1.5029619 29:1.5757648 30:4.3794551 31:6.7334943 32:8.0671864 33:5.5212283 34:8.2846823 35:3.2758031 36:5.6617618 37:2.1542575 38:3.2838008 39:5.1308079 40:2.116626 41:2.5840783 42:1.0156174 43:2.7402437 44:1.7666197 45:1.4353328 46:2.6591072 47:3.0460396 48:3.0531139 49:2.7384045 50:2.4593475 51:1.2591218 52:0.63119698 53:1.003415 54:0.59491807 55:1.2627153 56:0.12682997 57:0.76977146 58:0.67945659 59:0.1591503 60:8.1578302 61:16.044281 62:7.5298619 63:3.4530101 64:10.369323 65:5.770494 66:7.867106 67:5.503911 68:6.890595 69:7.8304477 70:5.3290849 71:6.894804 72:3.5606375 73:1.3243653 74:4.1376767 75:2.7178054 76:1.4224728 77:3.2205467 78:2.5997348 79:0.47596189 80:2.6120739 81:1.4759508 82:2.8480988 83:0.77993596 84:1.1414635 85:1.0355535 86:1.342944 87:1.1501718 88:1.3471948 89:0.61043704 90:11.022363 91:18.789507 92:18.960274 93:17.113487 94:9.3423452 95:19.033476 96:4.974195 97:7.3111959 98:5.4219446 99:4.9079623 100:3.7714608 101:3.1202066 102:2.1700649 103:3.2134624 104:2.4622846 105:2.3688388 106:3.8109553 107:2.9064195 108:2.139672 109:2.0335286 110:2.5717485 111:2.4960573 112:1.3376063 113:1.7351288 114:1.66563 115:0.55832911 116:1.1102784 117:0.3573035 118:0.82242024 119:1.0828731 
-0.8659617551166616 0:7.7328706 1:9.5258446 2:16.868277 3:19.183241 4:13.948982 5:18.383423 6:4.9021025 7:11.843148 8:4.8648334 9:7.9015613 10:6.9230289 11:4.0830059 12:1.3361402 13:3.4103546 14:3.1017377 15:1.97021 16:3.6078227 17:2.2599461 18:1.9706596 19:1.272954 20:0.99109644 21:0.9004367 22:1.6782036 23:1.0646195 24:1.0365152 25:0.84896529 26:1.2878448 27:0.65676606 28:0.87412626 29:0.62194824 30:3.0642178 31:9.8372154 32:4.4164486 33:8.149127 34:10.415259 35:4.3188248 36:3.696116 37:1.1483943 38:4.6239204 39:4.6001344 40:2.6721697 41:4.265295 42:3.4796147 43:2.5900578 44:2.8377683 45:2.9875035 46:4.1296353 47:1.7941484 48:0.62706846 49:1.45575 50:1.4129945 51:1.4253795 52:1.4389951 53:0.45067894 54:0.4716928 55:0.52258283 56:0.39996654 57:0.13248315 58:0.31633401 59:0.16390537 60:10.557708 61:6.9285426 62:3.9269669 63:8.3558292 64:6.4900513 65:7.6005726 66:4.5075545 67:8.7114487 68:8.1827469 69:6.3382521 70:2.435529 71:2.4281061 72:4.1339378 73:3.3195846 74:1.7664437 75:1.0876635 76:1.8583215 77:1.0755322 78:1.4490391 79:1.5983483 80:0.59455997 81:0.79608411 82:1.1544427 83:0.98078787 84:0.98374534 85:0.57108802 86:0.49115992 87:0.1645904 88:0.60633534 89:0.6415475 90:6.6459231 91:8.4252024 92:25.087727 93:12.463261 94:13.330737 95:9.0185738 96:7.7849431 97:7.8407602 98:3.8110006 99:5.4745989 100:5.7141976 101:3.8903782 102:1.7426503 103:0.74796593 104:1.4057395 105:2.9594061 106:4.2823882 107:1.6054425 108:1.9627525 109:1.0208192 110:0.11940249 111:1.1015301 112:0.70831037 113:1.5868031 114:1.4758559 115:0.33014438 116:0.65608871 117:0.33688191 118:0.68918192 119:0.79093266 
